0.992530,-0.051439,0.667872,0.852022,-0.463374,-0.241189,0.288912,-0.984911,-0.730548,0.316690,-0.604070,-0.280018,-0.448977,0.150868,0.494027,0.143752,0.712294,-0.884829,0.528854,-0.286899,-0.408862,0.739714,-0.919744,0.345717,-0.310747,0.652752,-0.542084,-0.249696,0.571795,0.878297,-0.377042,0.454850,0.415308,0.967436,0.441775,-0.665647,-0.806633,-0.871355,0.693025,-0.239890,0.808861,0.274431,-0.593798,-0.315046,-0.460018,-0.629311,0.170194,0.403753,0.037756,-0.211400,-0.224704,0.331009,0.357704,0.032917,0.676388,-0.702395,-0.813947,0.374055,0.670054,-0.646632,0.269936,-0.857686,-0.940033,-0.192610,-0.099082,-0.793540,-0.698489,0.820263,-0.786967,0.425663,0.664721,-0.200812,0.736143,-0.443556,0.249793,0.722560,-0.274884,0.641539,0.814067,0.817966,0.941725,0.218332,-0.300646,0.103415,-0.797205,0.320842,-0.784291,-0.607002,0.402388,0.041648,0.658412,-0.350163,-0.567949,-0.621369,-0.032553,-0.932808,0.711886,0.338729,-0.071156,-0.841353,0.474469,0.109653,-0.801091,-0.341636,-0.275012,0.855180,-0.934891,0.364286,-0.737005,-0.933430,-0.317815,-0.354125,-0.885432,0.902416,0.189939,-0.016742,0.798279,-0.648082,0.817604,-0.057809,0.350137,-0.052446,-0.639225,-0.415923,0.823722,0.694478,0.606810,0.335784,0.435749,-0.786637,0.096638,-0.979834,-0.213227,-0.273288,-0.753584,-0.023201,0.779272,0.714871,0.826732,0.519738,-0.836181,-0.570339,0.123296,0.343457,-0.046289,0.276242,-0.800025,0.966086,0.096683,-0.369069,0.634621,-0.773829,-0.458363,0.065336,-0.265576,-0.588380,0.650741,0.528833,0.774183,-0.209337,0.800645,0.942192,-0.494279,-0.373978,0.818909,-0.295892,-0.230952,-0.439222,0.080104,-0.643716,0.586025,-0.221293,0.883379,0.303477,-0.506630,0.043784,-0.479233,-0.237951,-0.721193,-0.165263,0.785754,-0.994804,0.768743,-0.946846,-0.983483,-0.790289,0.741552,-0.952491,-0.930812,0.479778,-0.724779,-0.221846,0.311198,0.566119,0.924518,-0.956062,-0.884905,0.019558,-0.327510,0.777297,0.015680,-0.937833,-0.764132,-0.728141,0.314655,-0.201008,-0.051991,0.619613,-0.344890,-0.823960,0.648915,-0.324441,0.005669,0.854193,-0.558847,0.864532,-0.193919,0.084776,0.586512,-0.317361,-0.537072,-0.430591,0.112762,-0.049397,0.110104,0.918926,0.464887,-0.198675,0.657667,-0.138840,-0.934565,0.301324,-0.166062,0.996619,-0.117475,0.543400,0.443890,-0.113294,0.110939,-0.449630,0.086442,-0.741595,-0.778834,0.275634,-0.619161,-0.384550,-0.637828,-0.432563,-0.929358,-0.600789,-0.042665,0.906052,-0.373460,-0.374009,0.446325,-0.679641,0.100558,-0.958030,-0.557232,0.577415,0.288488,-0.145200,0.927752,0.874684,-0.854068,-0.023493,-0.252050,0.208040,0.943581,0.595394,-0.105088,-0.600477,0.911682,0.624375,-0.770595,0.413051,0.197288,-0.796389,-0.514591,0.472593,0.490727,0.894981,-0.618146,0.595449,0.839537,0.891971,-0.648821,-0.031514,0.307879,0.709204,-0.028549,0.222280,-0.993559,-0.428945,0.996822,-0.837039,-0.434314,0.774928,0.577780,-0.777665,0.802261,-0.352077,-0.281518,-0.650139,0.715877,-0.443359,0.665489,-0.473519,-0.301392,0.782591,-0.877840,0.703058,-0.689421,-0.809452,0.347698,0.863223,-0.012009,0.759055,0.010376,0.519793,0.965086,0.862260,-0.306760,0.087213,-0.057897,-0.269750,-0.344464,0.129598,0.643313,0.868093,-0.802019,-0.803411,0.422546,0.297578,-0.571128,0.798808,0.059396,0.631986,-0.375688,0.952302,-0.102887,-0.619149,-0.115058,0.054513,-0.136183,0.840121,-0.182542,0.688730,0.722884,-0.071689,0.455669,-0.495288,0.229842,-0.232644,-0.316463,-0.075424,-0.127793,0.822255,-0.746625,0.619315,0.546191,0.682482,0.737069,0.880961,-0.627481,-0.894644,0.911200,-0.080069,-0.011402,-0.866447,0.093994,-0.116015,0.139943,-0.552823,-0.405412,0.036736,-0.546849,-0.918508,0.515171,0.003873,-0.907931,0.128770,0.140869,-0.324425,0.360345,0.644269,0.261145,0.555342,-0.417908,0.950676,-0.055444,0.208576,-0.034524,-0.362621,-0.892663,-0.887576,0.236167,-0.364738,0.415260,-0.647729,0.354327,-0.943298,-0.580027,-0.550568,0.531893,0.210307,0.394439,-0.668639,-0.601270,0.237183,0.074852,-0.635083,0.335712,-0.806632,-0.173813,0.646955,0.967742,0.130490,-0.318944,-0.999330,-0.235858,-0.340432,-0.771491,-0.512943,0.557165,-0.502107,-0.425036,-0.027232,-0.338311,-0.573684,-0.734426,-0.898320,-0.685025,0.730891,0.310200,-0.458252,0.243377,-0.298095,-0.160821,-0.290008,0.777742,0.940187,-0.165024,-0.684887,0.896142,0.510238,-0.384127,0.552912,-0.221336,0.476011,-0.206763,-0.755048,0.615673,-0.504257,0.899373,-0.304793,0.897320,-0.178887,0.366672,0.702235,-0.180413,0.584124,0.075172,0.278551,-0.926616,-0.173310,-0.346120,-0.264784,-0.866267,-0.319643,-0.261937,0.271129,-0.620756,0.279521,-0.212203,-0.516995,-0.133581,-0.329059,-0.447943,0.119296,-0.432934,0.315689,-0.635410,-0.448806,0.066613,-0.224286,-0.752219,0.769391,-0.279931,0.584771,0.738717,0.507609,-0.809632,0.792885,0.967146,0.346301,-0.238745,0.039689,0.588684,-0.847795,0.788975,0.206136,-0.524167,0.138833,-0.105620,-0.929240,0.757563,0.031156,0.714790,-0.189949,-0.746795,-0.593392,-0.752891,0.011739,0.985965,-0.768256,-0.419967,-0.933321,0.341900,-0.942222,0.836979,-0.315572,-0.075234,0.087238,-0.257207,-0.858684,-0.093841,0.012705,0.486571,0.961597,0.734435,0.982751,0.004987,-0.966112,-0.611100,0.752469,-0.319061,0.310760,-0.411800,-0.134050,-0.384465,0.246507,0.873291,0.545188,-0.092830,0.220076,-0.232524,-0.313519,-0.585266,0.647500,0.799275,-0.706966,0.041816,0.785107,-0.390803,0.409940,-0.537285,-0.755064,-0.747280,-0.792277,0.103475,-0.724277,0.680649,0.413311,0.150455,0.149213,0.045153,-0.530488,-0.795763,-0.101485,-0.200663,-0.441707,0.349455,-0.259595,-0.495633,-0.024484,-0.092898,-0.715464,0.873972,-0.091358,0.049868,-0.741465,-0.059706,-0.354025,-0.903996,0.406953,0.646335,0.858026,0.133512,0.115007,-0.095649,0.582808,-0.852551,0.012669,-0.377561,0.194965,0.517134,-0.737874,-0.868539,-0.185901,-0.287879,-0.908239,-0.705786,0.552067,-0.993539,-0.067967,-0.882929,-0.760635,-0.147136,0.297943,-0.758424,-0.283722,0.314387,-0.638304,-0.538755,0.708374,0.950186,0.222472,0.861514,0.913315,0.444647,0.256406,0.160729,-0.602805,-0.431929,0.499004,-0.288066,-0.120738,-0.604721,-0.810326,0.236328,0.689075,0.200855,-0.734027,-0.339896,0.951022,0.270978,0.114683,-0.276425,-0.390978,-0.945687,0.663827,-0.731433,0.137970,-0.104921,0.476542,0.326084,-0.712603,-0.188975,0.145245,-0.713301,-0.968973,-0.454233,0.669427,-0.929058,0.604263,-0.647831,0.227516,-0.269752,0.371947,-0.933466,0.634625,0.087797,0.903423,-0.807328,-0.786217,-0.051319,0.419397,-0.327160,-0.285851,-0.993467,0.269404,-0.811235,-0.877645,-0.398391,0.866232,-0.956490,0.151806,0.998454,0.098666,-0.059288,0.124144,0.008756,0.571212,0.852405,0.151209,0.089462,0.525562,0.611451,-0.927355,0.185326,0.794507,-0.046748,-0.937876,-0.076395,0.080305,-0.362783,0.297293,-0.729725,-0.717394,0.861122,0.403340,0.683494,-0.689351,-0.688318,-0.860298,-0.908088,0.113164,-0.046089,0.352870,-0.697603,-0.924066,-0.162523,0.197816,0.967271,-0.830692,0.271261,-0.605205,-0.366581,0.740214,-0.265112,-0.525593,-0.307003,0.010978,-0.524292,-0.353258,-0.858681,0.415692,0.301140,-0.616497,-0.777068,-0.283464,-0.740647,0.458403,-0.748510,-0.159452,-0.419651,-0.021875,0.134463,-0.504276,-0.386712,0.519449,-0.429087,-0.799552,-0.050149,0.067888,-0.927864,0.076134,0.704484,0.321736,0.560024,-0.219179,-0.927712,-0.051645,0.581724,-0.466586,0.918377,0.028100,0.523918,-0.398931,0.329329,-0.436213,-0.697426,0.830025,-0.654029,-0.893460,-0.485530,-0.079863,0.683766,0.799344,0.157868,0.122325,0.255750,0.739488,0.283050,-0.173781,0.844457,-0.757952,-0.943801,0.089894,0.305605,-0.825296,0.403532,0.567815
0.453357,0.270320,-0.257114,-0.037001,0.372636,0.059622,0.467382,-0.519926,0.170953,-0.199981,0.937688,-0.959515,-0.653129,0.545965,0.388618,0.717549,0.257967,-0.171687,0.336052,0.084823,-0.972629,-0.441669,-0.781315,0.271808,0.239700,-0.125341,-0.872782,0.679511,0.566219,0.704752,-0.501861,-0.106947,0.317184,0.859523,-0.342662,0.581449,-0.318361,0.838211,0.609574,0.507386,-0.922981,0.891317,-0.388476,-0.913478,0.949562,0.277074,0.811606,-0.118322,-0.606428,-0.575088,0.177268,-0.086249,0.901213,0.038366,-0.926156,0.341024,0.403835,-0.156214,0.255855,-0.811477,-0.149833,0.006353,-0.442643,0.484835,0.383215,0.884239,0.006929,-0.039219,-0.416851,0.673441,-0.961340,0.172055,0.405403,0.195113,0.417323,0.800769,0.112728,-0.620398,-0.676787,0.872911,0.692303,-0.113919,0.789586,0.869906,0.674631,0.947448,-0.418228,-0.986755,0.631564,-0.874310,0.917912,-0.796915,-0.849812,0.824858,0.310941,-0.353022,0.444094,-0.179277,-0.377307,0.139314,0.764364,-0.412819,0.855853,0.474815,-0.969419,-0.381280,-0.287363,0.516818,0.612258,-0.304713,0.949262,-0.228285,-0.059181,0.907973,0.721334,-0.979865,0.767383,0.742968,0.782557,-0.184986,0.726569,0.927093,-0.221877,-0.363114,-0.894889,0.596237,0.983464,-0.696653,-0.937953,0.212235,0.586563,-0.783143,-0.443515,0.882208,0.977869,0.697282,-0.596579,0.846173,-0.842857,0.504079,-0.453832,-0.765274,-0.702225,0.774508,-0.145996,0.226688,0.521785,0.858245,0.148133,0.194368,-0.123942,0.404219,0.619336,0.522843,0.466835,-0.308542,0.573721,-0.417960,-0.512822,-0.235292,0.895111,-0.658780,0.337720,-0.236415,-0.421135,-0.064220,-0.139972,-0.986795,0.273276,-0.680283,-0.947514,-0.363402,0.862984,0.230460,0.569453,0.029191,0.151225,-0.456405,0.409742,-0.251394,-0.315581,-0.430815,-0.963713,0.100569,0.849375,-0.566430,0.263488,-0.272509,-0.666974,0.559429,-0.638776,-0.906183,0.275790,-0.771870,-0.207991,0.666073,-0.985860,-0.880738,0.144858,0.735915,-0.100927,-0.211501,-0.204686,-0.550121,0.104737,0.635096,0.039742,0.552940,0.971769,0.308150,-0.990628,0.320848,-0.399610,0.120156,-0.043670,0.638048,0.689606,0.300376,-0.500764,0.005257,-0.652678,0.448333,-0.127464,0.584959,0.480776,-0.133733,-0.812339,0.029152,0.853131,-0.222658,0.078403,-0.484677,0.472399,0.762197,0.459787,0.404310,-0.063343,0.426771,0.305472,0.963655,0.080904,0.523530,-0.606851,0.406573,-0.730769,-0.997005,-0.091031,0.838379,0.828479,0.603272,-0.970014,-0.234882,0.362953,-0.208347,-0.269132,-0.975729,-0.181013,-0.857440,-0.819309,0.412948,0.552670,0.075024,-0.620034,0.578578,-0.627161,-0.261398,-0.882934,0.331715,-0.921375,0.502033,-0.672332,0.217452,-0.285755,-0.426570,-0.458074,-0.650544,-0.384991,0.356949,0.734473,0.944144,0.145492,0.771427,0.743982,0.742963,-0.432230,0.938528,-0.640284,0.311102,0.046014,0.384033,-0.332199,-0.999890,-0.412979,-0.183479,-0.944299,-0.902789,-0.787478,0.715765,0.126130,0.551278,0.096249,-0.959512,0.435058,0.988373,-0.642039,0.010902,-0.399451,-0.490033,-0.453631,-0.647333,-0.094880,-0.477107,0.599174,0.777222,0.576910,-0.092488,-0.324332,-0.462306,0.469463,-0.473757,-0.842856,0.472903,0.089871,0.015655,-0.980316,-0.411309,-0.831681,0.935254,0.544440,-0.003542,-0.025075,-0.651605,-0.078303,-0.564677,-0.678542,0.012676,0.403477,-0.252703,-0.245832,0.502385,-0.266536,-0.253813,-0.856725,-0.322963,0.015831,-0.769500,-0.960453,-0.147230,-0.795800,0.722229,-0.665615,-0.541196,0.530489,0.246742,0.420581,-0.875702,0.820556,-0.836021,0.898227,-0.971415,0.350234,0.878377,0.361579,-0.810848,-0.129419,0.293006,-0.439351,0.786980,-0.212548,-0.152183,0.275282,-0.461667,-0.550510,-0.506808,-0.160112,-0.488728,-0.711438,0.646661,0.697197,0.876915,0.983136,0.235255,-0.338126,-0.286148,-0.156980,-0.313952,0.589645,-0.892936,-0.847106,0.163944,-0.124949,0.555026,0.509407,-0.609108,-0.378935,-0.876066,0.929423,0.454995,-0.144449,0.412274,-0.974933,-0.496523,0.806049,0.867351,-0.999089,-0.574663,0.444515,0.370403,0.016467,0.487627,0.997848,-0.439582,-0.747275,-0.335365,0.651258,-0.759072,0.792064,0.600925,0.410317,0.027765,-0.764200,0.886347,-0.590678,0.892024,-0.228417,0.465705,0.317852,0.750916,-0.579654,0.440712,0.525692,0.740363,0.021858,-0.703442,0.769654,-0.757412,-0.665237,-0.164921,0.807177,0.496964,-0.985410,-0.215592,0.814018,-0.844784,0.960481,0.554439,0.045968,0.609561,-0.747750,0.621476,-0.908659,-0.111129,0.032352,-0.018796,-0.079473,-0.903041,0.534950,-0.429039,0.668046,0.043879,-0.934457,-0.350494,-0.892515,0.253414,0.926300,0.313752,0.086334,0.540031,-0.517695,0.846186,-0.973586,0.815436,0.037632,0.864592,-0.709890,-0.466554,-0.213445,-0.213963,-0.895793,0.649486,0.964969,-0.326164,0.789859,-0.131365,0.747996,-0.593849,0.784193,-0.987185,0.320136,0.510367,-0.782102,0.958721,-0.660858,0.666237,-0.658583,-0.029928,0.138118,-0.760195,0.782862,0.470080,-0.059253,-0.136399,-0.966104,-0.459935,0.918144,-0.631247,-0.083086,-0.321703,0.266393,-0.504342,-0.312402,0.025971,0.142410,0.300381,0.510805,-0.887783,0.456739,-0.360968,0.032455,-0.987128,0.527336,-0.179869,0.626262,0.120175,-0.866890,-0.265977,-0.151205,-0.182625,0.850380,0.020645,0.912424,-0.714892,-0.423922,-0.214951,0.251243,-0.211574,0.364155,-0.625138,-0.959978,-0.285650,0.718691,-0.344362,0.447342,-0.225493,-0.200254,0.278715,-0.587365,-0.816911,0.605221,0.279778,0.723197,-0.032063,-0.827989,-0.941528,0.006792,-0.434739,0.710607,-0.340867,-0.439072,-0.106857,0.037186,-0.980603,0.151265,0.529886,0.647355,0.553812,0.777305,0.195853,0.365213,0.636586,0.009789,-0.386692,-0.745096,-0.643091,-0.383017,-0.341285,-0.704253,-0.051528,0.507379,0.047341,0.273498,0.041855,0.153251,0.498576,0.837314,0.485786,-0.617850,0.830636,0.658899,-0.365633,0.096853,-0.665859,0.539714,0.264122,0.139508,0.834351,0.284806,0.770287,0.745607,-0.640872,0.985818,0.513815,-0.027395,0.162815,0.653481,0.315230,0.624584,0.504923,-0.889433,-0.036666,0.300131,-0.578757,0.646337,-0.929452,0.058269,0.691174,0.249476,-0.393743,0.342701,0.344513,0.890118,0.836946,0.063254,0.509236,-0.709159,0.750776,-0.114276,-0.923886,-0.365339,0.756388,-0.542033,-0.009601,-0.691949,-0.935974,0.027339,-0.345309,0.489283,0.124052,-0.791674,0.875136,-0.291426,0.928964,-0.092347,0.322937,-0.577209,0.136151,0.006795,0.618325,0.280395,-0.949852,-0.286469,-0.989936,-0.242826,-0.880052,0.584907,0.503504,0.728071,-0.682721,0.841226,-0.253341,0.552804,-0.286466,0.458396,0.897926,-0.000142,0.012307,-0.076145,0.155295,-0.338166,0.228569,-0.965381,0.828185,-0.282299,0.882970,0.511977,0.210148,0.547512,-0.429783,0.620341,0.083032,-0.503775,0.985078,0.623394,-0.466361,-0.710856,0.425249,-0.490741,-0.794352,0.317393,0.524062,0.685535,0.804530,-0.105905,0.067529,0.389566,0.146097,-0.624505,0.373049,0.474282,0.137611,-0.845461,0.877723,-0.167930,-0.815977,-0.228177,-0.292490,0.924385,0.637423,0.406106,0.006556,0.440888,0.934810,-0.699674,-0.074561,0.074149,0.777785,0.854410,-0.749512,-0.698095,0.612830,-0.510429,-0.722432,-0.914853,0.687222,0.788136,-0.055746,0.416404,0.394320,0.465991,0.549552,-0.005041,-0.734334,0.094360,0.154720,-0.548229,0.364100,-0.249172,0.544623,-0.739522,0.796045,0.386254,0.778273,-0.141126,0.741043,-0.016573,-0.663766,-0.589437,-0.429401,0.580594,-0.555544,-0.272878,-0.110134,-0.875990,0.114515,0.529691,-0.968581,-0.541009,0.565649,-0.535984,-0.823365,-0.888826,0.043959,-0.930138,0.332766,0.334675,-0.616036,-0.579810,0.018398,0.795999,-0.625642,-0.574418,-0.074323,0.383869,0.346601,0.685113,-0.168114,0.109175,-0.241492,0.984378,-0.369015,0.618262,0.731391,-0.775243,0.298800
-0.360214,-0.850787,-0.925239,-0.479097,0.793314,-0.345558,-0.748410,-0.451977,-0.715173,0.721705,-0.854360,0.591821,0.702576,-0.003136,-0.152331,-0.296373,0.062911,0.852018,-0.907943,-0.434387,0.182325,0.179568,0.652497,-0.341199,-0.973371,-0.237199,0.966647,-0.438446,0.475896,-0.897136,-0.831850,-0.354235,-0.665636,-0.904298,-0.994305,-0.034021,0.431030,-0.397074,0.792873,0.038237,0.298278,0.383482,-0.312109,-0.184435,-0.063449,-0.371077,-0.257477,-0.778843,-0.073414,0.781588,0.309493,-0.119538,-0.962363,-0.175567,-0.329865,0.862586,0.027768,0.774869,-0.808676,0.162487,0.726678,0.050412,-0.321103,-0.860625,-0.650838,-0.376090,0.172956,0.129332,-0.130206,0.247462,-0.307729,-0.442362,0.751105,-0.194794,0.272606,0.881814,-0.071687,-0.406653,-0.365532,0.730569,-0.230827,0.794082,-0.255634,-0.298672,-0.017870,-0.453288,0.340906,0.299233,0.232130,0.013375,-0.190348,-0.753867,-0.219172,-0.032502,0.105338,0.499506,0.116084,0.256204,-0.622973,-0.586900,-0.816015,0.909375,0.670329,0.755455,0.559585,0.062781,-0.688650,0.359152,-0.104842,0.333032,0.155525,0.426646,0.765380,0.131170,-0.813038,-0.433824,-0.180349,0.681067,0.174937,0.352984,0.881626,-0.411879,0.308345,0.944658,0.721791,-0.878911,0.507759,-0.350532,0.454152,0.961851,-0.918341,0.953521,-0.559877,-0.873267,0.701488,-0.250793,-0.493287,-0.349718,0.634682,0.289588,-0.740583,-0.742339,-0.043187,-0.654899,-0.868451,-0.973055,0.785228,-0.846334,0.309923,0.709488,-0.545542,-0.926467,-0.509055,0.793527,-0.433436,0.970929,-0.754758,-0.676496,0.489900,0.177925,0.822412,-0.796296,0.297959,-0.162860,0.631063,-0.920864,-0.925834,0.079678,0.953463,-0.376775,0.242167,0.252374,-0.832749,0.934398,-0.957855,-0.171797,0.843623,0.463290,0.875253,0.078294,-0.750538,-0.064800,-0.918023,0.265225,0.998189,0.445460,-0.808252,-0.379618,-0.930427,0.912634,0.277369,0.713446,0.309334,-0.915758,-0.480149,-0.399951,0.021300,-0.098744,-0.046327,0.342388,-0.907412,-0.578040,-0.153992,0.666955,-0.210280,-0.813377,0.047759,-0.767179,-0.077342,0.440579,-0.097034,0.676281,-0.502097,0.739190,0.635664,0.070581,0.375993,0.482702,0.153086,-0.687253,-0.685410,-0.255510,0.148494,0.084798,-0.267071,-0.045554,0.295771,0.341716,-0.493572,-0.586932,-0.720521,0.702105,0.215854,0.750846,0.064953,0.713411,0.813122,-0.825419,-0.816393,-0.056603,-0.041109,-0.954031,-0.392412,0.980882,0.877135,-0.698001,0.550008,-0.947749,-0.044409,0.626740,0.188732,-0.208348,-0.581623,0.352433,0.799908,0.320875,-0.856563,-0.665902,-0.443082,0.440475,0.599028,-0.493004,-0.408286,-0.160816,0.083522,-0.999574,-0.970013,0.163645,-0.025602,0.646287,-0.622316,-0.652734,-0.449405,0.356262,0.001569,0.654444,0.205252,0.156458,-0.524543,-0.001807,-0.982915,0.325604,0.596701,-0.937194,0.169924,0.704740,-0.251427,-0.004163,-0.549661,0.536185,-0.237995,0.194973,0.151268,-0.572597,0.242848,-0.367157,-0.859796,-0.912525,0.275757,0.163096,0.743205,0.804779,-0.892921,0.177780,0.837181,0.839024,-0.148939,0.048018,0.846720,-0.085365,0.484152,-0.112978,-0.238196,-0.878375,0.850456,-0.503879,0.753369,0.351295,0.248327,0.783623,-0.819269,-0.659803,-0.859064,-0.824169,-0.106725,-0.664927,0.087432,-0.012685,-0.003253,0.473199,-0.787156,-0.277912,-0.569456,-0.488041,0.624409,-0.888529,-0.721716,0.927561,0.841489,0.049042,0.178632,-0.034573,0.160407,0.174996,-0.631817,0.121392,0.912798,0.462877,-0.488237,0.911686,-0.197277,0.383476,0.171402,0.333190,0.323026,0.080604,-0.310578,-0.808858,0.408854,-0.929914,0.535458,-0.767290,-0.721805,0.098785,0.000894,-0.475451,-0.520722,0.658369,-0.808115,0.714134,-0.659599,0.231708,-0.427064,-0.775001,-0.898077,-0.182241,-0.571510,-0.190683,0.516495,0.418996,-0.225639,-0.570160,0.417470,0.141697,-0.759034,0.466951,0.490054,-0.012282,0.215214,-0.434583,0.068981,0.910591,-0.057286,-0.154780,0.348465,-0.040536,-0.049489,-0.912196,-0.766531,-0.071907,0.245490,0.388046,-0.311279,0.834661,0.244331,-0.456511,-0.105482,-0.882024,-0.749228,0.445227,-0.768526,0.333801,-0.597461,-0.231555,-0.363387,0.242101,0.633814,0.534437,-0.384115,0.594243,0.461940,-0.412345,-0.017635,-0.422918,-0.283660,-0.950283,0.120187,-0.702735,-0.348191,0.529218,-0.046318,0.475782,-0.541773,-0.262321,0.670196,0.553741,0.188982,-0.937792,-0.874965,0.862655,0.807006,-0.610012,0.519412,-0.526812,0.167303,-0.091938,0.995551,0.924409,-0.826795,-0.520054,0.158185,-0.807049,0.331353,0.091019,-0.646523,0.151281,0.545895,-0.423506,0.127642,-0.796365,-0.581608,0.542307,0.404600,0.403244,0.458970,-0.098888,0.537622,0.644766,-0.445396,-0.775648,0.192261,0.442497,0.794317,0.343308,0.358733,-0.880542,0.842014,0.432512,0.261944,0.732341,-0.658052,0.389645,-0.454334,-0.679079,-0.479831,0.098530,0.571584,0.612245,0.436917,0.314119,0.101921,0.974094,-0.404354,0.554555,0.754524,0.351385,-0.531425,0.620943,0.634786,0.930277,-0.602315,-0.046252,0.436213,-0.225353,-0.910409,0.340318,-0.746562,0.800972,-0.554217,-0.280264,-0.976221,-0.557952,-0.013531,0.050011,0.230152,-0.346877,-0.012888,-0.522698,0.340494,0.068892,0.058747,0.033224,0.778597,-0.005026,0.317587,-0.552099,0.628332,0.077022,0.051182,0.556696,-0.491282,0.873645,0.401173,-0.247756,0.368735,-0.420939,-0.406624,-0.092129,0.854012,-0.093440,-0.069675,0.343901,-0.395349,-0.128622,-0.711581,0.734877,-0.674829,-0.520249,0.394336,-0.476761,0.841969,-0.512754,-0.983932,0.275833,-0.962638,0.881618,0.519520,0.722861,0.720715,0.282333,-0.065766,0.811385,-0.456487,0.307924,-0.238199,0.991357,-0.708114,0.280305,-0.926216,0.857552,0.510393,-0.901911,-0.808273,-0.100124,-0.802312,0.321398,-0.103763,-0.395691,-0.156335,0.550176,0.802962,0.067781,-0.477223,-0.018386,-0.775979,0.821954,-0.427762,-0.382218,0.216635,0.395243,0.863914,-0.914837,0.180161,-0.615194,-0.229479,0.007814,-0.264593,0.454438,-0.279067,-0.024550,-0.091086,-0.009382,-0.364995,0.911190,0.445164,0.766731,0.182018,-0.112211,-0.050383,0.577306,-0.329165,-0.173621,0.902422,0.969322,-0.959478,0.157813,-0.694611,-0.773240,-0.124725,-0.397263,0.337677,0.049037,0.282320,0.123197,-0.299866,-0.062187,0.417056,-0.043188,0.565023,-0.529737,0.188060,0.689289,0.838885,-0.532759,-0.274814,-0.499259,-0.894071,0.458664,-0.935947,-0.054935,0.546041,0.620240,-0.363974,-0.064424,0.263792,-0.563366,0.979991,0.181371,0.744239,-0.416826,0.913528,0.618254,-0.778028,-0.005781,0.002157,0.591219,-0.583095,-0.385146,0.703748,0.877311,-0.313920,-0.130540,0.264140,-0.900390,0.635795,-0.355071,0.970509,0.970094,0.449730,0.271447,-0.829986,-0.782833,-0.090609,-0.330740,-0.476156,0.157615,-0.529653,-0.290689,-0.497421,0.482757,0.319036,0.710864,0.059111,0.657754,-0.157198,0.270464,0.757280,0.936422,0.442086,-0.920035,-0.458439,0.148996,-0.577168,0.179355,0.286364,0.179837,0.242533,0.094792,-0.761962,0.502695,0.177779,-0.743574,0.239336,0.376334,-0.886210,0.140068,-0.294056,-0.773448,0.161104,-0.969497,0.833102,0.155025,0.445107,-0.547038,-0.362939,-0.077444,0.003455,0.141348,0.154675,-0.428771,-0.604209,-0.438283,0.713032,0.217304,0.555558,-0.064275,0.330763,0.915432,-0.669115,-0.701838,-0.537738,-0.037079,-0.539352,-0.627887,-0.147304,-0.012876,-0.062469,-0.408661,-0.375326,0.903714,0.064096,0.278737,0.271525,0.268463,0.105000,-0.372365,0.464243,-0.994842,-0.083733,0.430749,-0.639697,0.991097,-0.914917,-0.689249,0.353582,-0.702323,-0.107360,-0.462898,-0.078937,-0.411863,0.361326,-0.107076,-0.538827,0.971871,0.087437,-0.696295,-0.423603,-0.694691,-0.108597,0.900805,0.802579,0.948338,0.596319,-0.849874,0.302349,0.479165,-0.151575,0.246518,0.579146,0.053014,0.490385,-0.423514,-0.626514,0.442982
0.303676,-0.580041,0.820408,-0.266584,0.899062,0.048573,0.544204,0.583148,-0.546653,0.842877,0.174421,0.844383,0.458895,0.131783,0.887168,-0.279688,-0.140312,-0.785430,0.561072,-0.296519,-0.950492,-0.918200,0.798691,0.264298,0.430747,0.521690,0.569499,0.106727,0.915836,0.975048,0.091478,-0.238715,0.264613,-0.354315,0.450574,0.519751,0.937162,0.783849,-0.941529,-0.965327,0.795995,-0.503970,-0.898815,-0.467317,0.451466,-0.021793,-0.165507,-0.905779,0.868397,-0.552491,-0.715473,-0.742765,-0.077601,-0.300767,-0.824510,0.862523,-0.305417,0.989088,0.578931,-0.942139,0.592165,-0.309709,0.369410,-0.859236,0.405947,-0.174459,0.296225,-0.227444,-0.615200,0.565457,0.035402,-0.861157,0.986519,0.034509,-0.796335,-0.728250,-0.541010,-0.762758,0.999624,-0.273904,-0.366039,0.547091,0.950629,-0.741634,-0.279357,-0.099161,0.959597,-0.807246,0.842626,0.382290,0.782314,0.301191,-0.000333,0.756382,-0.636077,0.818678,-0.426127,0.457892,0.116123,0.838302,0.412137,-0.147521,-0.396399,-0.737790,0.551472,0.382926,0.966804,-0.096808,0.737954,0.701554,-0.651599,-0.241935,-0.050269,0.834661,-0.279797,0.611213,0.033524,-0.678385,-0.420459,-0.805064,0.527780,0.134357,0.370536,0.387700,0.909459,-0.937262,-0.824774,-0.760802,0.400015,0.564586,0.981494,0.940152,-0.110824,0.941606,-0.919707,-0.550337,-0.974809,0.765585,0.257323,-0.891436,-0.820251,0.567887,-0.698564,-0.893112,0.097440,-0.785354,-0.017677,-0.434258,-0.035067,-0.011617,0.670750,-0.979032,-0.337599,-0.720595,0.815070,0.363434,-0.328189,0.344240,0.365151,0.096762,-0.402347,0.468735,0.740978,-0.233470,-0.280130,-0.510599,0.199282,0.345355,-0.474659,-0.875462,-0.614782,-0.597680,0.811722,-0.058517,-0.478815,-0.550638,0.368799,0.675040,-0.207887,-0.611578,0.895365,0.896644,-0.192952,0.218092,0.226373,-0.196700,-0.093703,0.454961,-0.316177,0.661278,0.461970,-0.400397,0.407989,-0.799408,0.663109,0.218070,0.972542,0.710737,0.402186,0.654458,-0.602786,-0.719977,0.819497,0.842489,0.001187,0.492958,-0.088105,0.395930,0.075367,0.737918,0.414011,-0.915039,-0.325195,0.080547,0.925932,0.183481,0.694124,-0.414574,0.898136,-0.396251,0.798221,-0.594598,0.331707,-0.485734,-0.196265,-0.154437,-0.955411,0.539658,-0.908568,-0.291015,0.373761,0.786415,-0.995941,-0.127906,0.903724,0.292463,-0.671841,-0.314460,-0.506711,-0.117694,0.100462,-0.302193,0.685390,-0.028869,0.144858,-0.582970,-0.638493,0.053159,-0.472858,-0.698310,0.543284,-0.686468,0.687779,0.221900,0.384353,-0.091244,0.936359,-0.697016,0.125524,0.511017,-0.975118,0.821837,-0.488841,0.687636,-0.729843,0.776170,0.699102,0.613974,-0.947894,-0.323404,-0.668907,-0.355436,-0.329805,0.802000,-0.021247,0.357511,0.197595,0.919338,-0.827338,0.448872,-0.419941,-0.956432,-0.907340,0.992459,0.236640,-0.416862,0.747432,0.488462,-0.633674,0.480866,0.725176,-0.946089,-0.137501,0.494280,-0.175796,-0.003010,-0.835221,0.586622,-0.893602,-0.370641,0.346630,0.693397,-0.829489,-0.292190,0.637319,-0.411333,0.978346,0.740915,-0.713390,0.899075,-0.170279,0.198529,0.810119,-0.976889,0.324625,0.093856,0.250676,-0.292726,0.034506,-0.104564,0.145975,0.541336,0.573937,0.210815,0.770578,0.557957,0.132690,-0.389208,0.418837,-0.914811,-0.279516,-0.606565,-0.899629,-0.423184,-0.668385,0.140267,-0.958301,0.832556,-0.925719,-0.110809,-0.909102,-0.985073,-0.673769,-0.006222,0.986159,0.530502,0.126932,0.187881,-0.794855,-0.144278,0.987713,0.673386,-0.564814,0.284266,0.933040,-0.068889,-0.731072,0.501971,0.008925,-0.293837,0.173538,0.696278,0.471516,0.532698,-0.118152,-0.682677,0.577351,0.717488,-0.952735,-0.277951,0.264996,-0.304398,0.264377,0.427628,0.423568,0.981749,0.996007,0.787253,-0.161788,-0.076180,-0.710017,0.458501,0.676067,0.727454,0.621600,0.620188,-0.884772,0.031242,0.454656,-0.659682,0.108080,-0.833309,-0.380104,0.769290,-0.471815,0.097945,-0.598315,0.844383,0.971240,0.809504,-0.749738,-0.443685,0.814967,-0.416890,-0.898095,-0.751768,0.947905,-0.651905,-0.315495,0.800179,-0.343815,0.433812,0.385979,0.332613,0.175775,-0.098636,-0.837403,-0.765916,-0.740736,0.103393,0.945343,0.832788,-0.023827,-0.968414,0.555399,-0.866289,0.786495,-0.735572,0.168227,0.856321,-0.055789,0.570931,-0.175588,0.625238,-0.999519,-0.655172,0.892457,-0.461990,0.872704,-0.812964,-0.272619,0.141605,0.203939,-0.851899,0.487247,-0.166961,0.527505,-0.235462,-0.378155,-0.227288,0.151420,-0.642123,-0.514350,-0.845810,0.763405,0.651117,-0.186483,0.520049,0.142990,0.963226,-0.826274,0.802314,0.327128,0.774041,0.074886,-0.550017,-0.041890,0.134005,0.949251,0.556415,0.030971,-0.800378,0.303677,0.475930,-0.029378,0.206187,0.252060,-0.144669,0.611305,-0.493462,-0.954284,-0.422789,-0.276752,-0.069005,0.009612,-0.973526,-0.232015,0.408493,-0.537490,-0.660997,-0.558466,0.866357,0.475445,-0.223551,-0.523788,0.275280,-0.611805,-0.091814,0.789819,0.067148,0.446293,-0.952994,0.171644,-0.655194,0.217367,0.495006,0.023396,-0.504882,0.028595,-0.001073,0.815915,0.844583,0.472786,-0.985520,0.020493,0.239842,-0.622100,-0.765004,-0.118584,-0.129169,0.931563,0.615910,0.336536,-0.148451,-0.031023,-0.920417,0.917581,0.631440,-0.222975,-0.221859,-0.357236,-0.433882,-0.545152,0.339172,-0.672079,0.288092,-0.284935,-0.218602,0.250744,-0.530210,0.863030,0.717857,0.273669,0.800731,-0.420713,0.728279,0.341893,-0.300943,0.507287,-0.730814,0.974330,-0.148949,-0.418611,-0.999159,0.762086,-0.050603,0.130673,0.906446,-0.938756,0.202388,0.018600,0.795092,-0.603612,-0.064657,0.242237,0.392059,0.347436,-0.507214,-0.784057,-0.975159,-0.076596,-0.940538,0.973974,0.530649,-0.996941,-0.688083,0.097079,-0.297727,-0.754249,0.613466,0.102844,0.134332,0.360637,0.499992,-0.621853,0.290022,-0.363553,0.933836,0.303438,-0.651143,0.130409,-0.145826,0.507365,0.427021,0.325353,0.079495,0.134531,0.503567,0.694575,0.131271,-0.154504,-0.043345,0.071884,0.830955,-0.959170,-0.821569,0.135003,-0.643047,-0.560215,0.275055,0.175734,0.324718,-0.278107,0.820767,0.340635,-0.275107,-0.512690,-0.939190,0.096691,0.656870,-0.357860,-0.673262,0.841357,-0.337895,0.596733,-0.268152,-0.218872,-0.642515,-0.077585,0.445283,0.292863,0.632051,0.239958,0.238965,-0.381837,-0.822202,0.334804,-0.751146,-0.141905,0.504719,-0.055789,-0.753892,0.133641,-0.496628,0.946099,-0.124355,-0.017266,0.368701,-0.584706,-0.630327,-0.010109,-0.660288,-0.393679,-0.750477,-0.802814,-0.395206,-0.906373,0.923393,0.002162,-0.123614,-0.515260,0.690955,-0.022008,0.096393,-0.624642,-0.251274,0.841219,0.963306,0.069570,-0.000514,0.742633,0.743366,0.296236,-0.650889,-0.481151,0.510438,0.677982,-0.889776,0.115960,0.544799,-0.087823,-0.609745,-0.687248,0.542935,-0.835411,-0.656784,-0.336235,0.789072,0.470487,0.166923,-0.054063,0.971121,-0.030559,0.809272,-0.741826,-0.016106,0.982567,-0.709386,0.662468,0.267021,-0.987713,-0.272075,-0.288647,0.424153,-0.810637,0.640298,-0.875314,-0.220761,-0.661311,0.008708,0.740028,-0.978393,0.481930,-0.005640,-0.157911,-0.401190,-0.408435,-0.210681,0.917041,-0.851298,-0.312958,0.892057,0.512079,0.177088,-0.229088,-0.320356,-0.303583,-0.620188,-0.723038,0.822949,0.509148,0.474454,0.546293,0.355141,0.791296,0.956224,-0.943379,0.717942,0.174198,0.664828,-0.882322,0.979687,0.218401,-0.609753,0.005021,0.854467,0.194429,0.546025,0.533300,0.202020,-0.807791,0.019948,-0.291625,-0.692968,0.692313,0.548166,0.044164,-0.156477,0.063608,0.266793,0.977309,-0.461136,0.370848,0.908986,-0.116739,-0.369665,-0.471746,0.349234,0.188904,0.320791,-0.286807,-0.931916,-0.108448,-0.628546,-0.143631,-0.683975,0.207763,0.706071,-0.022548,0.619252,0.239752,-0.534006,0.081370,0.055460
-0.604817,0.882520,0.555699,0.567287,0.496503,-0.814558,-0.577685,0.854669,0.115082,0.490589,0.383458,0.213790,-0.923736,0.836943,0.265965,-0.247851,-0.399460,0.492432,-0.691808,-0.788462,0.093413,-0.465070,0.100589,-0.760331,-0.421980,0.964719,0.434391,0.733907,-0.520021,-0.556086,-0.349604,-0.646947,-0.089920,0.482653,-0.753389,-0.575899,0.072034,-0.627390,0.282070,-0.928174,-0.038551,0.891816,0.349779,-0.999684,0.432133,0.918788,0.317650,0.473724,0.436521,0.637376,-0.760928,-0.484478,-0.254591,-0.068141,-0.710467,0.853626,-0.567710,0.338065,-0.100732,-0.258202,-0.020111,0.634865,0.760546,-0.517670,0.502614,-0.938983,-0.157787,-0.804541,-0.521983,0.128056,0.758262,0.299325,0.605520,0.318048,0.339082,-0.349966,0.871029,0.757500,-0.682311,0.556753,-0.912319,0.108040,-0.356282,0.605338,-0.806878,0.559694,0.225204,-0.425113,0.813381,-0.353801,0.615475,0.900726,-0.544220,-0.808217,-0.624353,0.243445,-0.258514,-0.241854,-0.663017,-0.754998,0.867064,-0.657302,-0.280731,0.219624,-0.595911,-0.372480,-0.404775,-0.582001,0.353197,0.221301,0.189790,0.805309,0.508803,0.295044,-0.628114,0.497014,0.836814,0.810743,0.233276,-0.285423,-0.495843,-0.897630,-0.765705,-0.352404,-0.412715,0.018221,0.265880,0.734019,-0.711710,0.921615,0.595687,0.844824,0.052027,-0.641561,0.697142,-0.159256,-0.375937,0.804832,0.373648,0.341727,-0.430275,-0.764050,0.943215,-0.658838,-0.744316,-0.380324,0.536223,0.353837,0.115933,-0.615328,0.193670,0.606702,-0.722002,0.835133,-0.668043,0.029330,-0.648197,-0.771350,0.449892,-0.333857,-0.133218,-0.680752,-0.370941,0.506960,0.628401,-0.833562,-0.505137,-0.475816,0.311077,-0.929533,-0.471469,-0.293659,0.921353,-0.569813,0.884863,0.712674,-0.736485,-0.397932,-0.223428,0.963914,0.102947,-0.289825,-0.218331,0.271407,0.313515,-0.816079,0.811481,0.004153,0.357490,-0.912548,0.232097,0.635596,0.515586,0.873192,0.064706,0.222518,0.168300,-0.541052,0.556775,-0.738204,-0.678880,-0.943860,0.884798,0.187263,-0.049174,-0.668979,0.476801,-0.420349,0.992912,-0.921347,-0.541250,0.585636,-0.912577,-0.900872,0.329177,-0.075955,0.469364,-0.706512,0.596172,0.159902,-0.823756,0.550988,-0.391523,-0.079050,0.848122,-0.507460,0.299711,0.770513,-0.399829,0.948022,-0.742730,-0.143490,0.186727,-0.685895,0.367348,0.388215,-0.345681,-0.040118,-0.057519,-0.746966,0.188786,0.942741,-0.280452,-0.363059,-0.212011,0.371033,-0.289673,0.534181,-0.545056,0.237393,-0.082520,0.475687,-0.240309,0.692783,0.885273,-0.683554,-0.231402,-0.569608,0.982300,0.451808,0.066097,-0.652218,0.278544,-0.455961,-0.750207,-0.564218,-0.981692,-0.079829,-0.748229,0.462605,0.914360,-0.302842,-0.858604,0.359481,0.512066,-0.745636,0.550765,0.828284,-0.460110,0.578415,-0.742838,-0.745725,-0.859618,0.399893,0.821264,0.725825,-0.588951,0.327461,0.853774,0.387596,-0.354687,-0.734880,-0.594590,0.359042,-0.487376,-0.359102,0.638094,0.889777,0.061658,0.656931,-0.056399,0.583865,-0.471492,0.910199,-0.623758,0.094693,0.510099,-0.864469,0.974578,0.341601,0.436955,-0.991620,0.714267,0.771224,0.422115,0.589289,-0.623816,-0.525045,0.441006,0.514778,-0.337285,0.034989,-0.790398,0.806536,-0.920112,-0.938092,-0.863559,-0.304315,0.974745,0.851938,0.806512,0.898593,-0.415255,0.998392,0.055331,-0.547776,0.964096,-0.453909,-0.009316,-0.134330,-0.740743,0.961900,-0.889161,0.653360,0.783132,0.531639,0.471970,0.432729,0.342956,0.805380,-0.593799,0.307834,0.168497,-0.412145,-0.648822,-0.369301,0.684218,-0.484558,0.809974,-0.660874,-0.680473,-0.253460,-0.376478,0.667211,0.424005,-0.191748,0.186026,0.880128,0.335280,0.635951,0.498534,-0.136020,-0.075207,0.914060,0.702050,-0.349248,0.857138,0.641867,0.678212,0.206657,0.943573,0.451464,-0.803659,0.452421,0.664774,0.404917,0.565968,-0.946110,-0.517312,-0.070552,0.549686,-0.471202,-0.666368,0.303689,-0.551078,-0.518434,0.198140,-0.666999,0.447373,-0.808607,-0.889869,0.633579,0.127829,0.323337,0.650034,0.932556,-0.411377,-0.178423,-0.088356,0.160646,0.906179,-0.417476,0.891613,-0.711236,-0.574224,0.759404,-0.252206,-0.141989,-0.923408,-0.099885,-0.766136,-0.925228,-0.682551,0.583133,-0.656150,-0.191945,-0.597016,0.218891,-0.843054,0.102116,-0.442027,0.446108,0.985418,-0.979267,0.289125,0.916493,0.606974,0.141993,0.886729,-0.728021,0.257504,-0.196583,-0.731591,-0.882269,-0.352793,-0.019094,0.695108,0.766530,-0.548620,-0.430601,-0.939835,-0.310478,0.283623,-0.034639,0.664191,-0.317460,0.963805,-0.827701,0.266542,-0.431094,0.557190,-0.300168,-0.685112,-0.415487,0.117760,0.266961,-0.162082,0.351350,-0.806085,0.709120,0.400589,-0.579263,0.791399,0.392300,-0.202082,-0.204479,-0.628698,0.271401,-0.481626,0.106096,-0.456133,-0.527958,-0.308379,0.754752,0.401403,-0.657028,0.800442,0.724957,0.583932,-0.145466,-0.554330,0.776671,0.383860,-0.460199,0.965405,-0.991336,0.479623,0.209642,-0.090030,0.934038,0.698430,-0.627725,-0.724175,0.335579,0.849997,-0.894994,-0.219596,-0.943929,-0.956509,-0.824527,0.174287,-0.086293,0.719655,0.182233,0.896191,0.700368,0.266277,0.673756,-0.154762,0.542710,0.824666,0.002986,0.967725,-0.974603,0.119498,0.997687,-0.998963,0.463813,0.691985,-0.857882,-0.142420,0.969869,0.966887,-0.071292,0.780715,0.008500,-0.158912,0.169222,-0.744631,-0.859441,-0.451319,-0.511062,0.121960,-0.332571,-0.719892,0.666299,0.804278,0.132033,-0.854587,0.521609,-0.168932,0.076218,-0.349851,0.918196,-0.536903,0.784697,-0.293345,0.659612,0.556020,-0.016845,-0.796241,-0.241325,-0.581366,-0.839755,0.943994,-0.230808,-0.793152,-0.600682,0.123246,-0.428228,0.245444,-0.053370,0.715838,0.276637,-0.260653,0.863653,-0.564766,0.342202,-0.413330,0.943766,0.123236,-0.270637,0.360081,-0.192628,-0.436635,-0.489819,-0.624064,-0.643134,-0.345970,0.781034,-0.486818,0.280369,0.221515,0.406732,0.668947,0.183525,-0.823476,0.439603,-0.601710,-0.037337,-0.371297,-0.244458,-0.809428,0.151002,-0.357132,0.974605,-0.555619,0.226037,0.027669,-0.375683,0.722657,-0.129099,0.329008,-0.751602,-0.315478,0.197659,0.216847,-0.146952,0.581710,-0.236941,-0.643859,-0.517066,0.110665,-0.666893,0.423681,-0.929239,-0.783245,-0.108688,0.406201,-0.547981,0.620048,-0.081398,0.956643,-0.748380,0.030107,0.528078,0.574024,0.124625,0.536127,-0.646794,0.506170,-0.573969,-0.504673,0.367994,-0.621805,-0.289563,-0.757562,-0.119156,0.108740,0.137880,-0.376578,0.621903,-0.540801,0.217922,0.399679,-0.722359,0.781233,-0.073928,0.786755,-0.009453,-0.763213,0.209433,0.702914,-0.669691,-0.537912,-0.202628,0.230686,-0.716748,-0.850556,0.526511,-0.356873,0.844320,-0.769464,0.012143,-0.980769,-0.366329,0.206913,-0.499527,-0.117937,-0.265543,0.568501,-0.170453,0.052262,0.088273,0.652682,0.558607,0.669786,0.426619,-0.141959,-0.355333,-0.481257,-0.916691,-0.436029,0.612279,0.800293,-0.515890,0.811806,-0.170629,-0.813524,0.687193,0.942125,-0.674614,0.631719,-0.094220,-0.105730,-0.012473,-0.777387,0.911752,0.664996,0.613737,0.277202,0.148143,-0.556272,0.616609,-0.959735,0.749167,0.681541,-0.505335,0.363127,0.095392,-0.242764,-0.517517,-0.380609,-0.473189,-0.281156,-0.772155,0.754928,-0.328634,0.844169,0.711573,-0.623059,-0.680040,-0.155533,-0.803021,0.763577,0.765235,0.385863,-0.231611,-0.354160,-0.789598,-0.963424,-0.487749,0.927518,-0.785717,0.648407,-0.432120,0.158090,0.426428,-0.644579,0.883712,-0.837513,0.088402,-0.390312,0.868931,0.925507,0.317895,-0.944887,0.858635,0.034445,0.397969,-0.160453,-0.881678,0.534207,-0.727540,-0.666083,0.312038,-0.499989,0.863017,0.126123,0.744861,-0.498293,-0.940721,-0.431416,-0.571681,0.551833,0.250010,-0.804237,0.853370,-0.657015,-0.243701,0.862837,0.531475,0.651946,0.230641
0.022245,-0.251433,-0.169014,0.778493,-0.532716,0.695114,-0.265957,-0.806306,0.360566,-0.024603,-0.196487,0.498661,-0.118101,0.584790,0.135597,-0.799010,-0.142608,0.522735,0.356013,-0.191453,-0.030069,-0.460022,-0.127167,0.445106,-0.582727,0.991412,-0.900255,-0.807464,-0.393983,-0.951457,-0.130652,-0.574250,0.547067,-0.822007,0.363261,-0.767676,0.573402,-0.153582,-0.479251,-0.325012,-0.007349,0.490894,0.223188,0.623751,0.506288,0.782293,-0.016335,0.677620,0.809724,-0.304948,-0.057452,-0.452049,0.437916,-0.689095,-0.861797,0.872153,0.407522,-0.685121,-0.302537,0.913703,0.348632,0.239151,-0.816831,-0.484425,-0.477991,0.488881,0.613967,-0.492638,-0.362999,-0.078156,0.142918,-0.204250,0.833360,0.156943,0.762986,-0.922118,0.859882,0.875069,0.311670,0.418356,-0.582156,-0.892238,-0.543018,0.984483,-0.237392,0.420836,-0.352394,-0.286033,0.759614,-0.971288,-0.483271,-0.669068,-0.335457,-0.264048,0.940529,-0.349571,0.330650,0.850753,0.139264,-0.118197,-0.560300,0.188323,0.312254,0.562124,0.307688,0.422292,0.438422,-0.343507,0.657512,0.492871,0.983321,0.644725,-0.339102,-0.097027,0.313865,-0.560139,-0.804586,0.186098,0.424673,0.255495,-0.429345,-0.641047,0.595570,0.749632,-0.232568,0.246928,-0.762972,-0.509463,0.445338,-0.650182,0.741132,-0.081297,0.600793,-0.443952,-0.109774,0.045931,-0.947507,0.592914,0.577698,0.185194,0.890196,-0.035961,-0.352393,0.073583,0.810086,0.946543,0.179525,-0.710805,0.758043,-0.667623,0.529164,0.156024,0.570136,0.175984,0.829589,0.266734,0.856036,0.458251,-0.768088,-0.536113,0.386205,-0.750227,-0.531866,0.321834,-0.959223,0.907936,0.620910,-0.595558,-0.178122,0.759524,0.491224,-0.602021,-0.745600,-0.715177,0.396342,-0.357711,-0.526824,-0.765024,0.439368,0.693741,-0.830651,-0.184649,0.475588,0.474001,0.278889,0.340373,-0.121061,-0.317272,-0.334405,-0.876367,0.093610,0.701065,0.012406,-0.580240,-0.856231,-0.504437,0.140084,0.299260,0.837971,-0.079461,-0.817804,0.214579,-0.960228,0.856478,-0.320090,0.836803,-0.992905,0.589315,-0.336256,-0.126941,-0.339195,-0.577438,0.204123,0.797384,-0.108739,0.876223,-0.668608,0.933102,-0.507300,0.602422,-0.798534,0.267195,0.075216,-0.691985,-0.317680,-0.916591,0.571396,-0.658504,0.729809,-0.764935,0.382083,-0.729236,0.222733,0.792565,-0.334952,0.733511,0.371212,-0.335633,0.073815,0.432636,0.810896,0.602726,-0.122381,0.308644,-0.386715,-0.065103,0.165413,-0.578933,0.245415,-0.239628,-0.444122,-0.136432,-0.825822,0.754920,0.026646,0.493773,0.514740,0.133655,-0.569882,-0.459786,-0.538285,-0.723826,-0.637777,0.621946,-0.444713,-0.770187,-0.017047,0.523945,-0.783672,0.983921,0.661944,-0.458229,0.564407,-0.738907,-0.156419,0.445931,0.425068,0.233156,-0.889536,-0.813107,-0.865585,-0.554971,0.114360,0.497974,0.323168,-0.036938,0.085724,-0.454273,0.513170,-0.405087,-0.988417,0.482342,0.802277,-0.259903,0.260535,-0.311342,-0.589080,-0.807408,0.107559,-0.000782,0.708432,0.468242,0.047193,-0.039340,0.379499,0.613357,0.070433,-0.520144,-0.325610,-0.024312,0.115232,-0.820129,-0.208879,-0.404103,-0.942132,-0.030387,-0.657110,0.601519,0.811840,0.815044,0.598989,0.812022,0.149323,0.929514,0.268889,-0.016765,0.401912,-0.344160,0.620384,0.271592,-0.305674,0.891269,-0.952834,0.311147,-0.173093,0.033112,0.157702,-0.299799,0.530768,-0.678303,-0.083539,0.221580,-0.773829,-0.984270,-0.877555,0.235105,-0.668742,-0.109752,0.556028,-0.381344,0.116589,-0.599997,0.924149,-0.944338,-0.849822,-0.852070,0.874222,0.227028,-0.411126,0.743674,0.783320,0.241022,0.940059,0.713334,0.300181,-0.484071,-0.872631,0.468759,0.993643,-0.649199,-0.194245,0.683742,-0.706709,0.791288,-0.859866,-0.048636,0.189842,0.211900,-0.973005,-0.087599,-0.268542,0.096112,-0.421999,-0.229605,-0.354857,-0.903743,0.510598,0.898790,-0.438459,-0.869649,-0.925208,-0.988475,-0.890684,0.414690,0.861582,-0.001215,0.890551,-0.090174,-0.861267,0.642211,-0.872891,0.162482,0.489734,-0.709374,0.228589,0.859913,-0.002041,0.814092,-0.816093,0.697392,-0.190287,0.315812,-0.837348,-0.808884,-0.254503,-0.203871,0.236421,0.217363,-0.450516,-0.527321,0.579345,0.950536,-0.821015,-0.800989,-0.237001,0.126074,0.723287,0.973789,0.951649,0.770183,0.241167,-0.059839,-0.408872,0.350581,0.731463,0.295423,-0.908294,-0.194976,0.260958,0.030271,0.380021,0.638454,-0.533359,0.401167,-0.855689,0.234441,-0.799173,-0.165929,0.364635,-0.596075,0.130852,-0.934824,-0.422841,0.408763,0.578108,0.837198,0.729861,-0.328813,-0.942715,0.900576,-0.849155,-0.245093,0.630187,-0.936533,0.738813,-0.421897,0.331457,-0.066739,0.838683,0.770366,0.609798,-0.553933,0.437951,0.385894,0.518691,-0.847805,0.759598,-0.650506,0.367849,0.878251,0.080427,-0.109684,0.164036,0.940891,0.562178,-0.405409,-0.950434,0.800045,0.856477,0.596646,-0.349190,-0.000252,-0.526112,0.101783,-0.718330,-0.034061,0.856811,0.631059,-0.832629,-0.875227,0.362289,-0.045307,0.661825,-0.955483,0.425638,-0.788889,0.050758,-0.609487,-0.198821,-0.100072,0.198508,-0.092311,0.386558,-0.980431,-0.703385,-0.733208,0.509282,0.836692,-0.955942,-0.480918,-0.574342,-0.401995,0.023336,0.610487,-0.438965,0.587136,-0.837450,0.771939,-0.412628,0.288274,0.322121,0.472999,-0.961944,0.515738,0.804844,-0.618004,0.077997,0.174018,-0.585857,0.222889,-0.439306,-0.507075,0.852700,-0.878148,-0.140161,-0.098629,0.656046,-0.100856,0.641210,0.178033,0.857554,0.441512,-0.726550,-0.307277,0.045663,0.691425,-0.048501,0.216305,0.086094,-0.775900,-0.073232,-0.520927,-0.862342,-0.512040,-0.694467,0.229309,-0.516447,-0.204582,0.219620,-0.564834,-0.781131,0.543456,0.770822,0.075063,-0.779504,-0.031220,-0.938493,0.060321,0.527045,0.069860,-0.573458,0.235253,0.651679,0.134650,-0.062066,-0.932137,0.131482,0.537820,-0.334329,-0.280451,0.984854,0.186548,0.367379,-0.751933,0.806060,0.417848,-0.137696,0.266807,-0.781195,-0.641487,-0.568976,-0.760137,0.523880,-0.558869,0.199682,-0.296652,0.668865,-0.285797,0.763346,-0.274498,-0.457122,0.575271,-0.853676,-0.653064,-0.418747,-0.720285,-0.255841,0.989695,0.956910,-0.728840,0.562341,-0.886671,0.360198,0.288068,-0.823642,0.201254,-0.616036,0.308374,-0.648852,-0.663591,0.986570,-0.249967,0.733488,0.872305,0.157766,0.291660,-0.242675,-0.688257,-0.536012,-0.299170,0.931965,0.352478,0.759404,0.048950,-0.629305,0.895849,-0.422900,0.669371,0.572139,0.456582,-0.568294,0.796386,-0.417375,-0.690788,-0.552803,0.468029,0.999315,-0.461199,0.714695,0.581474,0.027080,0.957067,0.615505,-0.050397,-0.521326,0.254390,-0.125572,0.909211,0.072817,-0.346777,-0.310293,0.407637,0.736631,0.482775,0.160666,0.175145,0.137833,-0.628567,-0.059330,0.359896,0.916037,-0.067359,0.969247,-0.507224,0.882842,-0.219014,0.557076,-0.537275,-0.334259,-0.856330,-0.630090,-0.176000,-0.237339,-0.917854,0.984183,0.832177,-0.936370,-0.276746,-0.004175,0.747907,-0.050648,-0.052293,0.048260,0.317290,0.176868,-0.246464,-0.563886,-0.514111,-0.561849,-0.182558,-0.545585,-0.759801,-0.713738,-0.722918,-0.561256,-0.927297,-0.742868,0.511307,0.821137,-0.065955,-0.684752,0.488893,-0.012945,-0.292127,0.405500,-0.968910,-0.602456,-0.235584,-0.725675,-0.462584,0.983497,-0.762691,-0.505229,0.897909,-0.116246,0.275398,-0.777347,-0.647830,0.669579,0.272071,0.384766,0.613141,-0.288761,0.601032,-0.902053,-0.126289,0.814921,0.806710,-0.963939,-0.123302,-0.855295,-0.736903,-0.188406,0.850132,0.902275,0.134603,-0.041057,0.751934,-0.536758,-0.339012,-0.934061,-0.709837,0.957589,-0.258719,0.084415,-0.198934,-0.957327,-0.014514,0.572694,0.825439,0.200674,0.627097,-0.678631,0.443388,0.606627,0.305304,-0.079643,-0.698835,-0.680151,0.229795,-0.176115,-0.957360,-0.791259,0.869111
0.154086,0.329074,0.072764,0.193196,-0.409713,-0.935488,0.450500,-0.504276,0.905988,0.467666,0.500434,0.351007,0.110974,-0.610874,0.459628,0.605699,0.120042,0.551447,0.359638,0.716128,-0.315379,-0.788481,0.817396,0.376447,-0.793641,0.521108,-0.400010,0.881616,0.714143,-0.873075,-0.059402,0.712944,0.615430,-0.573409,-0.201375,0.943691,-0.456698,-0.869256,0.704750,-0.281290,0.567131,-0.469853,0.011786,-0.371076,-0.222136,0.296221,0.387770,-0.474719,0.712623,-0.339874,0.497598,-0.351971,-0.652216,-0.029383,0.419042,-0.223177,-0.428771,0.506077,0.409508,0.402924,0.499917,-0.179159,-0.992927,-0.374088,-0.285900,0.770866,-0.441266,-0.613404,0.017228,0.815708,-0.347590,-0.791060,0.923231,-0.438802,0.833513,-0.258013,0.118319,-0.001697,-0.245937,0.854390,0.162280,0.864041,-0.695736,0.592298,0.186464,-0.513382,0.714326,0.362263,0.215922,0.276651,-0.066680,-0.914501,-0.798767,0.640656,0.529275,-0.731308,0.471755,-0.372321,-0.977700,-0.088733,-0.237897,0.365332,-0.610751,-0.947456,-0.664614,0.511075,-0.925606,-0.082067,0.094005,0.857523,-0.689972,0.542124,0.117718,0.852116,0.940533,0.307062,0.147419,0.328424,-0.350125,0.059640,-0.578118,0.305456,-0.653273,0.319437,0.897111,0.272523,-0.705794,0.106362,-0.591183,-0.330871,0.665793,-0.167061,0.986154,0.884349,-0.689058,-0.054842,0.056308,0.585487,-0.486026,0.035755,-0.274382,0.750215,-0.586169,-0.478065,-0.444796,0.270876,0.812341,0.791024,0.876434,-0.342143,-0.362829,-0.019475,-0.527179,-0.276112,-0.659711,-0.198288,-0.360540,0.135945,-0.513105,-0.635862,0.061953,-0.858888,-0.367338,-0.831124,0.133373,0.120346,-0.756838,0.380228,0.079660,0.961523,0.760983,0.601883,0.709215,0.492133,-0.826370,0.503218,0.711682,-0.084241,0.559407,-0.666981,-0.766775,0.347049,-0.019192,0.607354,0.171313,-0.874648,0.498689,0.300547,0.019772,0.568680,-0.569407,-0.690213,0.759298,-0.051036,0.158655,-0.996255,-0.749821,-0.352788,-0.829438,-0.619229,-0.251708,-0.746973,-0.090250,0.797501,-0.473224,0.436734,-0.362899,-0.968536,0.647169,-0.829874,-0.743636,0.681920,0.145008,0.214244,0.658115,0.749191,0.123218,-0.789867,-0.029672,0.775840,0.247716,-0.978036,-0.316031,-0.314228,0.912935,0.318082,0.974845,0.389424,0.632868,-0.094412,-0.227275,0.669454,0.598182,-0.503120,-0.927492,-0.739840,-0.587904,0.262050,0.629668,0.680059,0.494691,0.505666,0.785518,0.304185,-0.518056,-0.445269,-0.849589,0.518724,0.075988,0.596536,0.382357,0.622098,-0.776083,0.651353,0.239791,-0.811198,0.583191,-0.324560,-0.873989,0.451181,-0.607085,-0.081277,0.571365,-0.286801,0.837091,-0.971427,-0.913798,-0.020260,0.874701,0.476342,-0.569785,-0.942520,0.975704,-0.555032,0.622040,0.001073,-0.600286,-0.694588,-0.952562,-0.948097,-0.827977,-0.227571,0.810281,-0.950084,-0.970457,-0.981276,-0.433882,-0.402886,0.612613,-0.483058,-0.990543,0.836988,-0.472156,0.150601,-0.539302,-0.328461,-0.474735,-0.173122,-0.746399,-0.031304,0.857956,0.602147,-0.252265,-0.359607,-0.239551,0.732888,0.600668,0.986662,0.558370,-0.540717,-0.329554,-0.210524,-0.131051,0.640581,-0.867917,0.266036,-0.887629,0.245784,-0.312790,0.630641,0.089848,-0.740444,0.830531,0.965070,-0.065766,0.141595,0.338050,-0.548726,0.498233,0.154271,-0.626346,-0.242028,0.955036,0.876393,0.337848,0.101376,-0.340269,0.287588,0.656660,-0.753896,-0.924771,0.385552,0.705839,0.507853,0.044570,-0.643636,-0.159045,-0.413751,0.832764,0.622301,0.397577,0.120809,-0.280414,-0.552421,0.004488,-0.894291,-0.915955,-0.460137,-0.359034,-0.579359,0.849055,-0.267911,-0.039468,-0.800418,0.863883,-0.538362,-0.079008,-0.639550,-0.159028,-0.911515,-0.045544,-0.423570,-0.938362,-0.399628,0.276300,-0.273836,-0.810389,0.071727,-0.706536,0.380727,-0.664135,-0.604315,0.938928,-0.108359,0.057578,-0.109030,0.689613,-0.782571,-0.029320,0.379326,-0.007213,-0.006949,0.632401,0.261165,-0.044081,-0.772994,-0.949029,0.887030,0.394236,0.800250,0.635380,0.562499,-0.788604,-0.125796,0.216113,0.522711,0.005208,-0.385219,-0.092565,0.926606,0.615951,-0.153024,-0.324825,-0.029778,-0.976255,-0.546215,-0.652875,-0.193392,0.099263,0.377436,-0.003216,-0.759194,0.803348,-0.147241,0.554354,-0.347062,-0.710280,-0.829353,0.991756,0.008201,-0.635398,-0.081202,0.991115,-0.085008,-0.682332,-0.910366,0.951230,0.070491,0.095912,0.050527,0.871123,-0.562714,0.807893,0.647332,0.838901,-0.246637,-0.031660,-0.893387,0.465342,0.924161,-0.339590,0.972074,0.367673,0.308224,-0.350147,-0.747884,-0.155928,-0.942444,-0.481350,0.253947,0.286462,-0.120117,-0.976571,-0.652278,-0.477462,-0.722352,-0.629769,-0.016298,0.404379,-0.320759,-0.117366,-0.466440,-0.598767,0.573844,-0.258770,0.988730,-0.437922,-0.796047,-0.135667,-0.622676,-0.333601,0.506575,-0.089115,-0.522794,-0.859036,0.713402,0.213330,0.343553,-0.673992,-0.228227,0.784251,-0.762506,0.034164,-0.206672,0.887009,-0.711000,-0.569055,0.443600,-0.957431,-0.904867,0.207306,-0.160178,-0.525065,-0.572340,0.328633,0.428849,-0.295814,-0.589672,-0.407852,0.961389,-0.170525,-0.441280,0.491443,-0.632311,0.103922,-0.368582,-0.524309,0.953813,-0.648643,0.102485,-0.889382,0.351969,-0.019761,0.164274,-0.208024,-0.809126,0.845000,0.973249,0.533282,0.614728,0.492797,-0.445180,0.707244,0.355974,0.207749,0.394150,-0.290995,0.627182,-0.988158,0.296502,0.160402,0.726391,-0.501895,-0.106801,0.199285,0.692921,0.723264,-0.926114,0.935728,0.177051,-0.114466,0.118738,-0.393908,0.543329,0.438895,-0.292128,0.805613,0.375950,-0.856788,0.036970,-0.337393,-0.719993,-0.997692,-0.823864,-0.552186,-0.925408,0.416060,0.369070,0.527880,0.038802,0.750087,0.333496,-0.144129,-0.668319,0.205010,-0.082945,-0.191154,-0.876013,-0.624234,-0.632747,-0.837990,0.023078,-0.622074,-0.053711,0.730383,-0.774090,0.863997,0.995343,0.877880,0.183042,0.664063,-0.864468,0.682251,-0.915590,-0.822294,0.501105,-0.435480,-0.872864,0.971734,-0.747912,0.208199,-0.129345,-0.563264,-0.085077,-0.467645,0.159868,0.809963,0.135872,-0.718219,-0.718886,-0.841388,0.857194,0.746181,0.603951,-0.608575,-0.795796,-0.127587,0.229733,-0.765679,-0.702691,0.319840,-0.614127,-0.949170,0.589653,-0.508636,-0.831064,0.650410,0.439700,0.798731,-0.855463,-0.814116,0.016688,-0.406012,-0.220625,0.649161,-0.410198,-0.132965,-0.254759,-0.769155,0.549926,-0.996641,0.496296,-0.610998,0.148158,-0.219851,0.820631,0.769226,0.867899,0.494664,0.618294,-0.954772,-0.280815,-0.039788,-0.528332,-0.043937,0.999797,-0.244158,0.579824,0.159368,-0.193173,-0.189721,0.453457,-0.791494,0.577389,-0.798552,0.949695,0.898967,-0.296187,-0.132001,0.218897,0.592028,0.988681,-0.911271,-0.665680,-0.122537,0.774979,0.081474,0.635358,0.293389,0.559522,-0.431479,-0.222159,-0.205550,-0.651730,-0.270785,-0.198131,0.695080,0.758208,-0.642313,-0.118636,0.443312,0.014725,-0.232834,-0.046387,0.940672,-0.504440,0.005711,-0.387885,-0.945016,0.406858,0.707183,0.856096,-0.483261,0.161961,-0.928684,0.917221,0.251352,0.848271,0.009974,0.675656,-0.783160,0.796368,0.433441,0.151412,-0.430044,-0.262977,-0.293176,-0.288143,0.590747,0.858093,0.748607,-0.686697,-0.516908,-0.725874,-0.632011,-0.848294,0.903107,-0.644011,-0.710908,0.547537,0.854394,-0.105283,0.240471,-0.463416,-0.310749,-0.324667,0.734905,-0.806811,0.027944,-0.040954,0.057234,-0.861781,0.133366,-0.448748,0.142452,-0.862750,-0.679356,-0.488142,0.398852,0.436505,-0.234016,-0.191285,0.035672,0.145234,0.520310,0.663080,-0.033658,-0.719981,-0.397225,-0.860723,0.524872,0.457860,0.776941,0.268494,-0.540795,-0.035690,-0.704542,0.043286,0.627577,-0.695843,0.274816,0.836688,-0.973225,0.479294,-0.993579,0.920531,0.973528,0.520950,0.517317,-0.407707,-0.431005,0.474504,0.715291,-0.722048
0.250953,-0.337920,0.075563,-0.640281,-0.669550,0.399421,-0.798711,-0.561846,-0.508188,-0.684456,0.866151,0.385449,-0.398886,-0.970233,-0.319108,-0.675333,0.726054,-0.199759,0.439930,0.195877,-0.479595,-0.552946,-0.677626,0.939897,-0.766269,-0.958827,-0.418433,0.783548,-0.510673,0.093012,-0.304829,0.515699,-0.179492,-0.939170,0.519291,0.484122,-0.214080,-0.389612,-0.092046,-0.113734,0.259431,0.958723,-0.987724,0.225725,-0.996403,-0.142880,-0.326417,-0.370667,-0.910933,0.602869,0.667226,-0.588279,-0.235645,0.405314,-0.320062,-0.892285,-0.199635,0.326008,-0.317096,-0.327311,0.246174,-0.570939,-0.004358,0.406785,0.678545,-0.032725,-0.131824,0.728891,-0.109018,-0.794686,0.721051,0.568628,0.312545,-0.954936,0.097023,-0.465485,0.240298,0.657764,0.340542,0.391273,-0.126810,-0.118685,-0.778987,0.845876,-0.039018,0.148540,-0.427426,-0.701330,-0.455261,0.347383,-0.332671,0.825032,-0.316474,-0.552029,-0.268170,0.658846,0.898541,0.403312,-0.778972,0.857302,-0.410754,-0.737062,-0.607048,-0.975394,-0.312635,-0.276744,0.894921,-0.759144,0.289458,0.055064,-0.612177,0.721039,0.293455,-0.804558,0.922424,-0.780958,-0.857103,-0.204209,0.246275,-0.504459,0.072779,-0.017418,-0.203477,-0.379849,0.155138,-0.971789,-0.994977,-0.095246,0.795284,-0.752002,0.786770,-0.879756,-0.524280,-0.974807,-0.692350,0.412009,-0.053772,-0.244071,0.031500,0.270876,-0.309697,0.235264,0.706167,-0.449788,0.609163,-0.673039,-0.404428,-0.966841,0.898009,-0.134272,0.102627,0.418912,0.594774,-0.524271,0.368353,-0.024102,-0.478157,0.752413,0.582933,0.726314,0.659769,-0.496388,0.953154,0.215848,0.090614,-0.569621,0.536262,-0.007803,-0.196867,-0.261832,0.408138,-0.220199,0.966785,-0.370368,0.677872,-0.216095,0.494281,0.269797,0.932133,-0.376413,-0.119598,-0.311390,-0.630741,0.695327,0.451663,0.668045,0.340402,-0.226502,0.701559,0.350556,0.061922,0.801777,0.896558,-0.895629,-0.170323,-0.152156,-0.869358,0.708330,-0.116201,-0.596750,-0.890200,-0.623944,-0.410996,-0.166524,-0.470743,-0.001993,-0.681834,0.032545,0.259526,-0.216510,0.259999,-0.676277,0.025653,0.124049,0.850186,0.715468,0.614246,0.524811,-0.975146,0.919523,-0.811350,-0.948764,-0.058127,-0.199883,-0.151216,0.690474,0.363716,0.151403,0.029368,-0.592597,-0.204808,0.847120,0.116526,-0.715648,-0.813377,0.377206,-0.514879,0.708171,-0.470309,0.721358,0.719616,-0.377213,-0.597228,-0.987716,-0.959716,-0.613529,0.280646,-0.085657,0.039008,-0.592038,0.855323,-0.808337,-0.715844,-0.015966,0.449673,-0.336620,0.876058,0.173912,-0.095971,-0.718602,-0.036607,0.282611,-0.150899,-0.250503,-0.483749,0.799890,-0.511412,0.901379,-0.501054,0.408583,0.548899,0.953914,-0.350713,0.196862,-0.384019,-0.258858,-0.029790,0.569161,0.206291,0.626276,-0.452277,-0.850840,-0.105724,-0.526672,-0.001563,0.378700,-0.104841,0.989937,0.323294,0.731148,0.090817,-0.778342,-0.479207,-0.709289,-0.805049,-0.569478,-0.254440,0.231588,-0.531276,0.748758,0.190753,0.360706,-0.686473,-0.941465,-0.205800,0.713257,-0.863878,-0.439018,0.426951,-0.467364,0.174412,-0.849464,0.774864,-0.567469,-0.157571,0.317822,-0.340477,0.417541,-0.819480,-0.988628,-0.614792,0.971513,0.046930,0.945012,0.290826,0.329372,-0.896176,-0.294079,0.488739,0.665998,-0.425824,0.953396,-0.009521,-0.783895,-0.644510,-0.162037,-0.101827,-0.139721,-0.470736,0.711662,0.349358,-0.586835,-0.106409,0.223125,0.365216,0.074550,0.799040,-0.343711,0.070883,0.132907,0.435437,-0.299284,-0.748622,0.129971,-0.380306,0.309152,0.286650,-0.107093,0.226884,0.448326,-0.463399,-0.551292,-0.764229,0.509598,0.617036,0.813585,0.330310,-0.465455,-0.494834,0.742875,0.170049,0.200790,0.562587,0.366849,-0.645825,-0.015475,-0.283399,0.442628,0.422190,0.597885,-0.380388,-0.936593,-0.069216,-0.231934,0.215613,0.914162,0.771844,-0.424153,0.475618,-0.497847,0.617464,0.573207,0.504849,0.550342,0.190807,0.873488,0.566497,0.424349,-0.344146,0.258815,0.054130,0.240989,-0.309430,-0.038221,-0.455594,0.419088,-0.626669,0.683147,0.151200,0.247873,0.793256,-0.847697,-0.069774,0.203961,0.390597,0.912236,-0.249905,0.377689,0.332422,-0.985314,-0.315198,-0.119515,-0.198001,0.665529,0.467253,-0.192778,0.053043,-0.654457,-0.127299,-0.735561,-0.339932,0.255802,0.040282,-0.394573,0.142677,0.363683,-0.000462,-0.159684,-0.828623,0.364977,0.535474,-0.117671,0.374053,0.746012,0.238790,0.213058,-0.247206,-0.680116,-0.649243,0.839928,0.652870,-0.362715,0.859572,0.146833,0.526791,-0.236710,-0.350216,-0.157697,0.565406,-0.100570,0.939698,0.660500,-0.408612,0.057344,-0.865554,0.993978,0.846037,0.003853,-0.393718,0.695152,-0.577446,0.946125,-0.209662,0.954950,0.007306,-0.217727,0.796528,-0.578115,0.013409,0.324695,0.823481,-0.223352,-0.179000,-0.320774,0.725625,-0.791046,0.920866,-0.094912,0.338456,-0.008612,-0.034674,0.689332,0.978773,0.743833,0.081359,0.972086,0.948215,0.221544,-0.222842,0.122952,0.398229,-0.528605,0.556729,0.761245,-0.082143,-0.110157,-0.663136,-0.479263,-0.276107,0.835110,0.990257,0.561072,0.164405,-0.004312,-0.983662,-0.345903,0.580751,-0.439592,-0.083791,0.796018,0.646804,0.522307,-0.171322,-0.367197,0.717304,-0.260194,0.267501,0.059906,-0.368683,0.875169,0.262508,-0.551328,0.525474,0.374098,0.355874,-0.174243,-0.025625,0.024970,-0.941453,-0.579758,0.805799,0.557026,-0.034727,-0.240737,-0.265795,0.552098,-0.897632,-0.137185,-0.179740,0.439301,-0.374113,-0.624818,-0.080232,0.187339,-0.781536,-0.805528,0.736570,-0.887085,0.173937,-0.463356,-0.372833,-0.180889,-0.004359,-0.258985,-0.089636,0.126314,0.199669,0.637245,-0.545039,-0.941756,-0.874684,0.304711,-0.025983,-0.972402,-0.735342,-0.309074,-0.026688,-0.945772,-0.327543,0.183617,-0.454794,-0.379380,-0.851009,-0.867227,0.659308,-0.736892,-0.616458,0.517367,-0.465751,0.455723,-0.507146,0.190962,0.276857,0.454311,-0.843642,-0.915840,0.906196,-0.150607,-0.653361,-0.090058,0.415669,0.233658,0.626093,0.444740,-0.194259,0.461372,-0.124072,0.498529,0.672398,0.084978,0.312780,0.549117,0.390545,-0.005184,0.999085,0.731139,0.226156,-0.525302,0.121835,0.688799,0.334524,0.936302,-0.728287,-0.785573,0.060313,-0.595830,0.731540,-0.025162,0.613638,0.697467,0.148299,0.349788,0.388254,0.444906,-0.380275,-0.951310,0.912553,-0.261816,0.626005,-0.006823,-0.888258,0.595405,-0.931035,0.509049,0.455758,-0.295296,0.315909,0.687988,-0.977837,0.621883,0.994814,-0.228332,0.231508,0.478159,0.733377,-0.620568,-0.172527,0.057602,0.424254,0.910003,0.432978,0.186237,0.274482,-0.154204,0.116936,0.913134,0.767005,0.638802,0.128251,-0.679644,-0.680676,0.993740,-0.312794,-0.247278,-0.900288,-0.482978,0.732269,0.709119,0.005793,0.427740,0.158794,-0.871777,-0.454490,-0.139699,0.506362,-0.785674,0.663029,0.433109,0.091964,0.387670,0.978693,-0.195186,0.502963,-0.189789,0.491498,-0.407160,-0.712579,0.862529,0.120054,-0.256872,0.228421,-0.356774,-0.684089,-0.317988,0.778199,0.907857,0.346525,-0.495713,-0.417171,-0.392982,0.753918,0.569680,0.105775,-0.555450,-0.559819,-0.255163,0.435017,-0.333294,0.686722,-0.034490,-0.407764,0.523981,-0.592371,0.258927,-0.261534,0.361085,0.572760,0.039654,-0.088735,0.733829,-0.831525,0.048952,0.221241,-0.091253,-0.684908,0.695802,-0.694601,0.481093,0.827181,0.810712,-0.262521,-0.887276,0.472632,-0.131276,-0.462573,-0.096730,0.757253,0.051235,-0.404912,0.157526,-0.328970,-0.069654,-0.241862,-0.492952,0.524778,0.346891,0.900776,0.304887,0.622606,0.646013,0.893996,0.485429,-0.081194,-0.859989,0.674339,-0.038747,-0.807720,-0.361129,-0.591110,-0.485713,-0.104351,-0.326359,0.127484,0.449094,0.615255,0.537438,0.291542,-0.678833,-0.155780,0.315778,0.757840,-0.966427,-0.757568,0.372250
0.042284,-0.881598,0.482822,-0.695890,-0.904873,0.401405,-0.569548,-0.068595,0.142581,0.260790,0.547318,-0.598936,-0.062486,0.844248,-0.113730,0.605137,-0.069813,-0.490615,0.819179,0.751704,-0.322572,-0.129128,0.734154,-0.485694,0.138985,-0.099209,-0.238074,0.887010,0.223995,0.632495,0.495758,-0.347844,-0.882856,-0.878602,-0.512533,-0.886434,-0.619212,-0.910941,0.815104,0.987442,0.435287,0.166186,-0.919007,-0.498447,0.256169,-0.431447,0.382459,0.766532,0.633086,0.475264,-0.095440,-0.043941,0.767410,-0.264749,0.256972,-0.642272,-0.287155,-0.814906,-0.624482,-0.006852,0.599903,-0.201212,0.513917,-0.899964,0.097106,0.092098,-0.409573,-0.057575,0.609148,-0.153770,0.818143,-0.650923,0.044416,0.675527,0.923236,0.424869,0.154716,-0.476460,0.436235,-0.734172,0.620039,-0.839202,0.821615,-0.271184,0.759644,0.237609,-0.238407,-0.767822,0.993206,0.974426,0.298249,0.752329,0.320634,-0.296544,-0.958568,0.242131,-0.718527,-0.294536,-0.811857,0.261019,-0.589830,-0.751609,-0.130550,0.879372,-0.123999,-0.278265,-0.369811,0.941447,0.573451,0.472336,-0.892210,0.481154,0.590916,-0.847274,0.329884,-0.629956,-0.307534,-0.007359,-0.480355,0.781314,-0.757668,-0.426834,-0.421643,-0.348396,-0.550702,0.117158,0.810185,-0.627275,0.115468,0.956404,0.582274,-0.020237,0.127287,-0.657947,-0.658717,0.057121,0.413676,0.927885,0.824542,0.993834,0.170943,0.084443,-0.346569,0.220824,0.151346,-0.525075,0.476228,0.744951,-0.959393,0.148511,0.806815,-0.711279,-0.453328,0.724643,0.664248,-0.324395,-0.934739,-0.973326,0.452884,-0.350792,-0.822829,0.380148,-0.068434,-0.778699,-0.542137,0.779400,0.652562,0.672148,-0.978100,0.875275,-0.990788,-0.437726,0.151932,0.282372,-0.639290,0.520485,0.036143,0.423215,0.991057,0.204997,-0.660012,0.457622,-0.505325,-0.258823,-0.247304,0.429437,-0.132849,0.167257,-0.758636,-0.185469,-0.718597,-0.889922,-0.637153,-0.112081,0.475395,0.281906,-0.410009,0.248993,-0.716472,0.046094,0.590021,-0.678052,0.707479,-0.905387,-0.214736,-0.507200,0.454793,-0.543860,0.316623,-0.641793,0.166328,0.612565,0.304043,0.478581,-0.123002,-0.004869,-0.361546,-0.370030,-0.859120,0.233441,-0.515046,-0.957005,0.823887,-0.007986,-0.378548,0.269907,-0.942420,-0.023171,0.751559,-0.177568,-0.414064,0.975631,-0.704648,0.873427,-0.896712,-0.435796,0.626940,0.487008,-0.399746,0.131764,0.953880,-0.893329,0.118217,0.476665,0.504006,-0.236599,0.449305,-0.636335,-0.991075,-0.521196,-0.204111,0.236510,-0.900841,0.057187,0.973894,0.239904,0.654404,-0.794460,0.376655,-0.762804,0.862082,0.039492,-0.741309,0.868026,0.484161,0.213610,-0.022621,-0.543169,-0.152301,0.412187,-0.913334,0.212725,-0.662628,0.898092,-0.082854,0.833024,-0.528096,0.715503,0.795921,0.293761,-0.197505,0.727831,-0.183189,0.248953,-0.503831,-0.201887,0.109692,0.315165,0.055898,0.258166,0.951377,0.631230,-0.749063,0.115937,-0.288546,-0.036385,0.643284,0.481138,-0.428178,0.732549,-0.648018,-0.635038,-0.770638,-0.797967,-0.300371,-0.658491,-0.457658,0.131050,-0.219224,-0.193348,-0.014969,0.211746,0.717647,-0.109651,-0.001936,0.754112,-0.403248,0.429187,0.251769,0.956021,-0.233029,-0.963912,0.471261,-0.079092,0.373502,0.886369,0.761244,-0.214963,0.289509,0.745924,0.030556,-0.927724,-0.905130,0.652474,0.142870,-0.479234,-0.658527,-0.482331,0.306878,-0.056134,0.757371,-0.646554,0.763450,-0.033623,-0.934934,-0.711390,0.335641,-0.671745,-0.393505,-0.552775,-0.651593,0.063848,0.239416,0.187475,0.680824,-0.881553,-0.847114,-0.518560,-0.468628,0.910477,0.371413,0.853388,0.233141,-0.182272,0.966470,-0.724505,-0.719637,0.293418,0.468611,-0.304307,-0.976263,-0.439781,-0.443305,-0.724961,0.854547,0.384205,0.857976,-0.004004,-0.952719,-0.139815,0.439687,-0.538919,0.251118,-0.962465,-0.921948,-0.013141,-0.459698,-0.706115,0.652311,-0.351042,-0.854953,0.290821,0.981239,-0.825067,0.169990,-0.142752,0.314306,-0.645924,-0.565583,0.981829,0.521163,0.171297,0.079207,-0.279807,-0.654357,-0.904611,-0.803071,0.669222,0.205807,0.025601,-0.969901,0.817050,-0.232522,-0.896192,-0.782369,0.707006,-0.020344,0.650455,0.514703,0.429831,-0.388075,-0.476507,0.975688,-0.114416,-0.743558,-0.969077,-0.336432,-0.940676,0.762632,0.131264,-0.663284,-0.671537,0.597721,0.966639,-0.066830,0.488198,0.799476,-0.960206,0.467359,0.934205,-0.621333,0.746832,0.860268,0.906534,0.899214,0.834150,-0.782230,-0.961473,0.329883,-0.566554,0.980001,-0.997755,0.426448,-0.661420,-0.474113,0.187606,0.944149,-0.352502,0.620369,-0.222757,0.190387,-0.995313,-0.376242,-0.025049,-0.650222,0.900631,-0.556651,-0.060730,0.285093,0.054618,-0.217694,-0.323680,-0.902358,0.606484,0.594197,0.498206,-0.453183,-0.840827,-0.251349,-0.864195,0.270217,-0.667686,0.846461,-0.076289,-0.590987,-0.055073,0.748041,-0.994740,0.395820,0.452054,-0.869153,-0.417067,-0.368478,-0.273505,0.205227,0.382977,-0.475319,0.991254,-0.490455,-0.083889,-0.462060,0.569488,0.168293,0.404872,0.896445,-0.232618,0.655036,0.090102,-0.751435,-0.852404,0.646259,-0.582118,-0.320411,0.100646,0.014144,0.931718,0.264155,0.971752,-0.597784,-0.485698,0.508823,-0.582710,0.588029,0.526353,0.806844,0.089411,0.949849,0.897091,0.741353,0.784750,0.784020,0.465021,0.755711,0.536654,-0.126047,0.361039,-0.148421,-0.643577,-0.761743,-0.504232,-0.695383,-0.892757,-0.799250,0.169027,-0.952428,0.038272,0.750366,0.262166,0.277850,0.353557,0.028800,-0.060142,0.198975,-0.509904,-0.313655,-0.730551,-0.397601,-0.528677,0.357058,0.589939,-0.781654,0.285762,-0.232619,-0.843713,0.322609,-0.104220,0.566008,0.887728,0.974450,0.887529,0.739971,0.519837,0.342415,0.655096,0.489531,-0.424205,0.722973,0.064917,0.696248,-0.124500,-0.935382,-0.478748,-0.858993,-0.027876,0.663954,0.527312,0.715572,-0.063623,-0.847648,-0.601486,0.393769,0.007505,-0.482359,-0.746085,-0.588036,-0.794742,0.168266,-0.725238,-0.414608,0.347120,-0.972577,0.317934,0.392984,-0.988030,0.030821,0.946192,-0.946200,-0.751381,-0.962320,-0.751688,-0.698873,0.212538,-0.232534,0.158341,-0.704377,0.406394,-0.879048,0.486237,0.255936,0.222987,0.182688,-0.227486,-0.483431,-0.534601,0.228270,-0.648448,0.684054,0.354980,0.172634,-0.194885,-0.176948,-0.661215,0.866643,-0.208976,-0.663790,-0.988533,-0.327544,0.703857,0.113801,-0.474543,0.273380,-0.521281,0.971840,-0.661100,0.617467,0.143638,-0.916423,-0.604100,-0.925369,-0.729354,-0.595582,-0.929430,-0.614336,0.849893,-0.392408,-0.694597,-0.702780,-0.964302,0.178685,0.362142,0.257937,-0.879013,-0.076413,-0.510785,-0.172375,-0.007236,0.586117,0.567165,0.328909,-0.126847,-0.949256,-0.969227,-0.598388,-0.726866,-0.787667,0.706317,0.146138,0.443480,0.689627,0.726671,0.255211,0.501953,0.528701,-0.704605,0.036955,-0.551628,0.821417,0.803059,0.270050,-0.954611,-0.384087,-0.447315,-0.903313,0.241423,0.371397,-0.087217,-0.383660,-0.415659,0.798332,0.628176,0.440867,-0.693902,-0.476542,0.458424,0.716170,-0.770259,0.363809,0.925854,0.908924,-0.940466,0.315642,0.300125,-0.723730,0.896021,-0.939733,-0.949686,-0.538476,0.074351,0.781682,0.192996,-0.755975,-0.542536,-0.971701,0.148378,0.599943,0.343373,0.360816,-0.538199,-0.664950,0.569980,-0.288178,-0.724107,0.820006,-0.560127,-0.523781,0.741749,-0.053970,-0.882033,-0.408431,-0.677347,-0.813073,0.097568,0.046457,-0.806999,0.833997,-0.693431,0.710408,-0.632576,-0.457583,0.971384,0.517830,0.699992,-0.846896,-0.654627,-0.763164,-0.110498,-0.751959,-0.120807,-0.050513,-0.709851,0.468641,0.065902,0.397237,0.939849,-0.794942,0.919098,-0.248782,-0.944758,-0.280825,0.240549,0.877373,0.099931,-0.608034,0.120454,0.433541,0.986756,0.719971,0.616912,-0.517523,0.337715,-0.272486,-0.980213,0.494543,0.596638
0.419672,0.703519,0.145308,0.207404,-0.611305,-0.354881,-0.766616,-0.667656,0.582383,-0.768930,-0.674223,0.272765,0.768795,0.055532,0.303843,-0.396880,-0.835503,0.993883,-0.893839,0.546897,-0.449926,0.847001,-0.498403,0.150424,0.356330,0.053499,-0.494480,-0.114324,-0.810715,0.337399,-0.207409,0.116290,0.636620,0.580551,0.561789,-0.539081,0.143913,0.573180,-0.302653,0.862939,-0.449277,-0.585003,-0.599791,0.621364,0.425739,0.815519,-0.167563,-0.139783,-0.896995,0.350207,0.549086,-0.044027,0.341341,0.411702,0.180549,0.185434,0.007285,0.542894,0.194866,-0.389315,0.457755,-0.296566,0.374538,-0.101514,0.528082,0.409698,0.778294,-0.603735,-0.600678,-0.973434,-0.303722,0.329783,-0.988676,-0.119943,-0.684732,-0.028194,-0.810239,0.492485,-0.567851,-0.020861,0.855429,-0.209700,0.073380,0.967897,0.307686,-0.557991,0.089747,-0.110426,0.490438,0.765531,0.600407,0.052563,0.005905,0.059560,0.902912,0.120549,0.875734,0.033544,0.286942,-0.609547,0.704405,-0.507266,0.812931,0.781059,0.851109,-0.382090,-0.852658,-0.839605,0.565451,-0.321575,-0.928222,-0.037011,0.743904,0.238142,-0.377439,-0.394513,-0.582507,-0.885861,-0.171347,-0.249885,-0.658824,0.900571,-0.459227,0.517432,0.307456,0.638037,0.663728,-0.840212,0.490143,-0.785273,0.226537,0.821233,-0.918311,-0.708647,0.217351,-0.359659,-0.478448,0.699574,-0.680326,-0.634032,-0.578914,-0.547018,-0.229318,0.074327,0.138199,0.352188,-0.065839,0.338399,0.821939,0.603951,-0.146809,-0.649405,0.402361,-0.461589,0.136256,0.938513,0.620649,-0.015796,0.243904,0.112534,0.027929,0.361334,0.333435,-0.671468,-0.201148,0.073929,0.451722,-0.003998,-0.225560,0.888656,0.390058,0.636443,0.666285,-0.476210,-0.342189,-0.917713,0.058147,0.738284,-0.733848,-0.803459,0.210137,-0.745418,0.136919,-0.693077,-0.075334,-0.189117,-0.185172,-0.327403,0.797925,0.790451,-0.657816,-0.232181,-0.171107,0.323007,-0.890880,0.551330,-0.785649,0.339528,-0.960663,0.486487,-0.588332,-0.003604,0.775046,0.028935,0.766927,0.792293,-0.814998,0.350066,0.456899,-0.433912,0.647327,0.900322,-0.946099,-0.367467,0.016027,0.463374,-0.235098,-0.688525,0.833577,-0.565419,0.901881,-0.393572,-0.435553,0.804107,0.560130,0.808129,0.905919,0.825347,0.135406,0.967845,0.627412,-0.823472,0.326329,0.732076,-0.823773,0.825175,-0.249293,0.226779,0.565438,-0.846592,0.568554,-0.621034,0.081846,-0.651354,0.784445,-0.059034,-0.993835,0.509836,0.863387,0.458241,0.337397,-0.348970,-0.408705,-0.153171,0.260704,-0.441462,0.542950,-0.839238,-0.088776,0.442814,-0.103722,0.157849,0.692517,0.072689,-0.710807,-0.380674,-0.897656,0.383945,0.520277,0.802829,-0.640865,-0.012346,0.762996,0.675884,-0.678526,-0.358397,-0.113844,-0.785780,-0.618299,-0.256479,-0.710133,0.804730,0.549241,0.114682,-0.665283,0.910441,0.406770,-0.515206,0.592667,0.864462,0.942150,0.128228,0.722324,0.450584,-0.956182,-0.386863,-0.057903,-0.646529,0.742284,0.811152,0.081672,-0.673836,0.099435,-0.350250,-0.425985,0.304127,-0.134526,-0.992547,-0.142810,-0.800938,0.598075,-0.783666,-0.047882,-0.196926,0.806060,0.942527,0.140536,0.335640,0.896229,0.065834,0.560790,-0.946065,0.856017,-0.448814,-0.265196,0.897010,0.990313,-0.390119,-0.593024,0.437585,0.125720,0.107247,0.548985,-0.124186,-0.522215,0.462344,-0.609226,0.014728,0.956896,0.474279,0.203708,-0.307940,-0.717355,-0.740157,-0.050403,0.509267,-0.342687,-0.392111,-0.121979,0.112391,-0.571060,0.439472,0.155474,0.454342,0.571074,0.800463,-0.657778,0.922710,-0.672037,0.782477,-0.551270,-0.510966,-0.109726,-0.216115,0.069665,-0.208718,-0.959237,-0.963429,-0.610421,-0.630409,-0.128919,0.386830,-0.567309,0.420990,0.951449,0.141318,0.647767,0.752980,-0.829847,0.938497,0.902590,-0.139298,-0.479509,-0.848491,0.064195,-0.618372,-0.963521,0.189357,0.354459,0.069721,0.745651,-0.903722,0.733596,-0.640954,0.737650,-0.295095,-0.460540,0.076496,-0.371373,-0.125348,0.852837,0.178032,0.510413,0.967683,0.710539,0.134508,-0.373790,0.586797,-0.420363,-0.803874,0.099581,-0.641954,0.553086,-0.013108,-0.603758,0.144744,-0.102504,0.600608,-0.825549,-0.444123,-0.629358,0.231369,0.017685,-0.913009,0.815287,0.826680,0.953672,0.688695,-0.675921,-0.592315,0.483605,-0.611159,-0.308406,0.579333,0.573519,-0.859988,-0.807446,-0.647332,-0.067176,0.799828,0.377073,0.960295,-0.403170,0.725101,-0.650733,-0.707948,0.033563,-0.718259,-0.386838,-0.171658,-0.403599,-0.604196,-0.931454,-0.434643,-0.175807,0.647154,0.606241,0.343068,-0.664608,0.591925,-0.862765,-0.995736,-0.642391,0.468075,-0.305678,-0.057450,-0.893396,-0.210293,-0.690767,-0.305553,0.544000,-0.224851,-0.063880,0.874405,-0.245948,0.190640,0.962391,-0.483829,0.802423,-0.765898,0.063094,-0.926014,0.724313,-0.737471,-0.645465,-0.827828,0.265062,-0.937087,-0.042154,-0.590389,0.751837,0.308112,-0.583548,-0.231425,-0.230547,-0.603214,0.596203,-0.266764,-0.370816,0.331307,-0.080810,0.173233,0.739413,0.941868,0.000100,0.041833,0.497305,-0.061822,0.141432,0.992101,-0.881605,0.227703,-0.858517,-0.920821,-0.617423,0.516691,-0.462603,0.646726,0.417380,-0.214864,-0.096793,0.665746,-0.267241,0.486079,0.672530,0.183752,0.670385,-0.405248,0.352060,-0.504937,0.853044,0.297994,-0.547311,-0.807810,-0.765663,-0.226366,-0.909563,-0.906404,0.818961,-0.899359,-0.001662,0.697757,0.718356,-0.822566,-0.172042,0.822996,-0.276528,0.729608,0.418041,0.308481,-0.114592,-0.357989,0.064236,-0.888623,-0.394860,0.510185,-0.118457,0.283451,-0.120691,-0.644806,0.870667,0.345945,-0.117656,-0.734031,-0.953541,-0.088915,0.343069,0.879613,-0.725167,0.969551,0.920867,-0.487121,-0.678310,-0.655244,0.771096,-0.068430,-0.083046,-0.863895,0.381950,-0.870958,-0.446397,-0.050084,0.071367,-0.934695,-0.355993,0.067892,0.328510,-0.660895,-0.882355,0.587059,0.446723,-0.452469,0.794902,-0.576414,0.731604,-0.898236,0.872901,0.687852,-0.262263,-0.820688,-0.587769,-0.438201,-0.834809,0.263873,0.278232,0.811402,-0.045524,0.122832,-0.616594,-0.063236,0.559927,-0.708457,0.832316,0.091154,-0.136690,-0.264099,-0.182429,-0.956292,0.436339,0.212056,-0.454639,-0.710741,0.357197,0.310291,-0.448390,0.929343,0.120825,-0.341374,0.678960,-0.035936,0.275086,0.962486,-0.086166,0.923786,-0.628566,-0.690745,-0.945188,0.657998,-0.681032,0.072091,0.665580,0.130684,-0.628953,-0.807128,-0.330570,-0.642144,0.741787,0.995144,0.771787,-0.006269,-0.176851,0.531571,0.509278,-0.726703,-0.812502,0.956573,0.800200,0.539044,0.148176,-0.626822,0.905813,0.301312,0.170430,-0.209044,0.641721,0.683408,0.685601,-0.446697,0.834847,0.761765,0.585982,-0.232284,-0.827497,0.075840,0.919265,0.750846,-0.516733,-0.472569,0.371781,-0.042749,-0.519660,0.161149,-0.510506,0.975796,0.047779,0.807702,0.683778,0.335041,0.264219,-0.757188,-0.121803,0.687197,0.685529,0.630612,0.449182,0.685116,0.781417,-0.446693,-0.581632,-0.344970,0.449918,0.150033,-0.293156,0.776425,-0.729179,-0.470092,0.538619,-0.011534,0.212322,0.522613,0.435899,0.195096,0.329191,0.166490,0.283903,-0.433728,-0.905715,-0.576129,0.957395,-0.832382,-0.833819,-0.205037,0.395268,0.707002,0.454353,-0.433423,0.547902,-0.176305,-0.310990,-0.761545,-0.323592,0.191977,-0.131469,0.968778,0.288803,-0.562764,0.420010,0.108616,-0.534865,-0.038317,-0.712323,-0.502952,-0.396310,0.603712,0.720164,0.840782,-0.973661,-0.545366,-0.751563,-0.320728,-0.782360,0.699909,-0.372624,0.702802,-0.216718,0.367910,-0.204394,0.609972,-0.386082,-0.734324,0.425076,-0.382684,0.512567,-0.207133,-0.483407,0.900171,0.166551,-0.973829,-0.591230,0.208181,-0.563413,-0.917814,0.779638,-0.956439,-0.679864,0.396041,-0.506386,-0.689713,-0.158015,0.315151,0.324179,0.459665,-0.664216,-0.981812
0.801531,-0.929452,0.428357,-0.628735,-0.271084,0.209886,0.455109,-0.732103,-0.089616,-0.621984,-0.689525,-0.569296,0.156520,0.601058,-0.871610,-0.481532,0.268473,-0.341403,-0.765360,0.708284,0.211161,0.675965,-0.286113,0.791299,0.857531,-0.139751,0.267996,0.225685,0.329586,0.199836,0.438133,-0.836457,0.586685,0.332103,0.262468,-0.678311,0.822831,0.336212,-0.511839,-0.188778,-0.791221,0.188366,0.986347,0.519392,-0.013285,0.064088,0.147091,0.381903,0.128568,0.080261,-0.782824,-0.705154,-0.343743,0.074957,0.578858,0.196231,-0.029386,-0.076848,0.421772,-0.220359,-0.333490,0.013232,0.831026,0.721194,-0.864545,-0.881433,-0.515669,0.220837,0.872663,-0.320203,0.302078,-0.334066,0.790547,0.799498,0.785073,-0.377400,-0.577464,-0.029962,0.562584,0.854176,-0.026480,-0.835935,-0.904976,-0.662316,0.444212,0.123872,-0.883955,0.905948,0.150463,-0.150358,0.017095,0.363832,-0.141375,-0.968992,0.067224,0.222042,-0.213050,0.523532,-0.648001,0.625830,-0.027211,-0.714927,-0.719080,-0.955861,0.487570,0.469875,-0.024776,-0.175063,-0.501356,0.165811,0.348579,-0.595913,-0.213778,-0.541321,0.122848,-0.614061,-0.965703,-0.357530,-0.431323,-0.632427,-0.047545,0.881193,-0.316643,0.351718,-0.096118,-0.316964,0.319948,0.427437,0.800366,-0.812961,0.604903,0.315762,0.164732,-0.398634,0.032784,0.541422,0.203663,0.818216,0.317908,-0.220426,0.326893,-0.925251,-0.212336,0.369139,0.028762,-0.205554,-0.087599,0.498264,0.417675,-0.969783,0.918802,0.673265,-0.941511,0.759495,-0.725696,0.456282,-0.422394,0.726505,-0.004195,0.794161,-0.193887,0.458803,0.287842,-0.351504,0.605659,0.797226,-0.386183,0.281587,-0.494799,-0.404636,-0.513348,-0.292217,0.601293,-0.840583,-0.927672,-0.444901,-0.740443,0.602340,-0.212498,-0.957867,0.416701,0.335793,0.797544,0.234914,-0.177194,-0.213247,0.964141,0.469576,0.108928,-0.528483,-0.978612,0.557169,0.404566,-0.155513,0.871543,-0.032221,-0.080495,-0.893314,-0.079565,0.034187,-0.294605,-0.883422,0.781090,-0.831590,-0.601544,0.804313,0.850635,-0.537581,-0.605446,-0.232970,-0.291446,0.018979,0.744810,-0.159130,0.812754,-0.984138,0.620620,0.788533,-0.661370,0.221410,-0.995660,-0.993395,-0.463752,0.577999,0.261447,-0.149887,0.184155,0.110237,0.476003,-0.426543,-0.805635,0.031882,-0.689737,-0.174502,0.374573,-0.848511,0.496035,-0.791534,-0.035976,0.385665,-0.342264,0.525654,0.339776,-0.600750,0.551847,0.785025,0.781067,0.627486,-0.842520,0.970743,-0.889345,-0.634694,0.907900,0.976722,-0.259653,0.930047,0.618722,0.643710,0.007993,0.102789,-0.508714,0.654218,0.006824,-0.842058,-0.494956,-0.066728,-0.109485,-0.427647,0.367551,0.830839,0.167001,-0.112718,0.795027,0.667828,-0.161546,0.149058,-0.997835,-0.710555,0.397589,-0.409825,0.599923,-0.770788,-0.142991,-0.305399,0.893305,-0.417857,0.843893,0.664003,0.732150,0.475364,0.792852,-0.429357,-0.018194,-0.072746,0.434342,-0.447789,-0.465975,-0.757458,-0.969016,0.549433,-0.954546,0.612055,0.266304,0.871368,0.455059,0.884580,-0.004607,0.167862,0.707735,-0.547713,-0.831272,-0.872071,-0.468803,-0.036075,-0.719801,0.798660,-0.485384,-0.797128,-0.188469,0.094783,-0.612312,0.116901,-0.222508,-0.095558,0.089538,0.798907,-0.636552,0.838472,0.068326,-0.295273,-0.695492,-0.971418,-0.030614,-0.351651,0.898158,-0.501358,0.028120,0.889910,0.803139,0.005647,0.729072,0.047200,0.870585,0.637824,0.356925,0.948956,-0.919419,-0.656066,0.562331,0.428620,0.096787,0.335214,-0.152806,-0.866410,-0.074287,-0.371223,-0.313545,0.343692,-0.790471,-0.630880,-0.878003,-0.074298,-0.768409,0.260081,0.711833,-0.991927,0.800844,-0.275295,0.035918,-0.859959,0.770371,0.619395,0.851691,-0.836693,-0.563183,0.802479,0.314580,0.727462,-0.477424,-0.089754,0.149182,0.282748,-0.149222,-0.015654,0.989378,0.534466,-0.129911,0.667666,-0.715136,0.935018,0.263781,-0.822330,-0.017593,0.794365,-0.419143,0.094225,-0.668495,0.731007,0.045421,0.707274,-0.990573,0.206848,-0.670740,0.629679,0.361600,0.984574,0.227773,-0.066013,-0.851053,-0.389080,-0.787406,-0.334316,0.557857,0.534324,-0.367620,0.794486,0.184057,-0.053117,-0.376727,-0.600220,-0.736340,-0.451577,0.961210,0.382677,-0.066656,-0.836787,0.692796,0.746180,-0.640229,0.337528,-0.023743,0.973912,0.834698,-0.911705,-0.570163,-0.374280,0.946269,-0.822810,0.489986,-0.580242,-0.230603,-0.136563,0.399293,-0.522154,-0.295447,-0.958330,0.285471,0.837297,-0.517997,-0.265787,-0.640565,-0.339586,-0.426840,0.832010,-0.560676,-0.679869,-0.646239,-0.303219,0.342217,-0.635393,-0.831568,0.926403,-0.518170,0.630153,0.136009,0.936081,-0.724625,-0.756395,-0.746422,0.611719,0.474292,0.118541,-0.611263,-0.924250,0.046356,-0.505347,0.463962,-0.608014,-0.348792,0.934172,-0.122099,0.998757,0.637154,-0.977352,0.021197,0.664301,-0.560877,0.610984,0.753976,-0.507283,-0.671577,0.410169,-0.553834,0.318707,-0.896564,-0.498887,0.997588,-0.075188,0.526589,0.662845,0.052143,0.882108,-0.675990,0.732405,0.055949,0.752268,0.713220,-0.758952,0.096050,-0.834583,0.189336,-0.279243,-0.391566,0.540229,0.605000,0.156821,0.276666,0.223270,-0.179188,0.307781,0.856560,0.515729,-0.781962,-0.842260,-0.457810,-0.310263,-0.474547,-0.719344,-0.489076,0.752089,0.277021,-0.304743,0.424440,-0.407298,0.917754,0.385600,-0.376476,0.894677,0.268161,0.830768,-0.973909,0.458466,-0.856116,0.885912,-0.047923,-0.872918,-0.147730,0.280911,0.101117,-0.966296,-0.466722,-0.292856,-0.433943,0.161299,-0.711439,0.433031,0.891146,-0.038500,-0.921235,-0.539455,-0.193213,0.991181,0.736250,-0.314017,-0.385068,-0.399417,0.935918,0.862022,-0.647503,-0.921864,-0.662478,0.374753,-0.543476,0.643523,0.673841,-0.986108,0.679577,-0.464622,-0.418986,-0.028008,-0.386155,0.281761,0.880567,-0.730794,0.009391,-0.523649,-0.993467,0.546108,0.086346,-0.648036,0.058050,-0.110107,0.090506,-0.873387,-0.425948,-0.727126,0.871814,-0.558133,0.728308,0.017648,-0.678935,-0.972581,0.668159,-0.085129,-0.860780,0.795351,-0.989072,0.077838,0.179441,-0.346532,-0.910642,-0.295003,-0.636223,-0.987456,-0.741045,-0.552983,-0.160725,-0.752871,0.091636,0.006730,0.421796,-0.329210,0.038968,0.613983,-0.758950,0.811769,0.257883,0.158937,0.043347,0.842591,0.992816,0.588521,-0.905304,0.886804,-0.127497,-0.982679,-0.644678,-0.555716,0.264476,-0.711009,-0.647846,-0.716090,0.747433,0.690129,0.769975,0.912000,0.024905,0.845324,0.011044,-0.515086,-0.216990,-0.058787,0.148792,-0.083000,0.267141,0.897090,0.467967,-0.765252,-0.341384,-0.397134,-0.789180,-0.733551,-0.375381,-0.903786,-0.817360,0.496464,0.139184,0.503231,0.861533,0.176420,0.000218,-0.961208,-0.943546,0.655306,0.725185,0.478103,-0.545159,-0.528300,0.932823,0.331230,0.052329,-0.876924,0.379738,-0.742370,0.578639,0.408275,-0.569392,0.761733,0.657834,0.644800,-0.385935,0.809266,-0.877662,-0.765947,-0.539712,-0.637180,-0.384207,0.254403,0.914797,-0.262236,0.677470,-0.385909,0.545826,0.710847,0.923292,-0.606713,-0.232070,-0.964448,-0.428874,0.088546,-0.144407,0.839252,0.746119,-0.219273,0.604729,-0.357765,-0.847195,0.546434,-0.324800,-0.272461,0.620305,0.564844,-0.410188,0.033080,0.649202,0.908112,-0.047365,-0.265582,0.409739,-0.792565,-0.490663,-0.601774,0.289179,0.323062,0.898371,-0.532261,-0.971896,0.267972,0.182678,0.480953,0.325065,-0.334822,0.342371,0.562281,-0.327551,0.557904,0.940568,0.912149,0.182617,0.572764,0.348211,0.452502,0.064767,0.324218,0.971034,0.244797,0.910395,0.001701,-0.857980,0.573447,-0.408779,0.545155,-0.546266,0.887701,-0.232400,-0.754945,0.754589,-0.459221,-0.279541,0.781945,-0.298715,-0.791012,-0.265679,0.749095,0.231927,-0.416308,-0.581978,0.352593,0.195826,0.664196,-0.584593,-0.164737,-0.691516,-0.925824
-0.947739,-0.006733,0.207582,-0.243673,0.622306,0.919093,-0.235702,0.036496,0.660588,0.764496,-0.370882,0.804131,0.846893,0.411410,-0.874655,-0.341677,0.477979,0.377488,0.225150,0.489152,-0.746139,-0.812710,-0.089126,0.442855,0.762979,-0.877045,0.784332,0.598120,-0.173600,0.314594,0.334573,-0.764938,0.789247,-0.221744,-0.313636,0.652142,-0.488422,-0.751697,0.692160,-0.204607,0.810400,-0.836336,-0.059647,-0.047828,0.621368,0.210221,-0.132101,0.229216,-0.028308,0.722208,0.524504,-0.942493,-0.766365,0.375915,0.404748,0.439373,0.952746,0.568607,0.434879,-0.635268,0.116295,-0.561693,-0.312626,-0.821936,-0.983179,-0.451454,-0.093383,-0.693761,0.300204,0.284489,-0.019469,0.484757,-0.941496,0.409984,-0.283327,-0.650383,0.710572,-0.997730,-0.088650,0.753082,-0.612933,-0.199737,0.016958,0.022718,0.956677,0.914372,-0.144635,0.351336,0.104229,0.603993,0.911051,-0.457449,0.849962,0.882619,0.687467,0.074854,0.813161,-0.244205,0.176645,0.002229,-0.412804,-0.552989,0.425417,0.426163,0.759004,-0.223858,-0.366171,-0.012250,-0.445925,0.333170,0.979913,-0.813465,-0.433166,-0.371115,-0.104518,0.560263,0.006697,0.357448,-0.240083,0.047875,0.826186,0.128619,0.393291,0.228234,0.604856,-0.181023,0.812383,-0.017731,0.870331,0.809063,-0.397844,0.273722,-0.816532,-0.399914,0.593779,-0.452202,-0.750983,-0.269258,-0.602109,0.538511,-0.844047,0.946895,-0.344255,0.416141,-0.812457,-0.109194,0.855345,-0.422024,-0.910400,-0.145831,-0.517997,0.383265,-0.155052,-0.900509,-0.839811,0.746243,0.800245,-0.822836,-0.309418,-0.585961,0.200454,-0.986351,-0.407318,-0.423457,-0.238150,0.027314,0.884108,0.736752,-0.302339,0.008164,-0.693458,0.095519,0.619511,0.401677,0.326935,0.525692,-0.703292,-0.168193,-0.441108,-0.873208,-0.865191,0.037762,-0.412642,-0.361391,0.221763,-0.886963,-0.775570,0.938703,0.202216,0.060460,0.835268,0.584111,0.338426,0.267460,-0.721769,0.688873,0.625905,-0.281066,-0.107870,0.095251,-0.814415,0.706738,-0.990940,-0.737573,-0.711716,0.094980,0.847387,0.872730,0.530468,0.421152,0.963175,-0.125826,-0.999423,-0.059895,-0.505132,-0.657181,-0.232682,0.704292,0.234844,0.707705,0.450684,0.980776,-0.209413,-0.825418,-0.746424,0.787110,0.705733,0.974274,0.158496,-0.916695,0.063236,0.174943,-0.000763,0.450235,0.864924,-0.346118,-0.102744,-0.333725,0.744108,-0.421438,-0.195855,-0.722754,-0.016680,-0.162493,-0.595473,0.083980,-0.351933,-0.659769,-0.842117,0.717779,-0.797406,-0.843633,-0.314391,-0.524470,-0.864053,-0.744220,0.951905,-0.090578,0.062799,0.205175,-0.318503,-0.394792,-0.206607,0.248657,-0.821650,-0.212677,-0.103307,0.422259,0.292032,-0.605899,0.453018,0.868987,0.422373,-0.838100,0.396507,0.071230,-0.559017,-0.943696,0.203025,0.015850,-0.846236,-0.099091,0.307353,0.961441,-0.650294,-0.512677,-0.354221,0.270954,0.039541,-0.840677,0.804975,-0.336853,0.946903,-0.536829,0.449064,0.235582,-0.074195,-0.353357,0.650721,-0.146444,-0.594468,0.792541,0.320514,0.633908,0.320517,-0.549591,-0.694165,0.885562,-0.979387,0.632717,0.645590,0.193607,0.450825,-0.964523,0.743415,0.874503,-0.884082,-0.637480,-0.577777,-0.883097,0.557120,-0.766424,-0.179767,0.831581,-0.239392,0.936703,-0.743123,0.556125,-0.431336,0.834594,-0.189921,0.664909,0.878233,-0.380345,0.889562,-0.685155,-0.371905,-0.071757,-0.206031,-0.746523,0.058903,-0.941377,0.266369,0.653989,-0.772570,0.315367,0.047972,-0.860783,0.776058,0.676743,-0.092640,-0.066648,0.414072,-0.958034,-0.380209,-0.487079,0.948985,0.603669,-0.599740,-0.630225,-0.863713,0.817745,0.513219,0.960485,0.051446,0.877172,-0.650164,-0.543895,-0.008767,0.052425,0.535485,-0.644863,-0.283446,-0.395302,0.408080,-0.265633,0.748493,0.702397,0.015302,0.475761,-0.258614,0.845287,0.509151,-0.541825,-0.439191,0.956617,-0.359098,0.502492,-0.848007,-0.683733,-0.460110,0.791125,-0.019188,-0.195636,-0.527446,-0.537125,0.751892,-0.198580,0.714192,0.643636,0.675331,0.145517,-0.006877,-0.444379,0.315290,-0.265586,0.531393,0.900145,0.684265,-0.358049,0.158537,0.182058,-0.212508,-0.561661,0.368446,0.529288,0.360816,-0.170689,0.844475,-0.338502,0.477523,-0.809706,-0.539550,0.332124,-0.985997,0.202329,-0.713654,0.075756,-0.463370,0.380949,0.882030,0.433867,0.471686,-0.538149,-0.751640,0.436113,0.699383,-0.791673,-0.728875,-0.798855,-0.404570,-0.899816,-0.554009,-0.230574,-0.526389,0.311171,0.696264,0.712476,0.037857,-0.284792,0.348840,-0.021944,0.769006,0.584012,-0.077392,0.411868,0.355806,0.047980,-0.112175,0.681990,-0.658075,0.889661,0.165555,0.303255,0.566531,-0.351782,-0.926458,-0.773700,0.895689,-0.766220,-0.616934,-0.380017,0.925320,0.133819,0.216077,0.884204,-0.506141,-0.027783,0.738420,-0.251478,-0.152927,-0.374714,-0.045411,-0.503903,-0.377771,-0.642116,-0.641979,0.792962,0.135602,0.459144,-0.579493,-0.329281,0.334215,-0.770478,-0.494421,-0.609401,0.367417,-0.840541,-0.638170,0.546603,0.852538,0.992880,-0.747816,0.896704,0.629091,0.163509,-0.618729,-0.419778,0.538811,-0.788728,0.968581,0.416783,0.419509,-0.431914,0.499163,0.579114,0.187773,-0.300562,-0.614430,-0.826961,-0.848875,-0.553387,-0.178111,-0.185602,-0.297554,-0.074405,-0.583936,0.526488,-0.757325,-0.009344,0.687703,-0.021202,0.998310,-0.676685,-0.610075,0.660213,0.571253,0.863454,0.066504,-0.773595,0.505082,0.025026,-0.844947,0.904139,-0.533690,0.658727,0.015080,-0.499994,-0.577171,-0.024043,-0.920597,-0.013481,-0.388449,0.952669,-0.503956,-0.562389,-0.452960,0.328368,0.178549,-0.052879,0.205005,0.254710,0.268174,0.874903,-0.760225,0.306613,-0.374115,0.293672,0.579720,0.726639,0.589840,-0.086385,0.778294,0.549342,0.807938,-0.102942,0.041044,0.101297,0.689279,0.806463,-0.468841,-0.827358,0.147505,0.891660,-0.394068,-0.267746,-0.276868,-0.712186,0.113429,0.958914,0.447656,-0.218781,-0.049465,0.307653,-0.681582,-0.714461,-0.955090,-0.198784,0.908210,0.264965,-0.318387,-0.140651,0.378551,-0.386186,-0.035098,0.707571,-0.426589,-0.555266,-0.539870,0.041417,-0.574602,0.747578,-0.298858,-0.401590,0.342140,-0.640940,0.247230,0.892497,0.167024,-0.533380,0.940403,-0.099016,0.460674,-0.725702,-0.285508,-0.833251,-0.043744,-0.348688,0.468029,-0.224654,-0.226579,0.897886,0.595541,0.097354,0.865221,-0.944936,0.692797,-0.034552,0.182910,-0.296729,-0.729728,-0.917498,0.300927,-0.753145,0.051382,0.106516,-0.598985,-0.071691,0.013956,0.558117,-0.836945,0.235707,0.346600,0.705552,0.875459,0.318051,-0.240526,0.759953,0.232405,-0.938727,-0.037569,0.363484,0.655398,-0.132212,-0.517310,-0.335786,-0.561365,-0.823038,0.211490,-0.559412,0.370577,0.431159,-0.545668,0.526819,0.444319,-0.893169,-0.482061,-0.921208,0.350831,-0.063711,-0.592277,-0.304822,-0.544044,0.433470,-0.665631,-0.739870,-0.601207,0.037837,-0.509141,-0.626294,0.612890,0.329851,-0.414495,-0.091656,0.329457,-0.862914,-0.081579,0.456963,-0.295456,-0.515187,-0.907477,0.088651,-0.240697,0.559188,-0.284796,-0.209288,0.500517,0.530641,0.597119,-0.722533,0.610086,-0.166726,0.917576,-0.002795,-0.156878,0.511033,-0.400391,-0.686468,0.929627,-0.664473,0.799040,0.205143,0.877445,0.285646,-0.071310,-0.052507,0.103087,0.340138,0.276094,0.649702,-0.186441,0.628042,0.634751,-0.715139,0.969918,-0.028012,0.816849,-0.463150,0.227893,0.114262,-0.930604,-0.389715,0.487786,-0.278411,0.026297,-0.764145,0.428115,-0.784769,-0.828092,-0.351718,0.864423,-0.480353,0.276766,0.800824,0.458273,0.340087,-0.174646,0.659807,0.793926,-0.617555,-0.538998,-0.795675,0.797957,-0.291222,0.730042,-0.802480,0.451207,0.010149,0.677044,0.232934,-0.219066,-0.592399,-0.530486,0.590025,0.458378,-0.468497,0.793931,0.231612,0.575238,0.617019,-0.882097,0.036466,0.757074,-0.411440
0.578328,-0.537690,-0.028671,-0.178528,0.963349,-0.204957,-0.626210,-0.677910,-0.672833,-0.578915,0.721038,0.059023,0.148670,0.743497,0.132493,-0.018649,-0.114102,0.054084,0.070568,-0.008888,-0.118013,-0.327710,-0.058229,-0.491374,-0.686200,-0.521717,-0.015433,-0.542940,-0.245010,0.954741,-0.144063,0.194104,0.761601,0.789530,0.489713,0.436392,0.754112,-0.681834,0.784186,0.035772,0.173201,0.350429,-0.985587,0.367995,-0.406671,0.281337,0.558577,-0.874428,-0.962119,-0.859898,0.102465,0.490612,-0.472007,-0.761877,-0.758389,-0.937362,-0.230297,-0.708189,-0.070038,0.940429,0.526538,0.901273,0.432934,0.909026,0.567111,-0.452069,-0.294404,0.974287,-0.824663,-0.851784,-0.222922,-0.083967,0.283650,-0.162237,-0.661169,0.634313,0.633219,-0.942122,-0.340369,0.529466,0.228595,0.704250,0.055038,-0.048037,0.546637,0.428009,-0.980863,-0.572592,0.476839,-0.976768,0.274086,0.999546,0.653710,0.464011,0.771750,0.799532,-0.094486,0.974363,-0.355179,-0.304246,-0.407398,0.549645,0.428506,0.726389,-0.995691,0.721152,-0.563932,-0.069175,-0.715123,0.539513,-0.678387,0.956338,-0.171449,0.296051,-0.192626,0.888783,-0.459783,-0.211831,0.708322,-0.338527,0.703446,-0.236263,0.356445,0.956624,0.641514,-0.394915,-0.543343,0.483668,-0.801131,0.670876,-0.883726,0.511447,0.371411,-0.878771,-0.821087,-0.760524,-0.808698,-0.325603,-0.897207,0.389610,-0.306639,0.451739,-0.458374,-0.582199,-0.222137,0.023615,-0.011763,0.366369,0.013657,0.606776,-0.152485,0.507996,-0.122583,0.543108,0.593732,-0.537620,0.743769,0.365754,0.286176,-0.996923,-0.937632,-0.791386,-0.014310,-0.825234,-0.527512,0.888926,-0.705391,0.809330,-0.998939,0.821466,0.618220,0.254186,0.178896,-0.207718,0.004662,0.645456,0.804865,-0.780493,0.367128,-0.822602,-0.181489,0.936839,0.405940,-0.014575,-0.447358,-0.047812,0.600442,-0.573236,-0.137859,0.791534,0.927020,-0.372450,-0.252770,-0.598662,0.754301,0.163637,-0.979186,0.434771,-0.830963,-0.527340,-0.213514,0.401156,-0.418168,-0.111437,-0.931118,-0.020125,0.106888,0.021987,-0.302492,0.515511,-0.831424,-0.356251,0.491707,0.957854,0.548168,0.876131,0.751594,0.022245,-0.914898,0.794813,-0.561584,0.032030,-0.552360,-0.616140,0.855824,0.372950,-0.935966,-0.598748,0.161502,-0.007217,0.675116,0.729241,0.898401,-0.839907,-0.525891,-0.305836,-0.618204,-0.183131,-0.210823,0.946834,0.370284,0.162368,0.962448,0.191497,0.902563,0.519111,-0.847698,-0.202061,-0.763089,0.199460,-0.487670,-0.863016,0.975088,-0.033386,-0.196341,0.623243,0.439706,-0.102282,0.737970,0.212704,-0.090619,0.270689,-0.952709,-0.887200,0.449767,0.734660,0.340103,0.623814,-0.232771,0.393034,0.213259,0.615250,0.610738,0.175331,0.411223,-0.651190,-0.657545,-0.674366,-0.098947,-0.380722,0.978045,0.624839,0.431651,-0.700554,-0.402732,0.004992,-0.256857,0.362925,-0.425331,0.583474,0.226228,-0.198654,-0.353465,0.264451,0.050750,0.086901,-0.312536,0.857023,-0.170072,0.141449,-0.192672,0.194132,0.776845,-0.165354,0.155548,0.320802,0.849573,-0.185569,-0.769164,-0.621443,-0.037406,-0.036517,0.137972,0.941535,0.075958,0.677854,0.112835,-0.377823,-0.363096,0.211157,0.325339,0.159174,-0.458596,0.572944,-0.260274,-0.329456,-0.034315,0.375981,-0.118664,-0.038188,-0.208666,-0.295706,0.882554,0.066516,0.583318,-0.582890,-0.157564,0.406522,0.551751,-0.737157,0.908015,0.542202,0.880630,-0.749588,0.002133,-0.515009,-0.635154,-0.992514,0.214500,0.836240,0.843993,-0.354294,-0.064425,-0.331305,0.685151,-0.481112,0.270235,0.365941,0.830307,-0.973885,-0.569906,0.066590,0.863870,0.896607,0.444023,-0.067024,-0.703272,-0.046776,-0.857634,-0.106703,-0.502038,-0.822778,-0.971813,0.377928,0.658000,-0.036795,0.119885,0.218265,-0.493139,-0.262700,-0.825967,-0.604045,0.272722,0.388352,-0.865014,-0.220442,-0.238804,-0.719592,-0.226936,-0.158130,-0.954591,-0.419336,0.351908,-0.683817,0.041349,-0.472646,0.708555,-0.827626,0.001951,0.435949,-0.127720,0.194237,0.183773,0.801108,0.513481,0.964712,-0.498889,0.497148,-0.323216,-0.816885,-0.734895,0.571964,-0.066858,0.679303,0.693417,0.565427,0.163685,-0.954714,0.022842,-0.598726,0.261664,0.384244,0.546117,-0.980123,-0.746856,-0.447882,0.591781,-0.443287,-0.036305,0.817732,-0.801216,-0.987644,0.610274,-0.630128,-0.313158,-0.159828,-0.363885,-0.641619,-0.801542,-0.072975,0.974921,-0.089342,-0.803766,0.186992,-0.854945,0.560467,0.795086,-0.793611,0.635433,0.890716,-0.880136,0.617237,-0.449078,-0.063720,0.201704,-0.221500,-0.729604,-0.523557,0.606928,-0.796929,0.066399,-0.095380,-0.277165,0.134422,0.558360,0.858821,-0.649767,-0.769849,-0.556511,0.723913,0.612907,-0.208583,0.866683,0.896911,0.031574,-0.059923,-0.726320,0.370507,-0.664458,0.400564,-0.933064,-0.202983,-0.845879,-0.969929,0.768746,0.848832,0.415973,0.493787,-0.686820,-0.071200,0.821289,0.612721,-0.958228,0.314145,0.824252,0.652671,0.416775,0.184082,0.470770,0.410630,-0.468637,0.801907,-0.618083,-0.915874,-0.212179,0.740108,-0.743191,-0.431849,0.865492,-0.155229,-0.811663,-0.493561,-0.147695,0.813713,-0.533605,0.995566,0.010292,-0.321704,0.822988,-0.588006,0.074477,0.345515,-0.302291,0.388810,0.656045,0.445412,-0.188906,-0.556119,0.340017,-0.802956,0.671401,0.052031,0.620526,-0.359656,-0.948231,0.445138,-0.449852,0.944870,0.578164,0.356961,0.254475,0.280929,-0.335858,-0.855077,0.817878,0.591462,-0.699393,0.149321,-0.416247,-0.117770,0.401004,0.200772,0.341495,-0.923445,0.321983,-0.974425,-0.324537,0.832424,0.999721,-0.991208,-0.915697,0.792234,0.032770,-0.062096,0.412825,0.239361,0.415704,0.446956,-0.668221,-0.407410,0.489198,-0.621058,0.168863,0.513228,0.606184,0.834145,-0.124430,-0.709322,-0.558749,-0.608160,0.739664,0.162497,0.600292,0.226898,0.816956,0.954049,0.963214,0.672925,0.270301,0.142563,0.570218,-0.208160,-0.083428,-0.471509,0.660634,0.499837,-0.924423,0.427498,-0.756545,-0.143670,-0.557471,-0.327644,-0.725080,0.777807,-0.233340,0.859527,-0.211642,0.452762,-0.801230,-0.636343,0.194980,0.248307,0.523659,0.102041,-0.559604,-0.385922,0.735376,0.334818,0.152666,-0.593028,0.883947,0.377552,0.749577,0.773904,-0.400394,-0.772646,-0.615617,-0.992868,0.197277,-0.845938,-0.822712,-0.397867,-0.942687,-0.463596,0.737789,-0.199985,0.535807,-0.386794,0.814650,-0.447151,0.109763,0.225056,-0.005725,0.732362,-0.830953,0.048716,0.452305,-0.673035,0.894116,0.764579,0.973856,0.344752,0.671525,0.066731,0.959481,-0.376920,0.035459,-0.571504,-0.590409,-0.741436,0.327161,0.109393,0.343863,-0.614892,-0.765371,-0.978779,0.829198,0.521359,0.626014,-0.226474,-0.675147,-0.574548,-0.520366,-0.739017,0.114189,-0.004540,0.242168,-0.257898,0.428644,0.036653,0.277767,0.129518,-0.720860,-0.331173,-0.704341,0.435640,0.020231,0.709841,-0.497607,0.798706,0.601421,0.813869,0.964047,-0.149219,0.555338,-0.425156,0.953807,0.742330,0.031459,0.445648,0.841455,0.906511,0.145597,-0.229202,-0.833265,0.420019,0.834109,-0.079779,-0.457280,0.361459,-0.604329,0.268473,-0.708476,0.492890,0.530888,-0.797044,-0.669844,0.140442,0.179121,-0.279451,0.439645,-0.168721,-0.736876,0.687253,0.491406,-0.913276,-0.100390,0.903718,0.681656,-0.365496,0.617160,0.348275,-0.482131,-0.029708,-0.598879,0.337588,-0.283294,0.804330,0.370078,-0.101397,0.417278,-0.377004,0.305242,0.542498,-0.621750,0.707490,-0.697255,-0.808356,0.452815,-0.851197,0.009412,0.395308,0.285737,-0.716976,0.014898,-0.968497,0.326169,0.793504,0.854138,0.726687,0.863687,0.501995,0.744536,-0.674816,0.712256,-0.062690,0.082097,0.620898,-0.498506,-0.303265,0.203435,0.209565,0.725563,-0.408606,-0.088301,0.758533,-0.783224,-0.011530,-0.924450,-0.952925,-0.165099,0.325494,-0.071160,-0.618396
