-0.451753,0.581546,-0.134807,0.774977,-0.454322,-0.474261,0.660068,0.566756,0.054298,-0.027114,-0.056511,-0.935202,0.524675,0.572076,0.427271,-0.326485,0.692637,-0.046101,-0.669040,-0.597787,-0.440685,-0.825600,0.980506,-0.992059,-0.417016,-0.263515,0.200386,0.779425,0.678559,0.647820,0.039896,0.744796,-0.402048,-0.090065,0.142897,0.431060,0.292482,0.833375,-0.732346,0.573694,0.848678,0.738755,-0.276160,-0.274028,0.035888,-0.783370,-0.697746,-0.718920,-0.527735,-0.998867,-0.927259,-0.452564,-0.638650,0.724892,0.335711,-0.747203,-0.690502,-0.903030,-0.133283,-0.099305,-0.747367,0.513012,0.436599,0.449218,-0.748969,-0.506649,-0.542302,0.262270,-0.054283,-0.485255,-0.655810,-0.386170,0.222370,0.617470,-0.558208,0.636605,-0.086625,0.460250,0.753793,0.559747,-0.504432,-0.240122,0.327307,-0.751329,0.955635,0.870644,0.376563,-0.623234,0.571055,-0.886154,0.463923,-0.121711,0.850936,0.169584,0.815453,-0.631877,-0.063390,-0.076015,-0.380067,0.089748,0.906678,-0.148670,-0.101002,0.103822,-0.099573,-0.617559,0.024810,0.228613,0.714154,0.806519,0.525347,0.061222,-0.959856,-0.428126,-0.599671,-0.058034,-0.309762,0.517273,0.263497,0.832971,0.733238,0.962087,0.790739,-0.485982,0.558273,0.352884,0.997792,0.652523,-0.818070,0.270703,0.683964,-0.048585,0.462487,0.143838,0.919961,-0.666437,-0.312061,-0.342794,-0.611872,0.091000,-0.061714,0.422165,0.869436,-0.019423,-0.254130,0.567029,0.887073,-0.470784,-0.814700,-0.731566,-0.910443,0.530397,-0.193506,-0.873909,-0.778620,0.911889,-0.284475,-0.106821,-0.612424,-0.013087,0.303048,-0.444554,0.063829,0.784458,0.303330,-0.830535,-0.953670,0.385917,0.897330,-0.995509,-0.490772,-0.035514,-0.152412,0.871790,0.414162,-0.479140,-0.829092,0.427905,-0.074276,0.446329,-0.171417,0.567703,0.461870,0.463738,0.976173,0.405676,0.012445,0.538012,0.781429,-0.611708,-0.890033,-0.069245,0.367723,0.506126,0.133672,-0.707554,0.621484,-0.680539,0.289827,-0.253264,-0.955193,-0.684021,-0.348766,0.267909,-0.924991,0.182382,0.972645,-0.538008,-0.795724,-0.007789,-0.707263,-0.903952,0.029974,0.380037,0.374275,0.837431,-0.454537,-0.509455,0.144740,0.685458,-0.881961,0.951814,-0.201837,0.997221,-0.756124,0.682565,-0.885820,0.629173,0.026130,-0.676370,-0.885098,0.308133,0.160036,0.935391,0.601067,-0.922717,0.094142,0.873126,0.111958,0.371391,-0.921426,-0.350975,-0.181819,0.196153,0.929754,0.440840,-0.846520,0.752708,0.906293,-0.775987,-0.069243,-0.412069,-0.963278,0.399639,0.237471,-0.520084,0.913437,0.098358,0.531283,0.251286,-0.558451,0.526016,-0.775832,-0.719947,0.442554,-0.822706,0.250295,0.551751,-0.052481,0.160250,-0.396598,-0.206247,-0.956597,0.957273,0.764180,-0.047667,0.014964,-0.665531,0.652452,-0.330901,0.282858,0.528709,0.787276,0.790197,-0.936560,0.497452,0.842797,-0.234306,-0.587523,-0.731075,-0.216278,-0.890156,0.106343,-0.307690,0.071520,-0.584823,0.532195,0.432849,-0.032307,0.884034,0.392058,0.262870,-0.598703,-0.873263,0.149422,0.898692,-0.015917,-0.031344,-0.183513,-0.708878,0.517879,-0.215253,0.005184,0.070626,-0.951081,0.978170,-0.337656,0.229702,0.372096,0.202368,0.287064,0.284859,0.914542,-0.601709,-0.861955,-0.969321,-0.410804,0.179730,-0.862348,-0.896876,-0.263290,-0.955710,-0.902379,0.401478,0.574552,0.219634,0.486267,0.735496,-0.670340,0.863232,-0.728262,-0.281401,-0.245866,0.896975,-0.133497,0.050040,0.944811,-0.882217,-0.468732,0.376395,0.115240,0.477112,0.942640,0.647297,-0.517524,0.442699,0.199007,-0.634311,-0.214820,0.604076,-0.366742,-0.604951,-0.106100,-0.673594,0.621122,0.106808,0.317670,-0.815265,-0.569549,0.823001,-0.657702,0.663155,-0.351609,0.200814,0.171363,-0.469723,-0.942346,-0.234543,0.286301,0.558443,-0.983460,-0.272790,-0.375074,-0.665244,0.253369,-0.035228,-0.100841,-0.986800,-0.576987,0.971324,0.265271,-0.786504,0.541718,-0.718091,0.454757,-0.242112,-0.437456,-0.072724,-0.541963,0.650124,0.675494,-0.468299,-0.430960,-0.371515,-0.750442,0.791668,0.417692,0.827517,-0.572910,-0.812876,-0.932524,-0.946055,-0.363782,-0.274355,-0.469823,-0.601539,-0.306989,-0.794066,-0.262483,-0.375153,0.616825,-0.416223,-0.064948,-0.570217,-0.996344,0.197036,-0.870031,0.644855,0.404022,-0.149557,-0.240615,0.144539,-0.820320,0.037834,0.105431,0.323909,-0.538219,-0.356868,0.382011,0.110759,-0.389330,0.605232,0.771391,-0.611589,0.426856,-0.935387,-0.700914,-0.813993,0.143337,0.869579,-0.593762,0.425770,0.847202,-0.947352,0.646792,-0.689403,0.022492,-0.051650,-0.362075,-0.482826,0.331505,-0.277842,0.765902,0.690753,0.768299,0.209245,0.266140,-0.580694,0.905697,0.749348,0.510543,-0.796629,-0.633955,0.107307,-0.580877,-0.354971,0.058441,-0.494209,0.496430,0.208735,0.715338,0.651367,-0.694847,0.479082,-0.780199,-0.509778,0.808798,0.823388,-0.676667,-0.438598,0.805984,-0.007842,-0.901910,0.411427,-0.048014,-0.083065,-0.064289,-0.204238,0.189184,0.926673,0.848654,0.085119,-0.926936,0.354620,0.971766,-0.886546,0.193719,-0.638734,-0.504249,-0.597588,-0.165320,0.638996,0.956507,0.106350,0.402934,0.474109,0.820591,-0.934475,0.683661,0.099303,-0.469590,0.945313,-0.908288,0.283118,-0.672996,0.985770,-0.010025,-0.880173,0.087661,-0.365417,-0.949714,-0.009002,-0.283581,-0.890279,0.531615,-0.992209,0.612902,-0.766919,0.423976,0.643511,0.394973,0.345646,-0.893715,0.531983,-0.113661,0.604788,-0.310902,0.138984,0.659620,-0.197235,0.714375,-0.157385,0.866513,0.516284,0.868876,-0.404130,0.311799,-0.140489,-0.952403,0.430125,0.303802,0.149173,0.959380,-0.763468,0.191904,0.110822,0.071522,0.461476,0.650351,0.724845,0.270685,0.717661,-0.125328,-0.020950,0.216062,-0.268318,-0.743297,0.891499,-0.514656,-0.157601,0.679978,0.765166,-0.672748,0.396439,-0.233191,-0.779933,0.071269,0.088341,0.658842,0.986847,0.027978,-0.102581,-0.121539,0.305280,-0.366670,0.088542,-0.454715,0.598812,0.802197,0.186194,0.796403,-0.652521,-0.182621,-0.818870,0.593114,-0.444173,-0.772871,0.786640,-0.740953,0.825966,0.307135,0.671891,0.344849,0.598983,-0.855167,-0.654005,0.226478,0.181735,0.277919,-0.924937,-0.669668,-0.931508,0.929685,0.373062,0.214274,-0.204052,-0.583887,-0.084365,-0.725568,0.177808,-0.497170,0.071850,-0.414538,-0.389976,-0.084033,0.554044,0.819366,-0.794969,0.801846,-0.501195,-0.745042,0.663302,-0.757519,0.009929,-0.694023,-0.650605,-0.643608,-0.962874,0.887118,-0.360183,0.797472,0.620421,0.499583,-0.353184,-0.948810,-0.249214,0.779282,0.303649,-0.670852,-0.118925,0.587719,-0.224917,-0.484260,-0.595760,-0.946545,-0.890982,0.891263,-0.172803,-0.291998,0.374874,-0.117777,0.950560,0.426517,-0.442288,0.784277,0.694030,0.954416,0.233311,-0.446002,-0.107848,0.301695,0.111640,0.185110,-0.839090,0.009428,0.276188,0.729098,-0.738972,-0.381196,-0.991368,0.580661,0.277415,0.377465,-0.852513,0.672249,-0.035559,-0.124182,-0.105416,-0.644081,-0.460029,0.722857,0.532056,-0.317622,-0.066272,-0.067198,0.321243,0.047250,0.242599,-0.158083,0.166888,-0.156194,-0.772073,0.377437,0.920679,-0.503332,0.587687,0.634377,0.231819,-0.973644,0.754112,-0.028900,0.105353,-0.499476,0.895464,0.713660,0.606796,-0.653167,0.920074,-0.953729,-0.006169,-0.209417,-0.719774,-0.354412,0.242391,0.041313,-0.663314,0.735163,-0.515191,-0.292542,-0.808455,-0.021759,0.503032,-0.406569,-0.633521,-0.420191,-0.295518,0.060836,0.850276,0.155373,-0.154805,-0.201533,-0.055792,0.045402,0.728233,-0.922531,0.282940,0.397344,-0.150281,0.249493,-0.542983,0.518081,0.309560,0.094170,-0.734793,0.719737,0.113716,0.536436,0.571146,-0.775632,0.902107,-0.054461,-0.632569,-0.119727,0.732140,0.239132,-0.475952,0.283647,-0.202690,-0.728647,0.197470,-0.333646,-0.344758,-0.634789,0.378595
-0.191571,0.956267,-0.853970,0.929262,-0.464121,-0.318831,-0.613089,-0.587897,-0.094022,0.898413,-0.873059,0.094239,0.271745,0.121525,0.042081,-0.380135,-0.034992,0.219571,0.371871,-0.332597,-0.601729,-0.302386,0.942731,-0.221049,0.052914,-0.001906,-0.119522,0.520068,0.452970,-0.839534,-0.363838,-0.809038,0.334943,0.676599,0.101469,-0.549567,-0.438262,0.798846,-0.306949,0.286354,-0.222561,-0.152574,-0.383935,0.821524,-0.016016,-0.043806,0.597048,0.479768,-0.077541,0.306310,-0.873307,0.014765,-0.116479,-0.801220,-0.609547,0.586050,-0.099493,0.585921,-0.780792,0.831643,0.393520,-0.229473,-0.891326,-0.810478,-0.459386,-0.754743,0.721766,-0.716073,0.085421,-0.268618,0.908305,-0.360954,0.980652,0.833447,0.668011,-0.108335,-0.715997,0.049328,-0.323574,0.604807,0.984895,0.578511,0.236290,0.731591,0.976899,-0.832088,-0.049376,-0.047785,-0.171122,-0.872546,-0.896598,0.998805,0.268210,-0.714152,-0.443277,0.825196,-0.465698,-0.807018,0.032672,-0.125218,0.763274,0.638589,0.025963,0.570353,0.976827,0.645107,-0.333198,0.083813,-0.323967,0.845120,-0.084588,-0.303747,-0.462168,0.476973,0.783673,-0.442440,-0.472750,0.425144,0.690922,0.688972,-0.566144,-0.609497,0.993711,0.575633,-0.075703,0.132258,-0.892678,0.792220,0.680907,-0.979834,0.998570,0.139782,-0.594797,0.772741,-0.574248,-0.522293,-0.355495,0.980807,-0.882736,0.390842,-0.293647,-0.810762,0.977783,0.945443,-0.265648,-0.368157,-0.086401,-0.044589,0.940447,0.299896,-0.354469,0.344846,-0.264468,0.481834,-0.001271,0.214362,0.457425,-0.200243,-0.743861,0.495900,0.918970,0.217450,-0.518094,-0.837315,-0.038398,0.250715,-0.569392,0.166339,-0.884749,-0.070360,-0.617042,-0.232243,0.245293,0.003611,-0.148407,0.113452,-0.447313,-0.189636,0.752921,0.082049,0.480625,-0.364817,0.450088,-0.157998,0.768738,-0.147447,0.110681,-0.643043,0.215713,0.842671,-0.707300,-0.302539,0.085259,-0.279486,-0.132506,0.829724,0.524135,-0.015902,-0.237619,0.132579,-0.446108,-0.428885,0.862320,-0.025033,-0.064464,0.297878,-0.039817,0.510217,0.511793,-0.381482,0.557770,-0.714368,-0.236392,-0.632715,-0.214272,-0.383870,0.225895,-0.900208,0.406028,0.769779,0.833525,0.343772,0.537497,-0.794866,0.372864,0.614326,0.906041,0.547307,-0.620771,-0.867815,-0.307197,0.453164,-0.774707,0.505440,-0.719632,0.337920,0.698887,-0.935695,0.640122,0.440025,0.887692,-0.092766,-0.623026,0.081093,0.705099,0.339349,-0.320354,-0.101528,-0.685295,0.030791,0.859733,0.373568,0.347901,-0.172413,-0.963414,0.120852,0.798243,0.442316,-0.337624,0.620069,-0.192438,-0.252739,0.976491,0.401821,0.984247,0.302909,0.467327,0.667797,-0.379711,0.300695,-0.677543,0.785567,0.996331,0.367302,0.569938,0.425811,-0.421818,-0.121648,0.980980,-0.962205,0.644912,0.344430,-0.788404,-0.693479,0.596626,0.325139,0.509858,0.866497,0.615490,-0.005885,-0.380929,-0.785620,0.933516,0.534843,-0.669952,0.952287,0.170568,-0.797863,0.893563,-0.130162,0.847041,-0.150029,0.811869,-0.502205,-0.712174,-0.955024,-0.593445,0.986608,0.242546,-0.030382,0.671442,-0.281402,-0.080250,0.444102,0.509380,0.000989,0.507619,0.474845,0.750113,-0.852559,-0.394070,-0.621133,-0.670127,0.385214,0.517491,0.718025,0.832278,-0.354426,0.826404,0.786439,-0.833626,-0.013450,0.614247,0.317094,-0.106490,0.982536,-0.033504,-0.970383,0.479698,-0.673032,-0.187301,0.056142,0.090442,-0.122937,0.349302,-0.520906,-0.917512,-0.232898,-0.493830,-0.608583,-0.036961,-0.090148,-0.077848,0.905811,-0.639262,-0.950652,-0.293929,-0.505880,-0.679828,-0.914696,-0.366231,0.287612,0.281287,0.381877,-0.934745,0.375031,-0.150475,0.280898,0.535630,0.731635,0.918099,0.411530,0.510212,-0.254535,-0.426546,-0.910765,0.830698,-0.782164,-0.437273,0.280375,0.813350,-0.231943,0.265759,-0.803758,-0.440504,-0.197955,0.177893,0.015084,-0.747113,0.857858,-0.340625,0.356554,-0.580232,-0.815044,0.995623,0.947997,-0.878978,-0.761089,0.813887,0.690259,-0.998147,-0.086686,0.043546,0.914758,0.058586,-0.838283,0.333936,0.936071,0.784346,-0.420839,-0.973995,0.195599,-0.303806,0.833463,0.297975,0.431291,-0.142223,-0.480063,-0.113837,0.560201,0.770304,0.060577,0.538654,-0.771665,-0.028802,-0.216226,0.516209,-0.150563,-0.263426,0.770400,-0.926846,-0.092537,-0.381534,0.412018,0.550911,-0.930713,-0.400021,0.348735,-0.911299,0.741873,-0.715510,0.754112,0.282310,0.887385,0.975077,0.524166,0.823664,-0.573270,-0.178800,0.746481,0.102564,-0.338026,0.713291,-0.147051,-0.962069,-0.278707,-0.971498,-0.158563,0.515381,0.149286,-0.312141,-0.759523,0.145886,-0.544137,-0.038604,0.840860,-0.188593,0.340694,0.429839,0.947921,-0.775078,0.820761,-0.531893,-0.880036,0.604345,-0.082858,0.682251,0.484217,-0.076384,0.982369,0.061082,0.409372,0.906571,-0.444483,0.783889,0.949574,0.971421,-0.571840,-0.273069,0.396462,0.816016,0.940805,-0.499604,-0.201948,0.940999,0.199165,-0.077998,-0.057888,0.059529,0.512659,0.520534,0.455004,0.665907,-0.134705,0.400694,-0.742323,-0.125069,-0.242914,-0.508679,0.802384,-0.540200,-0.727897,0.190109,-0.363368,0.417748,-0.307682,-0.867716,-0.559602,0.178298,0.419429,-0.373422,0.388019,0.618505,-0.053438,0.893384,0.962495,-0.343070,-0.614552,0.823685,-0.235301,0.047674,0.071029,0.194324,0.541470,0.726296,-0.289472,-0.314801,-0.750455,0.157322,-0.081310,0.836840,-0.084306,0.272239,-0.372639,0.634768,0.145607,0.006490,0.435765,0.597967,-0.305179,0.261964,0.213770,0.874981,0.169134,-0.509830,0.751507,0.846574,0.316969,-0.269631,-0.648358,0.933047,-0.214981,-0.005129,-0.918178,0.109186,0.945167,-0.793628,0.744339,0.239687,0.381619,0.396360,-0.581706,0.250412,-0.660025,0.304052,0.900450,0.926247,-0.891155,-0.562180,-0.014289,-0.225910,-0.866529,0.981225,-0.640377,0.352088,-0.246583,0.158415,-0.566693,0.412169,-0.619552,-0.558119,0.197022,0.530547,-0.657370,0.061706,-0.038674,0.449724,0.060671,0.285126,0.435656,-0.828718,-0.278037,-0.545020,0.130213,-0.968815,0.252837,-0.049082,-0.286601,0.081353,0.820371,-0.957504,0.405282,-0.291060,0.575143,0.973596,0.818996,-0.012979,0.943473,-0.225921,0.642288,-0.054977,0.956378,-0.545642,0.998343,-0.326414,0.649061,-0.521406,-0.494289,0.219687,-0.212478,0.757910,0.660639,0.124629,-0.609932,0.889516,0.797488,-0.560284,0.483717,-0.298663,-0.370118,-0.371194,0.647227,0.830132,-0.118895,-0.051015,-0.196760,-0.293290,-0.383673,0.746132,-0.427053,-0.850307,0.364735,0.477724,-0.592270,-0.865750,0.161232,0.832177,0.447877,-0.857504,0.474023,-0.548972,0.189293,0.952395,0.849398,-0.626093,0.255302,0.466167,-0.361469,0.529818,0.341581,-0.022616,0.504253,-0.135867,0.996470,-0.288005,-0.131728,-0.072465,-0.480005,-0.690477,0.577090,-0.791787,-0.024921,0.503850,0.548468,0.614569,-0.802677,-0.241519,0.437829,0.465865,0.328876,0.843115,-0.612425,-0.318524,0.107059,-0.460697,-0.770483,0.244154,0.838113,-0.927771,0.070986,0.442089,-0.668365,-0.793963,-0.566252,0.581778,0.628450,0.765898,-0.064060,0.356164,-0.260493,0.331599,0.045175,-0.955259,0.255083,-0.997198,-0.342713,-0.618933,0.408341,-0.613140,-0.354060,-0.271785,-0.308069,0.221064,0.257458,0.547999,-0.665790,-0.540926,0.386649,-0.439995,0.856728,-0.170862,-0.825850,0.733125,0.240332,0.341613,0.876468,0.126138,-0.450564,0.708028,-0.170342,-0.583542,0.477908,0.809029,0.721936,-0.637268,-0.406315,0.833682,-0.525461,0.230421,-0.653086,0.738884,-0.615573,-0.049103,0.974426,0.603880,0.984344,-0.873194,0.225524,0.195650,0.769748,-0.512227,0.212690,-0.032087,0.662782,0.677018,0.525883,-0.548240,0.678827,-0.998347,-0.202638,0.968173,-0.268240,0.262232,0.022104,-0.051682,0.187610,0.223179,-0.472666,-0.789293,-0.784965,-0.813543,-0.281885,0.048017,-0.667868
-0.344586,0.998393,0.935387,0.917731,0.663305,0.479525,0.248748,0.967528,0.532788,-0.236945,-0.529412,0.000791,-0.014585,-0.860883,0.566123,0.452826,0.413431,-0.637490,0.243060,-0.693682,0.406026,0.248682,0.775430,-0.768776,-0.146773,-0.200895,-0.073154,0.783644,0.218016,0.761382,0.570675,-0.457535,0.327373,0.950774,0.536866,-0.184982,0.130732,0.764260,0.561267,-0.919164,0.707865,-0.266933,0.024017,0.261433,-0.534258,0.528846,-0.115125,0.409079,0.104694,-0.037142,0.786711,-0.439101,-0.786328,0.205705,-0.697940,-0.872061,-0.611915,0.353591,0.183261,0.077560,-0.077685,0.052521,-0.080479,-0.952380,-0.485605,0.075120,-0.061138,-0.646678,-0.544538,0.064670,0.931731,-0.060927,0.165456,0.312438,0.744407,-0.536614,0.245919,0.936243,-0.310652,-0.491874,0.276823,-0.078062,-0.839906,0.999450,-0.516919,0.409721,-0.677252,-0.791608,-0.924744,0.400160,0.707630,0.338661,-0.105870,-0.073782,-0.453427,-0.309575,-0.462841,-0.222330,0.720265,0.497004,-0.855156,-0.428964,0.849248,-0.433412,-0.929360,-0.675166,0.990855,-0.653516,-0.629455,-0.234239,0.762058,0.085707,-0.412942,0.121059,-0.109845,0.680669,-0.204000,-0.235038,-0.901108,0.946339,-0.302417,-0.935499,-0.034174,-0.692470,-0.419022,0.723034,-0.127201,-0.033972,-0.604308,-0.070614,0.287802,-0.168036,-0.889798,-0.161406,-0.852373,0.362737,-0.250409,0.735452,-0.992760,-0.673081,0.717620,0.244423,0.882511,-0.798607,0.651484,0.119577,0.376509,-0.819140,0.011806,-0.040210,0.799205,0.650895,0.159365,0.372651,-0.511902,-0.742486,0.390197,0.527453,-0.412508,0.806707,-0.155188,0.001854,-0.930303,-0.695812,-0.521966,0.769844,0.368423,0.855810,-0.817890,0.171440,0.525536,0.053065,0.426229,0.262038,0.827555,0.303416,0.690802,-0.106835,-0.400584,0.241629,-0.031210,0.624164,0.518462,0.706287,-0.470383,-0.394933,-0.773876,0.538845,0.643134,-0.872098,0.723735,0.748471,-0.731442,0.950497,0.660839,-0.492882,0.021446,-0.006262,0.425231,-0.837351,0.445790,-0.624558,0.578379,-0.941496,-0.253865,0.297133,-0.601527,0.624647,0.906220,-0.002822,-0.948382,-0.896291,-0.186762,0.719792,-0.709159,0.065310,-0.320611,0.121265,-0.862239,0.522408,0.523472,-0.727740,0.732594,0.679399,-0.495926,-0.725544,-0.401173,-0.612574,0.276490,0.005411,-0.453914,0.881723,0.853812,0.341959,-0.198551,-0.431176,-0.086749,0.039819,0.051306,0.451616,-0.997540,-0.880863,0.236720,0.743110,-0.032923,-0.237727,0.850495,-0.764861,-0.952679,-0.014780,-0.835639,-0.665459,-0.864284,0.390162,-0.347811,-0.944903,-0.080189,-0.638805,-0.600117,-0.725315,0.889789,0.106619,-0.847360,-0.463839,-0.462630,0.892208,-0.328423,-0.822261,-0.233582,-0.969067,-0.543354,0.222213,0.114133,-0.940101,-0.137227,0.423801,0.622477,0.516290,-0.160502,-0.966033,-0.142394,-0.568709,0.544664,0.885283,-0.595995,-0.821960,0.140774,0.463867,-0.483672,-0.243463,0.240339,0.174447,-0.143105,-0.051362,0.454682,0.849970,0.533527,-0.553133,0.842394,-0.737114,0.764336,0.996441,0.198720,0.096705,-0.856304,0.148122,-0.992548,0.902856,0.300765,-0.378498,-0.342377,-0.086334,0.685060,-0.201354,-0.070802,0.886360,0.039286,0.511273,0.654953,0.340830,-0.273107,0.360180,-0.541295,-0.518226,0.549390,-0.326341,-0.296766,-0.490107,0.474091,-0.710981,0.795337,0.696372,-0.224118,0.831397,-0.205731,0.234037,-0.919719,-0.883208,-0.200181,0.919563,0.233837,0.291532,-0.738589,-0.012476,-0.106830,0.216427,-0.486171,0.231270,0.655504,-0.245741,-0.678172,0.360277,0.567517,-0.063806,-0.585314,0.479410,-0.491997,-0.207366,0.415561,-0.818851,0.468217,-0.072826,-0.643878,0.709416,-0.882059,-0.485971,0.154964,0.129846,0.149577,0.985798,0.742387,0.475317,-0.465118,0.798734,-0.111320,0.188261,0.445939,0.567873,0.167213,0.890218,0.844995,-0.426734,-0.666797,0.996313,0.885027,-0.101255,0.434455,-0.550628,-0.394470,-0.310888,-0.302946,0.367433,0.218570,0.468715,-0.126174,0.671743,-0.758939,-0.849351,0.638214,0.974059,-0.076288,-0.383970,-0.167604,0.673661,0.519731,0.724587,0.214979,-0.368405,-0.434981,-0.864749,0.504367,-0.500799,-0.253852,-0.331175,-0.717653,-0.155668,0.060280,-0.026490,-0.759149,0.998299,0.209130,-0.399776,-0.289722,0.378006,0.447442,-0.599154,-0.205772,0.320048,0.394317,0.598395,0.754546,0.397045,0.977764,-0.824162,0.819788,-0.163137,-0.169692,0.021497,-0.181847,-0.490921,-0.250798,-0.975161,0.183668,0.012305,-0.809775,-0.636311,0.504475,-0.257121,0.124005,-0.385323,-0.235879,-0.829633,0.577818,-0.430733,-0.215774,-0.254447,-0.926228,0.734383,-0.787856,-0.867150,-0.728377,0.046237,0.299223,0.970622,0.345149,0.201883,0.469874,-0.131472,0.504768,0.497980,0.760111,0.609511,0.391739,0.089264,0.614613,-0.868646,-0.619616,0.668019,-0.471426,-0.798569,0.762598,-0.306975,-0.148083,-0.994917,0.566433,0.332676,0.049978,0.199183,-0.064489,0.633106,0.989616,0.852002,-0.041491,-0.522392,0.342568,-0.693219,0.593419,-0.131124,0.547807,-0.054236,0.054057,0.390747,0.964379,0.904696,-0.861090,-0.465168,0.828465,-0.907049,0.785236,-0.001128,-0.652275,0.624594,0.771475,-0.849445,-0.777631,-0.779777,-0.374118,-0.080618,-0.422503,-0.888579,0.274659,-0.422893,-0.255687,0.142999,0.868810,-0.176390,0.370575,-0.745813,-0.713419,-0.289326,0.386973,0.817982,-0.502577,0.055622,0.222969,-0.006477,-0.678844,0.634223,0.068422,0.435786,-0.404454,-0.267016,0.075172,0.677862,0.651128,-0.142957,-0.465795,-0.879900,0.832568,0.933451,0.087898,-0.641334,0.505210,0.616228,0.510106,0.952107,0.229364,-0.055443,0.550658,0.900190,0.291954,0.713601,0.287796,-0.553265,0.152213,0.641342,-0.419153,0.836052,-0.286283,-0.810670,0.910835,-0.656130,-0.823747,0.055593,-0.058446,-0.014946,-0.938006,0.463414,0.103595,0.412579,0.599460,-0.543152,-0.215706,0.234599,-0.300471,0.436890,0.371114,-0.199610,-0.413665,0.879338,-0.789272,-0.843051,0.839957,0.768554,-0.928893,-0.685663,0.837396,0.118462,-0.706069,-0.846329,-0.505414,-0.949410,-0.770735,0.635107,-0.188288,0.810173,0.927515,0.917597,0.984026,0.541024,0.690779,0.631804,0.739828,0.676153,-0.352906,0.389312,-0.034540,-0.996922,-0.735550,0.010802,-0.119126,0.164541,-0.174054,0.893642,0.944626,-0.433855,-0.983237,-0.149349,-0.102986,-0.860372,0.880934,0.623857,0.318709,0.569068,-0.759599,0.615653,0.862905,0.017834,-0.140053,-0.257003,0.770633,0.724186,-0.571644,-0.502197,0.477452,-0.745178,-0.523074,-0.349203,-0.753598,0.273557,-0.403861,0.751866,-0.227665,-0.373582,-0.079781,0.703772,-0.019235,-0.509459,0.933733,0.111626,-0.402868,-0.612510,-0.472215,-0.895345,0.849302,-0.733016,-0.058420,0.244758,0.360034,-0.436213,-0.487131,-0.878345,0.919292,0.527728,-0.488265,0.676860,0.354675,0.294537,0.788413,-0.534844,-0.464913,-0.109901,0.898115,0.089163,-0.061244,-0.821282,0.567133,-0.831033,0.453695,0.975853,-0.625920,-0.214378,-0.759110,0.561558,-0.996711,-0.730783,-0.121100,0.573094,0.092717,-0.300193,0.543055,-0.503601,-0.014597,0.213401,-0.713872,-0.746950,-0.491083,0.032537,-0.933114,0.821197,-0.108226,-0.648417,-0.359648,0.936885,0.052345,0.976471,-0.157756,0.812422,-0.934147,0.345427,0.359933,0.815144,0.904071,-0.121626,0.409379,-0.701098,-0.189616,0.974195,0.428435,0.387596,0.124059,0.017514,-0.260088,0.036320,0.678427,0.834837,-0.999979,0.326806,-0.720267,-0.534482,0.090250,0.130303,-0.950302,-0.488757,0.694101,0.715427,-0.769634,0.501268,0.015047,-0.242720,0.649940,0.359471,0.995801,-0.217524,0.137342,-0.482997,-0.288993,0.547959,0.650237,-0.822406,0.758565,-0.561368,0.796981,-0.846380,-0.752026,-0.979410,0.729076,0.550082,0.058841,-0.904914,0.109044,0.614511,-0.535055,-0.309555,-0.454749,-0.258135,-0.277607,-0.901545,0.999784,0.994255,0.201657,-0.290515,-0.107779,0.510414
0.135675,-0.162906,-0.181117,-0.607284,0.966265,-0.853283,-0.250465,-0.527898,0.946428,-0.292021,0.017415,-0.710285,0.193812,0.416351,-0.950737,0.316959,0.810782,-0.398171,0.206648,0.774088,-0.255365,0.395492,0.745914,0.388746,0.329832,-0.289329,0.917904,0.373400,0.932094,0.261418,-0.096868,0.537335,-0.927653,-0.530733,0.618449,-0.450329,0.458851,-0.465302,0.300049,0.883833,-0.918382,0.651165,-0.314290,-0.803296,0.606157,0.958349,0.740759,-0.443760,-0.235970,0.455316,0.705393,0.196506,-0.894631,0.515820,0.306394,-0.401473,0.299089,-0.772173,0.706474,-0.870754,-0.193817,-0.717237,0.014811,-0.985957,0.417632,-0.585837,0.971110,-0.883858,-0.399669,-0.858199,0.426995,-0.399507,-0.982214,-0.968898,-0.032670,0.695829,0.547890,0.449701,-0.519738,0.854019,0.404595,0.529374,0.780752,0.844048,-0.407164,0.903525,-0.587576,0.088686,-0.297079,-0.179227,0.667684,-0.015561,0.213868,0.299402,0.364295,0.112171,0.621512,0.152301,-0.810183,-0.471539,-0.842087,-0.376416,0.128852,-0.167613,0.207704,-0.775645,0.241543,-0.622140,-0.163272,0.317887,-0.551100,-0.931137,0.783200,0.065483,0.235591,-0.323732,-0.165044,0.459297,-0.300875,-0.615004,-0.189408,-0.940989,-0.814399,0.205033,0.282667,0.306299,0.650684,-0.506616,-0.952419,0.798053,0.492855,-0.218982,-0.371899,-0.578938,-0.522194,-0.651671,0.379656,0.022301,0.836626,0.163165,0.614514,-0.871716,0.028476,-0.372887,0.765332,-0.353905,-0.840839,-0.012169,-0.786342,0.344434,-0.141132,-0.684319,0.957123,0.334396,0.348476,0.576619,-0.671311,-0.085433,-0.009342,0.329567,-0.017750,-0.019033,0.101914,0.138973,0.145981,-0.030005,-0.066313,-0.190448,0.244230,-0.052084,-0.721355,-0.639820,-0.891885,-0.929737,-0.122454,0.898704,0.903617,0.614789,0.413704,0.677845,-0.749106,0.711017,-0.667853,0.782289,-0.263180,-0.279849,0.271021,-0.152563,0.534681,0.196490,0.038886,-0.462741,0.164862,0.450859,0.809621,0.400534,-0.860667,-0.911217,0.112288,0.970414,0.618437,0.707532,0.063790,-0.491532,-0.550508,-0.960732,-0.264757,0.782500,0.002631,-0.470374,0.963288,-0.857226,0.253169,0.120153,0.281127,-0.199939,0.516388,-0.761221,0.888443,0.391411,0.878110,0.539894,-0.655406,-0.620639,0.267548,-0.394955,0.918449,0.656070,-0.928467,-0.485138,-0.572445,0.137537,0.259471,-0.928513,0.376831,-0.828509,0.086761,0.103693,0.947820,-0.570063,-0.692351,0.386603,0.490782,0.982081,0.287723,0.089575,-0.563502,0.945967,-0.739725,-0.390115,-0.673487,-0.036548,-0.722601,0.631037,-0.788478,0.870746,0.909425,0.508526,-0.585272,0.301672,0.688372,0.163692,-0.912438,-0.403152,-0.667447,-0.445463,-0.979530,-0.986791,0.664901,-0.601810,0.369763,-0.044566,0.442864,-0.177323,0.371766,0.585325,0.791660,-0.211617,-0.049352,-0.620634,-0.291413,0.928617,0.582710,-0.820268,0.334559,-0.198395,-0.613918,0.858723,0.518494,0.883556,-0.120078,0.954415,0.964763,-0.634794,-0.184985,0.698770,-0.932905,-0.872716,-0.388994,-0.739427,-0.316843,-0.180401,0.749501,0.987683,0.330142,0.248151,-0.005818,0.190273,-0.572669,0.780013,-0.360414,-0.291488,-0.825852,-0.031395,-0.000185,-0.234381,-0.727762,0.001585,-0.452508,-0.510910,-0.494518,0.282709,-0.524555,-0.106660,0.135904,0.469978,0.361842,0.143964,0.613908,-0.478264,-0.275874,0.718247,-0.697558,0.679860,-0.830077,-0.357187,0.778863,-0.537349,-0.907800,0.209259,-0.859173,0.931007,0.754837,0.116070,-0.493187,-0.400948,-0.048107,0.772140,-0.896973,0.125830,-0.302869,-0.967784,-0.833117,-0.896640,-0.121392,-0.569404,-0.223727,-0.177790,-0.343027,-0.928654,-0.456599,-0.234465,-0.421306,0.243883,-0.979083,-0.014386,0.227854,0.382114,0.642772,-0.673562,-0.052415,0.781459,0.412884,-0.900897,-0.374046,-0.380478,-0.654547,0.907082,0.857001,0.570353,0.559147,0.449894,0.088323,0.599289,-0.964593,0.774274,0.137466,0.398142,-0.187100,0.057427,-0.729812,0.565407,0.620555,-0.844411,0.544228,-0.374469,0.339026,-0.498038,-0.129835,-0.627881,-0.468713,-0.708965,-0.262283,-0.237055,0.820966,-0.254806,-0.631713,-0.866559,-0.593925,0.841376,-0.285123,0.813115,-0.856918,0.035269,0.056235,-0.332472,0.982127,0.408997,0.490304,0.229817,-0.766597,0.132380,0.609250,0.396012,0.441832,-0.017253,0.916767,-0.782766,-0.363548,-0.463130,-0.786047,-0.683952,-0.211002,0.048173,-0.340932,0.597292,-0.486040,-0.502051,0.667096,0.164983,-0.898262,0.177538,-0.691249,0.824949,0.046854,0.131205,0.434808,-0.588174,0.248382,0.531473,0.043073,-0.166715,-0.501386,0.008181,-0.925194,0.065229,-0.130933,-0.657507,0.766538,-0.738185,0.300742,0.238808,-0.117972,-0.335033,-0.527309,-0.352307,-0.039605,-0.237623,0.812277,0.210112,0.822936,-0.912273,-0.776730,-0.558573,0.006165,0.463569,0.399890,-0.439093,-0.884132,0.811468,-0.518763,-0.657037,-0.919603,-0.535975,-0.557931,0.775872,-0.491691,-0.116793,0.069135,0.540443,0.682118,0.479785,0.467047,0.745781,-0.730840,-0.450738,-0.135773,0.282006,-0.640417,-0.994254,-0.084870,0.587579,-0.442855,0.139692,-0.004537,-0.125360,-0.932907,0.540967,0.601934,-0.904567,0.146517,-0.026912,-0.712156,0.495096,0.059447,-0.922276,-0.448895,-0.848070,0.802158,-0.086905,-0.777126,-0.087283,-0.816192,0.462308,-0.024549,-0.607314,0.973921,0.314389,0.181965,0.551150,0.017774,0.394145,-0.437079,-0.090271,0.199241,0.830767,0.077400,0.629809,-0.283353,-0.093328,-0.465284,0.887489,0.229867,-0.921949,0.035448,-0.496521,0.440940,0.259323,-0.160705,-0.326344,-0.048308,0.624894,0.325069,0.453083,0.447753,0.543775,0.796809,-0.442297,-0.039375,0.823153,-0.691858,0.674618,0.692707,-0.714559,0.036819,0.473333,0.317961,0.600648,-0.008760,-0.994233,-0.799970,-0.500734,0.652086,-0.673332,-0.072817,-0.310299,-0.496997,-0.189487,-0.634767,0.244348,-0.144866,-0.684520,-0.761520,-0.040627,0.354067,-0.634399,0.201204,-0.232056,-0.571078,0.282540,-0.091142,0.387429,0.574963,0.986515,0.124811,0.370889,0.200474,-0.582176,0.249886,-0.365916,-0.745761,-0.284557,-0.149264,0.686008,-0.482496,0.729985,-0.309449,-0.072365,0.559759,-0.579375,-0.395539,-0.584099,0.544567,0.721688,0.492426,-0.848814,-0.340013,0.668969,0.736389,0.759679,0.928747,-0.967261,-0.615253,0.531192,-0.896318,0.780422,-0.784527,-0.483738,-0.333564,-0.324385,0.647300,0.919893,0.827530,0.626559,0.067007,0.850747,-0.823650,-0.736732,-0.535102,-0.389833,0.887172,0.432166,-0.919369,0.364056,-0.531335,0.085109,-0.382018,0.355352,0.101001,0.582264,0.786206,0.040162,0.212694,0.065154,-0.851715,0.809277,0.661605,0.784956,0.244731,-0.136742,-0.103255,0.879205,0.381794,0.348376,-0.610847,-0.428100,-0.142497,-0.237670,-0.243029,0.480142,-0.835702,-0.289509,0.683174,0.620903,-0.916986,0.923761,0.736131,0.387490,0.912914,-0.150226,-0.063074,-0.738918,-0.056861,0.464087,0.653916,-0.752767,-0.894921,-0.616183,-0.075430,0.782818,-0.664929,0.911995,0.131295,-0.425846,-0.177332,0.807457,0.784103,0.121322,0.930945,0.871884,-0.144897,0.307170,-0.636584,-0.207153,-0.457582,0.314784,-0.902697,-0.818345,-0.568938,-0.807763,0.812672,-0.538127,-0.145401,0.729577,-0.999050,-0.942082,-0.847876,0.711142,0.810302,0.380678,0.977437,0.282968,-0.505200,0.222202,0.313580,0.120595,0.745875,-0.110949,0.692022,0.598758,0.783839,0.619746,-0.406859,0.316499,0.890184,-0.824960,-0.078032,0.029446,0.684233,-0.826020,-0.904011,-0.114551,0.875816,-0.637580,-0.539709,-0.576077,0.224602,-0.428058,-0.429075,0.759256,0.939062,-0.404461,0.487697,0.032548,-0.870590,-0.204000,0.042505,-0.854921,0.625438,0.677765,-0.766562,0.333544,-0.098160,0.165600,-0.175727,-0.905354,-0.517950,0.594434,0.456268,0.934465,-0.363501,0.764674,0.450715,0.302543,0.353264,0.293231,-0.155445,-0.673420,-0.021619,0.501641,-0.996223,-0.789248,0.403760,0.542308
0.131797,0.506317,0.448018,-0.162821,-0.575035,0.685553,-0.722867,-0.457479,0.607856,0.606753,-0.984951,0.222852,-0.970101,-0.728713,-0.164364,-0.301948,0.515728,0.492289,-0.600033,-0.729769,-0.182542,0.645391,0.029717,-0.135130,-0.819792,-0.726464,0.904470,-0.738031,0.106667,-0.266177,-0.989858,-0.305964,0.431319,0.844611,-0.836844,0.049022,-0.862552,0.760989,0.831458,0.489520,0.615631,0.941974,-0.572924,-0.685364,-0.907414,0.839924,-0.532949,-0.627655,-0.807694,0.701121,-0.305302,-0.966981,-0.969189,-0.006659,0.634822,0.233770,-0.866463,-0.693979,-0.629283,0.442898,-0.823083,0.968407,-0.188106,0.211157,0.746114,-0.309994,0.820407,0.778819,0.619066,-0.823504,-0.393146,0.841063,-0.129866,-0.682919,0.983666,-0.907161,0.011412,0.361769,-0.380862,-0.943088,0.296034,-0.809998,0.256484,0.976565,-0.864340,0.997306,-0.050615,0.520476,0.366325,-0.265318,0.239432,-0.526473,0.648945,0.560842,0.260665,-0.032222,0.454640,-0.584579,-0.675042,0.617908,-0.062373,-0.824983,-0.262733,0.183157,-0.428850,0.037017,-0.696843,0.077138,-0.300630,-0.965753,-0.610065,-0.161642,-0.327196,-0.001766,0.819095,0.545371,-0.921834,0.867864,0.545313,-0.794990,0.862083,0.344018,0.266162,-0.725804,-0.048416,-0.588378,0.735195,-0.256577,-0.433020,0.870563,0.453578,0.207807,-0.455770,-0.634170,-0.907119,0.146567,-0.786303,-0.062600,0.737298,-0.176621,-0.462413,0.133960,-0.815909,-0.736386,0.823481,0.931720,0.914012,-0.791928,-0.721414,0.726323,0.876143,0.455686,-0.897035,-0.327644,-0.249441,-0.363897,-0.511464,0.803697,-0.779795,-0.704469,-0.093523,-0.975105,0.647886,-0.884900,-0.616741,0.480647,-0.684739,-0.661098,-0.923758,-0.639125,0.701077,-0.152198,-0.401989,0.642397,-0.660346,0.864161,-0.867701,-0.151872,0.686657,-0.580880,0.925728,0.202707,-0.959749,-0.074609,0.862555,0.998043,-0.596534,-0.150254,-0.714573,-0.436828,-0.202117,0.544113,0.876394,-0.775892,0.329379,0.647482,0.645432,-0.480953,0.660179,-0.029827,0.873902,-0.485264,0.495900,-0.972974,0.348142,-0.856123,-0.739243,0.884420,-0.885652,-0.007651,-0.062396,-0.869809,-0.926538,0.321492,0.630261,0.631736,0.850475,-0.371498,0.191132,-0.438100,0.699213,-0.225516,-0.261563,0.764303,0.445604,0.409615,0.097908,-0.978165,0.263091,-0.702599,0.810511,0.968391,0.134834,0.138670,-0.203200,0.684673,-0.356499,-0.586364,-0.014833,-0.368555,0.057979,0.041142,0.661703,0.375801,-0.988339,-0.723611,-0.344230,0.689312,0.906347,-0.332574,0.702277,0.593057,0.969421,0.051219,-0.433852,0.945038,0.449076,0.359463,0.233038,0.478772,0.375199,-0.216409,0.993172,-0.158400,-0.203268,0.123010,-0.907007,-0.672759,-0.242839,0.568082,0.474295,0.411938,-0.590307,0.694442,-0.505560,0.822945,-0.446507,-0.945418,-0.672723,-0.934252,0.640359,-0.504497,0.854396,-0.892565,0.305078,-0.898398,0.070346,0.640884,-0.853059,-0.322899,-0.875057,0.627353,-0.419342,-0.368641,-0.589244,-0.236708,0.320900,0.189359,0.088673,0.802773,0.026527,0.061562,0.830337,-0.112928,-0.539973,0.584061,0.469197,-0.199287,0.848357,0.291338,0.369435,0.001585,-0.733332,-0.836307,-0.627134,-0.425004,-0.436205,0.015306,-0.103011,-0.482406,-0.307471,0.967940,0.887156,-0.501695,-0.429397,0.636881,-0.229666,0.463351,-0.247804,-0.906397,-0.656284,0.118617,0.191775,-0.884486,-0.217496,0.790211,-0.718222,-0.149999,-0.778838,0.766021,0.093071,-0.090421,-0.472310,0.432798,-0.181432,-0.274427,-0.844452,0.655575,-0.172685,0.284847,0.321218,-0.946049,0.761212,0.349432,-0.980610,-0.113076,-0.975909,0.022867,0.367202,-0.029728,-0.152117,0.101933,0.011333,0.968884,0.313199,-0.492555,-0.050833,0.283452,-0.573937,0.093261,-0.356297,-0.289831,-0.977682,0.508320,0.228350,0.946788,0.542016,0.456815,-0.850673,-0.530968,-0.505514,0.714118,0.318948,0.346018,0.104978,0.727505,0.467446,-0.420815,0.846227,0.433363,-0.947770,0.906051,0.145836,-0.150267,0.470964,-0.061565,0.735288,-0.205323,0.233365,0.877386,0.686505,0.024461,-0.575433,0.306738,-0.216561,-0.349947,0.728465,-0.598427,0.740226,0.047027,-0.052099,-0.796823,-0.851851,0.694445,0.894052,0.911466,0.108760,0.073313,-0.278512,-0.301647,-0.886796,0.725919,-0.060366,0.851266,0.901729,0.463769,-0.398733,-0.349676,0.879613,-0.749288,0.038459,0.632568,-0.668815,0.795389,0.935744,0.235775,-0.218671,0.292703,-0.076084,-0.099441,0.007464,0.482768,0.962103,-0.594470,0.082433,0.685644,0.993236,-0.255257,0.180584,0.491455,-0.955717,-0.018282,0.981247,-0.891859,-0.830573,0.785162,0.765522,0.626768,0.265623,-0.276045,0.328355,-0.961560,-0.609150,0.312603,-0.061031,-0.222645,-0.766402,0.317121,0.708857,-0.004573,0.449155,0.651481,-0.274852,-0.554308,0.087351,-0.567353,0.432189,-0.092441,-0.718169,0.315912,-0.761461,-0.765845,0.603547,0.409084,-0.323474,0.308980,0.810986,-0.831021,-0.114219,-0.998669,-0.680961,0.717804,-0.420301,0.225832,-0.442365,-0.518848,0.162032,0.761078,0.780704,-0.366175,-0.737191,0.610980,-0.964125,-0.930155,0.508497,-0.291043,-0.110278,0.980408,0.681794,-0.620922,-0.275376,0.326716,0.691704,0.398188,0.223123,0.729040,-0.096851,-0.783804,0.688884,-0.005810,0.905611,-0.414535,-0.955909,-0.635019,-0.537352,0.830046,0.644124,-0.156171,-0.638613,-0.151406,-0.466825,0.699680,-0.086165,-0.643781,-0.986023,-0.309363,-0.849475,0.699027,0.088755,-0.188950,-0.699762,0.834119,-0.703433,0.949552,-0.745001,-0.681395,-0.100568,-0.860266,0.907911,-0.700354,-0.815175,0.092550,-0.629392,-0.218840,-0.888372,-0.980261,0.102484,-0.686285,0.430056,0.506909,-0.845279,0.274150,0.499686,0.118902,0.834452,-0.777115,0.408980,-0.032180,0.117016,0.882500,-0.740746,0.662955,-0.538754,0.584322,0.471260,-0.776828,0.891332,0.038178,-0.344454,0.306029,-0.596045,-0.226374,-0.919638,-0.222204,0.336178,-0.864282,0.050245,0.472863,0.077771,-0.744974,0.120150,-0.754809,-0.822609,-0.543442,0.741590,0.183692,0.168488,0.868025,0.605710,0.839865,0.607226,0.813642,0.894579,-0.812313,-0.631276,-0.692342,-0.328284,-0.915134,0.737183,0.899640,-0.742116,-0.701740,0.595102,0.066611,-0.291097,0.874472,0.375257,0.824476,-0.701195,-0.092408,0.206348,0.216652,0.444300,-0.283504,0.990314,0.730707,-0.068683,0.363143,0.948856,-0.438065,-0.989088,0.598458,-0.794511,0.328898,-0.047985,0.843301,0.210444,0.919600,-0.151099,0.055618,-0.775836,0.939394,-0.186364,-0.142015,-0.949639,-0.216634,-0.190067,-0.069956,-0.680694,0.340346,0.615276,-0.308831,-0.017585,0.053993,0.736546,-0.078954,-0.755216,0.294301,0.298696,0.078484,0.562723,-0.270202,-0.090688,0.487834,0.918974,-0.361370,0.446325,0.408979,0.296340,0.184972,0.831393,0.643453,0.856070,-0.160130,0.511037,-0.755503,-0.173314,0.347443,0.141146,-0.313198,0.054681,0.945352,0.448625,0.174413,0.940936,0.025512,-0.480535,-0.912969,0.792167,-0.011405,-0.677882,-0.491986,0.783530,0.376480,-0.893296,0.159179,0.290192,-0.281061,0.233383,-0.814170,0.768976,-0.189703,0.238258,0.975272,0.149816,-0.515135,-0.128238,0.301583,0.826432,-0.557869,-0.630590,-0.081013,-0.883040,-0.840416,-0.787631,0.075731,0.658434,-0.664054,-0.413552,-0.971171,-0.476472,0.091925,-0.133063,0.984114,0.074741,-0.544393,-0.471502,0.270555,0.742903,0.898622,0.969717,-0.616413,-0.534384,-0.255425,-0.978868,-0.618698,-0.170681,-0.098267,0.416426,0.298365,0.878260,0.957097,0.471416,0.155751,-0.144541,0.262991,-0.405742,-0.064762,-0.947674,-0.665325,-0.962467,-0.572238,0.161777,0.517983,-0.655981,0.298699,-0.085151,0.157137,-0.404816,0.457465,0.429217,0.501390,0.362166,0.491705,0.667430,0.605425,-0.414081,-0.682401,0.931972,-0.223450,0.536900,0.096941,0.851776,-0.608863,0.225757,-0.173646,-0.130839,-0.969778,-0.872873,-0.977727,0.377023,-0.043818,-0.857819,-0.621528
0.703241,0.314261,-0.902826,-0.144131,-0.826934,-0.976994,-0.126906,-0.016513,0.186870,0.834452,-0.066257,-0.252397,-0.732437,-0.710065,0.772463,-0.286962,0.059725,0.475267,-0.607426,-0.712567,-0.317155,0.668438,-0.376623,-0.231397,-0.867407,0.405633,0.613379,0.420132,0.964908,0.730933,-0.419579,-0.216869,-0.366790,0.972199,0.579518,-0.746242,-0.348153,0.953362,0.273356,-0.237101,0.545273,-0.459795,0.794596,0.167591,-0.554469,0.690589,0.502368,0.714518,-0.666639,-0.046203,-0.500246,0.219582,-0.390184,-0.462624,0.923206,0.475513,0.423630,-0.490796,0.664894,-0.274584,0.706814,0.284809,-0.527295,-0.443876,0.847025,-0.122644,0.788185,-0.851447,-0.196031,-0.564031,-0.193508,0.245942,0.957944,0.400295,0.863986,0.870563,-0.134303,0.192784,0.170208,0.323447,-0.598943,-0.100076,0.642646,0.438364,-0.881406,0.642236,-0.087488,0.236231,-0.666144,0.203917,0.288409,0.905107,-0.208677,0.314811,-0.036655,-0.511390,-0.833238,-0.119183,0.725819,-0.633570,-0.231882,-0.861089,-0.292318,0.311618,0.590233,-0.046009,0.323359,0.297794,0.667738,0.740853,0.892986,0.962054,-0.972386,-0.758231,-0.552978,-0.613125,-0.818467,0.029197,-0.262590,-0.366963,0.755552,0.673065,0.759073,0.502157,-0.724886,0.974727,-0.263325,0.064124,-0.383099,0.512616,-0.671637,-0.581809,0.782210,-0.039564,0.709407,-0.641203,0.633425,0.182272,0.509131,-0.645557,0.900988,0.263625,0.292911,-0.616510,-0.984737,-0.258423,-0.703263,-0.795457,-0.911035,-0.001668,-0.668823,-0.104442,0.148710,-0.472236,-0.165266,-0.215497,-0.716642,0.180821,-0.481115,0.287519,0.618689,-0.538956,0.903651,-0.195296,-0.444393,0.176543,-0.294630,-0.240384,0.645703,-0.908173,0.613857,0.970411,0.453758,0.307608,-0.078847,0.838940,-0.475273,0.434496,0.356527,0.519100,-0.057527,0.641928,-0.672202,0.174466,0.559182,0.270684,0.574771,-0.244194,-0.420472,0.469894,-0.662845,-0.816968,0.402237,0.906640,0.306180,0.302629,0.406594,-0.769955,-0.206969,-0.982022,-0.264262,-0.408100,0.441036,0.664367,0.752188,-0.427268,-0.460171,0.607858,0.776839,-0.706715,-0.228815,0.553904,0.957900,-0.328448,0.787203,0.738551,-0.425045,0.879463,0.356226,0.252146,-0.090154,-0.030229,0.382880,0.337722,-0.671416,0.235261,0.962998,0.160342,0.108777,-0.123720,-0.018066,0.693912,-0.291206,0.917018,-0.834859,0.520904,0.780410,0.713582,0.812304,-0.198542,0.501651,-0.570591,-0.831929,-0.448386,-0.893851,0.652938,0.574550,-0.678092,-0.264039,-0.466433,0.718606,0.556222,0.549933,-0.596206,-0.436122,0.571432,-0.938721,0.801480,-0.654103,-0.689170,0.105247,0.279352,-0.301927,-0.413922,0.265721,0.289583,-0.366745,0.340092,0.258539,0.543916,-0.552698,-0.006150,-0.759032,-0.390587,0.802099,-0.485139,-0.564758,0.768391,-0.613463,-0.701422,0.681599,0.581455,-0.789833,-0.713107,0.750225,-0.824110,-0.088491,-0.055137,0.237270,-0.788711,-0.312198,-0.986054,0.685896,-0.226380,-0.026326,0.483604,-0.270518,-0.241770,-0.230160,0.772326,0.465912,-0.927425,0.000255,0.711846,0.703710,-0.774779,-0.046028,0.411128,-0.824884,-0.268380,-0.279639,-0.285120,-0.549304,-0.772828,-0.978658,-0.820606,-0.322338,0.153842,-0.042271,-0.992721,0.335199,0.592180,0.126954,-0.481919,0.491036,-0.477452,0.229959,0.370981,-0.475345,-0.601821,0.958888,-0.308196,0.089672,-0.003440,0.547145,-0.570434,-0.065540,-0.194693,0.819528,0.844164,0.228372,0.211832,-0.479225,-0.771144,0.740331,0.159364,0.291601,-0.397032,-0.437556,0.156665,-0.774349,-0.093885,-0.265988,-0.597730,-0.619856,0.442718,0.946455,0.710080,0.991580,-0.941008,0.339969,-0.930212,-0.856080,0.010964,0.910365,0.622622,-0.497205,0.837612,-0.153360,0.457416,0.917507,-0.154561,0.746917,0.172443,-0.927413,0.016299,0.347886,0.950371,0.748416,-0.167647,0.812833,0.872345,-0.944774,-0.646137,0.645131,-0.477595,-0.766695,0.523947,0.838789,-0.354082,0.649791,-0.540241,0.013015,-0.645364,0.447526,-0.662521,-0.595541,-0.255834,0.675903,0.994962,0.782409,-0.636538,0.641454,-0.936484,-0.568833,-0.098418,0.027600,-0.977784,0.464127,-0.033794,-0.757608,0.968584,-0.104388,-0.681405,0.435486,-0.766841,0.037808,0.143461,-0.283792,0.755185,0.810420,0.497534,-0.243733,0.596982,0.966567,0.606245,-0.780159,0.430392,-0.831813,0.128386,-0.061844,0.040148,-0.253379,-0.651249,0.766344,0.102276,-0.139555,-0.030889,0.130775,-0.607019,0.666070,0.335194,0.837078,0.090303,0.178180,0.821195,-0.257077,-0.738287,-0.807773,0.314621,0.643095,0.469831,-0.622877,0.193612,-0.932156,-0.911384,0.980737,-0.614591,0.972891,-0.622920,0.337802,0.128711,0.044927,-0.032723,-0.547199,0.922219,-0.339639,0.398593,-0.528971,0.443009,0.783979,-0.249982,-0.774437,0.266630,0.676335,-0.939427,0.156772,-0.708189,0.302613,0.811782,0.739523,-0.795953,-0.907645,0.994290,-0.339438,0.671342,-0.187631,-0.599766,-0.015238,0.624787,-0.627814,-0.285966,-0.203156,-0.744710,0.929737,0.665629,-0.012707,0.009855,0.841635,-0.380071,-0.484582,-0.490338,-0.971962,-0.668116,0.978984,-0.443159,-0.382223,0.755003,-0.575470,-0.032342,0.635405,0.658168,-0.326241,-0.657571,-0.215622,-0.639267,-0.416151,-0.491595,0.249751,-0.880313,0.479853,-0.613962,0.546614,-0.651295,0.148550,-0.919086,-0.878843,-0.325969,0.798265,0.631691,0.096540,-0.421717,-0.976803,-0.145850,-0.477690,0.747531,-0.002842,-0.463582,0.899408,0.820357,0.250760,-0.107634,-0.582023,0.126817,0.825702,0.857797,0.361746,-0.627074,0.061637,-0.026320,-0.239855,-0.441387,-0.633283,-0.697713,0.816327,0.884038,0.302757,-0.781531,0.883404,0.006296,0.219146,0.723065,-0.029669,-0.197645,-0.776801,-0.321472,-0.844243,0.031429,0.297602,-0.512405,-0.881038,0.040130,-0.244974,-0.408857,0.064121,0.870051,-0.448437,0.747675,-0.675820,-0.701472,-0.460592,-0.109464,-0.451242,-0.798236,0.443994,-0.431493,-0.643129,0.746488,-0.783335,-0.916287,0.488346,0.585451,0.616960,0.277718,-0.646043,0.294746,0.408731,-0.690477,-0.897376,-0.015253,0.918922,-0.445946,-0.531655,-0.524902,0.109398,-0.829438,0.029745,-0.044398,0.882132,0.378579,-0.130401,0.540316,0.455930,-0.334477,0.975307,-0.979495,0.990024,0.025754,-0.181771,0.814932,-0.173060,-0.191625,-0.515396,0.567979,0.089592,-0.959647,-0.036689,-0.020958,0.662879,0.450006,0.516930,0.262491,0.393248,-0.511660,0.211260,0.166041,0.245883,-0.131295,0.823773,-0.683756,0.069913,-0.448998,-0.378835,-0.698506,-0.224988,0.877829,-0.881762,0.854750,-0.840525,0.951689,-0.491822,0.454116,-0.080740,0.761593,-0.636863,-0.250277,0.339329,0.927746,0.727792,0.286195,0.232186,0.333956,0.294552,0.726719,0.495312,-0.966414,0.508101,0.764237,-0.092863,0.551468,0.238695,0.952636,0.337257,-0.842881,-0.038884,-0.042275,-0.425577,-0.252437,-0.724535,-0.376740,0.665846,-0.799368,-0.559590,-0.149075,-0.468683,0.924105,0.794170,-0.860576,0.954645,-0.932592,0.303624,0.601894,-0.975721,-0.291828,0.737832,-0.466590,0.950347,-0.423026,0.439829,0.231849,-0.994071,0.035931,-0.764605,0.389158,-0.986286,-0.807529,-0.548374,-0.673436,-0.110114,-0.366302,0.816851,-0.660066,0.656384,-0.549026,0.006305,0.032405,0.243321,-0.214707,-0.718703,0.681506,0.105851,-0.977419,0.520824,0.211139,-0.097437,-0.685567,-0.091222,0.365659,-0.043196,0.490768,0.304338,0.481654,0.722546,0.230651,0.727962,-0.129669,-0.034213,0.442900,0.524684,0.190783,-0.002096,0.128350,0.148434,0.504604,-0.010571,0.697464,0.153638,-0.055677,0.356770,0.793560,-0.020094,-0.812007,0.251282,-0.152599,-0.526241,-0.724819,0.179769,0.673305,0.458530,0.153861,-0.466652,0.924766,0.627162,-0.650807,-0.012570,-0.192010,0.340474,0.790883,-0.470803,-0.948651,0.421444,0.895671,-0.544038,0.581608,0.444460,0.078759,0.015526,0.478551,0.045464,0.054341,0.209448,0.211861,0.164769,-0.731254
-0.946723,-0.748609,0.312931,0.996352,-0.698595,0.674133,0.935704,-0.440022,-0.786881,0.122631,-0.704552,-0.270726,-0.078803,-0.162973,-0.899251,-0.726411,0.555957,-0.349801,-0.840346,0.056934,0.811650,0.560242,-0.542486,-0.678982,-0.313113,0.863413,0.651040,0.585471,0.448073,0.678983,0.765444,0.269383,0.652063,-0.822085,-0.530952,0.180454,0.526680,-0.387134,-0.959044,-0.824361,0.413944,-0.477511,-0.607496,-0.445107,-0.156454,0.794368,-0.180423,-0.377122,-0.370759,0.976577,-0.403565,0.214338,0.996158,-0.762204,0.292030,-0.776852,-0.538860,-0.790564,0.804057,0.448323,0.408095,0.762390,0.675018,0.974101,0.675680,0.635168,-0.816208,0.727075,-0.731706,0.382817,0.136061,0.543718,-0.067809,0.836803,0.083405,0.514860,-0.357718,0.655316,0.520059,-0.071199,0.852996,-0.574728,-0.023524,-0.824957,0.007892,-0.796596,-0.117834,-0.421519,-0.527095,-0.140145,0.625975,0.075990,-0.069637,0.529544,-0.495121,-0.723568,-0.164138,-0.662840,0.705509,-0.686250,0.410705,0.217064,0.664435,0.638398,0.166818,-0.025129,-0.418390,0.001169,-0.246893,-0.691703,0.493999,-0.523285,0.418898,0.512790,-0.093056,-0.628942,-0.606360,0.820897,-0.275207,-0.734486,-0.453920,-0.050024,0.628326,0.171378,-0.628702,0.250974,-0.912312,0.357932,-0.454932,0.701797,0.139387,0.737024,0.274592,-0.324996,-0.414472,0.745348,0.293370,-0.163605,0.864533,-0.559740,-0.689007,-0.105662,-0.759684,-0.406600,-0.319374,0.990066,-0.577410,0.198092,-0.267332,0.067757,-0.143277,-0.719213,-0.345163,0.591050,0.479593,-0.025645,-0.398740,-0.987730,-0.117100,0.436779,0.060918,-0.436619,0.381716,0.663331,-0.713391,-0.051173,-0.414521,0.393692,0.468186,-0.885172,0.796445,0.762031,-0.974837,-0.446515,0.618671,-0.058485,0.934607,0.987191,0.250018,-0.276621,-0.757147,-0.572982,-0.704265,-0.964743,0.850361,-0.685584,0.170777,-0.529098,-0.853583,-0.641707,0.585305,0.994297,0.683802,0.337824,0.534804,-0.688746,-0.228162,0.180023,0.414797,0.007557,0.100315,-0.509228,0.859837,0.484701,0.342902,0.728110,-0.707209,0.845276,-0.345784,0.378833,-0.010009,0.649029,0.059396,0.887402,-0.377079,0.311132,0.581522,-0.630532,-0.102736,-0.027554,-0.708638,0.317694,0.386953,-0.347841,-0.885163,-0.601062,0.261821,0.433622,0.328994,-0.569784,-0.233143,-0.011445,0.778287,0.872516,-0.815683,0.114901,0.596440,-0.228658,-0.826312,-0.948404,-0.508886,-0.270489,-0.769974,-0.362444,-0.075074,-0.747062,-0.753087,-0.389406,-0.902677,0.561312,0.763607,-0.939904,-0.082593,-0.523596,-0.947920,0.040378,0.178048,0.011702,-0.569987,0.458930,-0.102947,-0.265775,0.917654,0.628543,-0.616120,-0.120462,-0.292122,0.659960,0.280517,-0.317949,0.125021,-0.927740,0.188543,-0.677205,-0.435601,0.372369,0.305057,0.199730,-0.056906,0.230749,-0.472848,-0.853689,-0.215680,0.543465,-0.135226,-0.113170,0.166375,0.331490,0.025470,-0.965488,-0.888727,0.970484,-0.703648,0.928896,-0.513707,0.800925,0.709332,-0.812701,0.427972,0.954056,0.712859,0.007429,0.315843,-0.349172,0.320752,-0.852858,0.115238,-0.213649,-0.682612,-0.254632,-0.185509,-0.082781,-0.633976,0.052099,0.863416,-0.479936,-0.425224,-0.128241,-0.548602,0.737617,-0.111178,-0.426493,0.862704,0.294003,-0.831436,-0.976355,0.417402,-0.388147,-0.277987,-0.618562,0.898196,0.413282,-0.517943,-0.351697,0.314958,0.484674,-0.490540,0.461239,-0.829555,0.343763,0.023895,-0.443451,-0.366216,0.551373,0.283459,0.793583,-0.346245,0.492314,-0.538883,-0.740803,-0.151528,-0.859769,0.140885,-0.146116,0.834094,-0.827950,0.639746,0.178531,0.051262,0.957274,0.677697,0.014900,0.378109,0.434968,-0.546762,0.315462,-0.589672,-0.831392,-0.938655,0.212284,-0.253986,0.437889,-0.518487,0.659778,0.577090,0.747691,-0.755730,-0.028566,-0.715446,-0.286374,-0.608119,0.868678,-0.154600,-0.383408,-0.459708,0.936504,0.704385,0.197826,0.005593,-0.760134,-0.025503,0.829288,0.034022,0.192467,-0.915960,-0.915082,-0.960646,-0.128302,-0.553059,-0.966861,-0.699278,0.561261,-0.915278,-0.071869,0.211518,0.443090,-0.027527,-0.147196,-0.969128,0.251673,-0.688393,-0.755634,-0.132974,0.793697,-0.247851,-0.961199,0.833657,0.877119,-0.094517,0.080919,0.296434,0.652286,0.314645,0.718036,0.623579,0.459699,0.051354,-0.547183,-0.282636,0.430112,0.096770,0.124454,-0.351745,0.540429,0.500743,-0.521781,-0.363025,-0.635797,-0.944098,-0.718662,0.767303,0.052373,-0.770832,-0.179542,0.699393,-0.186364,0.892555,-0.697595,0.050133,0.582159,-0.949480,0.046506,-0.708355,0.204457,0.695048,0.107550,-0.214069,-0.671626,-0.649444,0.219296,0.721241,0.051057,-0.738194,0.953935,-0.528083,-0.233397,0.493776,-0.063070,-0.286409,-0.205036,0.444118,-0.862578,0.550690,0.003948,-0.757774,-0.358009,-0.123672,0.023850,0.148839,0.587426,-0.564954,0.033500,-0.086228,0.750808,0.896616,0.447833,-0.718948,0.478956,-0.487453,-0.782875,0.353249,-0.069772,-0.471615,0.778958,-0.139402,0.752790,0.202563,-0.362257,0.464077,-0.673428,-0.501783,-0.868413,0.547501,-0.366465,-0.305113,0.775725,0.567874,-0.107920,-0.788916,0.400688,-0.026449,0.007378,0.725216,-0.995390,0.609192,0.247931,-0.226403,-0.291668,-0.980092,0.138128,-0.735086,0.462333,0.786894,-0.100895,0.113163,0.511467,-0.223583,0.937898,0.875681,0.272822,-0.142688,0.512340,-0.714325,-0.869189,-0.600469,0.101318,0.233583,0.296105,0.095699,-0.500014,-0.171004,0.495284,-0.471287,0.143670,-0.995005,-0.518721,-0.821192,0.559310,0.009615,-0.550033,-0.312572,-0.792702,0.483522,-0.907684,-0.260229,-0.867319,-0.674822,-0.707593,0.975315,-0.112908,0.101954,-0.094263,-0.748463,0.402824,-0.443953,-0.572883,-0.518649,0.197504,-0.019643,0.547967,-0.844399,0.099381,0.487770,0.514721,-0.331769,0.356158,0.654042,0.544348,-0.049762,-0.481545,-0.839114,-0.918571,0.472456,-0.353884,0.427480,0.847172,0.907474,0.648579,-0.999493,0.015441,0.579720,-0.461795,-0.788299,0.405013,-0.024461,-0.807470,-0.925452,-0.145124,0.851894,-0.467865,-0.179922,-0.841574,-0.177395,0.637011,-0.337245,-0.730645,0.246302,-0.168348,0.403393,0.571664,-0.944314,-0.077464,0.272287,-0.170931,0.598265,-0.344237,0.954399,0.617908,-0.050506,0.230732,0.443566,-0.843092,0.853713,-0.188103,0.911721,-0.488485,-0.005190,-0.843548,-0.145035,0.796487,-0.026508,-0.076143,-0.202940,0.069382,-0.048374,0.568276,-0.065947,-0.084618,-0.279671,-0.940932,0.899146,0.908553,0.133366,-0.206226,0.429159,-0.254412,0.025346,0.516517,-0.746971,0.944794,0.078192,0.068610,-0.644990,-0.702821,-0.278071,0.460504,0.894579,-0.230281,-0.066799,0.502638,-0.768587,0.650879,0.709806,-0.907970,-0.488914,-0.148325,-0.793059,0.925886,0.924965,0.991223,-0.208175,0.903267,0.154726,-0.767450,-0.783181,0.625541,-0.670836,0.648532,0.954519,-0.980418,0.875689,-0.959026,0.340729,0.994889,-0.998935,-0.985225,-0.713217,0.853447,-0.797213,0.605306,0.255123,0.143698,-0.922764,0.102489,0.327112,0.931559,-0.943708,-0.374671,-0.693589,0.395306,0.394900,-0.239636,0.351686,-0.408142,0.987520,-0.287060,0.808927,0.841676,-0.516020,0.569248,0.789696,-0.040591,0.713379,0.090296,0.071387,0.573776,0.758637,0.986280,0.206621,0.604890,0.669013,0.782211,0.378069,0.188315,-0.030581,0.002616,0.478520,0.488713,-0.031319,-0.259570,-0.364580,-0.799448,0.477896,-0.330456,0.095065,-0.641913,-0.121087,0.475780,-0.770896,0.074531,0.081814,0.996770,-0.587301,-0.126187,-0.676880,0.205921,0.333659,0.590911,0.974352,-0.627667,0.045144,-0.003912,0.585046,0.159394,0.114674,0.928792,-0.316184,-0.272910,0.008460,0.849181,0.944305,0.444412,0.278038,0.538116,0.768218,-0.189147,0.282543,-0.752207,-0.882185,-0.245124,-0.601322,0.136776,0.125372,0.006395,0.983185,0.720977,-0.271585,0.483002,0.167076,0.016512,0.379075,-0.459238,-0.107003,0.942223
0.816158,-0.654834,0.401712,-0.606390,-0.240275,-0.969773,0.088265,0.156770,0.380252,0.163886,-0.217326,0.461670,-0.931836,-0.656364,0.565457,0.657344,-0.209966,0.265575,-0.718520,-0.365670,0.976001,-0.780416,0.539905,0.535574,-0.944894,0.571126,0.959646,0.366594,0.967775,0.243080,0.929642,0.157054,-0.922905,0.223148,-0.478760,0.922585,-0.040868,-0.924319,-0.434480,0.734747,-0.783486,0.566269,0.524849,-0.717237,0.603244,0.203959,-0.570475,0.820488,-0.585606,-0.912295,-0.762740,-0.520957,0.629182,-0.314308,-0.148874,-0.117306,-0.324490,-0.859414,0.396611,-0.176170,-0.341958,0.597566,0.543884,-0.575462,-0.962578,0.564099,-0.170591,0.222185,0.116111,0.662693,0.452205,-0.493747,-0.299207,0.319326,0.207798,0.797011,-0.425131,0.054593,0.996954,0.750727,0.225341,-0.458596,0.358299,0.625993,-0.672575,0.004656,0.048619,0.960865,-0.588342,-0.264776,-0.834393,-0.547681,-0.230285,-0.516191,-0.881451,-0.194032,-0.549945,0.306684,-0.686074,0.751492,-0.200763,0.758163,-0.310522,-0.758362,0.091658,0.496921,-0.863378,-0.258656,-0.199360,-0.795236,0.224306,0.806033,0.606260,-0.485600,-0.933746,0.553606,0.600613,-0.433702,0.550313,-0.235834,-0.080773,0.524440,0.363222,-0.271705,-0.213438,-0.993939,0.717044,-0.073951,0.701735,0.581121,0.009663,-0.033148,0.202446,-0.644044,-0.178226,-0.861584,0.104449,-0.442589,-0.911144,-0.647006,-0.049031,0.269864,-0.909005,-0.719058,0.954410,0.985598,-0.915348,-0.014666,0.156860,0.411772,0.848850,-0.423572,0.595600,0.186617,0.334421,0.324681,-0.702117,0.349226,0.156487,0.246053,0.240923,-0.990505,-0.658453,-0.363067,0.995319,0.754541,0.135838,0.141692,-0.565088,0.244979,-0.349524,-0.585972,-0.089306,0.165273,-0.151603,0.315705,0.885198,0.170556,0.572339,-0.147689,-0.503475,0.076165,-0.691746,0.025100,-0.025388,0.043768,0.895131,-0.395432,0.468019,-0.277883,0.787986,-0.172116,0.273733,0.763503,0.414269,0.644077,-0.751274,-0.535906,0.801316,-0.298257,-0.660191,-0.757831,0.995184,0.354830,0.399503,-0.827914,-0.161250,0.461043,0.447211,-0.101152,0.129415,0.295798,0.029877,-0.924288,0.282351,0.715597,-0.428092,0.990719,0.488600,-0.194454,0.868588,0.450292,0.903916,0.869965,0.217613,0.646889,0.453812,0.305978,0.381644,0.220974,-0.226799,-0.784132,0.026175,0.637627,-0.179403,0.205586,0.481416,0.028093,-0.790456,-0.591290,-0.018883,-0.312132,-0.113311,0.659079,0.193232,-0.596029,0.118023,0.835309,0.335969,-0.620871,-0.754156,-0.525222,0.866603,0.177312,0.372155,0.579636,0.802431,0.564448,0.001723,0.485366,0.765063,-0.146831,0.109593,-0.357885,0.847538,-0.141256,-0.246057,0.041480,-0.305563,-0.148658,-0.158896,0.605294,-0.397642,0.088075,0.681802,0.816130,-0.353823,-0.375292,-0.967928,0.121558,-0.731107,-0.508883,0.666486,-0.370416,0.116753,0.881484,0.887482,-0.770444,0.987064,-0.826330,-0.922760,-0.814477,0.781299,0.089041,-0.063463,-0.417798,-0.616932,0.883792,0.246825,0.552165,0.550992,-0.207260,0.125636,-0.704432,-0.975209,0.550330,0.778733,0.640688,-0.892235,0.207420,0.677903,0.960364,-0.959993,0.978530,0.183696,-0.806876,-0.271609,0.807318,0.736413,0.226747,-0.762464,0.191380,-0.590968,-0.646456,0.562646,-0.646826,0.886772,-0.856340,-0.386021,0.458775,-0.079630,-0.960751,0.906975,-0.513793,-0.839813,-0.888244,-0.758825,0.607784,0.444405,0.598038,-0.889637,0.918034,0.698341,0.956090,-0.142469,-0.039779,0.383115,0.321997,0.207129,-0.321740,0.176264,-0.017778,0.018699,-0.207447,-0.899710,-0.994193,0.943788,-0.745254,-0.339255,0.309022,0.092430,0.567327,-0.773461,0.485958,0.430384,-0.757635,0.504281,-0.790624,-0.417637,0.872834,0.165737,-0.707025,0.340868,-0.923352,-0.601104,0.274152,-0.919396,-0.090191,-0.175794,-0.338074,-0.382518,-0.084271,-0.234773,0.350436,0.961191,0.382027,-0.781468,-0.571938,0.246092,0.965447,-0.742878,-0.132164,0.051666,-0.813385,0.109070,0.825319,-0.867518,-0.983786,0.256929,0.203224,-0.169554,-0.076558,-0.349418,-0.096375,-0.358166,-0.008174,-0.656678,-0.250117,-0.661504,-0.248101,-0.878557,-0.394812,-0.281202,-0.605510,0.419347,0.128845,-0.128583,0.517926,0.404397,-0.232370,0.055584,-0.599877,-0.097974,-0.859428,-0.116075,0.215571,-0.489959,-0.333862,-0.310630,-0.721809,0.492192,-0.486137,-0.313836,-0.093958,-0.024049,-0.790148,-0.521018,0.839654,0.475692,0.722438,0.059886,-0.103982,0.196948,-0.079008,0.693904,0.551395,0.530607,-0.344642,-0.127456,0.587132,-0.408812,-0.072641,0.084997,0.270567,0.268825,-0.782479,-0.728819,-0.423223,0.715229,-0.919297,0.116495,-0.571219,-0.662101,0.817582,-0.786639,0.606621,0.148349,0.582269,-0.446096,0.978057,-0.993042,0.818705,-0.485580,0.234619,-0.412641,-0.282306,0.600624,0.159188,0.484842,-0.736048,-0.586819,-0.428483,-0.395488,0.223416,-0.463695,-0.537790,0.745404,0.344860,-0.645356,-0.346165,0.101865,0.828482,0.705614,0.165453,-0.641556,0.651660,0.593785,0.369778,0.765712,0.452760,-0.909700,-0.485937,0.955872,-0.525048,-0.532828,0.134516,0.823774,-0.112386,-0.606592,-0.269352,-0.935596,-0.525507,0.699705,0.710370,-0.781152,-0.379578,0.216046,0.366171,0.665008,-0.845778,0.132541,0.055423,0.614998,-0.776824,0.397721,-0.823628,0.709213,-0.518833,-0.088326,0.877395,-0.752492,0.590647,0.825590,-0.146442,-0.260490,-0.698569,0.808385,-0.437144,-0.519858,0.473413,0.967646,0.176394,-0.858347,-0.667611,0.285922,0.375104,0.304932,0.532575,-0.494825,-0.369011,-0.400403,-0.214924,0.763177,0.042250,0.327949,-0.404893,-0.601569,0.139160,0.984364,-0.533981,-0.163588,0.185188,-0.906757,0.910698,-0.980875,-0.178013,0.761758,-0.026825,0.940066,0.030028,0.561373,0.429805,-0.548752,-0.986129,-0.295466,-0.612891,-0.594279,0.415459,-0.526727,-0.259067,0.972618,-0.595175,-0.068036,-0.462677,-0.779106,-0.384030,0.540283,0.578471,-0.156061,-0.586862,-0.038602,0.826606,-0.129417,-0.416309,-0.377437,0.434427,0.258951,-0.508586,0.343054,-0.299131,-0.837544,-0.847972,0.369349,-0.078366,-0.005881,-0.375540,0.575453,0.355680,-0.758295,-0.201146,-0.989079,0.016268,0.230246,0.453450,-0.283577,0.774674,0.020144,-0.091681,0.151645,-0.756082,-0.172117,-0.528282,-0.736213,0.173881,0.829979,0.379640,-0.274840,0.904367,-0.683415,-0.894820,0.271685,0.201224,0.277446,0.255767,0.251817,-0.872942,-0.111133,0.338025,-0.042055,0.456844,0.500473,-0.482464,0.802606,0.175067,-0.576727,-0.993698,-0.445030,-0.648150,0.463882,0.990802,0.008950,0.970132,-0.804896,0.692510,0.733308,-0.203785,-0.696654,-0.060243,-0.360426,0.859869,0.989563,-0.434263,-0.316393,0.938914,-0.706699,-0.928343,-0.601790,-0.078950,-0.303422,0.125679,-0.919772,0.107642,0.806265,-0.379060,0.005407,0.631742,-0.016207,-0.253373,0.530757,0.483710,0.217349,0.739719,-0.757547,0.307444,-0.789154,0.124403,-0.473092,-0.784129,0.535193,0.876302,0.611784,-0.672773,0.292781,-0.127212,-0.319625,0.059757,-0.978929,-0.779344,-0.364825,-0.058212,0.771049,-0.307716,-0.573667,-0.630618,-0.335631,0.303205,0.609321,0.434394,-0.671469,0.916721,0.166873,-0.144488,0.447599,0.122119,-0.701977,-0.210772,0.907393,-0.857537,0.046908,-0.618317,0.592141,0.110897,-0.589948,0.473457,-0.292607,0.123931,-0.285486,0.315797,-0.225036,0.680968,0.622309,-0.467665,0.124472,0.793995,-0.000165,0.228772,0.452374,-0.477077,-0.662353,-0.134424,0.231887,0.825491,-0.656563,0.799025,0.121005,-0.487225,0.400279,-0.978373,0.114608,-0.086505,0.533029,0.117974,-0.258698,0.987583,-0.013279,0.387412,-0.763337,-0.781288,0.554097,0.650231,-0.916655,-0.310501,-0.785494,-0.248693,-0.166493,-0.205630,-0.483854,-0.758600,-0.643724,0.463658,0.374737,0.973104,-0.111423,-0.624414,0.490729,-0.097216,-0.974477,0.567571,-0.500037,0.762353,0.648032,-0.859880,-0.382649,-0.255738
0.538360,-0.485558,-0.040533,0.462879,-0.912325,-0.195621,0.839920,0.738939,0.161233,-0.070874,-0.629426,-0.515545,0.143190,0.298203,-0.247241,0.854021,0.328729,0.255692,-0.890290,0.241501,-0.424130,0.353697,0.244714,0.255582,0.727797,0.436474,0.345469,-0.742906,0.657561,-0.745469,-0.205986,0.128248,-0.580438,-0.330684,-0.227049,0.855644,-0.513221,0.583396,-0.796728,0.481659,-0.630373,0.950169,-0.188651,0.187533,0.608495,-0.294360,0.268981,-0.816496,0.341352,-0.825359,-0.494067,-0.962533,0.264705,-0.662672,-0.979535,-0.842544,-0.451707,-0.122306,0.334422,0.390120,-0.395155,0.585218,-0.449564,-0.884888,0.187857,-0.577464,0.384353,0.918720,-0.937812,-0.450215,-0.338620,0.253824,-0.267907,-0.590874,0.345935,-0.814585,-0.688637,-0.250833,0.831434,-0.816605,-0.570448,-0.336315,0.835793,0.276724,-0.992775,0.937465,-0.235543,0.521024,-0.998464,-0.600527,0.948958,-0.553020,-0.866840,0.510670,0.804418,-0.419490,0.267540,-0.167055,-0.990467,0.189106,-0.512916,0.365294,0.493027,-0.906676,-0.083763,0.729685,0.384639,0.126409,-0.549128,0.380058,0.371858,-0.587275,-0.900001,-0.566422,-0.290079,0.153291,-0.471536,0.343247,0.459242,-0.075885,0.078444,0.453638,-0.234473,-0.089627,-0.934757,0.192940,-0.736719,0.619298,0.837259,-0.367514,-0.351014,-0.004878,-0.301866,-0.616024,-0.559159,0.469681,0.729650,-0.343027,0.514805,0.893279,0.196457,0.675832,-0.250069,-0.775021,-0.684607,0.847583,-0.019227,-0.554038,-0.494096,0.605226,0.321907,0.312517,-0.926926,-0.275118,0.695718,-0.928531,-0.637895,-0.063213,0.452785,0.689203,0.900242,-0.551341,-0.222608,-0.096893,-0.619355,-0.886872,-0.785515,-0.398430,-0.539841,0.480491,0.123333,-0.161403,-0.689649,-0.286772,-0.452894,-0.096912,-0.657230,0.957091,-0.964043,0.952481,0.193574,-0.493774,0.424037,0.306886,0.831849,-0.375814,0.362691,-0.735986,-0.929915,-0.043675,0.450289,-0.701442,0.070339,0.713144,-0.420244,-0.152740,-0.941374,-0.405242,-0.634033,-0.195546,0.414417,0.708807,0.110341,0.913118,0.370119,0.181811,-0.286493,0.930139,0.506587,-0.230784,0.125383,0.143255,-0.184695,-0.181240,-0.944089,0.466165,-0.019887,0.122315,-0.610122,-0.386745,0.121933,-0.821658,-0.552958,0.259930,0.339198,-0.466976,0.991943,-0.134217,0.282234,0.641952,-0.447504,-0.368895,0.034690,-0.780273,0.859818,-0.638903,0.818037,-0.162523,-0.860593,-0.438456,-0.198663,-0.912730,-0.411750,-0.428825,0.391093,-0.717687,0.504465,-0.541622,0.648902,-0.763073,0.520259,0.817622,0.753242,-0.655954,-0.711523,-0.548538,0.266374,0.604525,0.087160,-0.447548,-0.258714,-0.232021,0.466133,-0.133083,-0.807598,0.084982,-0.198436,0.114602,-0.148128,0.378288,-0.004861,0.429344,-0.794824,0.836330,-0.703558,-0.917805,-0.213735,0.496423,0.174200,0.493869,0.498552,-0.640153,0.850819,-0.025795,-0.701362,0.910848,-0.351443,-0.936824,-0.278998,-0.708025,-0.756520,0.120467,-0.982353,0.018838,-0.025091,-0.342520,0.815775,0.597245,0.730768,0.811571,0.032578,0.046921,0.521843,-0.373455,-0.871269,-0.932442,-0.049445,-0.476567,-0.163572,-0.251276,-0.148064,-0.406310,0.485559,-0.872106,-0.451253,-0.359731,0.262909,-0.836227,-0.310243,-0.906093,-0.858525,-0.871257,-0.170818,-0.539672,0.061080,-0.517218,-0.399387,-0.411753,0.898128,-0.795118,0.474053,0.965397,-0.269279,-0.194169,-0.882097,0.057122,-0.906786,0.337293,0.501170,0.522410,-0.126622,0.066547,0.145585,0.205234,-0.434509,-0.912374,-0.075402,0.050268,0.945958,-0.989485,0.606856,-0.522886,0.733096,-0.520289,-0.432358,0.318667,0.647731,-0.271278,0.929570,-0.716715,0.569877,0.669602,0.526483,0.833863,0.247393,0.385918,-0.617676,0.016947,-0.284957,0.263768,-0.114425,-0.737352,0.761643,-0.704295,-0.194418,0.339160,0.226532,0.034920,0.086683,0.241469,0.999415,0.464147,-0.860112,0.663707,0.454441,0.031970,0.165057,0.385510,0.786044,0.344676,0.924908,0.680989,-0.042063,-0.953328,-0.212151,-0.048310,0.604786,0.053036,0.366438,-0.055064,-0.030270,0.034240,0.415174,-0.467649,-0.852489,-0.618677,-0.893635,-0.853211,0.327708,0.607224,-0.370274,0.733506,-0.101655,-0.965100,-0.640539,-0.109673,0.783410,-0.066353,0.355793,0.792457,-0.494091,-0.494404,0.379908,-0.097609,0.535718,0.862056,-0.755445,-0.615563,0.272091,-0.989264,0.487351,-0.881172,-0.073871,-0.821939,-0.166690,-0.406406,-0.699859,-0.099871,0.607497,-0.506257,0.447553,0.347856,-0.459749,0.355628,-0.932314,0.366774,0.271476,0.068902,-0.279370,-0.038182,0.439124,-0.216018,0.429730,0.175929,0.517544,0.466466,-0.629403,0.323481,-0.977138,-0.244940,-0.139121,-0.476338,0.992874,-0.657984,0.546863,0.362455,-0.998407,0.064335,-0.871207,0.081751,0.538141,-0.281093,-0.149363,-0.463789,0.042728,0.706395,0.990647,-0.539542,-0.350553,-0.447054,-0.751578,0.065676,0.127598,-0.767812,0.688864,-0.923686,-0.704812,-0.728288,-0.223754,-0.069799,-0.225728,0.387597,0.321507,-0.514267,-0.799158,0.366998,0.909912,-0.211080,0.790333,0.775718,0.019304,-0.388287,-0.873623,-0.532197,-0.625720,0.169878,-0.402340,0.275684,0.591919,-0.804200,0.596664,-0.444833,-0.678393,0.950184,0.898696,-0.121920,0.218211,-0.794758,0.714644,0.332562,-0.446054,0.341028,0.241429,-0.035088,0.251381,-0.393354,0.779693,-0.768772,-0.744443,-0.256837,-0.755193,0.792361,0.678101,0.386631,0.685141,0.307714,0.942241,-0.192854,0.268479,0.478392,0.614467,0.847221,0.922913,-0.778642,-0.481345,0.755447,-0.358186,0.104100,-0.343287,-0.398003,0.590779,0.714723,-0.965221,0.423094,-0.659434,-0.034449,0.668332,-0.833331,-0.324615,0.868254,-0.798843,-0.998220,-0.886585,0.049345,0.832330,-0.541345,0.400622,0.119986,-0.210082,0.442122,0.888280,0.272457,-0.462107,-0.359159,-0.444035,0.064816,0.622436,-0.706853,-0.812230,-0.462457,0.418110,-0.189070,-0.365947,-0.365082,0.237358,0.174209,-0.216315,-0.623883,-0.102234,0.397858,0.549077,-0.327630,-0.125858,-0.218175,-0.256651,0.456346,0.838600,-0.492556,0.695630,0.797646,-0.396117,0.217202,0.800139,0.838078,0.116885,-0.587750,-0.117362,-0.086429,0.324140,0.402252,-0.608314,-0.672299,0.209749,0.536976,-0.508871,-0.062356,0.334832,0.563525,0.170618,-0.524688,0.206150,-0.122185,-0.261741,0.018224,0.526602,0.114910,-0.694570,0.058405,-0.905856,-0.653998,-0.251993,0.711771,-0.085362,0.290619,0.694485,0.378190,0.143462,0.402585,-0.009222,0.730168,-0.199984,-0.957088,-0.796613,0.697815,0.850789,-0.081232,0.541864,-0.478480,0.849347,-0.719738,-0.828534,-0.656031,-0.056496,-0.332028,-0.852677,-0.583918,-0.695564,-0.686997,0.083249,0.696548,-0.394001,-0.791656,0.400090,-0.755509,0.068986,0.015882,0.427224,0.730651,-0.001467,0.195464,-0.034683,-0.284333,0.978174,-0.859565,0.429029,0.404070,-0.807610,-0.401765,0.527224,0.540496,-0.072717,-0.213422,0.522984,-0.119300,0.147364,0.756200,0.827859,0.745799,-0.878672,-0.966246,0.517890,0.387366,0.384747,-0.802500,-0.499275,-0.430487,0.231812,0.886517,0.047789,-0.506843,-0.522769,0.618797,-0.129659,-0.500457,0.227158,0.444440,0.985656,-0.613292,-0.439964,-0.484024,0.039353,0.528983,0.001249,-0.007716,-0.658840,-0.584020,-0.769517,0.305777,-0.075214,0.448007,0.063140,0.193934,-0.246940,0.424100,-0.115770,0.876498,0.173299,-0.266849,-0.056265,-0.233742,-0.069414,-0.589366,0.963645,0.458961,-0.838219,-0.213017,-0.080013,-0.580630,-0.242083,0.424703,0.892561,0.547484,0.404169,0.528901,0.509193,-0.311451,0.986348,-0.604277,-0.309452,0.175125,-0.367549,-0.749415,-0.627782,0.659366,0.337261,0.513241,-0.360552,0.523412,0.557281,0.971490,0.903249,0.392380,-0.761643,-0.064286,-0.966111,-0.061361,-0.298139,0.435644,0.441807,-0.171660,-0.239601,-0.023482,-0.793686,0.723957,0.744480,0.826943,0.078218,0.299299,0.149471,0.777727,-0.729854,0.310126,-0.780410,-0.902023
-0.234366,-0.641779,0.341612,-0.297455,-0.216280,0.117427,-0.699536,0.362119,-0.094090,-0.611078,0.613371,-0.287266,0.254982,-0.346812,0.408265,0.264044,-0.355761,-0.952878,0.363941,0.511426,-0.432722,0.719354,0.687867,-0.586203,0.461654,0.247465,0.033845,0.852682,0.068369,0.316448,-0.776206,0.981343,-0.935564,-0.460751,0.351258,0.058106,0.420530,0.316955,0.217571,-0.819541,0.887249,0.841019,0.158669,0.800170,-0.015439,-0.385877,-0.395920,0.493726,0.663826,-0.180415,0.892932,0.375596,0.746826,-0.969312,-0.751776,0.345050,0.931435,0.211060,-0.043499,0.343329,-0.285018,-0.655462,-0.544791,-0.878267,0.857845,-0.118202,0.158587,0.082463,-0.734055,0.483846,-0.005777,-0.182454,-0.655034,-0.515257,-0.447534,-0.734098,-0.378969,-0.958080,0.065258,0.925894,-0.605022,0.824100,0.521679,-0.648111,-0.928877,-0.307538,-0.407892,0.422430,0.465141,0.914946,-0.107604,-0.550559,-0.496832,0.100390,0.767863,0.467773,-0.528457,-0.376541,-0.592436,0.723091,-0.515148,0.592664,0.118858,0.060901,-0.231531,-0.818941,0.721109,0.260463,-0.384705,-0.161970,-0.526384,0.620220,-0.331552,0.086719,0.103234,0.005608,0.775737,0.882970,0.854008,-0.960577,0.447589,0.844627,-0.417535,0.897931,0.052446,-0.918741,0.271375,-0.745513,-0.832478,-0.497798,0.885920,-0.647060,0.276976,0.128518,-0.507695,0.942039,0.041808,-0.616366,0.159640,-0.527847,0.402117,-0.037844,0.481164,-0.523478,0.540404,0.608018,-0.903400,0.747341,-0.139600,-0.522602,-0.925729,-0.788971,0.222500,0.817078,-0.769157,-0.351895,0.334029,-0.619342,0.428298,0.096876,0.699733,0.095428,-0.394191,-0.675872,-0.057554,-0.402619,0.351230,0.081145,-0.629843,0.916697,-0.484484,0.008603,0.700130,0.613358,0.397557,-0.722595,-0.717932,0.103656,-0.544676,0.465184,0.618736,0.678143,0.967228,0.767514,-0.681273,0.905475,0.439577,0.397237,0.523052,-0.561476,0.906204,0.448366,-0.931258,0.553560,0.736962,-0.375664,-0.944913,0.998851,-0.859248,-0.971854,0.460398,-0.532853,-0.751910,-0.762589,-0.959923,-0.554837,0.978425,0.273993,-0.078030,-0.783822,0.526252,-0.060033,-0.772807,0.928080,-0.038035,-0.334036,0.103775,0.025058,0.730464,0.828617,0.911961,-0.488794,-0.225297,-0.583903,0.502613,-0.674853,-0.429053,0.661848,0.678546,-0.129699,0.656765,-0.177762,0.783115,-0.185879,0.330233,-0.136684,0.444318,-0.066373,0.260617,0.018210,0.217787,-0.405177,-0.326084,0.627501,-0.852005,0.717585,0.475954,-0.465215,0.540206,-0.525200,-0.746272,-0.638261,-0.639177,-0.121838,-0.207785,-0.094670,-0.499759,-0.256176,-0.403303,-0.314442,-0.571967,0.346084,-0.055838,0.428398,0.579226,-0.646596,-0.548903,-0.998792,0.964276,-0.741475,0.645677,0.970488,0.664095,0.827382,-0.005273,0.099207,0.433991,0.365175,-0.881879,-0.558494,-0.185436,0.786868,0.050066,0.355932,-0.544971,0.867818,0.329941,0.133707,-0.013202,0.757222,0.422643,0.784242,0.609669,-0.537343,0.398802,0.442717,-0.156663,0.898243,-0.826821,-0.226188,-0.084319,0.354212,0.232732,0.729252,-0.938387,0.877194,-0.507870,0.470269,-0.884856,-0.997742,-0.091286,-0.470896,0.929531,-0.152299,0.498366,-0.035403,0.073799,0.545797,-0.012323,0.535436,0.792216,0.396843,-0.713500,0.065318,0.708188,0.293602,0.847190,-0.065407,-0.064729,0.951529,-0.746390,-0.049242,-0.764278,0.802601,-0.564259,-0.341310,0.631186,0.020095,0.588803,-0.816114,0.835563,-0.018863,0.422101,0.585155,-0.247897,0.979480,0.406749,0.154816,-0.580849,0.803423,0.540062,-0.152720,0.581770,0.793187,-0.942888,-0.640158,0.888729,-0.841480,-0.727169,-0.459230,-0.380040,-0.707297,0.698614,-0.849143,0.707228,-0.229559,-0.654908,-0.831592,-0.829368,0.534666,0.424554,-0.617009,0.498294,-0.644795,0.802782,0.643018,-0.792947,0.950696,0.566199,0.788150,-0.001578,-0.818984,0.794438,-0.805427,-0.120887,-0.043849,0.378865,0.501215,-0.378232,0.489302,0.486915,-0.962266,-0.367253,0.475035,-0.298011,0.894182,0.973110,0.327263,-0.424899,-0.096603,-0.485650,-0.488889,0.768922,-0.103199,-0.935899,-0.783312,-0.886697,0.173634,-0.804616,-0.175918,0.969661,-0.372293,0.674921,0.781934,-0.897363,-0.028175,0.733300,0.846018,0.465036,0.172036,-0.160504,-0.942128,-0.230788,-0.299035,0.925836,-0.682288,0.840669,0.164136,-0.063045,0.236453,0.237686,0.435263,0.238430,0.457576,-0.642060,0.266263,0.189741,0.025229,0.913007,0.893886,0.834718,0.459846,-0.581837,0.650226,0.652746,-0.439479,-0.786777,-0.008976,-0.562270,-0.961181,-0.568833,-0.462907,-0.881225,-0.942540,0.383050,-0.467452,0.785820,-0.756609,-0.172775,0.355637,0.456082,-0.412094,-0.616296,-0.711640,0.198836,-0.111250,-0.000893,-0.459359,-0.613265,-0.883874,-0.665633,-0.158531,-0.088350,0.833120,0.143861,-0.336788,0.373688,-0.224220,-0.667811,0.742987,0.896520,0.054178,-0.306731,-0.491691,-0.233705,-0.609539,-0.485939,0.017523,0.742891,0.000992,-0.808972,-0.015852,0.285361,0.181739,-0.685439,0.071924,-0.462805,0.996085,0.201139,-0.727487,-0.868338,0.990572,-0.308863,0.635970,0.236185,0.716146,-0.218896,-0.033485,-0.888486,-0.095070,0.677285,-0.898274,-0.247650,-0.859805,-0.061728,-0.839174,-0.454684,-0.408934,0.872763,-0.611913,0.842890,0.269996,-0.905384,-0.209669,0.982234,0.925777,0.642707,-0.873277,-0.908252,0.146275,0.921849,-0.367366,0.181017,-0.730004,0.444304,0.341435,-0.366564,-0.054634,0.971206,-0.073864,0.886541,-0.877965,0.126931,0.544343,-0.733330,-0.361143,0.528122,-0.440281,-0.673830,-0.366892,-0.512830,0.136347,-0.099163,0.947743,-0.185186,-0.104769,0.605289,-0.764775,0.527155,-0.432257,-0.386305,0.922840,-0.517410,0.480795,-0.898872,-0.775455,0.535182,0.870459,-0.167730,0.183554,-0.407584,0.635604,-0.411760,-0.790896,0.275412,-0.157183,0.284323,0.336390,-0.261471,0.309087,0.510775,0.682500,-0.396054,0.180979,-0.961551,0.930366,0.173258,0.073015,0.206296,0.208129,-0.497518,-0.099366,-0.997236,0.626368,0.665441,-0.166717,-0.057936,0.161794,-0.242663,-0.939046,-0.191894,0.435053,-0.212005,0.230668,-0.397415,-0.059032,-0.805422,-0.775456,0.679290,0.753319,-0.253276,0.206832,-0.030067,-0.463895,0.778985,-0.661221,0.966657,-0.345345,-0.473172,-0.336729,-0.178160,-0.462624,0.203580,-0.921074,-0.518869,0.669836,0.664216,0.290409,0.621988,0.643514,-0.645179,0.977735,-0.532923,0.941800,-0.549683,0.291168,-0.667995,-0.870547,0.335587,0.813182,-0.377661,0.212758,-0.603946,0.810707,-0.349820,0.522371,-0.637255,-0.550627,0.408496,0.480505,-0.085379,0.151813,0.087666,-0.923976,-0.886551,-0.425880,0.792789,-0.801995,-0.115354,-0.303032,0.569701,-0.940173,0.420647,-0.089401,0.531405,0.060134,0.597830,-0.844888,0.971637,0.381080,-0.786135,-0.090499,-0.499812,0.736874,-0.133721,0.963990,-0.374169,0.737518,-0.237919,0.907193,0.608863,-0.231627,0.029798,-0.791806,-0.978161,0.006878,-0.353559,0.253277,-0.534237,-0.941620,0.967302,-0.737495,-0.201243,-0.172963,-0.253062,0.236461,-0.780038,0.789772,0.106653,-0.840102,-0.339008,-0.981066,0.656035,0.747221,0.373242,-0.022255,0.402896,-0.126170,0.686612,0.406409,0.133995,0.470341,0.597343,0.214193,0.234265,0.767812,-0.539319,0.267120,-0.746171,0.437252,0.148702,-0.156332,-0.020661,0.884479,0.683888,-0.291201,0.574743,-0.352469,-0.599728,-0.721530,-0.562379,-0.151846,0.248941,-0.623956,0.319845,-0.664582,0.332474,-0.164671,-0.337952,0.515139,-0.487954,0.480924,-0.227965,0.466030,-0.188366,-0.622039,-0.746296,0.933211,0.738109,-0.773174,-0.072362,-0.658494,-0.703295,0.674518,-0.470352,-0.095876,0.661879,0.103298,-0.665166,-0.411194,0.032926,0.726491,0.402201,-0.423109,-0.478250,-0.243175,-0.139415,0.039859,0.459803,-0.134546,-0.552221,0.215988,0.417599,0.423545,-0.192047,-0.884793,-0.688883,-0.316061,0.997468,-0.554428,-0.575719,-0.959815,0.534700,0.340658
-0.225108,-0.778887,-0.393737,0.875999,0.652857,-0.123677,0.431354,0.334022,-0.210427,0.543452,-0.106554,-0.596947,-0.457400,0.667503,-0.105442,0.790090,0.472777,0.822621,-0.147944,-0.350213,-0.922547,0.068235,-0.882114,0.793558,-0.074114,-0.163403,-0.517438,0.019845,-0.643976,0.874109,-0.509394,-0.175716,0.280941,0.350839,0.867709,0.822615,0.681628,0.237800,-0.913937,-0.142318,0.273907,-0.802445,0.322232,-0.690732,-0.653110,-0.426773,0.543421,0.560729,0.109885,0.647950,-0.941414,-0.026941,0.340874,0.261343,-0.207775,-0.452194,0.107573,-0.534909,0.257529,-0.239386,0.475541,0.376677,0.429637,-0.744877,-0.510362,0.190621,0.958736,0.678807,0.847617,-0.643956,0.681554,0.084420,0.462507,-0.129164,0.393759,0.333603,-0.295997,0.745970,0.577676,-0.691043,-0.882393,0.724510,-0.142585,0.686275,0.297059,0.494960,0.976420,-0.298376,-0.872973,0.281520,0.235946,-0.353958,0.702112,-0.158437,0.103002,-0.229310,0.414398,-0.277968,-0.773461,0.244987,0.833270,0.577688,0.710381,0.371259,0.204401,-0.036388,-0.950900,-0.467027,-0.361014,0.522294,-0.609068,-0.745850,0.433254,0.124184,0.008858,-0.051599,0.432364,-0.652890,0.601116,0.982055,-0.545331,-0.865755,0.161276,0.899642,-0.454677,-0.564202,0.030112,0.777976,0.397141,0.884956,0.581104,0.640007,-0.190024,0.952330,-0.952095,-0.549905,0.066683,-0.106199,0.030697,-0.296106,-0.010126,-0.476007,-0.744492,-0.368492,-0.726049,0.285428,0.647647,-0.758451,-0.361800,-0.966506,0.609175,0.351991,-0.966184,-0.488608,-0.554543,-0.808059,0.747347,-0.407737,-0.272809,0.732662,-0.228289,-0.986263,0.563928,-0.675959,-0.583232,0.696698,-0.927755,-0.237322,0.363308,-0.719823,-0.403869,-0.675565,-0.831067,-0.678918,0.647684,0.611943,-0.965721,-0.048335,0.987564,0.922232,0.433663,-0.915407,-0.388232,-0.508733,-0.002419,0.374563,-0.079114,0.416624,-0.477707,-0.025308,-0.369057,-0.336490,0.809741,0.757336,0.752498,-0.578079,0.994165,0.641412,-0.889329,0.914003,-0.913775,-0.731275,-0.637769,-0.035950,0.368562,-0.131986,0.741791,-0.749858,-0.671606,-0.695837,-0.569906,-0.754581,0.989083,0.453181,0.659021,-0.014644,0.006079,-0.852111,-0.946325,-0.833696,0.408250,-0.973389,-0.274169,-0.782938,-0.195362,0.888816,0.026684,0.599474,-0.336834,-0.776298,-0.155417,-0.837058,0.004726,-0.034077,0.516758,0.789532,0.955321,-0.537923,0.370979,0.751903,0.192473,0.392140,0.259765,-0.567581,-0.726605,0.501278,-0.527664,-0.466220,-0.656856,0.715238,-0.599668,-0.102392,0.415799,-0.285796,-0.105648,0.000447,0.547014,-0.363214,0.290018,0.446779,0.185380,-0.528883,0.937535,-0.289456,0.665886,0.569059,0.604627,-0.146399,-0.601802,0.529452,0.003329,0.601987,0.061371,-0.118321,-0.123216,0.621769,0.206120,-0.387774,-0.239751,-0.329715,0.462463,-0.981544,-0.471982,0.897361,-0.342115,0.702571,0.098606,-0.526075,-0.031941,-0.569923,0.026468,0.133463,-0.553381,0.779873,0.608973,0.159984,0.503371,-0.145923,-0.153394,0.699288,-0.054145,-0.828276,0.850646,-0.233025,-0.346804,0.456532,0.528770,-0.255324,-0.921966,0.354546,0.778797,0.470069,-0.686119,-0.211848,0.684141,-0.312037,-0.634575,0.487348,-0.487597,0.937236,0.321013,-0.382766,0.603466,-0.937799,0.450784,0.072995,-0.549978,-0.268222,0.574746,-0.221915,0.147926,0.346495,-0.778514,-0.418516,0.370167,0.555949,0.576751,0.378999,0.774175,0.558319,-0.419222,-0.150690,-0.451538,0.079330,-0.600884,0.201265,0.947680,-0.111234,-0.732755,0.678204,-0.686966,-0.861488,0.791165,-0.036514,-0.413683,0.431233,-0.660314,-0.443358,0.610794,0.187639,0.690090,-0.712647,0.582395,-0.169941,0.340121,0.499903,-0.350312,-0.080798,0.727024,0.053122,-0.850662,0.464130,0.362721,-0.082226,0.405723,-0.687077,0.665966,-0.820449,0.801114,-0.762068,-0.259699,0.373238,-0.788283,0.779772,0.738568,0.432907,0.144069,-0.242332,0.200690,-0.154342,-0.991804,0.681816,0.467410,-0.995547,0.938107,0.563629,-0.144380,0.434396,-0.558505,-0.568543,-0.527112,-0.961193,0.014330,0.333867,-0.301869,0.307314,-0.878514,-0.730766,-0.087461,0.904933,-0.517147,-0.018578,0.024614,0.727312,-0.867185,0.113073,0.832700,0.296914,0.111674,-0.722185,0.969138,-0.693492,0.872838,0.400192,0.894915,-0.308383,0.891317,0.744552,0.775643,0.392026,-0.370789,0.055295,-0.982959,-0.351211,0.727793,0.401460,0.688997,-0.659767,0.663599,-0.307162,0.504906,0.621049,0.945761,-0.784196,-0.793810,0.124454,0.488835,0.990750,-0.294805,-0.319711,-0.994395,-0.866030,-0.356269,0.280983,-0.099649,0.750751,0.046389,-0.657659,-0.384565,-0.225100,-0.339022,-0.109901,0.085637,0.002398,0.100866,0.645728,-0.356182,-0.994253,0.982462,0.946222,-0.052182,-0.315154,-0.785137,0.091860,0.446217,0.012851,0.477740,0.965646,0.310287,-0.265527,0.204502,0.906574,0.334081,-0.641092,-0.355960,-0.916490,-0.367470,-0.613959,0.193067,0.875218,-0.964578,-0.237508,-0.909294,0.291746,0.202427,0.441333,-0.714754,0.534097,0.199384,0.320736,0.839018,-0.116791,-0.919809,-0.716018,0.068209,0.650714,0.998005,-0.601046,-0.179746,-0.047435,-0.986108,-0.196578,0.692389,0.694765,-0.649596,0.955105,-0.228064,0.087142,0.979406,0.974645,0.904760,-0.456658,0.741587,0.918146,-0.701952,-0.859209,0.594577,-0.450399,-0.058575,0.159220,-0.817455,0.144566,-0.950958,-0.348215,-0.701729,-0.915483,-0.559916,-0.166295,0.718981,0.263335,-0.425950,0.859787,-0.412693,-0.760932,0.671383,0.985347,-0.153769,0.462854,-0.551832,-0.523468,0.758889,-0.574948,-0.261806,-0.653683,0.558669,0.129591,-0.646601,-0.190568,-0.224803,0.399450,-0.458892,0.197986,-0.412901,-0.653619,0.622856,-0.932586,0.776279,0.769488,-0.687199,0.038306,0.230176,-0.346047,0.679161,-0.726172,-0.428361,0.847247,-0.038846,0.382845,0.544890,-0.559036,-0.858757,-0.606350,0.898614,-0.831264,-0.733436,0.570250,0.189356,-0.976417,-0.211501,0.314379,0.596031,0.259234,0.007880,-0.321900,0.882622,-0.794811,-0.814051,0.083789,-0.509537,-0.031083,0.324313,0.192465,-0.285136,0.667533,0.604081,-0.346919,0.790456,-0.375304,-0.856965,0.027843,0.902633,-0.467355,-0.556434,0.627953,0.569464,-0.620560,-0.700834,0.140607,0.358589,0.882499,0.687293,-0.323867,0.391893,-0.965766,0.579463,0.821289,0.277496,0.005388,-0.794372,-0.943356,0.976749,0.070612,0.296552,0.447797,0.288451,-0.705813,0.299399,0.328103,0.235670,-0.964218,0.816854,-0.030197,-0.019582,0.217532,0.132216,-0.925572,-0.641260,0.049979,-0.744726,-0.763187,0.382611,0.401881,-0.522873,-0.768772,-0.042425,-0.944649,0.845860,-0.632752,0.580632,0.899695,-0.184035,-0.035007,0.024313,-0.172624,-0.274304,0.844535,0.717730,0.457237,0.492079,-0.071617,-0.547187,0.343847,0.311518,-0.816004,-0.365315,0.226327,0.272893,-0.705991,0.730364,-0.292007,0.154365,0.064956,0.594565,-0.542347,-0.148028,0.632818,0.576383,-0.634050,0.062011,0.728816,0.117066,-0.429772,-0.858766,0.284279,0.213125,0.804140,-0.343802,-0.033869,-0.960359,0.427396,0.006751,-0.360915,0.905813,-0.233671,-0.010244,-0.197826,0.389562,-0.324863,-0.680525,0.563085,-0.818113,-0.520677,-0.906773,-0.071703,0.737296,0.744746,0.967857,0.627939,-0.161614,-0.434214,-0.614681,0.920755,-0.856947,0.526352,-0.072393,0.028231,-0.756255,0.907838,-0.715267,-0.845823,-0.601843,-0.115078,-0.864170,-0.133633,-0.809820,-0.718141,-0.194736,0.376979,-0.496967,-0.314288,-0.484866,0.876058,0.250429,0.431344,-0.376786,-0.811808,-0.989903,-0.696967,-0.366641,-0.069616,0.099018,-0.225967,-0.265420,-0.499710,-0.795611,-0.751095,-0.434376,-0.673398,0.853542,0.811607,0.348141,-0.793315,-0.486992,-0.819397,0.372036,-0.422947,-0.690739,-0.457212,-0.557761,0.958244,0.274764,-0.374655,-0.874565,-0.804006,-0.608400,0.157613,0.410458,-0.473073,-0.981158,-0.194009,-0.911293,0.336503,0.997178,0.622544
0.872117,-0.528279,-0.394467,-0.561442,-0.412354,-0.305586,-0.109429,-0.500740,-0.234293,0.162698,0.240143,-0.954430,0.951354,-0.290173,-0.601975,0.078614,0.184126,-0.749856,-0.879689,-0.231224,0.183920,0.866378,-0.489384,-0.113273,-0.505749,0.509590,-0.702007,-0.437880,0.082277,-0.803909,0.713784,0.533968,-0.795809,0.141093,-0.437881,-0.070360,-0.203626,-0.148974,0.423113,0.311007,0.532758,-0.411160,-0.223323,0.948075,-0.124845,-0.060131,0.634883,-0.104641,-0.251074,0.255660,-0.737147,0.155268,-0.142814,-0.505862,-0.069773,-0.526936,-0.097237,-0.938584,-0.559505,0.186319,0.813936,0.368336,-0.204540,-0.638783,-0.858568,-0.803041,-0.808787,0.653038,-0.767353,0.020222,0.986392,-0.363971,-0.406087,0.223828,-0.595696,0.418160,0.567717,-0.742269,-0.840823,0.047634,0.655196,0.288270,-0.522889,-0.142060,0.943583,0.137378,-0.817182,0.832402,-0.754862,0.208679,-0.931412,0.215121,0.208323,-0.029501,0.306495,0.361835,-0.942344,0.538754,-0.173062,-0.443416,-0.338394,0.253880,0.445982,0.127977,-0.810257,-0.731651,0.327008,-0.340687,0.134129,-0.731975,0.836302,-0.102436,0.877944,-0.245464,0.581230,-0.050583,0.082887,0.951974,0.425994,-0.789676,0.460901,-0.334796,-0.371444,-0.150460,-0.500428,0.419006,0.505463,-0.541269,-0.784684,-0.127767,0.191303,0.167848,-0.381910,-0.051970,0.245950,-0.745601,-0.612759,0.678002,0.476395,0.606157,0.849710,0.382316,-0.332981,-0.397127,-0.420498,-0.369563,-0.070611,-0.517972,-0.198523,0.769588,0.074373,-0.015685,0.589185,0.963442,0.140765,-0.815006,-0.121750,-0.398801,-0.055496,-0.472573,0.371893,-0.754914,-0.791598,-0.991868,0.324378,0.089058,-0.988711,0.025151,-0.486909,-0.660406,-0.882863,0.565718,-0.850682,-0.741885,-0.700982,0.188220,-0.229200,0.016195,0.065644,0.440853,0.012424,-0.559702,0.155656,-0.186510,-0.309722,0.633429,0.257106,-0.706758,0.449045,0.127800,-0.894761,-0.575100,0.727069,0.958286,-0.717432,-0.391011,0.638973,0.462236,-0.568156,0.578159,-0.748873,0.476980,-0.569363,0.190073,0.743347,0.170355,-0.105988,-0.431127,0.705729,0.260273,0.019845,0.266329,-0.254329,-0.686481,-0.617509,0.572097,-0.752976,0.654640,-0.758095,0.183891,0.476102,-0.717596,0.781117,0.178840,0.660048,0.370145,0.091439,0.973925,-0.579638,-0.760369,-0.276236,-0.401184,0.283108,-0.237074,0.908149,-0.668882,0.972422,-0.277929,-0.831038,-0.123820,-0.327128,0.007779,0.288003,0.415595,-0.987702,0.744477,0.743536,-0.791602,-0.156664,-0.605420,-0.121519,-0.056459,-0.463228,-0.333006,0.970717,-0.899656,0.528081,-0.952020,0.550243,-0.617820,0.639539,-0.987854,0.579918,-0.141274,-0.042821,-0.579496,0.960636,-0.741102,0.106813,0.033506,-0.049225,0.450787,0.548401,-0.313281,-0.486066,0.259839,0.138811,0.302793,0.492215,0.129306,0.749877,0.237798,-0.164565,0.730234,-0.599831,-0.757884,-0.269627,-0.147374,-0.820491,-0.740515,0.137912,-0.029043,-0.063883,-0.406056,-0.106333,-0.048691,0.605082,-0.186131,-0.098052,-0.177723,-0.341752,-0.325035,-0.492987,0.733642,0.552647,0.844925,-0.853005,-0.390883,0.294538,0.426416,0.633134,0.804463,0.013331,0.580201,0.423520,0.165306,0.148110,-0.605129,0.433449,0.278305,0.533182,0.157569,-0.456296,0.395716,-0.942433,0.959688,0.585616,-0.254307,0.171271,0.863208,0.676630,-0.390157,-0.784616,-0.869726,0.910037,-0.522059,-0.132304,-0.361815,-0.789574,0.476952,-0.926765,-0.531115,0.988087,0.247745,-0.020948,-0.175607,-0.644978,-0.204516,0.741469,0.388578,0.212028,0.679179,0.749830,0.451839,0.833175,0.982296,-0.806579,-0.103625,0.118677,-0.280952,0.981422,0.083530,-0.660344,0.128015,-0.391893,-0.476357,-0.377331,0.207761,0.608205,0.565029,0.841004,-0.025017,0.454138,-0.513898,-0.608901,-0.641788,-0.635543,0.050771,-0.620577,-0.280003,0.094787,-0.229414,-0.979074,-0.521536,-0.968178,0.042429,-0.558393,0.488481,0.456073,0.200923,0.691715,0.178631,-0.442046,-0.683351,-0.494590,-0.551370,0.092977,0.233669,0.019643,-0.931578,0.121845,-0.346254,0.165733,-0.017955,-0.144361,0.783600,0.764871,-0.980376,-0.543999,-0.148499,0.437207,-0.385064,0.449944,0.912433,-0.748512,-0.049509,-0.006089,-0.826985,-0.360448,-0.587626,0.913246,0.466138,-0.441183,-0.377863,-0.509450,-0.874701,-0.272366,-0.114346,-0.459537,-0.311516,-0.085945,-0.568626,-0.984089,0.651165,0.004258,0.792000,0.413053,-0.567407,0.701707,-0.780839,-0.536869,0.454292,-0.775539,0.703915,-0.398779,-0.266460,-0.884259,0.134065,-0.588791,-0.902686,-0.565189,0.480310,0.593776,-0.217761,0.839357,0.449420,0.414842,-0.490963,-0.973173,0.626735,-0.824837,0.614154,-0.126856,-0.847639,0.030469,0.436412,-0.703961,0.884195,-0.360593,0.919419,0.252893,0.807673,-0.262086,0.940095,0.838761,-0.596861,0.216009,-0.540923,-0.315551,-0.909367,0.486491,-0.529653,0.224380,0.141548,-0.316131,-0.312456,0.227343,0.494745,-0.637941,0.768092,0.759878,-0.526377,0.540871,-0.618474,0.773477,-0.250217,-0.796602,0.696822,0.640297,0.402409,0.628684,-0.072037,0.014441,0.123954,-0.800692,-0.444759,0.016575,0.425780,-0.330326,0.189159,0.759585,0.888700,0.788227,0.748999,0.369222,-0.456590,0.142713,-0.346548,-0.923826,-0.644335,-0.326393,-0.975546,0.338609,0.982454,0.467201,0.431206,-0.599368,-0.516797,0.238163,0.810646,-0.060219,0.757533,0.455724,0.351652,-0.323248,0.085218,0.123719,-0.387731,0.848551,0.881832,0.735580,-0.486893,0.634717,0.872004,0.080556,0.764025,-0.945433,0.253957,-0.159193,0.308524,-0.409075,-0.731828,-0.990602,-0.514986,0.192020,0.805543,-0.764919,-0.633209,-0.618480,-0.062462,0.562735,0.396008,-0.749254,-0.939476,-0.212017,0.785135,-0.535357,0.384488,-0.993471,-0.611748,-0.733521,-0.071902,0.824862,-0.027584,0.291158,-0.526728,0.781428,0.416777,-0.345621,0.762202,0.149223,0.495849,-0.215963,-0.868528,-0.412627,0.618696,0.173913,0.583545,-0.876591,-0.188257,0.490697,0.151685,0.434929,0.843652,-0.737288,-0.263158,0.928682,-0.790382,-0.065070,0.455689,0.448968,0.413495,-0.359326,0.510815,0.541682,0.365181,0.750630,0.443081,0.588374,0.803646,0.388008,-0.368587,-0.508874,0.451091,0.540989,-0.156295,-0.776500,-0.603861,-0.770801,-0.972560,0.096250,0.506945,0.069518,0.103382,0.712586,0.796202,0.202784,0.315247,0.892629,-0.459902,0.385633,0.865740,-0.171146,0.680003,-0.534507,0.623176,-0.393034,-0.441375,-0.919350,0.424952,-0.913038,0.261459,-0.064371,0.125013,0.406012,-0.694619,0.503796,0.816675,-0.706250,0.717821,-0.967839,0.347768,0.905518,-0.107719,-0.215183,0.742848,0.293793,-0.077518,-0.588402,-0.354963,0.426062,0.897301,0.587267,0.038856,-0.275234,-0.521053,0.839681,0.370849,-0.804904,0.948898,-0.371449,-0.370067,0.630218,-0.880790,-0.390668,0.075424,-0.357468,-0.478027,0.158128,0.741979,-0.542240,-0.382530,-0.366214,-0.605319,-0.566605,0.281167,-0.808885,-0.481135,-0.355070,-0.029241,-0.608309,0.354331,-0.194733,-0.272133,0.779590,0.805411,-0.827791,0.278384,-0.704325,-0.944106,-0.990563,0.130354,-0.841881,-0.010375,-0.737905,-0.049859,0.585138,0.454746,0.925990,-0.701927,-0.434645,-0.391993,-0.777147,0.298981,-0.080041,-0.788301,0.397692,-0.058586,-0.721060,-0.279284,-0.676592,0.939868,-0.592348,0.667777,0.787977,-0.397883,-0.239244,0.268090,-0.503626,-0.546333,-0.229275,0.082421,0.590529,0.528421,-0.992817,0.422340,-0.999219,0.222808,0.080152,-0.803148,0.388572,0.542123,0.124592,-0.951457,0.868863,0.934496,0.436934,-0.045924,0.399035,0.476517,0.567007,-0.030172,-0.637012,-0.856094,0.670407,-0.269946,-0.537023,-0.930569,0.777741,0.437229,0.463985,-0.936916,-0.274226,-0.951555,-0.065662,0.540464,-0.699644,0.982510,0.689380,0.908300,-0.072383,-0.333870,0.599942,0.353574,0.392416,0.532546,0.382110,-0.266440,-0.119145,0.502292,-0.789536,-0.562746,-0.916694,0.087205
-0.767723,0.405049,-0.963173,-0.662436,-0.676442,-0.820609,-0.081371,0.315614,-0.836797,-0.328952,-0.466909,0.131368,-0.059721,-0.702760,0.331603,-0.203466,-0.864873,0.243750,0.790883,0.498986,0.398768,-0.192343,-0.155815,-0.034988,0.222478,-0.836627,0.999851,-0.726446,-0.407528,0.786469,0.535648,-0.070521,0.079109,0.688336,0.284398,0.197824,-0.543500,0.286011,-0.449111,0.300247,0.619622,0.515431,0.051050,-0.776638,0.990020,-0.012651,0.248656,0.833094,-0.153222,-0.876471,0.791898,0.127709,0.566027,-0.654264,0.521103,-0.125162,-0.227120,-0.946428,-0.931878,0.225844,0.798055,-0.103963,0.616047,0.430670,0.488454,0.758482,-0.204170,-0.817522,-0.446234,0.107920,0.684745,-0.547671,-0.178527,-0.103141,-0.380754,0.767475,0.228436,-0.681749,-0.702853,-0.114228,-0.879298,-0.206500,-0.726006,-0.040790,0.196653,0.136057,0.851199,0.837773,0.355031,-0.677005,-0.041120,-0.913034,-0.590190,0.742698,-0.798481,-0.547922,-0.094984,-0.840153,-0.236723,-0.972771,0.122288,-0.791055,-0.340457,-0.990252,0.080031,0.554139,0.884196,-0.295648,-0.902920,-0.942840,0.863395,0.944063,0.962515,0.884402,-0.128846,0.710663,0.105280,-0.442798,-0.169548,0.484465,-0.129568,0.626050,-0.180143,0.777922,-0.888557,-0.723904,-0.362326,-0.813631,0.144857,0.720286,-0.503747,0.387535,-0.063878,0.329579,-0.236386,0.743216,0.959908,-0.721116,-0.267605,0.228161,0.831995,0.730481,-0.034639,0.001696,0.769284,-0.347107,-0.251941,-0.466192,0.641394,0.921409,-0.015271,-0.550018,-0.873795,-0.461992,0.534360,-0.474880,-0.932604,0.432458,0.087340,0.906716,0.872191,-0.396055,0.774762,-0.895435,0.985217,-0.336726,0.305216,-0.952610,-0.537099,0.075940,-0.350617,-0.626614,0.866189,-0.502547,0.464610,-0.847735,0.601451,0.799299,0.174434,-0.292850,-0.249869,0.934862,0.836649,0.270891,0.297775,-0.564671,-0.535325,0.917158,0.638876,0.669412,-0.024712,-0.529222,-0.009709,0.015370,0.374017,-0.166031,0.850066,0.616716,-0.040303,-0.619053,0.196494,0.605627,-0.916909,-0.851587,0.732116,0.314848,-0.264211,0.455183,-0.412593,0.041228,-0.994039,0.365398,0.383782,-0.764945,0.512450,0.191110,-0.850854,-0.961696,-0.064066,0.073181,-0.270739,0.396211,0.935419,0.573188,-0.703255,0.093562,-0.352521,0.858677,-0.846049,0.052294,-0.723410,0.171804,0.802873,0.644149,0.880993,-0.595690,-0.142972,0.601991,-0.526197,-0.000992,-0.244070,-0.999614,0.170390,0.522400,0.399084,0.790290,-0.247643,0.346147,-0.833229,-0.696854,-0.767502,0.736399,-0.348770,0.662602,-0.593125,0.106744,0.154727,0.270255,0.010038,0.356105,0.423392,0.807966,-0.863886,0.734922,-0.143391,-0.615751,0.885740,0.113585,-0.202292,-0.496489,-0.761518,0.873695,0.148356,-0.112925,0.156456,-0.787397,-0.656349,0.764347,0.570519,0.361434,0.411567,0.367388,-0.912162,-0.571782,-0.363754,0.585639,-0.794859,-0.782954,-0.943620,0.466247,0.449504,0.967095,0.955863,-0.680051,-0.710531,-0.745179,-0.664201,-0.012861,0.281124,0.390557,0.590358,-0.076038,-0.116286,0.266736,0.525378,0.395337,0.273027,0.568988,-0.019643,-0.064076,0.454603,0.249046,-0.960368,0.538840,-0.349758,-0.360237,0.923340,0.935745,-0.585403,-0.707605,0.427358,-0.653099,-0.810671,-0.338987,0.211197,0.472048,0.690930,-0.180899,0.210234,-0.035648,0.121016,-0.795338,-0.712331,0.073426,-0.707412,-0.168720,0.573287,0.776076,0.867508,0.079898,0.682801,0.344917,0.289213,0.456611,-0.901116,-0.800358,0.186794,0.389337,-0.453987,-0.136463,0.923946,-0.000437,0.724928,0.978486,-0.641115,-0.956014,0.498805,0.601581,-0.936748,-0.464249,-0.112409,0.264771,-0.805708,-0.748316,-0.303845,-0.178659,0.545881,-0.383189,-0.801817,0.972714,0.912139,0.949759,-0.191278,0.609420,-0.108855,0.652984,0.069780,0.909598,-0.032877,-0.495614,0.824440,-0.283399,0.941998,-0.033125,-0.501371,-0.341893,-0.231496,-0.399499,0.996651,0.199011,-0.680665,-0.902409,-0.720098,-0.277918,0.247738,0.256644,0.393066,0.950134,0.490772,-0.212460,-0.181151,0.594226,0.621174,-0.551434,-0.869575,-0.911617,0.259885,0.248560,-0.783038,0.510520,0.332510,-0.723166,0.146896,0.041791,-0.572288,0.541590,-0.118512,-0.026693,0.495801,-0.872554,-0.848247,-0.480614,0.174050,-0.861655,-0.418358,-0.285639,-0.319248,0.385570,0.780354,-0.015956,0.803333,-0.348108,-0.568993,-0.677041,-0.949510,-0.597828,0.246820,0.335206,0.723575,-0.872907,-0.804549,0.543511,-0.654375,0.963041,-0.678508,-0.232620,0.588095,-0.941311,-0.911437,-0.103403,-0.155395,-0.285205,0.719767,-0.742696,0.108944,-0.686184,0.323896,-0.157604,-0.928260,-0.779334,0.109859,-0.348262,0.190314,0.524785,-0.760803,-0.740619,-0.039790,-0.050295,0.487076,-0.512460,0.810978,0.102381,0.426795,-0.932390,-0.955370,0.938777,0.884263,0.965225,-0.852467,-0.186442,-0.859311,-0.179771,-0.785141,-0.776211,-0.201763,0.723448,0.337128,0.008159,0.366031,-0.849304,0.267192,0.326702,0.987508,0.761049,-0.864609,0.606992,-0.043290,0.149899,-0.180103,-0.223506,-0.072302,0.308720,-0.297973,0.807012,-0.087826,-0.168385,-0.222641,0.275515,0.908600,0.017646,0.797059,-0.934327,-0.578015,0.777154,0.556331,-0.457065,-0.118216,0.966877,0.297548,0.897331,-0.208585,0.042070,-0.600370,0.764178,0.933155,-0.881551,-0.767551,-0.356960,-0.529011,0.758928,0.118610,0.166184,0.486681,-0.211624,-0.133451,0.481410,-0.853003,-0.600030,0.708243,0.378611,-0.653821,-0.801701,0.728643,-0.941233,-0.724721,-0.759600,-0.649410,-0.383294,-0.283558,-0.236075,-0.235503,0.187331,0.143787,-0.864693,0.066362,-0.424805,-0.964506,0.219952,-0.783430,0.472518,-0.450886,0.347553,0.062200,0.718427,-0.105598,0.993015,-0.569745,-0.089167,-0.473197,-0.096822,-0.349465,0.581415,-0.953376,0.690013,-0.080834,-0.299135,-0.651291,-0.358225,0.294978,0.414142,0.101441,-0.340170,-0.741161,-0.421432,-0.273681,0.519075,-0.920320,0.848527,-0.123234,-0.714653,-0.631954,-0.722075,0.196440,0.567691,-0.165300,0.937951,-0.608832,-0.120488,0.813832,0.003423,0.501945,0.623395,-0.712086,0.539530,0.296114,0.498536,0.213927,0.982473,0.312362,0.788978,0.720902,0.277445,-0.915284,-0.498757,0.912324,0.612507,0.748685,0.009328,-0.731374,0.725929,-0.568273,-0.060984,-0.191728,0.189768,0.452423,0.405373,0.723762,-0.639425,-0.154179,0.112980,0.709921,0.501635,-0.863165,-0.904461,0.268865,0.884853,-0.831683,-0.644869,0.889299,0.645661,0.781227,0.351197,0.230201,0.633959,-0.514556,-0.993459,-0.175207,0.551820,-0.879504,0.541634,-0.461511,-0.783374,0.213106,-0.615007,-0.111993,-0.112205,0.171243,0.048157,-0.461327,0.665901,-0.600702,0.845100,-0.244836,0.579985,-0.377723,0.708585,-0.076758,-0.347225,-0.841592,-0.454006,0.285495,0.217508,0.224787,0.932854,-0.284607,0.935013,-0.131663,0.578776,0.794913,-0.185689,-0.360946,0.557043,-0.819663,-0.720005,0.712393,-0.255769,0.177457,-0.092636,0.010673,0.760319,-0.931745,-0.409198,-0.880442,-0.257683,0.130241,0.214065,0.716348,-0.669425,-0.925504,-0.835471,0.168367,0.320816,0.839613,0.151467,0.151614,0.314850,0.912250,-0.430039,-0.351201,-0.752978,0.291476,-0.250807,-0.389221,0.335514,0.622795,-0.092228,0.014139,0.245569,-0.003664,0.477351,-0.536192,0.016857,0.926834,-0.206752,-0.662570,-0.792478,-0.485180,-0.558593,0.376098,0.913938,-0.900738,-0.158601,-0.886206,-0.303710,0.840013,-0.341009,0.141326,0.070404,0.055588,-0.525392,0.350925,0.186816,-0.561863,0.209564,0.015388,0.316196,0.309972,0.556894,-0.536851,0.539298,-0.647305,-0.783993,0.957342,0.778642,0.352729,-0.637972,-0.743636,0.383218,0.922874,0.651507,-0.851864,-0.632435,-0.902590,0.978206,-0.766557,-0.965632,0.959060,0.643937,-0.053701,-0.641232,-0.100431,-0.054472,0.071234,-0.255058,0.280940,0.316023,-0.719510,0.495197,-0.114629,-0.423280,0.914156,0.120987,-0.058115,-0.155878
