-0.290236,-0.758955,-0.776402,0.128559,0.080624,0.745742,-0.818002,0.588398,-0.437406,0.958705,-0.526335,0.712278,-0.494602,-0.939381,0.617739,0.887927,-0.103643,-0.150260,-0.451477,-0.580819,-0.344489,-0.997609,-0.604385,0.561080,-0.733911,-0.705059,-0.812265,0.689849,0.491180,-0.222084,-0.841537,-0.543330,0.949263,-0.717353,0.224614,0.405838,-0.813029,0.164917,-0.507517,0.901754,0.924937,-0.127239,0.711520,0.138940,0.705163,-0.801479,0.620160,0.722796,-0.996713,-0.349961,0.155550,-0.394825,-0.980063,-0.040841,-0.530304,-0.259380,0.140236,0.535121,-0.428845,-0.065955,-0.655645,0.473568,-0.598115,0.572639,-0.621891,-0.982367,-0.606501,-0.081531,-0.573584,0.111560,-0.324727,-1.333003,0.474330,-1.366424,0.544446,0.015384,0.129260,0.190689,-0.053590,0.834157,-0.280406,0.182183,-0.863950,-0.161593,-0.729902,-0.252885,0.718053,0.220251,0.697847,0.855445,0.378624,0.509488,0.469021,-1.175174,0.030143,-0.791990,0.363620,-1.055450,-1.514972,-1.125116,-1.149850,-1.508273,-1.981426,-0.781621,-1.118782,0.238927,0.220901,-0.175371,-1.008618,0.876113,-0.504571,0.407971,-0.980259,0.538207,0.885490,0.907347,-0.430461,0.271340,0.484921,0.591112,-0.923276,0.263630,-0.604923,-2.124545,-0.318225,-0.929370,-0.539145,-1.144028,-1.000003,-0.485548,-1.122346,0.173338,-0.661614,-1.102201,0.171138,-0.075232,-1.030553,-0.917460,-0.760168,0.007408,-0.197762,-0.273565,0.607903,-0.595212,0.880587,-1.023021,0.087186,-0.621640,-0.044681,-1.181259,-1.430503,-0.036164,-0.813034,1.186391,-0.082056,0.372136,0.296589,0.687330,0.441955,0.547051,-0.873580,1.073321,-0.222226,-0.086246,-1.171442,-0.983884,0.043997,0.989750,0.811238,0.058161,0.310327,-0.385991,-0.282494,0.491680,-0.286135,0.020332,-0.722288,-0.579341,0.408876,-0.438017,0.044155,0.845780,0.779592,0.114611,0.043956,0.946905,0.036842,0.521695,-0.437262,0.139424,-0.218323,-0.057810,-0.776495,-1.151541,-0.034278,0.747167,-0.890860,0.169762,0.437882,0.518880,-1.133566,0.547456,0.102689,-1.380122,-1.424597,0.142460,-0.580393,0.663192,0.592216,-0.276542,-0.357026,0.068422,1.084620,1.158317,1.028916,0.112872,0.748099,-0.288911,0.161225,0.399727,-0.663076,-0.994681,0.450463,0.024079,-0.120570,0.725843,-0.543311,0.723279,-0.779317,-0.324031,0.115946,-1.131661,-0.574491,-0.686381,0.254856,-0.882053,-0.356869,-0.509230,0.382784,-0.113424,0.804351,1.262463,0.461742,0.135404,-0.944333,0.563287,-0.865087,0.041839,-1.594336,-1.026274,-0.806494,-0.004482,-0.410657,-0.043523,0.281268,0.150223,-0.886125,-0.468214,0.126801,-0.342195,0.026335,-0.434647,-0.478067,-1.369022,-0.436965,0.771275,-0.424268,-0.307238,2.023140,1.481550,1.658727,0.044942,0.525024,-0.669171,-0.313067,-0.606645,-0.976947,-0.535925,-0.653875,-0.590475,-0.256122,-0.846490,-0.963547,-0.511216,-0.923649,-0.061620,-0.416498,-0.939058,-0.252313,0.779057,-0.086602,-0.348233,0.272987,-0.808828,0.107861,-0.676169,-0.738921,2.069161,1.574929,1.376645,-0.465742,0.476423,0.469821,1.338128,0.786781,-0.827072,-0.601197,-0.675635,-0.402764,0.388184,0.594200,-0.787737,0.364234,-1.386144,0.258314,-0.400524,-0.186234,-0.361214,-1.180011,-0.172198,-0.375352,-0.077320,-0.060690,-1.819847,-0.739405,-0.173131,0.277249,1.826832,-0.029011,0.595415,1.082930,1.149278,0.463087,0.234968,0.438808,-0.639946,-0.285086,-0.196218,-0.203680,-1.104945,-1.023537,-0.095467,0.613783,1.234627,-0.986978,-0.221119,-0.135941,-0.271446,-0.900213,-0.487567,-2.931574,-2.600893,-1.465991,-1.022112,0.362744,0.867349,0.805932,1.302987,0.850644,2.557886,0.711570,0.595679,0.794234,0.107617,-0.415922,-0.284012,-0.164335,-1.057107,0.437373,0.831529,0.277332,0.036446,0.375163,0.012793,0.534466,-0.185536,0.879092,-1.086145,-2.309457,-3.820742,-1.980245,-0.277065,-0.884998,-1.449285,0.563195,1.692170,1.626327,2.043416,-0.384025,1.097462,-0.531283,-0.333496,-0.704515,0.913270,-0.152388,-0.947394,-1.118203,0.892555,0.460155,1.316854,0.614835,0.922140,0.894960,0.809517,0.868378,-2.342781,-4.132645,-3.330219,-1.812521,-0.534296,-0.312956,0.052431,-0.460082,0.290583,1.340128,0.995970,0.222052,0.031507,0.764174,0.135931,-0.793300,-0.320904,0.631974,0.734103,-0.602039,1.135226,1.018849,0.784561,0.508633,1.488247,2.113287,0.373400,-0.397344,-3.374489,-3.838920,-2.035744,-1.773272,-0.315671,-0.671799,-0.006549,-0.032188,1.369905,0.145759,0.204510,-0.305607,-0.187389,0.291023,0.560496,0.039552,-0.068014,0.979517,-0.968658,-0.413576,1.546227,0.586976,1.882841,1.698432,0.854895,0.542725,0.565618,-1.787142,-4.388948,-2.656936,-2.506460,-1.018651,-0.418210,0.000962,0.534469,0.528403,-0.498860,-1.082187,0.787830,-0.708789,0.659588,0.940334,0.291358,0.708025,0.731607,-0.749539,-0.955288,-0.257761,0.301378,0.243053,1.639639,0.709613,0.145945,3.025663,0.508735,-1.559746,-3.734211,-3.236253,-0.541205,-0.690940,0.236237,-1.079582,-1.131369,-0.679626,0.160965,-0.561093,0.764135,-0.007649,0.099887,0.043919,0.417014,-0.920523,0.275708,-0.938813,-0.352658,-0.386000,-0.093909,-0.114405,0.927860,0.536621,0.565108,2.026227,0.901405,-0.991258,-3.089655,-1.626378,0.046477,-0.349824,-0.266758,-0.140241,-0.979890,-0.468369,-0.992720,-0.321894,0.163552,0.560556,-0.117581,0.771418,0.379659,0.373803,0.191778,-0.214802,-0.077125,-0.006253,0.850173,-0.036563,0.960015,0.805758,1.586357,2.308319,1.930740,0.426927,-1.042416,-1.364559,-0.817467,-0.796160,-0.856870,-0.483494,-0.411873,-0.608251,-0.216649,-1.351996,-1.322584,-0.997360,-0.429790,-1.022242,-0.620465,0.435330,-0.498410,-0.843339,-1.205994,0.265350,-0.433079,-0.630297,0.489767,-0.512289,0.278184,2.125760,2.244228,0.977275,-1.174270,-1.433298,-0.713392,-0.497579,-2.258642,-0.716416,-0.483834,-0.024283,-0.854099,-1.706481,-0.047180,-0.003015,-0.439409,-0.179108,-0.777883,0.942351,0.578005,-0.838469,0.245842,-0.169441,-0.185988,0.282426,-1.069432,0.413359,1.203740,0.181923,2.073053,-0.301521,0.058608,-0.712780,-1.481490,-0.547920,-0.544622,-0.759932,-1.654497,-1.309768,-0.433148,0.067748,0.340201,-1.075883,-0.739859,0.085267,-0.733928,0.154467,0.692457,-0.239027,-0.208245,-0.723524,-0.265859,0.449796,-0.583740,0.315845,0.697467,0.602838,0.893060,1.663778,0.375198,1.260816,-0.449796,-0.863088,-1.177660,-0.849733,-0.070664,-0.020189,-1.444258,0.238384,-1.094692,0.367076,0.563187,-0.901061,-0.478098,-0.766876,0.304706,0.075883,0.590590,-0.841821,-1.239403,-0.488905,0.442368,-1.390018,0.275089,0.833014,0.274499,0.685791,0.562485,0.264181,0.179720,0.265444,-0.284077,-0.962151,-1.124378,-0.982332,-1.056817,-0.532837,-0.995676,0.036751,-0.516057,-0.087046,0.795441,-0.973707,-0.878219,-0.271401,0.950300,-0.655912,-0.055228,0.328315,-0.263115,-0.936828,-1.044184,-0.780671,-1.258467,-0.459584,0.422265,-0.551141,0.168211,-1.309998,-0.711585,-1.592735,-0.497388,-0.960384,0.335516,-0.765980,-0.578649,0.241515,0.939258,-0.303029,-0.893564,0.842324,0.243960,0.898442,0.424687,-0.480418,-1.027801,0.354784,-0.421425,-0.499491,-0.489173,-1.096773,-0.748938,-1.686872,-1.325789,-2.193491,-0.788676,-0.408260,0.044357,-0.431230,-0.031644,0.122886,-0.286791,0.275083,-0.191120,0.454451,0.408058,0.540049,-0.219739,-0.738023,-0.060761,0.866184,-0.206297,0.505993,0.402713,-0.446684,0.304840,0.113645,-0.410119,-1.649916,0.091211,-1.505916,-0.127558,-0.164216,-0.956217,0.077398,-0.578784,0.058672,0.668816,0.018061,-0.932189,-0.548139,0.008985,-0.590800,0.627830,0.403479,-0.166350,-0.244441,0.029199,0.064807,0.322020,-0.958148,-0.108210,0.960861,-1.019875,-0.631239,0.048882,-0.324521,0.389999,0.283116,0.496407,-0.899584,-0.297632,0.711827,-0.589511,-0.493009,-0.215035,0.627987,-0.854694,-0.194721,0.428850,0.502676,0.796257,0.939507,-0.707868
-0.317465,0.023370,-0.727939,0.338462,-0.795770,0.947164,0.968072,0.272424,-0.792471,-0.337476,0.344305,-0.482111,0.845637,0.824316,0.956264,-0.874020,-0.840159,0.036479,-0.262674,0.887649,0.374834,0.935436,-0.574867,-0.668257,-0.703190,0.475287,-0.355765,0.564628,-0.207266,0.820788,-0.724106,-0.275570,-0.661055,0.860843,-0.676558,0.275263,0.673192,-0.636273,-0.427922,-0.992447,-0.354197,-1.004539,-0.717885,0.070325,-0.479768,0.703465,-0.050860,0.632617,-0.610855,-0.641619,-0.249086,-0.559729,0.321908,-0.198559,-0.344033,0.453808,-0.535561,0.660623,-0.556627,-0.410641,0.668709,-0.687585,-0.842556,0.226016,-0.357506,0.293315,-0.507969,-0.338609,-0.021336,0.327110,-0.760157,1.253147,-0.664338,-0.266533,0.018341,-0.465638,-0.190243,-0.619643,-0.163242,-0.406098,0.218336,-0.640134,-0.785268,0.397496,-0.674185,0.818681,0.111805,-0.734564,0.495826,0.401898,0.538093,-0.322378,0.506605,-0.776218,-0.857074,-0.133990,-0.511869,-0.586737,0.411823,0.994598,0.724393,-1.040514,0.713736,-0.309995,-0.346619,-0.573168,-0.585930,0.305853,-0.649066,0.628298,0.336439,0.287591,-0.279629,-0.739967,-0.963750,-0.716127,0.059843,-0.491304,0.725444,0.350442,0.064906,0.056326,-0.668928,-1.185061,-1.389273,0.250205,0.069527,1.150824,-1.311210,-0.645957,-0.057003,-0.252218,-0.337999,0.859385,0.140395,0.185088,-1.131326,0.052771,0.877056,0.769102,0.042708,0.077983,-0.877722,0.398934,-0.756723,-0.569573,-0.510606,-1.145543,-2.020092,-1.813673,-0.469340,-1.145845,-1.373928,-0.232157,-0.176066,0.506620,-1.407107,-0.361534,-0.109495,-0.677477,1.139142,-0.118429,1.455219,0.452538,-0.127620,-0.988908,0.328810,0.759018,0.175876,0.850899,-0.878759,-0.320574,-0.865937,0.496825,-0.549832,-0.968001,-0.801194,-2.084796,-0.495414,0.180996,-0.007260,0.005025,-0.199180,-0.586951,-0.836145,-1.235797,-0.778745,0.284547,-0.423268,-0.545269,0.431552,0.922190,0.642075,-1.366196,-0.030934,-0.826587,-0.599072,-0.312629,0.396294,-0.484055,0.721148,0.075636,-0.641615,-1.416481,-1.732567,-2.224430,-1.455945,-0.736046,-0.792453,-1.074477,-1.227081,-0.255693,-0.942639,-1.758960,-1.232743,-0.030118,-0.897208,0.081761,-0.125610,0.340238,-0.346174,-1.198507,0.456490,0.846247,0.435419,0.795999,-0.806633,-0.865973,-0.358667,-1.052671,-0.373868,-1.240192,-0.806364,-1.123967,-0.448382,-0.557611,-0.156542,-0.737903,0.275760,-0.504576,-0.559719,-0.773593,-0.910292,0.212256,-0.127414,-0.449459,0.120727,-1.406316,-0.681197,-0.424302,0.859786,-0.706866,-0.561820,-0.928951,0.922920,0.188936,-0.822207,-0.009087,-1.527334,-1.390261,-0.911214,-0.407856,-1.277911,-0.890693,0.113522,-0.243760,1.141691,1.352256,0.285572,-0.983743,-0.614549,-0.712736,-1.419470,-0.654719,-0.429519,-0.909493,-0.640938,-0.012637,0.013190,0.262256,-0.056130,0.471740,0.389954,0.705210,0.731344,-0.108143,-0.556467,-0.802358,-0.727652,-0.757494,-0.044932,0.311287,-1.063254,-0.391546,2.021627,1.349501,1.573397,-0.960810,0.297057,-1.169609,-1.031826,-0.370590,-1.117239,-1.123557,-0.879815,-0.578265,-0.125740,0.880377,-0.292010,0.303422,-0.125248,-0.670918,-0.134987,-1.125630,-0.130211,-1.245350,0.285866,0.602373,-1.845587,0.190488,0.655888,0.741809,1.568374,2.335445,1.017918,-0.037276,-0.062158,0.669370,-1.329177,-0.732531,-0.668069,-1.049456,-0.573210,-0.612470,0.902392,0.160216,-0.044792,-0.029069,0.879821,0.107991,0.205392,0.662439,0.237310,0.722909,-0.878700,-1.212968,-0.980828,-1.564741,-0.213394,0.963019,3.091127,2.608560,0.770857,0.091007,-0.799928,-0.534291,-0.500063,-1.220568,-0.410979,0.435806,0.498279,0.495034,0.627231,-0.634097,0.081205,-0.652212,-0.889041,-0.248012,0.016399,0.779453,-0.094295,0.288144,-0.204111,-1.572310,-1.956762,-1.202319,-0.159887,0.218724,1.579457,2.371924,-0.020794,0.049167,-0.298364,-1.582555,-0.468505,0.261857,0.395155,-1.321610,-0.155242,0.491308,0.412497,-0.863437,-0.375926,-0.090335,-0.256598,0.866643,0.833873,-0.516540,-0.902930,-0.439525,-0.295396,-1.795479,-2.316541,-1.142112,-0.183481,0.375986,1.062845,1.574620,0.726870,0.143660,-1.515465,-0.305291,-0.807955,-0.256907,0.355716,-0.390613,-0.516928,-0.735672,0.165522,-0.649420,-0.862806,0.977916,0.745524,0.861794,-0.635601,-0.384376,-0.282820,-0.454750,0.183404,-1.093251,-0.970016,-0.500540,1.104823,0.992287,1.164497,0.666496,0.237715,-1.556814,-1.801210,-1.071260,-0.614038,-0.120095,0.532039,-0.879251,0.375242,0.458498,-0.854811,-0.141252,-0.358466,-0.257535,0.266319,-0.557356,0.482310,-0.335605,-0.413536,-0.553624,-1.212082,0.227901,-0.529806,-0.557540,-0.650834,1.329047,1.304878,-0.127123,-0.492613,-1.455377,-1.182898,-1.334523,-1.147735,-0.707207,0.317549,-0.598519,-0.437071,-0.826316,0.816631,0.605778,-0.625603,-0.264437,0.780068,0.747651,0.070291,-0.457097,-0.914559,-0.677450,-0.883469,-1.080906,0.388511,-0.377353,0.870808,0.612030,0.569669,-0.171371,-0.847879,-2.016499,-1.087511,-0.859877,-0.483574,-0.539238,-1.142829,-0.190150,0.286825,-0.632256,0.783921,0.160533,-0.035707,0.924688,0.562426,-0.729633,-0.115406,-1.374104,-1.625062,-1.417055,-0.479797,0.252798,-0.313915,-0.157108,1.230855,0.492648,1.350459,-0.684013,-1.486381,-1.174762,-1.295440,-0.347674,-0.517839,-0.289845,-0.910598,-0.192288,-1.217125,0.446979,0.303926,-0.020365,0.821750,-0.975349,-0.127671,-0.303369,-0.666187,-1.594475,-0.962383,-0.073755,-0.725379,-0.056853,-1.075200,-0.027311,-0.514795,0.254557,0.047252,-0.673254,0.056114,0.474408,-0.325447,-0.379201,-0.794738,-1.197646,-0.755644,0.283641,-0.652370,0.750429,-0.004548,-0.765320,-0.568127,0.688519,0.791422,-0.119457,-0.398356,0.073882,-1.139434,0.634868,-0.318330,-0.377135,-0.146077,-0.633959,0.521456,-0.427682,0.859322,0.308670,-0.876216,0.544439,0.648531,-0.181400,-1.421428,0.019873,-0.294709,-0.999737,-0.626928,-0.765358,-0.135686,-0.474171,0.049509,-0.885294,-0.008482,0.550776,-0.710823,0.796482,0.409602,-0.063376,0.505243,-0.423376,-0.391099,-0.883840,0.382843,-0.118141,-0.019017,0.773507,0.711516,0.393528,1.144976,-1.224773,-0.766462,0.193113,-0.292442,-1.090791,-0.067914,-0.772719,0.395739,0.169167,-0.638216,0.483617,-0.642815,-0.706288,0.241563,0.836584,1.600243,0.244026,-0.275052,-0.599672,0.770858,-0.339336,-1.903690,-0.608703,-1.096921,0.549780,1.014324,1.232535,1.266262,0.381889,-0.557033,-0.101846,-0.915113,0.279846,0.490775,0.768155,0.161520,0.465726,0.301284,-0.527182,-0.055196,-0.397089,-0.022652,1.277950,1.271963,0.504980,-0.696028,-0.165101,-0.125576,-0.699242,-0.057569,-0.175096,-0.425165,-0.467177,-0.479572,0.960950,0.892041,0.200445,-1.369094,-0.259983,-0.214888,-0.689496,0.668063,0.580059,-0.472667,0.722489,0.520855,0.948177,0.193178,-0.294228,-0.851299,0.211355,-0.287146,0.959292,-0.167535,-1.129296,-1.574799,-1.323886,-1.997821,-0.898568,-1.631744,-1.892312,-0.774183,-0.789546,0.550967,0.013751,0.664835,-0.351897,-0.538542,-0.502156,-0.779057,-0.150908,0.738312,0.599430,0.949047,-0.047559,0.545586,-0.239199,0.771071,-0.437100,-1.004872,0.103875,-1.115167,-1.045980,-1.191074,-0.685780,-1.132211,-1.732232,-0.239440,-1.623305,-1.180468,-0.570496,-0.318074,0.464202,0.365605,0.383361,0.935604,0.184268,-0.781895,0.744183,0.736406,-0.548492,0.180733,0.019165,0.826765,0.717956,0.556256,0.719186,-0.500891,-0.590051,-0.986321,-0.652983,0.373070,0.259126,0.324869,-0.069324,-0.431223,-0.057870,-0.143984,0.575367,-0.161788,-0.981319,-0.256202,-0.044784,-0.623330,0.955706,0.571471,-0.718656,0.812016,-0.804040,0.343820,0.257007,0.660530,0.451574,-0.480070,-0.322334,-0.318157,-0.016124,-0.248791,0.205393,0.184986,0.571949,-0.114694,0.067742,0.873784,-0.611578,-0.322209,0.505611,0.869551,0.303378,0.280744,-0.565387,0.239580,0.645317,-0.700880,-0.907569,0.919630,0.439307
0.332108,-0.949017,-0.508063,-0.139061,0.092051,-0.935909,0.193420,-0.737226,0.309986,0.939386,0.805872,0.963336,0.117342,-0.941822,0.992959,-0.082380,-0.074782,-0.948940,0.810308,-0.277345,-0.541170,-0.009093,-0.623079,-0.467066,0.601061,0.258536,0.665122,0.142142,-0.623333,-0.305060,-0.346116,0.093930,-0.970048,0.819131,-0.204691,0.711038,0.184488,-0.411823,-0.193861,-0.498753,0.790379,-0.053017,0.484008,0.238361,0.084221,0.237726,0.112399,0.284722,-0.283376,-0.587339,-0.161131,0.451686,-0.426359,0.131714,-0.234501,0.126237,-0.013130,0.241183,0.181780,-0.717712,-0.557044,-0.174236,-0.179475,-0.871983,-0.132645,-0.325677,0.286138,-0.346289,-1.292883,-0.278793,-1.076222,-0.319403,-0.958722,-2.001976,-0.823763,-0.896152,-1.219234,-0.511761,-0.987144,0.205792,-0.590421,-0.992661,0.623067,0.382970,0.460581,-0.908075,0.662535,0.198836,0.177455,-0.418717,0.930384,-0.002631,0.367461,0.939652,-0.099163,0.236621,0.506285,0.564011,-0.106377,-0.872047,0.736908,-1.236715,-1.014221,-0.853835,-0.807660,0.086029,-0.163389,-0.768112,0.408318,0.242591,0.737762,-0.582989,-0.466897,-0.402607,0.128790,-0.502358,0.469951,0.383886,0.195282,0.866309,-0.192231,0.801575,0.623051,1.108857,0.746756,0.113425,0.441896,0.082027,0.509371,0.383537,-0.977535,-0.015497,-0.593394,-1.067095,-1.527163,-0.911167,-0.783171,-0.446080,0.125555,-0.346020,0.171539,-0.956649,-0.917173,0.441678,-0.637783,-0.900402,0.509354,1.037994,1.091624,1.535809,0.473365,1.830313,0.966313,1.240589,1.850450,0.522509,1.742473,1.328388,0.658758,-0.591103,-0.498880,-0.577064,-0.987514,-1.911674,-0.207990,-0.643506,0.739491,-0.636726,0.219384,-0.916723,0.042796,-0.332689,0.287487,0.417496,0.291476,-0.433317,0.605238,1.091052,1.740108,0.302110,1.235270,1.318609,1.225527,-0.394164,0.141257,1.267148,-0.011433,0.476213,-0.429255,-1.116409,-1.413185,-1.290572,-1.190877,-0.668430,-0.777681,-0.337120,-0.919212,0.765173,-0.771283,0.022078,-1.143194,0.077875,0.727159,0.624090,1.254346,-0.219222,-0.745851,0.056375,-0.225311,0.663673,0.550886,-0.235189,-0.887876,-1.349337,-0.207379,0.225030,-0.267434,0.909017,-0.175251,-0.502954,-1.656386,-0.836956,0.821002,-0.767566,0.493540,-1.001220,0.989633,-0.153805,0.841614,-0.292399,-0.564052,1.444031,0.124017,-0.198799,0.000670,1.151509,0.100222,-0.434103,-0.377792,-0.252816,-1.001860,-0.630711,-0.890181,-0.366826,-0.850443,-0.456166,0.147165,-1.905961,-0.363655,-0.965394,0.223335,-0.667197,0.694957,0.562189,0.182223,-0.133395,-0.700665,0.809459,0.027555,0.721123,0.655055,1.887325,0.910311,0.194596,0.870646,0.063613,1.350780,-0.051862,-0.003503,-0.530184,0.402555,-0.644455,-0.966372,0.013958,-0.445671,-0.573370,-1.223621,0.257343,0.808100,0.821324,0.555887,0.823695,-0.998860,0.531720,-1.187792,1.575036,1.193208,-0.696617,0.785912,0.472113,-0.252757,-0.913956,-1.804107,-0.527082,-0.133305,-0.868056,-0.813879,-0.286879,-0.431290,-0.614380,0.088450,-0.649851,-0.802898,-1.066259,-0.648987,0.801779,0.748050,-0.926761,0.399081,-0.022481,0.232588,-0.552585,-0.095635,-0.281875,-2.390509,-3.757266,-2.191607,-3.230205,-3.057937,-3.997252,-3.608168,-3.724240,-2.512292,-1.401832,-0.578374,-1.354033,-0.207366,0.909567,-1.047444,-0.724163,-1.107481,-1.822367,-0.430333,1.070424,0.435884,0.058999,-0.332615,-0.627304,-0.316498,-0.956776,-0.752216,-2.492329,-3.463214,-5.096823,-4.783077,-5.338518,-5.120400,-4.913111,-3.001872,-2.868877,-4.096612,-1.125866,-1.470760,-1.835074,-0.222033,0.539862,0.604011,0.315084,-1.845015,-0.842714,0.800001,1.262669,1.050930,0.551719,-0.732049,-0.592603,-0.781874,0.152555,0.387436,-3.681214,-4.492181,-3.429083,-3.115141,-1.920134,-0.649858,-1.087616,-0.680381,-0.918189,-0.777210,-1.764200,-1.132505,-1.213004,-0.264770,-0.770033,-0.779199,-1.073188,-1.929746,-0.462966,0.841567,-0.367178,0.912073,-0.521413,0.507534,0.614902,0.444872,0.979426,0.701657,-1.726201,-2.546432,-1.820230,-0.227436,-0.327484,0.616138,0.834522,0.850777,-0.534976,-0.414204,-0.420931,0.183364,-1.133805,-0.714575,-0.803797,-0.800648,-0.780274,-0.516237,-1.527665,-0.758370,-0.213496,-0.426666,0.330869,-0.340199,0.096955,-0.838706,0.892232,0.601534,0.231586,-0.513350,0.103284,0.083849,-0.200455,-0.138418,0.178745,0.059821,0.226499,0.456126,-0.931958,0.677909,-1.543772,-0.575029,-1.365734,-0.284878,0.169492,-1.278657,-1.676279,0.685226,1.652821,0.915330,0.360458,0.478830,-0.052452,0.440848,1.487887,1.461731,0.183140,0.572502,0.087836,0.250711,-0.142780,-0.393746,0.011791,-0.452320,0.522517,-0.355260,0.303450,0.454540,-0.403371,-0.289891,0.189054,-0.059413,0.727546,0.046587,0.382019,1.705995,1.881058,0.760838,0.380654,0.663921,-0.115313,0.544684,0.306600,0.977660,1.621512,1.387789,0.161802,0.515102,0.855882,-0.840955,0.218452,0.563225,1.088041,-0.100581,1.508117,-0.308683,-0.657079,-0.120384,-1.247231,0.425157,-0.760443,0.431670,0.977383,1.889850,2.504418,0.465495,0.927012,0.266315,-0.101799,-0.919524,0.258703,2.138915,1.944170,1.399946,1.600226,1.018161,1.257648,1.319020,0.039887,1.233875,0.616393,2.051558,0.547216,1.279422,1.135500,0.945832,-0.411904,-0.252895,-0.098446,0.562217,2.308929,2.338692,1.987496,0.401038,0.569017,-0.018989,-0.510478,-0.959008,1.161410,1.279274,1.480345,1.937919,0.787547,0.425727,1.041533,0.386290,1.509877,1.625316,1.128983,0.958692,0.285304,0.726090,-0.123712,-0.519839,0.318005,-0.073380,1.161287,1.050208,2.129326,2.098038,1.460209,1.037036,0.405370,0.836810,0.134512,-0.362687,0.502600,-0.093175,1.640443,0.473457,1.583573,1.601010,1.299402,1.368649,0.030509,0.247073,0.379358,-0.403170,-1.194424,-0.180696,-0.556396,0.331075,0.281337,0.693377,-0.196470,1.108989,1.611298,1.137696,1.157271,0.614051,-0.624592,0.242067,-0.258769,0.261774,0.698520,1.202776,1.229150,1.066040,0.931215,0.667199,0.932629,0.615944,0.323595,-0.490617,-0.797603,-0.141792,-0.412135,-0.381332,-0.588566,0.041729,0.425139,0.038289,1.283189,2.205854,1.626947,1.351321,-0.420754,-0.892385,0.449879,0.352165,-0.752447,0.537575,0.507165,-0.036906,0.377641,0.401300,0.802588,0.589334,0.173889,-0.753713,0.697290,0.159371,0.012839,-0.346371,-0.756292,-0.623077,-0.791944,1.038998,0.858225,1.044594,2.520694,1.733001,1.033706,0.561326,-0.271266,-0.203671,-0.063571,-0.451651,-0.172871,0.123221,0.498123,0.565238,0.369800,-1.314168,-0.961105,-1.801625,-0.765873,-1.115166,-1.527083,-1.208257,-1.918387,-0.904672,-1.224323,0.429299,-0.251305,-0.053582,0.531010,1.680258,0.943531,0.587867,-0.393752,-0.396404,0.931797,-0.939103,0.985667,-0.860895,-0.953755,0.128936,0.752395,0.689362,-1.059779,-0.631694,-0.833785,-1.124804,-1.558964,-1.395657,-0.351415,-0.147137,-1.277843,-0.608626,-0.599238,-1.305556,0.177003,0.767739,0.339432,0.328332,1.555579,0.422794,-0.224407,1.443399,-0.557910,0.305791,-0.064968,-0.342668,0.373806,-0.314947,-0.291844,0.352060,-0.250270,-0.298592,-1.240805,-2.181505,-2.419411,-1.431841,-2.188976,-1.748756,-0.322612,-0.979343,-1.210898,-0.477721,0.175090,-0.992076,-0.392222,-0.571617,-0.290543,-1.005738,-0.027044,0.032048,0.801006,-0.869403,-0.977359,0.513248,0.217318,0.125700,-0.321885,0.371117,0.014000,-0.642146,-0.481291,-0.185357,0.448879,0.019141,-0.812912,0.095557,-0.833859,-0.517663,-0.855008,-0.334060,0.130234,-0.418757,-0.513540,0.750478,-0.073573,0.745371,-0.511622,0.685343,-0.429195,-0.508595,0.162055,0.874267,0.463710,0.788450,0.755049,-0.637252,0.751086,-0.625875,-0.810728,-0.689047,-0.872890,0.932799,0.212848,-0.753790,0.075591,-0.587136,-0.994857,0.198890,0.460549,-0.778441,-0.650876,-1.009081,-0.738623,-0.673956,0.118538,0.214934,0.947567,-0.002815,0.384317
0.996824,0.083643,-0.945693,-0.445448,0.213907,-0.184004,-0.172646,0.808939,-0.435970,-0.801187,0.699258,-0.417391,0.980861,-0.446881,-0.274568,-0.504341,-0.486130,0.036343,-0.612438,-0.468035,0.159699,0.700033,0.463165,0.495464,0.716371,0.837082,-0.396903,0.393903,-0.203005,-0.747575,-0.774172,-0.316033,0.406822,0.417617,0.001425,0.776917,0.325576,0.567705,-0.130686,-0.152546,0.754569,0.596461,-0.126809,0.670610,-0.679644,0.595962,-0.480125,-0.898076,-0.267773,-0.329950,-0.136136,0.311044,-0.670170,0.215503,0.864359,0.965339,0.046947,0.586724,-0.412966,-0.144484,-0.727669,0.792503,0.128315,-0.674412,0.795739,-0.653300,-0.180244,-0.396342,0.306447,-0.078432,0.382681,-0.501614,-0.151855,-0.211130,0.285812,0.296129,-0.924507,0.219725,0.758928,0.366045,0.285336,0.966760,0.630401,0.989037,0.121020,0.168529,0.925730,0.965921,-0.699499,-0.887690,0.083547,-0.528789,-0.206697,-1.186026,-0.001261,0.984278,-0.059725,0.035343,-0.241937,0.200421,0.034709,1.085957,0.337272,1.396634,-0.327325,-0.129860,-0.487084,-0.467848,-0.125989,-0.721088,-0.675833,-0.055006,0.536354,-0.219026,0.721173,-0.782767,0.320617,-0.199057,0.136037,0.848173,-0.354874,1.042841,0.463615,1.285946,0.741085,1.649030,1.421211,1.138312,0.955412,0.016362,-0.145856,0.247515,-0.072440,-1.299634,-0.834323,-1.159033,-0.238432,-0.336472,0.590127,-0.602268,0.893874,-0.198805,-0.647798,-0.265281,0.437140,0.983909,1.708123,1.413009,1.309048,-0.316608,1.161258,0.162225,0.355275,-0.753313,0.439696,0.601130,0.656102,-1.427223,-0.158836,-0.605802,0.001310,0.183206,-1.456082,-0.848306,0.119612,-0.917861,-0.926094,0.168936,-0.040259,-0.339763,0.953182,1.157384,1.421982,1.209399,2.141845,0.552971,0.094370,0.154327,1.578172,0.424393,1.143578,1.136347,0.202921,0.087838,1.679192,-0.809340,0.395392,-0.609243,-1.350043,-0.645482,-0.668611,-2.438710,-1.608713,-0.154450,0.489936,-0.858302,-0.159224,0.458701,-0.588217,0.677127,0.167064,1.484377,1.542026,0.291288,-1.731392,0.031190,-0.197030,0.521964,0.854316,-0.410208,-0.325990,2.146980,-0.022006,1.058960,0.932502,-0.794901,0.237414,0.643617,-0.358714,-2.152919,-1.560657,0.245288,-0.762094,0.438690,-0.067892,-0.022630,-0.704148,-0.800908,0.513095,-0.018982,-0.264112,0.002236,-0.432017,-0.432659,-0.348130,-2.052295,-1.151345,0.209578,0.395545,-1.068526,-0.256512,0.228325,0.225041,0.459820,0.693533,1.387523,-0.305989,-2.378064,-1.192356,-0.336215,-0.128377,0.577910,0.402619,-0.736181,0.474253,0.858647,1.728422,-0.061901,0.010291,0.149605,-0.713105,-1.130851,-2.533224,-1.797453,-2.286700,-1.061440,-0.304581,1.258121,0.266481,0.343129,-0.798174,0.859283,1.845124,-0.163961,-0.033547,-1.201801,-0.379849,-0.327614,0.783265,0.713449,-0.713204,0.371355,0.322662,-0.305357,0.593403,0.439068,0.813594,-0.684002,-1.859407,-1.835025,-2.824431,-3.045296,-0.749099,0.173853,1.138419,1.457584,1.599336,0.935002,0.488484,0.634594,0.978672,1.194071,-1.039657,-1.146548,-0.781322,-0.313824,0.311783,-0.597448,0.360082,-0.166002,0.050425,-0.838148,-0.182736,-0.899795,-1.835121,-1.620388,-2.856206,-2.174429,-3.029290,-0.018734,-1.225803,0.842335,1.439381,1.806740,1.712862,1.227482,2.164379,0.521162,0.418941,-1.822616,-2.305894,-0.252119,-0.369178,0.380656,0.656546,-0.687183,0.942706,0.112358,-0.545826,-0.655039,0.256906,-1.714848,-2.977694,-1.383916,-3.046930,-2.201489,-0.744449,-0.447959,-1.165973,-0.691523,1.915532,2.368118,1.777355,1.980611,0.929974,-0.089593,-1.320303,-2.034684,-2.766982,-0.708194,-0.904661,-0.215164,-0.664255,0.827970,0.324682,-0.873110,-1.063237,0.200811,-1.174973,-0.636619,-1.214748,-2.191179,-0.957267,-1.107632,-1.506012,-0.278954,1.345916,1.230457,-0.304834,0.872872,2.263247,0.363452,-0.605515,-1.156635,-0.591283,-1.821019,-2.626616,-2.036828,0.041154,-0.133731,-0.226370,0.302143,0.033230,-0.713735,-0.551135,-0.097546,-0.781593,-1.222643,-2.002294,-2.202199,-1.106908,-0.390920,-1.191428,-0.637861,1.857286,0.651626,0.566847,-0.682868,0.585732,-0.668890,-0.522633,-2.007072,-0.552258,0.436721,-1.144967,-0.030501,-0.035969,0.546059,0.617550,-0.296929,-0.052553,-0.379451,0.474164,0.658301,0.873323,-1.252327,-1.049355,-0.715624,-0.987706,-1.081156,-1.343578,0.841814,0.913292,0.014202,0.114992,-0.219575,-0.345566,-0.428147,-0.416652,-0.438593,0.388250,1.260960,1.849272,-0.135906,-0.940619,-1.006640,0.959914,0.443502,0.114756,-0.163282,0.506746,0.415400,0.216306,-0.044952,-0.508473,-0.378877,-1.643968,-1.472264,-1.276403,-1.037460,0.685431,-0.042548,-1.438496,-1.228671,-1.210649,-0.927360,1.596403,0.575062,2.278372,1.695209,1.983774,0.055010,-0.871876,0.493636,0.346668,0.185949,-0.310837,0.681658,1.561140,2.267654,1.845791,-0.469354,-0.791868,-2.081008,-2.430521,-3.080713,-4.572671,-4.449001,-3.751964,-3.659330,-3.648451,-1.577776,0.063908,1.350609,0.317544,1.366535,0.483940,0.938975,1.776407,1.379951,-0.583671,0.070757,0.304199,0.630447,-0.264997,-0.125351,0.334477,1.266404,2.928642,0.424154,-0.698360,-0.314217,0.184106,-2.506982,-4.781932,-4.147742,-6.141538,-3.159427,-3.015166,-0.800790,-0.298291,1.135103,1.994462,0.322787,-0.146573,1.140966,2.617853,0.959514,-0.714000,-1.226645,-0.456047,0.562902,-0.967205,-0.999685,0.903631,0.955266,1.698670,2.592773,0.790015,-0.537591,-0.444057,-1.216405,-0.484638,-2.078564,-1.708078,-2.249497,-2.040604,-1.552093,-0.075827,0.805693,0.234271,1.356126,-0.022893,2.668235,0.125020,-0.469468,-0.622135,-1.278550,-0.406410,0.642545,-0.508126,0.477294,-0.322520,0.446638,1.930155,1.237616,-0.027725,-0.241852,-1.033868,-0.028999,0.163189,-0.036583,-0.431183,-0.425240,-0.933101,-1.205867,-0.496808,-0.265998,0.856639,0.739988,1.588423,0.616496,-0.398636,-1.071654,-0.722451,-0.543859,-0.812771,0.130200,0.569453,-0.967928,-0.662234,0.715818,0.497170,1.366379,0.273537,-0.392756,-0.783464,-1.003010,-0.027188,-0.075263,0.359763,-0.303292,-0.645078,0.012689,-0.766639,-0.878468,0.877010,1.162972,0.320414,-0.216011,-1.776415,-1.802731,-0.602109,-1.172635,-0.421199,0.189222,-0.903568,-0.797862,-0.382757,0.403103,0.991846,1.848658,0.798728,0.839912,0.301088,0.878936,0.748246,0.031728,-0.660610,-0.101959,-0.012175,0.118568,-0.930181,-0.188204,-0.028315,1.405286,-0.550127,0.363976,-1.661852,-1.039435,-0.066515,0.415966,0.926643,-0.389398,0.236048,-0.696240,-0.163047,-0.239962,0.755227,0.468993,2.156641,1.097941,0.163176,0.747886,-0.150867,-0.117113,-0.249746,0.878183,-0.597135,0.359064,-1.419718,0.899112,0.283596,1.237935,-1.130907,0.099924,-1.348118,0.180669,-0.262809,0.318485,0.503222,0.777748,-0.128910,-0.909874,-0.869833,0.992174,1.002766,0.515181,0.994690,1.303460,1.259658,1.306798,0.063656,1.221048,0.113959,0.402558,0.960612,-0.343234,0.663074,-1.330813,-1.365026,-0.164277,-0.682602,0.397940,0.048750,-1.004910,-0.524038,0.331833,0.682485,0.552486,-0.901662,0.976397,-0.380877,0.953479,-0.989304,-0.173873,-0.663204,0.728653,0.819781,0.791680,0.880833,1.006992,0.561948,0.477880,-0.677442,-1.357355,-0.598380,-1.126620,-0.821763,-0.888027,-0.762392,-0.990033,-0.772412,0.408001,-0.950976,0.962540,0.460518,-0.983495,0.343214,-0.420507,-0.798261,-0.184519,0.247389,-0.030291,0.043361,0.526041,-0.107499,-0.727150,-0.334714,-1.353233,-1.540413,-1.154061,-1.435481,-0.850275,-0.473467,-0.512192,-0.409496,-0.052835,0.181677,-0.680317,-0.530106,-0.750401,-0.661642,-0.798821,0.209945,0.666951,0.187805,-0.147439,0.325384,-0.588811,0.520960,-0.300139,-0.895982,-1.018901,0.615737,-0.326669,0.700569,-0.899474,-0.602775,-0.789381,0.535065,-0.987583,-0.420311,0.033194,0.052253,-0.437081,0.946841,-0.428822,0.548247,0.447779,-0.563045,0.604195,-0.737756,-0.361535
-0.756699,0.935334,-0.483395,-0.194824,0.885006,0.097855,0.247477,-0.052482,0.575517,0.583725,-0.977033,-0.549757,-0.399302,0.763055,-0.237687,0.592324,-0.782248,-0.313423,0.481968,0.089652,0.365931,0.302565,0.233339,0.316815,-0.590278,0.449070,0.414077,-0.770617,-0.340046,-0.841079,-0.062617,-0.806487,-0.873518,0.396174,-0.513883,0.738619,0.088249,0.719331,-0.616069,0.102570,-0.983893,0.665210,-0.293352,-0.114970,0.090813,0.057901,-0.749621,-0.360387,-0.665813,0.804811,0.577750,0.079474,0.310441,0.631546,0.675406,-0.696041,-0.835247,-0.602538,-0.878944,-0.473638,0.265207,0.901297,-0.459564,-0.679517,-0.831580,-0.720187,-1.536191,-0.786320,-0.735898,-1.783636,-0.832982,-0.548892,-1.578996,-1.703084,-0.014946,-1.326324,0.517006,-0.844401,0.691016,-0.714428,-0.517900,-0.232031,0.208325,-0.586599,0.652850,-0.666221,-0.463691,-0.355940,-0.932961,-0.267439,0.116455,-0.163925,0.620441,-1.542426,-0.399755,-0.911696,-1.334788,-2.827610,-2.566912,-1.761710,-2.609469,-1.529952,-1.195673,-0.613041,-1.554446,-0.031578,0.764134,0.627710,0.670536,-0.075052,0.587704,0.584959,0.891169,0.529972,-0.931107,-0.108979,-0.229662,0.355358,-0.520878,0.723362,-0.662896,-0.384887,-2.145480,-2.219406,-2.547624,-1.752587,-1.825175,-1.681758,-1.260227,-2.053983,-0.840952,-0.499439,-1.334744,0.351478,0.172837,1.137474,-0.020639,0.692106,-0.117509,-0.060030,0.642586,-0.550086,0.876783,-0.452138,0.193022,-0.581163,1.155427,-0.404406,-1.046048,-0.673615,-0.931393,-0.727557,-1.218610,-0.414463,0.664236,0.264761,0.814645,-0.118500,-0.008612,0.706635,0.785870,0.685462,0.046416,0.918937,-0.132928,0.724448,-0.969174,-0.169967,0.438289,-0.424500,-0.473062,0.298365,-0.176786,0.616169,-0.961381,-0.648997,0.430913,-1.278639,0.043968,-1.486780,-0.219943,-1.420782,-1.392523,-0.649146,0.043918,-0.738785,-0.013906,-0.569014,0.673366,0.427871,1.883576,1.406126,1.038784,0.219779,0.115936,0.890161,0.019306,0.909173,-0.937058,-0.751123,0.411512,0.505467,0.132068,-0.848604,0.182475,-0.020377,-0.765378,-0.582795,-1.952669,-1.638712,-3.160386,-2.013275,-2.650617,-2.008016,-1.532893,0.260140,0.012775,-0.881357,1.531169,0.524832,0.150488,-0.980049,0.205820,0.758800,0.411855,0.258814,0.815980,-0.607638,-0.466274,-0.136079,0.165643,0.764145,-0.526139,-0.786644,-0.808552,-0.960676,-1.665204,-0.992283,-2.530054,-1.784346,-2.316829,-0.246100,-0.706097,-0.634328,-0.824687,-0.231419,0.184279,-0.153862,-1.016642,0.215005,-0.753448,0.373087,0.648146,-0.393410,-0.576648,0.111324,-0.921342,-0.993949,0.144144,0.598856,-1.023575,0.021863,-1.120388,-1.000447,-0.806225,-1.148729,-2.219611,-1.648788,-0.006429,-0.689240,-0.048337,-0.636454,-0.445182,0.644065,-0.425758,-0.787816,-1.920084,0.157625,-0.237130,-0.719486,-0.563591,0.327787,0.293005,0.203952,-0.456424,0.370594,-0.759281,-0.971142,0.015518,1.137418,-0.289239,-0.759152,0.495817,-1.683423,-2.152089,0.144841,-0.044080,-0.077631,0.411792,0.575693,-0.701434,-0.822466,-0.100066,-0.302486,-1.774103,-1.324266,-0.421015,-0.663469,0.417661,-0.141265,0.640717,-0.840739,-1.363359,0.275565,-0.467466,-0.171952,-0.690121,1.338570,0.374070,0.867689,0.882735,-1.644391,-2.038690,0.696271,2.832055,0.343704,-1.246068,-0.941138,-0.583252,-0.897495,-0.436756,-1.172944,-0.434552,-0.443489,0.719638,-0.345005,0.181138,-0.173177,0.436496,0.762623,-1.150658,-0.452354,0.972021,1.362568,0.754306,2.204894,2.411307,1.728413,2.351498,0.611888,0.028389,0.964259,1.287768,-0.303469,0.069650,-1.280024,-0.973708,0.068511,-0.149927,-0.607804,-0.066696,0.112216,0.234233,-0.076052,-0.194820,0.971048,0.206014,0.118452,0.285566,0.801900,1.199384,1.193945,1.666208,1.297804,1.669529,3.547266,2.099731,0.211690,-0.537765,0.922943,-0.043086,1.253681,-0.156673,0.672497,0.150687,-0.093865,-0.688018,0.188492,-0.563941,0.819333,-0.497131,-0.169677,-0.091550,-0.555276,-0.425010,-0.997044,0.318095,2.221926,2.914068,1.101238,1.152057,1.084982,0.133435,2.274918,0.928919,-0.152903,0.224457,0.577994,1.403231,0.312838,0.660289,0.874537,0.226545,0.632886,0.044694,-0.428556,-0.599690,0.133582,0.409219,0.575267,-0.369878,0.668015,-0.082704,-0.737304,0.248097,0.283033,0.745216,0.240375,0.949530,1.398253,1.138743,0.714571,0.476173,0.558676,0.652768,1.867567,0.730187,1.016898,0.789537,0.321941,-0.485583,0.002780,0.344018,-0.066032,0.634975,-0.964115,-0.167231,0.480648,-0.171623,-0.236050,-0.332111,0.287292,0.031556,-0.342711,1.568804,2.386734,2.147524,-0.156706,0.618690,0.576483,0.775295,-0.781350,1.520064,2.404569,1.367955,0.483787,1.532384,1.521199,0.642664,0.515902,0.496986,-0.221914,-1.304469,-1.184193,0.641083,0.396257,0.823226,0.244447,0.412992,-0.955612,0.159642,-0.240720,1.113780,1.457921,1.594938,1.124085,-1.179149,-0.113383,-0.378456,2.313519,2.195180,2.197521,1.322203,0.761926,0.889795,-0.177029,0.503550,-0.512357,-1.187555,0.294142,-0.098854,0.433213,-0.634377,-1.000715,-0.879116,0.581753,-0.616659,0.305360,0.039440,-0.520665,0.093598,0.040244,0.704639,0.550147,0.161353,-0.451734,1.745238,1.752996,2.811771,0.746075,1.286005,-0.487394,-0.761159,0.284257,0.062346,-1.087881,-0.821871,0.259446,-0.839172,-0.107094,-0.913746,0.130670,-0.452700,0.660397,-0.650648,0.632089,-0.833848,0.441725,-0.878581,-1.066669,-2.030190,-2.088064,-2.287810,-1.317902,-2.131296,0.279985,-0.035174,0.217923,-0.860141,-1.103127,-1.206091,-1.471775,-1.940161,-0.500804,-0.981592,-0.564468,-0.941110,-0.000649,-0.048230,0.254491,-0.243927,-0.542539,0.668497,-1.167960,-0.021441,-0.299121,-1.543720,-2.707823,-2.643470,-3.914659,-3.751100,-2.618195,-2.382906,-2.864044,-1.778155,-1.623113,-2.227478,-0.480555,-0.646826,-1.496179,-1.096819,-0.303163,-0.551426,-0.470064,-0.826206,-0.526100,0.308099,-0.776300,-0.519660,0.969700,0.660821,0.234780,-1.099228,-1.397220,-1.308978,-1.959504,-2.336343,-1.956874,-1.130488,-0.919424,-1.405036,-1.284794,-1.188397,-1.257401,-0.288008,-0.170041,-0.956618,-0.789869,-0.624950,-0.712605,-1.012307,-1.235288,0.452309,0.921589,0.106233,-0.067137,0.669973,-0.228159,-0.909942,0.779968,-0.590143,0.347170,-1.363609,-1.794051,-1.489459,-0.998791,-0.284142,-0.578281,-0.438619,-0.478144,1.410220,-0.644904,0.640394,0.283873,0.517168,0.982305,0.489265,0.358068,-0.733966,0.520537,0.581790,0.899305,-0.571197,-0.181323,-0.150794,0.594850,0.491916,0.916142,0.285715,-1.103652,-1.019929,0.167664,-0.292349,-0.555201,-0.102887,-0.965875,-0.625281,-1.790822,-0.289889,0.335535,0.616557,-0.287421,0.953840,1.303057,0.233361,1.313730,0.103525,-0.495866,-0.370536,0.626831,0.404592,-0.717624,0.339672,0.257172,0.765757,-0.451704,-0.182470,0.639521,-0.892087,-1.208230,-0.596316,-0.602715,-0.957132,-0.408803,-1.688594,-0.512100,0.290524,-0.736018,-0.722632,-0.537965,-1.048627,-0.020879,-0.366632,-0.591973,0.347737,0.008933,-0.388868,0.827377,0.181180,-0.808695,0.221148,-0.193541,0.550290,0.985863,-0.697926,-0.980536,0.264215,-0.515689,-1.876549,-1.127250,-2.420279,-1.589634,-3.092552,-1.304772,-2.553368,-1.187938,-1.934739,-2.026083,-1.063803,-1.020487,-0.279180,-0.966692,0.433981,-0.522743,-0.508419,-0.936396,0.023357,-0.611712,-0.219973,-0.656027,-0.117272,0.002683,0.841497,0.047136,0.030900,-0.958740,-0.329469,-0.487713,-1.248629,-0.576897,-0.811569,-1.488823,-2.112306,-1.090808,-1.008655,-2.302474,-0.267083,-1.301022,-1.433758,-0.747573,-0.850457,-0.103702,-0.662351,0.423784,-0.243535,0.546055,-0.335581,-0.254129,0.470593,-0.999678,0.395187,-0.275814,-0.732483,-0.126087,-0.816756,0.809363,0.802615,-0.783423,0.211423,-0.252962,-1.187291,0.234825,0.633969,0.545930,0.480263,-0.224793,0.307835,-0.993258,-0.718879,-0.859456,-0.088108,-0.500798,-0.446392,-0.567208
-0.569311,-0.232929,0.207797,0.797067,-0.778988,0.917851,-0.804604,0.426363,0.740530,0.756734,0.305574,0.036199,0.759778,0.720853,-0.293645,-0.420385,0.987321,-0.355802,0.536060,-0.118465,0.089157,0.436403,0.244377,0.523143,-0.571554,0.707026,-0.606365,0.111661,0.033889,0.887939,-0.764901,-0.194080,0.049559,0.367313,0.757367,-0.563006,0.448098,0.080351,0.026073,-0.952030,-0.724785,-0.453531,-0.267577,0.747165,0.961658,-0.451593,-0.737415,0.477788,0.219583,-0.966658,0.231009,0.665152,0.766887,-0.964482,-0.324737,-0.647877,0.551115,0.672734,0.724349,-0.709914,0.244113,0.750713,0.821240,0.917418,0.469730,0.153379,0.478158,-0.372393,0.270216,-0.678347,-1.441087,-0.129979,-1.073497,-0.514551,0.061696,-0.158508,-0.468429,0.565253,-0.144138,-0.884857,0.181027,-0.483332,0.933634,0.456768,-0.964866,-0.830792,-0.724126,0.972277,-0.835388,0.490710,0.975047,0.464418,-0.842220,-0.342162,0.347569,-0.857507,-0.415244,-0.672951,-0.850991,-0.258212,-0.954904,-1.702055,-1.024131,-1.218284,-0.304143,0.295763,-0.698813,-0.242336,-0.086780,0.144093,0.485468,-0.105028,0.802608,-0.805475,-0.437181,0.474695,0.601313,0.283407,-0.383757,-0.447766,-1.664546,-1.177615,-1.018805,-1.528813,-0.625530,-1.227032,-0.775188,-0.478060,1.014647,-0.246901,0.492961,-0.757772,-0.859284,0.118423,1.204303,-0.209824,1.385214,0.362959,-0.150445,0.077706,0.113441,-0.072712,0.272969,0.933604,-1.060208,-1.222607,0.187587,-0.136060,0.479519,-0.728293,-1.422371,0.135109,-1.760023,-1.980602,-0.776788,-1.158632,0.376421,-0.283123,0.385339,-0.425431,0.952624,1.077598,2.235264,0.743398,0.844222,0.945430,0.540683,0.167146,0.211869,0.609789,0.959999,0.434853,-0.877182,-0.337637,0.472979,-0.196215,-0.347712,0.754964,-0.318687,-0.674514,-0.382609,-0.244555,-0.380738,-1.054249,-0.896080,-1.490889,0.382993,0.479314,0.310633,0.154179,1.837223,1.916404,2.309876,0.476704,-0.321895,0.684531,0.612877,-0.210289,0.044076,0.270656,-0.119661,-2.222479,-1.635757,-0.303354,0.697149,0.442800,0.781573,0.731560,-0.118200,-0.957481,0.149094,-1.510112,0.117434,0.948745,0.315170,-0.731867,-0.238081,1.883519,1.272318,2.630990,3.009270,0.549574,-0.564854,-0.370109,-0.635234,0.004701,0.868775,0.005566,-0.469242,-1.351314,-1.281419,0.073773,1.460626,0.471758,-0.016917,1.280263,0.500930,-0.498414,-0.972749,-0.901944,-0.332727,-0.907939,0.259977,0.384809,1.007823,0.275852,0.064691,3.493657,4.472900,2.673984,0.753979,0.055851,0.956546,-0.328762,0.342754,-0.446056,-0.867812,-0.199973,-0.496424,0.127827,0.876173,1.377658,0.747717,1.217260,1.184426,0.029429,-1.144283,-1.868734,-2.890586,-0.973230,-1.181812,-0.932709,0.166380,1.949780,2.194732,4.706627,8.052504,5.209726,0.726341,-0.597427,0.329280,0.438993,-0.543270,-0.200813,-0.827983,0.081812,1.336170,1.789397,1.182341,0.586237,1.322166,2.918826,2.578817,2.740732,0.724680,-1.199879,-1.320317,-2.466305,-1.355719,-1.315673,-1.178086,-0.916865,0.807251,3.067427,5.209972,3.133575,0.234247,-0.814616,-0.774359,-0.038652,0.771923,-0.204389,-0.806703,-0.338053,1.077602,1.334944,1.359934,0.591719,1.453228,0.983103,0.985339,2.209812,2.068373,-0.436560,-0.241644,-1.152788,-1.926185,-3.782756,-5.702184,-6.527826,-6.513087,-3.186619,-0.863634,1.500707,1.056379,-0.231968,-0.329833,-0.627828,-0.815606,-0.618861,-0.447939,0.518319,0.405183,0.269913,0.302914,-0.013748,0.469662,1.128981,0.971905,1.380051,-0.269696,-0.294287,-1.354036,-2.343151,-1.362542,-1.560415,-4.136449,-6.265686,-7.240468,-5.481827,-3.453939,0.250419,0.678031,0.798541,0.423941,0.460096,-0.211035,0.810740,0.822831,0.866079,-0.522941,0.308695,1.199352,0.088713,1.251608,0.792890,1.182043,0.883669,0.401934,-1.224624,-0.745585,-1.584579,-1.828045,1.196221,0.767645,-0.991024,-4.751721,-4.357209,-2.010258,-0.881999,-0.872542,0.263741,0.486748,-0.226966,-0.334766,0.064955,-0.625161,-0.171272,-0.238192,-0.829839,-0.236059,-0.069723,1.762065,0.609552,0.785579,-0.467852,-0.983986,-0.358399,-1.044626,-0.601455,-0.664484,-0.619524,0.248428,-0.551403,-1.405127,-2.128915,-0.790774,-0.020247,0.626336,-0.387354,-0.144357,0.238026,0.938589,0.525197,-0.728654,-0.473466,-2.280590,-0.698924,-0.456398,0.346628,-0.064271,0.741751,0.158627,0.219697,-1.622800,-0.598390,-1.272725,-0.235919,-0.266658,-0.940179,0.356465,-0.767795,-0.160046,-2.062412,-1.621181,-0.813179,-0.777787,0.076073,0.365048,0.577772,0.207643,-0.839781,0.723574,-0.228927,-2.142202,-1.833686,-0.130674,-0.281452,0.463040,0.401623,-0.104777,-0.023182,-1.262400,-1.669646,-1.448546,-0.396227,-0.529789,-0.346675,-0.553645,-1.134668,0.332486,-0.484494,0.830519,-0.464543,0.545809,-0.011510,-0.290186,0.665504,0.598868,0.954783,0.665290,-0.717329,0.583282,-0.157693,-0.461197,-1.328720,-1.287541,-1.588610,-1.994149,-1.888084,-1.530608,-0.772413,-0.607074,-0.348011,0.262670,0.152983,1.181215,-0.233393,-0.423986,0.484209,-0.038463,-0.960807,-1.066271,0.741110,0.605193,-0.477933,0.016799,-0.156938,-0.042442,0.680490,2.444534,1.132750,-1.366387,-1.944988,-3.430442,-2.251181,-0.668315,-0.032371,-0.139824,-0.464891,0.346428,1.259987,-0.616324,-0.422514,-0.277617,-0.218558,0.264067,1.033814,0.913236,-0.388130,0.109957,0.414403,0.198742,0.830221,-0.926851,0.729933,-0.149289,0.382789,0.612274,1.434517,1.154879,0.522492,-0.405404,0.688410,0.032020,0.250137,-0.512382,-0.670425,-0.363398,-0.326855,-0.557340,0.040628,-0.208355,-0.011438,1.078755,0.224667,1.407463,0.448819,-0.313191,-0.689546,0.865585,0.654680,0.476636,0.561402,0.079109,-0.427996,-0.050015,0.690276,1.151053,0.479929,0.153580,0.867259,0.410016,-0.072851,-1.304032,-0.774202,-0.111875,0.591408,-0.481312,0.921937,0.077989,0.482129,2.210861,2.049477,0.319256,0.974495,-0.841504,0.572918,-0.767714,0.902390,0.784145,-0.470659,1.012481,-0.484044,0.054597,-0.324740,1.236946,-0.116431,1.034398,0.158602,-0.651652,-0.334129,-0.593560,0.668148,0.082650,0.543833,0.161673,0.946021,0.786618,0.970883,1.896825,0.410724,-0.408570,-0.662466,0.131391,0.828319,0.570414,0.620968,0.147039,0.721236,-0.860313,0.296903,-0.671616,-0.609862,0.450073,-0.177178,0.859740,0.955054,0.413587,1.159280,-0.023410,-0.427943,0.600300,0.469684,0.117186,0.927875,0.751383,0.125561,0.401284,0.673552,-0.320054,0.793351,0.336283,0.037091,0.941879,-0.290885,-0.822568,-0.532931,-0.389319,0.361840,-0.716258,0.737248,-0.036038,0.386582,0.344650,-0.224767,-0.351061,0.033353,0.049907,0.138460,-0.757832,-1.032073,-0.566879,-0.201866,0.979856,-0.191178,0.619617,-0.575554,0.460902,0.111556,0.773784,-0.355868,-0.954679,-0.388878,-0.554035,0.254746,-0.652148,-0.506202,-0.689239,-0.060764,0.449696,1.206136,-0.245297,-0.334100,0.837172,0.369454,0.356333,0.452030,-0.334423,-0.072057,-0.226918,0.258492,-0.172233,0.235696,0.511487,0.540454,0.220999,-0.195210,-0.670875,-0.655570,-0.263323,-0.024021,0.463488,-0.666508,0.703941,-0.107842,0.392971,-0.836202,0.368778,-0.742371,-0.143064,-0.019220,-0.781961,0.957749,0.671037,-0.081130,0.136361,0.649966,0.193627,0.568553,-1.174775,-0.560292,0.906444,-0.146361,0.147228,-0.989688,0.095166,0.155536,-0.517892,-0.763967,-0.321867,0.360971,0.447594,0.559873,-0.533849,0.766746,-1.148002,-0.098915,-0.267974,0.605728,0.105101,-0.212881,-0.013220,-0.355622,-0.562612,-0.797173,0.028847,-1.186777,0.277509,-0.987058,-0.500326,-0.965260,0.062310,-0.932924,0.209519,0.886784,0.775389,-0.866766,-0.145812,0.439948,0.744539,-0.297344,0.234361,-0.481091,-0.412747,-0.601598,0.813488,0.317464,0.340215,-0.672727,-0.643784,-0.260985,0.023939,0.451440,0.640796,0.669853,0.962871,-0.249364,-0.847316,0.856092,-0.370089,0.377707,0.092088,0.977971
-0.554794,0.546253,-0.989728,-0.199297,-0.119535,0.491313,0.187419,-0.574714,0.706407,-0.280680,0.705148,0.058966,-0.363732,0.871154,0.290536,-0.572734,-0.490238,-0.910714,-0.073471,-0.546834,0.638474,0.582513,-0.882468,-0.328973,-0.681776,-0.428446,-0.294103,0.887218,-0.306807,-0.785060,-0.751651,-0.275627,-0.622661,0.624036,0.167876,-0.312002,0.004510,0.888297,0.237109,0.264976,0.371703,0.018069,-0.238760,0.202018,-0.561217,-0.405239,-0.836816,0.311176,-0.165176,-0.551287,-0.652934,0.856548,0.356918,0.995379,0.432201,-0.391797,-0.042412,-0.337680,-0.106916,-0.905212,0.500186,0.659703,-0.811675,0.150027,0.891658,0.719725,-0.168089,0.547432,0.951988,0.607360,1.317164,-0.058343,0.506890,0.652089,1.171479,-0.232267,0.982991,-0.201467,0.562826,-0.123787,-0.006599,0.047860,-0.954913,0.711516,-0.562776,-0.594559,-0.932706,-0.905233,-0.812129,-0.268022,0.607343,0.672211,1.120284,0.213758,0.392084,0.435125,0.647693,0.332342,0.121570,0.612344,1.264324,0.059213,0.761804,1.306105,1.857298,1.830270,0.850262,0.848246,-0.472198,-0.832899,0.806816,0.909599,0.907764,-0.465793,0.314055,-0.116683,0.702967,0.944590,-0.238599,-0.366244,-0.588349,-0.166691,-0.021498,-1.668505,-0.652299,-0.199990,-0.619448,-0.623523,-0.273835,0.109806,0.409336,0.956566,0.852216,1.354165,1.135131,1.333658,0.261884,0.548952,0.039012,0.286444,0.460220,0.237467,0.814948,0.787646,0.620531,-0.004914,-0.550118,-0.628090,0.549973,-1.653126,-1.422889,-2.040884,-0.754945,-2.562060,-1.330136,-0.500095,-0.021569,0.447439,-0.191819,1.267387,1.525809,1.465857,1.401256,1.043023,-0.022342,-0.363714,0.208642,0.429753,-0.643345,-0.418175,0.105805,-0.687112,-0.455847,-0.074444,-0.032718,0.057669,-0.031733,-0.827066,-0.209099,-0.383973,-1.356863,-1.158752,-1.637764,-1.656466,-1.704277,-0.763063,-1.110824,-1.063024,-1.084972,-1.583264,-0.718423,-1.497160,-1.175651,0.148120,0.810977,-0.838880,-0.104187,-0.222334,-0.615796,-0.028257,0.198613,-0.411263,0.127364,-0.772438,0.087605,-1.706171,-0.969614,-1.421803,-1.695181,-1.233796,-0.057279,-0.790300,-2.370735,-2.179129,-0.686677,-2.796233,-1.635572,-1.742576,-1.156182,-1.904889,-0.736381,-0.872181,0.163515,0.728344,0.193601,0.942261,0.100876,-0.633567,-0.096913,-0.538328,-0.418976,-0.737791,-0.427995,-0.249991,-0.923017,-0.920480,-1.111507,-0.502000,-1.754793,-1.781552,-2.018210,-1.259727,-3.446945,-3.547296,-3.003463,-3.908391,-2.517869,-2.728882,-1.441092,-1.343621,0.367089,-0.561871,-0.943948,-0.129119,-0.193323,0.428687,0.160945,0.639814,0.299912,-0.249792,0.100555,-0.213163,-0.438635,0.007544,-1.234526,-0.862408,-1.423945,-1.881929,-2.237243,-2.484121,-2.887694,-2.799580,-2.417968,-1.570850,-1.463231,-2.316019,-2.072789,0.119026,0.534985,-0.694627,-0.608423,0.505076,0.934444,-0.107856,0.655189,-1.121279,-0.778124,0.224737,-0.229109,-0.476564,-0.162259,-0.438140,-0.150859,-1.200887,0.546389,-0.486304,-2.226630,-2.884618,-1.822558,-1.919019,-1.799285,-1.009439,-1.679280,-0.569040,-0.141394,0.060748,-0.426699,0.843400,-0.579722,-0.183184,-0.441521,-0.734172,-0.764675,0.208686,-0.313264,-0.717420,0.467357,-0.439028,0.346621,-0.647473,0.232519,1.465334,0.034370,-0.478302,-0.452192,-1.462446,-0.485381,-1.081704,-0.710665,0.112134,-0.453437,0.584608,1.022439,0.390304,-0.554972,0.803291,-0.290977,0.197872,-0.430519,0.753168,0.845292,0.458178,-0.279958,0.665736,-0.821738,0.700911,-0.470857,0.906265,1.589214,0.298215,0.461282,-1.071609,0.063809,0.048974,-0.360620,-0.807982,0.193168,1.275918,1.419945,1.675085,0.782388,-0.257946,-0.017193,0.261970,0.787018,-0.497437,-0.718504,0.329067,0.393535,0.797240,1.026009,-0.318923,-0.359621,1.051580,0.805630,1.370568,1.254471,-1.326590,-0.066750,-0.035378,0.690577,0.213752,0.285546,-0.759253,0.986482,0.455447,1.148539,2.413157,0.983640,-0.367056,-0.516402,0.577082,0.072225,0.509243,0.390425,-0.031809,-0.821247,-0.595744,1.132749,0.647173,0.982881,-0.155742,1.671355,0.713061,0.273360,-0.125678,-1.048016,-0.263009,-0.949000,-1.238210,-0.924252,0.444706,0.569786,0.199672,1.096707,1.267233,0.570820,-0.198028,0.539849,0.582988,0.669695,0.563521,0.618961,-0.541238,0.295569,-0.551426,0.625686,0.734382,0.437958,1.728030,0.427588,1.475918,0.644475,0.038005,0.202336,0.360971,-0.329732,-0.465229,-0.423339,-0.487838,-0.144121,0.164915,0.807039,0.552450,0.431833,0.938625,0.489962,-0.787411,0.465732,-0.493339,0.997153,-0.067883,-1.201441,-0.414950,-0.454810,-0.237827,-0.495860,0.162132,1.155365,0.739127,0.493004,-0.233612,0.403724,-0.093989,-0.067553,-1.595260,0.582117,0.541620,0.904079,0.317441,-0.028286,0.416041,-0.137322,-0.534466,0.309773,0.811583,-0.616041,-0.555784,-0.140576,0.368526,-1.191807,-0.864522,0.399561,0.184432,0.546432,-0.785556,1.055681,1.909230,0.565930,0.736332,-0.253748,-0.684900,-0.755156,-1.091532,1.404827,0.446378,-0.203436,-0.095986,0.137200,-0.327836,0.397280,-0.417192,-0.044187,-0.429986,-0.078896,-0.711082,-0.278788,-0.805572,-0.952000,-0.387506,-0.705194,0.356010,0.466440,1.405593,1.261590,2.024791,1.458157,0.232274,-0.267268,0.716769,0.775772,0.597004,1.231156,1.214979,0.000889,-0.377187,0.737810,-0.772494,-0.635565,-0.403177,-0.910955,0.892383,0.113744,-0.770921,-0.010976,0.744377,-0.662972,-0.066083,-2.134562,-0.268870,1.251932,0.814358,2.159546,2.322083,2.473668,0.655287,0.286782,0.863538,1.016395,1.209202,0.097133,0.735312,-0.512052,0.198684,-0.344740,-0.843558,-0.726091,-0.023885,0.593430,0.542154,0.668574,-0.678313,-0.281493,0.155596,-1.166541,-0.467982,-1.009374,-0.959410,-0.631337,0.312488,1.606223,1.961826,1.005753,1.483738,2.228511,0.913518,0.462600,0.424364,0.449740,0.496710,-0.259350,-0.105828,-1.353066,0.088895,-1.471632,-1.242380,-0.468179,0.313328,0.267430,0.562943,0.450957,-1.080900,-0.211346,-1.146113,-1.838548,-1.108953,-1.117483,-0.248701,0.056608,1.280443,2.084031,1.821892,0.699420,2.376015,1.555779,2.182544,1.290563,0.026341,-0.900774,-0.885035,-0.260139,-1.356714,-0.887336,-0.923504,0.254961,0.936506,0.196639,0.550406,-0.948610,0.233897,0.130394,-0.633714,-2.043373,-0.232124,-0.627044,-0.494133,-0.526204,-0.677383,-0.410354,-0.555351,-0.054678,0.951631,1.531092,0.263480,0.593877,-1.057930,-0.115719,-0.693169,-1.208687,0.009330,-0.387148,-0.509994,0.347561,0.804169,0.032296,0.751322,-0.398248,-0.678592,-1.006997,-1.092002,0.289161,-1.046807,-1.561791,-1.394779,-1.759700,-1.548322,-0.774682,-0.344227,-0.857298,-1.117189,-1.373319,-1.548029,-0.321519,-1.176636,-0.118044,-1.006028,0.264213,0.250430,-0.397009,-0.956060,-0.114154,0.566422,0.757214,-0.167884,-0.034005,0.746495,-0.052614,0.005950,0.727541,-0.462636,-0.862973,-0.457413,0.236352,-0.346103,0.003503,-0.651762,-0.364274,-0.704002,-0.439938,0.125451,-0.715762,-1.273162,0.690786,-0.251166,0.210202,0.171008,0.330012,0.037775,-0.681720,-0.090105,-0.909401,0.476990,-0.444495,0.525373,-0.026624,-0.679660,0.215358,-0.718115,-0.607804,0.507020,0.019104,0.110186,-0.024055,-1.189586,-0.687240,-0.598112,-0.919115,0.845876,-0.149703,0.135940,0.804348,0.623643,-0.595255,-0.705318,0.228131,-0.954841,-0.541253,-0.988381,0.261434,0.537022,-0.379758,0.615847,-0.053326,0.129730,-0.445095,0.136825,-0.571733,0.243621,0.158316,-0.262377,0.262877,-0.425272,0.230773,0.023953,-0.452067,-0.416627,0.754485,-0.693931,0.849593,-0.901391,0.787371,-0.879354,0.200761,0.359172,0.881883,0.190825,-0.771532,0.302116,-0.343173,0.919278,-0.217900,-0.019646,-0.139786,0.092293,-0.518413,-0.956357,0.565482,0.578570,-0.624116,-0.902345,0.446021,0.575063,-0.405670,0.329569,-0.863589,0.093961,0.019659,0.402457,-1.005490,-0.656878,0.706903,-0.889065,0.813198,-0.863523
-0.326990,-0.007139,0.585421,0.899347,-0.347174,-0.790148,0.966626,-0.397455,0.154867,-0.361920,-0.200577,0.395651,0.493700,-0.893593,-0.830108,-0.392383,0.472842,0.616222,0.654841,0.306310,-0.092189,0.520196,-0.754916,0.220544,-0.853056,0.014546,-0.932663,-0.047257,-0.648869,0.036007,0.861001,0.148913,-0.650022,0.277648,0.661912,-0.767034,0.426072,0.091817,0.067913,0.018073,-0.433583,-0.986112,-0.187128,0.231437,-0.049415,0.858193,0.152880,-0.961946,0.773349,-0.353093,0.250181,0.282094,-0.904179,0.935831,-0.143164,-0.650444,0.469986,-0.563745,-0.495059,-0.666326,-0.829192,-0.391640,0.130846,-0.982004,0.121711,0.204605,-0.853771,0.211052,0.728951,-0.713363,-0.914565,0.819333,-0.805938,-0.299075,-0.048253,0.338346,0.471794,0.386654,-0.763130,-0.891044,0.101322,-0.877332,0.122121,-0.255608,-0.998084,-0.664890,0.194449,-0.270213,-0.924331,0.473411,-0.002345,-0.105276,0.771907,-0.331801,0.421271,0.000649,0.083382,0.384347,-0.477881,0.600729,-0.622109,-0.471873,-0.731051,0.695412,-0.056194,-0.140094,0.433802,-0.748613,-0.115338,0.322239,0.458976,-0.128649,0.977637,0.742333,-0.055795,-0.970322,0.791363,-0.672086,-0.469470,-0.523976,0.152002,0.025467,-0.588278,-1.826952,-0.179385,-1.535465,0.036602,-1.021430,-1.103218,-1.148729,-0.071163,-0.699999,-1.121731,-0.661755,-1.093182,0.242780,-0.007946,0.068976,0.601510,0.673014,-0.540958,-0.313400,0.285457,0.012465,-0.815214,0.326995,-0.851207,-0.060186,-1.430533,0.326334,-0.709998,-0.239016,-0.670573,-1.431368,-2.032737,-2.966940,-1.747514,-3.023264,-2.310535,-2.297981,-0.613673,0.026199,0.042382,0.123989,-0.564714,0.678881,0.567619,0.266665,-0.663152,0.434065,0.160529,-0.278822,0.164287,-0.034584,-0.069312,0.177973,-0.228307,0.703291,0.132749,1.248713,-1.107893,0.076517,-0.023926,-0.218986,0.212360,-0.335638,-1.043935,-1.027060,-0.772355,0.429498,-0.385139,-1.498728,-0.675320,-0.856597,-0.610154,-0.729951,0.049277,0.957295,-0.413387,-0.735984,0.664295,0.514684,0.361835,1.064803,1.003739,1.391473,0.745965,1.714834,0.805050,-0.759552,-0.569130,-0.066340,-0.339823,0.983526,0.080183,0.553997,-0.072473,0.276725,-0.261205,0.652944,-0.378625,-0.511475,-0.496771,0.788067,0.971867,-0.772870,-0.056588,0.810219,0.085814,0.248821,0.475813,1.850115,-0.083470,0.866256,0.652750,0.818559,0.985909,0.844492,0.338423,0.222031,0.203452,0.871145,0.111312,0.152574,1.065075,-0.118321,1.040438,-0.838895,-1.166864,0.151601,0.152887,-0.529478,-0.524299,0.427796,0.167463,0.768184,1.454030,0.460063,1.286065,0.172260,1.191484,-0.199972,0.100402,1.254077,1.164072,0.705343,2.095907,0.821648,1.297127,0.415947,0.601912,-0.038867,-0.361097,0.840231,0.517578,-0.104853,-0.025643,0.870149,-0.751110,-0.813388,-0.708966,-0.689989,0.966875,1.724506,2.152792,1.943191,0.902744,-0.401723,0.742014,-0.115660,-0.411241,-0.295139,-0.008811,1.155742,1.165085,1.667701,3.406851,1.617273,1.305555,1.290089,0.591685,0.538536,0.066868,-0.814139,-0.890565,-0.977356,-0.617095,-0.392401,-0.464673,-0.545776,0.739916,0.810592,0.858883,-0.029335,0.537246,0.224761,0.198001,-0.872884,-0.093497,0.489151,1.148041,0.876175,1.822650,1.399410,2.654036,0.323016,1.320927,0.409105,1.732364,0.966126,1.068322,0.540886,-0.681068,-0.700309,-0.329436,-0.663665,0.833202,-0.869554,-0.035969,1.150382,0.637175,-0.369159,-0.582664,-0.097723,0.116531,-0.521647,-0.317661,-0.826112,-1.032019,-0.710017,-2.260187,0.687781,1.364506,0.898567,0.661877,-1.041976,-0.769887,0.128023,-0.598984,-0.066066,-0.430698,0.067186,-0.369134,-0.563143,0.482065,0.422238,-0.265043,1.247575,0.977575,0.035100,-0.414975,-1.365364,-1.814931,-1.023631,-0.744134,-2.193922,-2.669079,-3.730268,-2.736873,-1.805130,-0.181886,-0.753401,-1.884945,-0.567850,1.237730,0.528778,0.679383,0.425410,-0.139329,0.060389,-0.061414,0.232324,0.626986,-0.863702,-0.299067,0.950602,-0.312383,-0.974113,-0.458090,-1.659272,-0.619360,-1.322050,-1.473624,-2.791686,-2.390078,-3.319526,-1.997470,-1.115510,0.684073,0.687276,1.753025,1.918210,0.907963,2.197867,0.854740,0.126073,-0.265416,-0.231222,-0.351309,0.390138,0.298150,-0.432929,-0.773740,0.827356,0.418309,-0.937636,0.175573,-0.414026,-0.744764,-1.911288,-0.591271,-1.393196,-2.591584,-1.519056,-1.961240,-0.587333,-0.241353,0.964479,1.463938,1.984044,1.548323,0.731965,0.381892,-0.682106,-0.543801,-0.012267,-0.434519,-0.139616,0.104381,-0.450847,0.215916,0.081363,0.425178,-0.399484,0.122342,-0.984969,-0.724750,-0.806968,-1.939729,-1.580717,-0.734424,-0.835356,-0.685630,-0.291381,-0.159427,1.406362,0.185282,0.614697,1.335320,-0.112832,-0.104483,0.062478,-0.333876,-0.766383,0.450873,0.275466,-0.530538,-0.076771,-0.994804,0.067875,-0.253407,-0.390494,-0.734016,-0.303166,-1.270770,-0.611744,-2.398830,-1.870715,-0.627637,-0.351241,-0.461245,0.585560,-0.701405,0.503113,1.384080,1.264761,0.593722,0.303696,0.075484,-1.207730,-0.395840,-0.279371,0.897549,0.135106,0.925316,0.632764,0.419785,0.418766,-1.553449,-0.518645,-0.947563,-1.477192,-1.997939,-1.518447,-2.285223,-0.508628,1.035848,1.243478,0.949110,-0.976745,-0.800462,-0.634559,-0.561587,-0.686337,-0.435588,-1.604096,-1.133997,-0.337495,0.239236,-1.021454,-0.890337,0.880303,0.231393,-0.563828,0.692821,0.214868,-0.287354,-1.430796,-2.466144,-3.047072,-1.587951,-2.115534,0.027111,-0.069630,0.583358,-0.673451,0.669452,-0.259106,-1.202234,-0.506481,-1.719999,-1.701419,-2.131949,-1.198960,-0.871805,-0.253661,-0.097683,-1.136239,0.859831,0.815222,-0.335572,0.243739,-0.530025,0.322412,-0.418095,-1.017369,-2.428105,-3.041914,-1.738496,-1.141426,-0.565520,-0.038914,-0.887356,-0.530222,-0.300567,-0.763510,-1.954799,-1.852699,-0.585830,-3.274841,-2.632757,-1.501157,-0.758470,-0.392282,0.314057,0.732061,-0.631148,0.556718,0.580528,-0.361420,-0.530721,0.548138,0.438092,-1.151290,-0.723660,-0.962506,-0.794124,-1.117322,-0.792309,0.339732,-0.127124,-0.923702,-0.430140,-1.200637,-0.282141,-0.850185,-1.589602,-2.120737,-1.444959,-2.256140,-0.337911,-1.168493,-0.999309,-0.181289,-0.120013,-0.951371,-0.168031,0.177414,-0.430322,-0.852787,0.191947,-1.256507,-1.332908,0.576563,-0.554357,-1.045696,-0.395569,-0.438937,-0.561178,-0.766820,-0.638814,-0.681331,-0.332463,-1.321948,-0.977238,-0.793129,-1.840184,-1.428117,-1.646461,0.283734,-0.714453,-0.894528,0.570855,-0.339026,-0.686049,0.951066,0.008498,0.409676,-0.553595,0.787203,0.157737,0.850748,-1.073043,-0.681113,-0.850880,-0.311324,-1.101618,0.042175,-0.624077,0.893914,-0.936741,-0.993104,-1.635790,-1.663160,-1.196268,-1.114930,0.007529,-0.622347,-0.395012,0.493969,0.545915,0.595687,0.843596,0.128935,-0.100607,0.427262,1.123575,0.225593,0.976612,0.606259,1.016331,0.264902,0.271265,-0.106294,0.708406,0.112174,-0.207807,-0.159346,0.850930,-0.647187,0.036857,-0.440490,-0.392245,-0.438338,-0.060971,-0.919158,-0.748768,-0.493732,0.270754,0.576505,0.023738,0.131488,0.308623,-0.280834,-0.229724,1.235934,1.673119,1.323910,0.516326,0.907754,0.365083,1.168279,1.003387,0.672003,1.016365,-0.011299,0.598258,-0.288299,0.894406,-0.817006,0.062346,0.036336,0.628689,0.316122,0.649857,-0.070253,-0.133037,-0.025451,0.859997,-0.358112,0.719392,-0.350468,0.394424,0.248867,-0.865834,0.474610,-0.345649,0.994782,-0.178014,-0.260538,-0.202831,0.493155,0.250135,0.693309,0.105278,1.238510,0.727417,-0.809074,0.928602,-0.233877,0.045393,-0.868889,0.524122,0.215167,-0.508988,-0.281720,-0.951234,0.012350,-0.092182,-0.910184,0.642306,-0.910627,0.339130,0.641557,0.815902,-0.921782,0.414305,-0.678203,-0.136447,-0.072693,0.420135,-0.317212,-0.677876,-0.276857,-0.034136,0.640121,0.595678,-0.090855,0.272023,0.381005,0.152588,0.326034,0.119259,-0.957403
0.078303,-0.345961,0.292665,0.094345,0.416880,-0.690084,-0.349392,-0.364668,-0.474707,-0.067022,0.289213,-0.019365,0.195613,0.401058,0.183379,0.861562,0.793538,0.080254,-0.358095,-0.843081,-0.507339,-0.018217,-0.228238,0.084625,0.026991,-0.275190,-0.567505,0.034002,0.807940,-0.168508,-0.972911,-0.904662,-0.458691,-0.486887,-0.676550,-0.788253,-0.661703,0.614152,-0.956869,0.663846,0.137228,0.466979,0.583957,-0.381737,-0.173516,-0.332140,0.161093,-0.430783,-0.666558,0.796528,0.796724,-0.220272,-0.136314,0.787030,0.463297,-0.593758,0.884072,-0.487032,0.682796,0.377125,-0.731447,0.017786,0.231758,0.423196,-0.743049,0.638257,0.384632,-0.707820,-0.324295,0.245827,-0.290731,-0.813916,-0.756143,-0.140955,0.146766,-1.072708,0.640337,0.644416,-0.671143,0.244382,0.276387,-0.274119,0.584660,-0.989325,0.857167,0.263451,0.309262,0.474107,-0.224980,0.299811,-0.460715,-0.915786,-0.116499,-1.032798,0.211748,-0.190539,-1.409779,-0.583661,-1.091259,-1.844178,-2.506226,-2.354106,-2.013481,-1.923882,-1.185871,-0.570806,-0.593249,-0.578383,0.727793,-0.273557,-0.732604,-0.694941,0.402437,-0.626640,-0.228174,-0.102145,-0.634769,0.487179,-0.584327,-0.979342,-0.768375,-0.175230,-1.332965,-1.783599,-0.461429,-0.222246,-2.063424,-1.917218,-1.895937,-2.732843,-3.185773,-3.463259,-2.130249,-1.477702,-1.278192,-0.159859,-0.203100,0.356377,0.575376,0.446632,0.550653,-0.129534,0.035930,0.692499,0.838547,-0.287799,-1.644430,-0.670579,-1.695703,-1.098422,-0.959988,-1.643195,-0.413950,-0.231816,1.428235,1.422605,-0.229462,2.181813,-0.092050,-0.820656,-1.193038,-1.590651,-0.839408,-0.541683,-1.344477,0.631084,0.602773,0.203270,0.791981,-0.901544,-0.391596,-0.405032,-0.171910,-0.388159,-0.460460,-2.489824,-1.580722,-1.848914,-0.187688,-0.515426,0.617480,0.669045,-0.470308,1.170649,0.156934,0.826351,-0.161583,-0.700746,-0.353368,0.731464,-0.321520,-0.650305,-1.974239,-1.189608,-0.598164,0.278274,0.097188,0.859314,0.239099,-1.064441,-1.325916,-1.108202,0.079373,0.030650,-0.223800,0.910217,0.433547,-0.590746,0.192212,-0.243981,-1.823255,-1.365489,-0.173638,-2.185484,-0.504232,-0.662671,1.018421,0.802947,-0.090259,0.445759,0.262893,-0.836789,-0.532729,0.127832,0.713170,-0.180188,0.525072,-0.501269,0.512834,-1.153637,1.111649,0.360150,1.185556,0.858125,0.615333,0.863028,1.038928,-0.045401,-0.708781,-0.766960,-0.666432,-1.138009,0.011116,-0.617190,0.497050,0.842556,0.849315,1.335630,0.340729,-1.598465,-0.122739,0.601079,0.578825,-0.035963,-0.970404,-0.198953,-0.153441,0.511505,0.909412,1.515120,2.512519,1.858365,-0.159223,1.600632,1.159967,0.112458,-1.988125,-3.864163,-2.723801,-0.948585,0.310702,0.895994,1.070935,1.509763,0.498525,0.159437,-0.423591,0.047260,-0.850279,-0.489459,-0.210653,0.128487,0.028514,-0.044931,-0.023815,-0.675264,1.465836,1.503016,3.002624,0.974367,1.602758,0.831370,1.228446,-0.885493,-2.097032,-4.559976,-2.769651,-1.044655,0.074030,0.878341,0.285417,0.607441,2.604860,2.520770,1.552212,0.412377,-0.754365,-0.621005,0.300509,0.116482,0.239344,-1.190485,-0.077395,1.115912,1.185977,2.235880,1.583763,1.705572,1.876477,1.343582,1.769313,2.277354,-0.358419,-0.793003,-0.976952,0.159947,0.317888,0.962495,0.614158,0.161117,2.120359,1.959325,1.159236,1.388845,-0.324810,-0.395980,0.903261,-0.176282,0.084797,-0.047010,0.806402,-0.593862,-0.462661,0.517305,0.502053,0.082202,-0.398193,-0.369521,2.205781,1.929512,0.114708,-0.890754,-0.035436,0.054799,0.149559,0.905258,1.351790,1.595789,1.769816,1.718872,1.398174,1.015539,0.155644,0.564004,-0.290608,-0.595126,0.303798,0.405247,-0.930915,-1.418514,-1.194953,-1.644715,-2.301611,-1.798369,-2.437276,1.442385,3.304059,1.429384,-1.302290,0.979681,0.847842,0.173129,-0.752772,0.451026,0.365684,-0.333445,-0.928525,0.553824,0.118449,0.673771,0.953609,-0.229592,-0.458053,-0.931731,0.282944,-0.385075,0.415572,-1.530546,-2.622119,-3.576708,-3.865481,-3.785120,-2.228934,1.653174,2.269426,0.265537,0.625832,-0.197212,-0.849832,-1.492231,-1.947890,-0.443648,-1.527378,-1.725667,-1.799361,-2.255307,-1.379309,0.713446,-0.654668,0.597240,0.880020,0.758926,-0.463493,-0.846060,-0.843189,-2.329857,-3.416138,-4.290167,-3.526480,-1.810564,-0.601795,2.187360,1.253143,-0.076205,-0.315792,0.953286,0.303095,-2.287251,-2.181411,-2.826767,-2.525645,-3.294414,-1.498059,-2.583343,-0.811071,-0.569614,0.440832,0.121419,-0.443379,0.728843,0.710443,0.405969,0.169122,-1.186789,-3.019775,-2.572203,-0.654562,-0.278852,1.252553,0.893124,1.311339,0.223221,-0.374681,0.986704,-0.008920,-1.600485,-2.881836,-2.479647,-3.492511,-3.187740,-1.855625,-1.192867,-1.532365,0.177488,-0.467609,-0.729619,-0.460769,-0.350776,0.673358,0.504244,-0.502250,-1.173638,-3.000579,-0.467943,1.639813,1.489865,0.220276,0.893399,2.739838,-0.141998,-0.478191,-0.735016,-0.374346,-1.125968,-1.440124,-2.336844,-1.318569,-2.268264,-0.965869,-1.165513,-1.617337,-1.155563,0.068247,0.731011,0.145467,0.251483,-0.409287,-0.084093,-0.738314,-1.851756,-1.402127,-0.264441,1.752843,0.852261,1.652422,3.129472,3.292510,-0.764080,-3.224955,-1.029085,-2.160577,-1.900892,-1.731188,-0.792111,-1.858674,-1.686588,-1.203653,-1.529154,-0.857413,-0.617748,-0.872459,0.637134,0.181760,0.723120,0.870805,-0.985166,-0.543940,-1.702174,-1.740739,-0.523983,1.287290,2.679783,2.447198,1.555031,0.677180,-2.475364,-2.626822,-1.217908,-0.469476,-1.311092,-1.037257,-0.765645,-1.447187,-1.436374,-0.909055,-0.926191,-1.310093,-0.811388,0.433309,-0.333783,0.670220,0.847391,-0.300418,0.220876,-0.731968,-1.069718,-0.787879,0.832245,-0.424883,0.421946,0.130129,-2.120262,-0.881724,-1.615156,-2.280903,-1.725977,-1.971507,-1.159265,-1.196072,-1.726224,-0.892098,-0.676227,-0.113659,0.142987,-0.412485,-0.154657,0.743651,-0.222854,0.139882,-0.075173,-0.749098,-0.920295,-0.633335,-1.711521,0.457235,-0.416795,-0.025773,-0.290714,-1.455970,-0.408027,0.382143,0.297309,-0.396169,-1.019312,-1.996183,-1.607368,-0.761883,0.669026,-0.838229,1.098648,1.043717,0.393580,-0.860663,-0.215297,-0.851272,0.842004,0.649344,-0.729535,0.167686,-1.407615,-0.873860,-0.858054,0.820493,0.026067,-0.381246,-0.795852,-0.492206,0.932878,1.522405,3.038645,1.085917,0.241831,-0.043339,1.408769,1.726962,0.091912,1.196058,0.772860,0.100952,-1.061706,-0.081983,0.846289,-0.820061,-0.865067,-0.986994,-0.041641,-0.823739,-0.241441,-0.049025,-0.800296,-0.034142,-2.336637,-2.069467,-1.243692,-0.340330,1.565174,1.375887,2.672881,2.884893,2.325059,1.984130,1.443274,3.088939,1.789651,0.553379,-0.095382,0.280513,0.823052,0.843660,0.860523,0.048253,0.581197,0.528770,-0.731466,-0.243466,0.744920,-0.646634,-0.581392,-0.437934,-0.704648,-0.773134,-0.698102,0.362791,-0.258994,-1.375576,-0.219867,0.364029,0.896344,2.507915,0.159696,0.488956,1.665212,0.661253,1.324079,0.629215,0.393949,-0.756636,-0.163112,-0.010837,-0.272136,-0.180251,0.524211,-0.360331,0.029947,-1.069199,-0.887520,-1.298887,-1.036302,-1.121830,-2.712059,-3.084220,-3.108012,-3.137768,-1.934032,-1.008871,0.112963,-0.508341,-1.135792,-0.057508,-0.504411,-0.552109,-0.915831,-0.828390,0.600181,0.898635,0.652029,-0.148497,0.645922,-0.094336,0.313927,0.230008,0.072116,-0.924022,0.375487,-1.144081,-1.009363,-0.717049,-1.235375,-0.010495,-1.930195,-0.201327,-1.289920,-1.734496,-1.612703,0.106149,-0.664799,-1.084421,0.717178,-0.612884,0.571537,0.933850,0.048281,0.725018,0.946504,-0.469126,-0.805972,0.575352,0.328443,-0.723789,0.255424,-0.142598,0.982835,0.742507,0.362153,-0.253436,-0.020838,-0.225611,-0.207901,0.575711,-0.743611,0.217663,0.627837,0.305966,0.681561,-0.918309,-0.407324,-0.308707,-0.216305,-0.178636,-0.711711,-0.330170,0.704900,0.201123,-0.804412
0.107251,-0.450546,-0.526434,-0.107166,-0.031223,0.868071,0.202504,-0.550312,0.803241,0.939305,-0.973969,-0.502106,-0.925762,0.579151,0.782855,-0.384751,0.945337,0.018734,-0.740035,-0.982444,0.420443,-0.558579,0.946999,-0.020841,0.838848,-0.364069,0.880302,-0.427041,-0.989600,-0.255724,0.316716,0.381226,-0.864118,-0.602196,-0.828442,0.193809,0.506158,0.698087,-0.280031,0.039681,-0.748835,-0.060208,-0.050075,-0.779929,-0.445126,0.841800,0.891371,0.397973,-0.421800,0.916534,-0.363833,0.327491,0.109671,-0.251114,0.248232,-0.895789,0.522325,-0.587004,0.087231,0.084433,0.861618,0.547126,-0.989184,-0.341696,-0.896592,-0.138252,-0.420270,-0.903241,0.843837,0.350174,-0.362096,-1.259161,0.302820,-1.165186,-0.972192,-0.576501,0.098351,-0.336671,0.393507,-0.297288,-0.046536,-0.115899,0.359692,0.919647,0.440402,-0.768755,-0.660511,-0.290965,-0.788089,0.141376,0.272208,0.042182,0.460226,0.235419,0.759250,-1.114825,0.546459,0.246849,0.058723,-0.724346,-1.285967,-1.359897,-0.901866,-0.275810,-1.159082,-0.744209,0.444290,-0.574471,0.728414,-0.199278,0.192590,0.209535,0.047147,0.143973,-0.170883,0.198610,-0.572961,-0.296765,-0.204922,0.628658,0.173942,-0.728413,0.282951,-1.229263,-1.032775,-1.843774,-2.244247,-2.166122,-3.457087,-2.579354,-2.260397,-1.261327,-0.145281,-1.034663,-0.476154,0.509584,0.378838,-0.374127,-0.087204,0.329707,0.586644,-0.869782,0.564291,-0.466357,-0.751868,-0.553808,-0.010854,-1.609250,-0.227065,-1.710143,-2.486008,-1.448337,-1.584702,-0.242450,-0.334894,-0.567238,-1.599423,-2.836448,-1.947729,-2.550400,-2.265327,-2.636356,-0.980564,-1.757028,-0.747522,-0.447095,-0.899741,0.220227,0.481705,-0.490043,-0.381686,-0.776258,-1.209558,-1.508067,-1.840322,-2.491030,-1.505250,-1.171474,-1.532707,0.211674,1.605643,2.741666,2.300049,3.108304,1.846197,0.990783,1.886403,-0.966212,-0.799224,-0.856127,-2.158978,-1.945766,-2.447327,-0.831300,0.216270,-0.167885,-0.811590,-0.123046,-0.036822,-0.277382,-0.377971,-0.426575,-2.205550,-1.674376,-1.858344,-2.425594,-0.641552,1.039619,2.531431,3.375270,2.890844,2.589490,2.959095,0.923495,0.975236,0.406823,-0.881856,-1.905326,-1.760440,-2.426425,-0.822766,-1.487883,0.765263,-0.952134,0.690980,-0.650844,-0.007751,-0.424056,-0.438700,-1.928683,-1.107106,-1.958675,-2.180592,-1.382087,-0.259578,-1.219703,-0.540246,0.748016,1.842132,2.143691,1.092901,-0.161390,-0.812712,0.580192,-0.767803,0.410222,-0.921802,-1.712300,-1.704591,-0.236335,-0.604192,-0.445648,0.681577,0.507677,-0.657949,-0.718400,-0.956311,-0.571587,-0.639212,-0.668130,-0.556759,-1.643173,-0.410100,-0.083975,-1.450911,0.578683,1.024669,1.691676,-0.792929,-1.129099,-0.570767,-0.863379,0.456193,-1.143056,0.252211,-1.877689,-0.321217,0.479913,-0.357018,-0.992371,-0.295220,-0.991696,0.124028,-1.541735,-1.486021,0.509664,-0.089200,0.059275,1.216499,0.308265,-0.314394,0.516752,-0.837451,0.219878,-0.769502,-1.248405,-1.718342,-0.699940,-0.723663,-0.661585,0.089905,-1.511639,-0.293803,-0.971085,-0.385032,0.600432,0.609564,-0.203616,-0.311077,-0.007004,-1.173461,-1.206307,-0.615444,0.992606,1.289932,0.678635,1.658347,1.274080,1.187400,0.320899,0.739143,-0.608525,-0.837756,0.101290,-0.146731,0.692235,-0.028661,0.303925,1.238752,0.684079,0.671872,-0.174251,-0.787863,-0.894819,-0.584361,0.796482,-0.217432,-0.507865,-0.188153,0.153347,0.900534,2.310941,1.838328,1.453457,2.329893,2.571893,1.418704,1.177066,0.831632,-1.125847,0.493685,0.081120,1.485933,0.268975,0.074782,1.460511,2.713408,2.087227,1.191964,-0.211952,-1.364156,0.415661,0.320137,-0.675075,0.648249,0.754183,-0.511034,0.942557,2.165186,2.270358,2.331319,1.899867,1.175360,1.329413,0.608397,-0.311266,0.371216,-0.033522,0.164010,1.309862,1.464510,-0.378249,1.985127,1.914218,1.248769,2.071392,0.796402,-0.220946,-0.239959,-0.679769,-0.935922,0.982814,0.794288,0.354629,0.645231,1.334024,0.874730,1.781147,0.881814,0.429836,0.784273,1.105344,0.724245,0.176110,0.168833,0.029995,0.511835,1.440844,1.561648,1.677905,0.613047,0.242309,0.863277,0.031348,-0.048615,-2.213141,-0.714956,0.093159,0.744126,0.556219,0.677127,-0.277623,-0.968960,0.977287,1.642599,1.074165,-0.558255,-0.548803,-0.138940,0.230295,0.719525,1.740205,1.502143,0.401946,-0.786663,0.554620,1.437966,0.513373,-1.298334,-0.070789,-1.227006,-1.547582,-1.334950,-1.172676,-0.917641,0.026237,-0.109195,-0.656312,0.801920,-0.605969,0.882793,-0.218572,-0.228042,-0.401215,-0.933783,-0.540083,0.799826,0.306699,0.225842,1.286456,0.246184,-0.847112,-1.185366,0.023315,0.149951,-0.319434,-0.451324,-2.130490,-0.516184,-2.294199,-1.056994,-1.736551,-1.453177,-0.275210,-0.034838,-0.873707,-0.432602,-0.390792,-0.723758,0.804835,0.502914,0.071114,0.043911,0.702309,0.276426,1.676022,1.105408,1.367267,-0.522305,-0.631454,-1.849096,-0.676899,-0.502035,-0.399478,0.205767,-0.723106,-0.720584,-1.381729,-2.203543,-1.759938,-1.218489,0.142010,-0.680540,0.563594,0.893345,-0.139825,-0.638777,-0.006905,-0.382191,-1.632890,-0.967034,-0.833423,0.518100,0.008192,0.102161,0.090568,-0.776252,-0.986419,-0.751544,0.667056,0.001563,0.190774,-0.734283,-1.230744,-1.330207,-2.124677,-0.898458,-0.720753,-1.350044,0.004757,0.940548,-0.507494,-0.399045,0.714354,0.623350,0.328973,-1.589780,-2.126750,-2.800009,-1.050990,-2.096204,-1.245141,-1.501981,-0.910909,-1.496170,-0.674984,-0.209215,-1.827557,-1.087281,-0.452114,-1.292318,-0.348763,-1.164479,-2.157181,-0.928830,-1.094170,-1.272358,0.765975,0.609938,-0.943806,-0.536462,-0.952877,0.616318,0.089045,-0.728434,-1.645115,-1.404971,-2.308368,-3.571355,-2.785537,-2.978572,-2.462798,-3.091030,-2.547266,-1.434520,-1.241229,-0.183998,-1.028921,-1.511191,-0.357327,-0.909527,-1.187468,-0.420512,-0.671598,-0.544188,0.266010,-0.136127,-0.586343,-0.084904,0.389569,-0.349395,-1.106837,-0.286616,-0.814608,-2.937965,-2.124254,-2.184914,-2.676613,-1.886761,-2.294650,-1.549237,-1.323761,-2.050792,-0.652996,-2.028465,-2.213014,-0.431533,-0.913974,0.008219,-0.658372,-0.725532,0.705510,-0.374759,-0.457429,-0.807586,-0.923434,-0.346995,0.066630,-0.353814,-0.198240,-0.649346,-0.925993,-1.745939,-2.352623,-1.288885,-0.267902,-0.449554,-1.687247,-0.693190,-1.719496,-1.731237,-1.137379,-2.400254,-0.389340,-1.755310,-1.690838,0.981563,-0.288941,-0.508604,0.268578,-0.401682,0.558853,0.503788,-0.286050,-0.604577,-0.103816,0.059289,-0.915564,0.023740,-1.300169,-0.658266,-0.946988,-0.299051,-1.820695,-0.408012,-1.612002,-1.499012,-2.145834,-1.037479,-1.669985,-2.095484,-1.438822,0.525753,-0.757421,0.405790,1.318903,-0.202494,-0.424506,-0.544772,0.292232,0.993701,-0.032902,0.295690,0.879252,-0.239765,-1.005231,0.815016,-1.049099,0.230571,0.658633,-0.098405,-0.317356,0.306076,-0.843695,-0.325150,-1.403092,-1.616874,-0.281978,0.281812,1.636696,1.599204,1.552598,2.667827,1.374053,1.744751,0.534219,0.756403,0.095426,0.998593,0.925702,-0.666734,-0.500546,-0.280086,0.898476,0.356542,1.066486,-0.174401,-0.479297,0.687605,-0.156201,-0.004465,0.237934,1.072615,0.379614,2.013844,0.282718,-0.434438,1.434645,2.748104,2.689484,1.777657,1.764155,1.108982,0.243265,0.021264,-0.040344,-0.738541,-0.256515,0.607200,0.621631,0.654940,0.970932,-0.068210,-0.453146,-0.019028,0.300942,-0.776599,-0.619559,-1.139101,-0.021694,-0.279744,-0.351534,0.077849,1.227996,-0.971394,-0.684193,0.604933,-0.446232,0.682563,0.204932,0.162601,0.699173,0.410536,0.272980,0.024713,-0.502877,0.731890,-0.998239,-0.473226,0.855300,-0.635060,0.309428,-0.701035,0.118594,-0.850417,-0.871914,-0.856651,-1.043253,-0.348266,-0.492185,-1.106776,-0.457389,-0.026105,-0.637652,-1.232490,-0.361731,-0.390187,0.340520,-0.414344,0.964697,-0.119503,0.992303,-0.956269,-0.280399
