-0.290236,-0.758955,-0.776402,0.128559,0.080624,0.745742,-0.818002,0.588398,-0.437406,0.958705,-0.526335,0.712278,-0.494602,-0.939381,0.617739,0.887927,-0.103643,-0.150260,-0.451477,-0.580819,-0.344489,-0.997609,-0.604385,0.561080,-0.733911,-0.705059,-0.812265,0.689849,0.491180,-0.222084,-0.841537,-0.543330,0.949263,-0.717353,0.224614,0.405838,-0.813029,0.168585,-0.501683,0.905730,0.926427,-0.127044,0.712857,0.140774,0.740192,-0.773308,0.626213,0.722797,-0.996710,-0.349935,0.155562,-0.394825,-0.980063,-0.040841,-0.530304,-0.259380,0.140236,0.535121,-0.428845,-0.065847,-0.655641,0.473630,-0.595330,0.589592,-0.574079,-0.905653,-0.534373,-0.002428,-0.434512,0.205768,-0.234384,-1.214024,0.534629,-1.272139,0.643946,0.154847,0.269548,0.255986,-0.037139,0.845034,-0.268113,0.184798,-0.863950,-0.161593,-0.729902,-0.252885,0.718053,0.221089,0.698858,0.857315,0.399544,0.582784,0.517496,-0.966874,0.284406,-0.624588,0.479689,-0.951897,-1.315332,-0.821272,-1.049633,-1.557106,-1.856442,-0.693173,-0.976552,0.299145,0.287661,-0.058949,-0.940623,0.886096,-0.504563,0.407971,-0.980259,0.538207,0.885490,0.910900,-0.428100,0.295697,0.569724,0.741695,-0.805315,0.584563,-0.252340,-1.735398,0.025378,-0.419011,0.016831,-0.645413,-0.660841,-0.673539,-1.276465,0.255040,-0.671467,-0.974442,0.361314,0.098101,-0.881279,-0.882190,-0.753351,0.007408,-0.197762,-0.273565,0.607996,-0.594693,0.888496,-0.962467,0.260320,-0.520704,-0.034012,-0.992383,-1.495930,-0.297013,-0.988800,1.168453,0.048066,0.354081,0.206134,0.421913,0.258615,0.706054,-0.937315,1.099166,-0.337906,0.075705,-0.905752,-0.886952,0.058244,0.989751,0.811238,0.058161,0.310328,-0.384794,-0.248283,0.593668,-0.118457,-0.024473,-0.580002,-0.376857,-0.065698,-0.654861,0.144126,0.903061,0.678001,-0.306107,-0.401713,0.649271,0.030234,0.448595,-0.376773,0.073691,-0.619940,0.214269,-0.405559,-1.005111,-0.008474,0.751341,-0.890860,0.169762,0.437898,0.521324,-1.069206,0.554001,0.017468,-1.367346,-1.198355,-0.054588,-0.803487,0.600801,0.762030,-0.503069,-0.631798,-0.281583,0.825089,0.688767,0.880504,0.261729,1.056489,-0.193961,0.208181,0.407050,-0.334868,-0.819885,0.519698,0.030175,-0.120595,0.725843,-0.543268,0.716853,-0.838238,-0.427235,-0.056842,-1.093134,-0.405231,-0.780072,-0.012139,-0.795431,-0.563464,-0.532309,0.299834,-0.237458,0.409858,0.647173,0.243795,-0.086479,-0.835503,0.660970,-0.716037,0.065649,-1.080416,-0.787929,-0.746190,-0.002053,-0.410657,-0.043523,0.281319,0.138124,-1.105019,-0.682391,-0.087374,-0.214605,0.106512,-0.616982,-0.442603,-0.818952,-0.393596,0.505507,-0.505955,-0.188769,1.640044,0.951291,1.301032,-0.306715,0.461379,-0.524216,-0.154253,-0.572147,-0.574134,-0.417819,-0.602237,-0.590475,-0.256122,-0.846490,-0.963118,-0.478890,-1.130131,-0.347850,-0.510905,-0.888438,-0.090084,0.561878,0.250406,-0.003357,0.251327,-0.886446,0.185427,-0.620497,-0.680023,2.107389,1.422365,0.986976,-0.787894,0.347690,0.173466,1.378232,1.189241,-0.765956,-0.564713,-0.675635,-0.402764,0.379542,0.609013,-0.732862,0.411059,-1.402692,0.184037,-0.376174,-0.265368,-0.273969,-0.875338,0.275359,-0.289271,-0.187461,-0.239409,-1.591992,-0.462212,-0.177881,0.243133,1.316340,-0.396565,0.341988,0.439855,0.822062,0.677644,0.192399,0.446694,-0.639946,-0.285086,-0.196218,-0.179822,-1.047687,-0.981377,-0.081648,0.520345,1.198098,-1.031689,-0.094098,0.283714,-0.306392,-1.129270,-0.539752,-2.650296,-1.991989,-1.119811,-0.996959,0.338022,0.328458,0.627722,1.295398,0.226343,2.258790,0.809586,0.511756,0.800212,0.107618,-0.415922,-0.284012,-0.155779,-0.994623,0.433229,0.813354,0.083233,-0.316857,0.210712,0.064538,0.422500,-0.415134,0.637146,-1.203501,-1.887406,-2.940018,-1.468375,0.004553,-1.097786,-1.628026,0.508308,1.622834,1.142067,1.908877,-0.336377,0.975592,-0.528200,-0.327936,-0.704515,0.913270,-0.151330,-0.909691,-1.167426,0.681373,0.255341,1.037115,0.417963,0.588831,0.614634,0.594882,0.580863,-2.303413,-3.325842,-2.455434,-1.249366,-0.598309,-0.570200,0.095291,-0.628297,-0.026162,1.184840,0.950764,0.043710,-0.105847,0.793054,0.140052,-0.793300,-0.320904,0.635459,0.791321,-0.764053,0.858133,1.048743,0.424775,-0.238380,1.094157,1.794214,-0.191684,-0.686125,-2.731977,-2.836550,-1.249909,-1.387547,-0.207573,-0.881297,0.195201,-0.366360,1.242166,0.153434,0.149292,-0.419164,-0.193460,0.314806,0.560570,0.039552,-0.068014,0.986117,-0.889436,-0.533437,1.331194,0.490383,1.426932,1.169764,0.653079,0.335664,0.088930,-1.415786,-3.438380,-2.032980,-1.952942,-0.609177,-0.557204,-0.200679,0.760189,0.259176,-0.466161,-0.855941,0.585661,-0.707285,0.727273,0.970274,0.291519,0.708025,0.731607,-0.734233,-0.841228,-0.325952,0.132759,0.219525,1.042479,0.726339,0.361218,2.683113,0.299633,-1.371992,-3.184476,-2.737514,-0.473973,-0.821528,0.121810,-0.985610,-1.031188,-0.770217,0.267498,-0.584487,0.636716,0.057765,0.190197,0.082247,0.419130,-0.920523,0.275708,-0.920486,-0.147108,-0.539280,-0.015395,0.191510,0.533362,0.376653,0.660206,1.649045,0.408672,-1.057178,-2.900232,-1.706883,-0.519987,-0.754138,-0.173594,0.038863,-0.723769,-0.428535,-1.163064,-0.448801,0.133663,0.743616,-0.046429,0.782439,0.384447,0.373803,0.191777,-0.191659,0.201627,0.052587,1.094745,0.355154,0.887310,0.347419,1.637688,2.070921,1.174795,-0.251344,-1.057691,-1.227016,-0.877826,-0.684742,-0.699472,-0.509316,-0.494146,-0.643886,-0.391100,-1.388932,-1.175209,-0.809009,-0.376450,-1.006349,-0.620465,0.435330,-0.498412,-0.836314,-0.961986,0.524632,-0.137573,-0.204188,0.804085,-0.753765,0.387247,1.798953,1.535991,0.520772,-1.276740,-1.153553,-0.774973,-0.341472,-2.106284,-0.551757,-0.537926,0.355905,-0.831967,-1.538412,0.128783,0.150218,-0.400180,-0.157965,-0.777883,0.942351,0.578005,-0.835512,0.395899,0.211154,0.041263,0.455631,-0.753210,0.567130,0.976382,0.085433,1.932499,-0.164405,0.140041,-0.714386,-1.228737,-0.435918,-0.263208,-0.895573,-1.464835,-1.045812,-0.074191,0.305132,0.534283,-0.964043,-0.715464,0.089886,-0.733928,0.154467,0.692457,-0.237115,-0.157418,-0.458337,-0.143363,0.602372,-0.478555,0.504369,0.607327,0.478067,0.873219,1.755925,0.451081,1.456843,-0.166287,-0.669844,-1.029606,-0.431476,0.140380,0.282688,-1.282495,0.383069,-0.954736,0.419144,0.574883,-0.901062,-0.478098,-0.766876,0.304706,0.076389,0.594404,-0.756462,-1.176788,-0.527335,0.590772,-1.090120,0.726598,0.977023,0.279353,0.724900,0.782659,0.368879,0.325994,0.358403,0.030420,-0.563971,-0.875864,-0.835396,-0.967967,-0.403623,-0.884326,0.079243,-0.508330,-0.087046,0.795441,-0.973707,-0.878219,-0.262243,0.962685,-0.626161,0.005790,0.495353,0.165278,-0.416440,-0.638521,-0.475779,-1.336468,-0.875032,0.258498,-0.616460,0.091031,-1.271740,-0.427064,-1.376652,-0.349502,-0.827841,0.451817,-0.697086,-0.522489,0.253795,0.939258,-0.303029,-0.893564,0.842324,0.243960,0.898442,0.424687,-0.480026,-0.983560,0.455806,-0.169857,-0.039911,-0.009602,-0.616324,-0.298815,-1.173446,-0.804885,-1.811977,-0.505319,-0.103065,0.311635,-0.233271,0.072499,0.220964,-0.219575,0.312689,-0.168547,0.455598,0.408058,0.540049,-0.219739,-0.738023,-0.060761,0.866184,-0.206297,0.506333,0.429431,-0.402648,0.399033,0.299534,-0.135970,-1.417916,0.375162,-1.242619,0.067651,-0.027629,-0.823430,0.182713,-0.502691,0.120202,0.688585,0.044106,-0.889546,-0.511169,0.024244,-0.590773,0.627830,0.403479,-0.166350,-0.244441,0.029199,0.064807,0.322020,-0.958146,-0.107259,0.964798,-1.016253,-0.615160,0.073524,-0.303936,0.424273,0.312063,0.525719,-0.840674,-0.251439,0.723625,-0.587474,-0.492361,-0.212952,0.634417,-0.845109,-0.174386,0.432667,0.502676,0.796257,0.939507,-0.707868
-0.317465,0.023370,-0.727939,0.338462,-0.795770,0.947164,0.968072,0.272424,-0.792471,-0.337476,0.344305,-0.482111,0.845637,0.824316,0.956264,-0.874020,-0.840159,0.036479,-0.262674,0.887649,0.374834,0.935436,-0.574867,-0.668257,-0.703190,0.475287,-0.355765,0.564628,-0.207266,0.820788,-0.724106,-0.275570,-0.661055,0.860843,-0.676558,0.275342,0.677053,-0.633245,-0.426392,-0.992338,-0.354086,-1.004484,-0.717877,0.070332,-0.478704,0.703882,-0.050860,0.632617,-0.610855,-0.641619,-0.249086,-0.559729,0.321908,-0.198559,-0.344033,0.453808,-0.535561,0.660623,-0.556627,-0.410641,0.668709,-0.687585,-0.842556,0.227550,-0.342989,0.321145,-0.454869,-0.254566,0.055028,0.392204,-0.718095,1.132368,-0.676507,-0.252646,0.022447,-0.448699,-0.173545,-0.616624,-0.156171,-0.382892,0.228441,-0.640079,-0.785268,0.397496,-0.674185,0.818681,0.111805,-0.734564,0.495826,0.401901,0.540936,-0.303823,0.578046,-0.684815,-0.649118,0.272074,-0.246257,-0.502963,0.404747,0.681451,0.894530,-0.889958,0.809364,-0.092408,-0.200025,-0.621162,-0.556464,0.408317,-0.579605,0.645335,0.336439,0.287591,-0.279629,-0.739967,-0.963750,-0.716127,0.059860,-0.490322,0.744783,0.448291,0.252310,0.254284,-0.628675,-0.857836,-1.020842,0.316349,-0.123299,0.782551,-1.037743,-0.586733,-0.191598,-0.315677,-0.513673,1.013913,0.313077,0.303167,-0.985906,0.099823,0.883637,0.769327,0.042708,0.077983,-0.877723,0.398933,-0.756641,-0.551814,-0.401137,-0.993061,-1.701130,-1.469429,-0.170138,-0.589134,-1.131160,-0.699116,-0.166127,0.502044,-0.903400,0.031348,-0.300904,-0.869690,1.043383,-0.205047,1.419218,0.330304,-0.193734,-0.905485,0.342284,0.759065,0.175876,0.850899,-0.878637,-0.320414,-0.927900,0.560345,-0.357221,-0.658448,-0.419043,-1.815241,-0.296636,0.499912,0.078094,-0.253037,0.174806,-0.396507,-0.551351,-0.883403,-0.835896,0.166043,-0.423150,-0.325081,0.570733,1.013270,0.750531,-1.228372,-0.004908,-0.813847,-0.599072,-0.310996,0.396360,-0.483946,0.733000,0.137369,-0.401935,-1.100725,-1.401495,-2.045936,-1.374724,-0.550448,-0.710225,-0.981855,-0.925707,-0.178937,-1.097689,-1.615046,-1.157425,0.020150,-0.768992,0.337706,-0.095443,0.310495,-0.062114,-1.069403,0.478440,0.859413,0.435419,0.797335,-0.806633,-0.865973,-0.348073,-0.983888,-0.147713,-0.991314,-0.613264,-1.130402,-0.552246,-0.623023,-0.110581,-0.574326,0.416751,-0.629578,-0.556289,-0.617846,-0.995607,0.230037,0.031411,-0.333927,0.074400,-1.229419,-0.491199,-0.289029,0.874852,-0.703231,-0.561820,-0.926705,0.922920,0.191237,-0.780199,0.123443,-1.314326,-1.131656,-0.834676,-0.268410,-1.473049,-1.102945,0.260846,0.158206,1.052611,1.056173,0.285792,-0.714291,-0.614802,-0.668506,-1.374131,-0.547275,-0.247027,-0.575688,-0.412479,0.090408,0.025674,0.263001,-0.056130,0.472004,0.389955,0.733420,0.789418,0.012541,-0.356039,-0.643294,-0.967323,-0.940402,-0.209748,-0.006114,-1.080901,-0.178214,1.912340,0.943150,1.291399,-0.767091,0.505743,-1.324048,-0.996053,-0.229392,-0.841932,-0.848902,-0.688057,-0.509491,-0.094089,0.880562,-0.292010,0.303429,-0.125239,-0.648406,-0.096724,-1.060672,0.006081,-1.205248,-0.033984,0.430073,-1.595801,0.245611,0.562209,0.731676,1.301032,1.533361,0.499273,0.248752,0.032316,0.700544,-1.120900,-0.422670,-0.410262,-0.899441,-0.493814,-0.547472,0.930688,0.160221,-0.044792,-0.029068,0.882139,0.112259,0.224142,0.732339,0.364606,0.767313,-0.904839,-1.034203,-0.586748,-1.056162,-0.413863,1.305671,3.050027,2.018721,0.660895,0.119585,-0.772564,-0.164314,-0.176519,-0.937856,-0.218287,0.521297,0.568425,0.568263,0.671696,-0.634078,0.081205,-0.652212,-0.888269,-0.248011,0.031683,0.842917,0.001499,0.215164,-0.253840,-1.400701,-1.578272,-0.616536,-0.386266,0.125170,1.731788,1.795340,-0.312312,-0.204147,-0.274262,-1.300517,-0.197458,0.446685,0.555468,-1.179732,-0.025007,0.565794,0.429683,-0.863437,-0.375926,-0.090335,-0.256598,0.866643,0.840580,-0.473718,-0.863193,-0.447935,-0.209664,-1.639873,-2.260622,-0.609943,-0.486395,0.218203,1.193000,1.266606,0.518749,0.169990,-1.524921,-0.194640,-0.600615,-0.068692,0.434128,-0.350723,-0.546211,-0.703220,0.176672,-0.649420,-0.862806,0.977916,0.745524,0.861787,-0.632734,-0.338078,-0.208668,-0.438326,0.158504,-1.095316,-0.850649,-0.632831,0.881744,0.799791,1.231757,0.702461,0.248224,-1.387453,-1.604034,-0.970604,-0.474415,0.005988,0.594980,-0.841175,0.406917,0.484914,-0.849576,-0.141252,-0.358466,-0.257535,0.266318,-0.557290,0.498784,-0.373007,-0.469781,-0.571649,-1.235152,0.172487,-0.521699,-0.632441,-0.636184,1.148934,1.165632,0.059426,-0.302526,-1.293299,-0.946452,-1.229814,-1.080356,-0.596734,0.410786,-0.529288,-0.370992,-0.797178,0.836467,0.605778,-0.625603,-0.264437,0.780068,0.747860,0.105755,-0.429799,-0.750001,-0.473696,-0.595365,-0.934429,0.453022,0.028517,0.798246,0.448855,0.536553,-0.023063,-0.483972,-1.475774,-0.761375,-0.722048,-0.355699,-0.394918,-1.094267,-0.129727,0.393306,-0.551768,0.789764,0.161532,-0.035707,0.924688,0.562430,-0.723901,-0.054710,-1.032533,-0.975894,-0.878694,-0.276808,0.402452,0.071309,0.324515,1.322546,0.587887,1.428982,-0.313352,-1.031726,-0.748765,-1.165654,-0.467121,-0.605708,-0.233356,-0.959824,-0.126813,-1.054202,0.513078,0.304628,-0.019957,0.821750,-0.975349,-0.111470,-0.279664,-0.533600,-1.167713,-0.433744,0.106498,-0.639996,0.028542,-1.020576,0.258649,-0.313380,0.260932,0.434944,-0.296373,-0.002547,0.462884,-0.252235,-0.558500,-1.027476,-1.231703,-0.707901,0.305630,-0.617229,0.802336,-0.000231,-0.765320,-0.568127,0.688519,0.818543,-0.079475,-0.262359,0.392628,-1.044559,0.531422,-0.403686,-0.388016,-0.124633,-0.537447,0.813805,-0.582878,0.757141,0.505348,-0.891578,0.469015,0.485537,-0.503231,-1.681137,-0.062303,-0.270198,-0.921672,-0.633366,-0.773152,-0.133908,-0.474171,0.049509,-0.885294,0.014814,0.584826,-0.677105,0.626684,0.100567,-0.245168,0.489849,-0.273128,-0.793376,-1.123917,0.366256,-0.372403,-0.592897,0.659070,0.746038,0.301163,0.885829,-1.219941,-0.714008,0.228815,-0.086978,-1.005976,-0.132820,-0.780152,0.400232,0.169167,-0.638216,0.483617,-0.621729,-0.687149,0.205805,0.409236,0.798644,-0.049048,-0.157993,-0.626918,0.474927,-0.585655,-1.758221,-0.326860,-1.195282,0.809226,1.017175,0.903999,1.096131,0.281103,-0.396428,0.152574,-0.745245,0.356768,0.509978,0.769180,0.161511,0.465726,0.301284,-0.527182,-0.055188,-0.382334,-0.005120,0.894856,0.743812,0.296470,-0.608575,-0.145490,-0.486679,-1.003857,-0.302882,-0.344037,-0.252976,-0.096498,-0.434520,0.814207,0.933923,0.216548,-1.241988,-0.095599,-0.136389,-0.653343,0.669662,0.580156,-0.472731,0.722489,0.520855,0.948177,0.193178,-0.275119,-0.782614,0.200013,-0.334719,0.966834,0.049560,-0.969334,-1.364538,-1.045236,-1.593639,-0.597970,-1.322630,-1.272684,-0.169337,-0.763380,0.419397,-0.086299,0.673096,-0.338413,-0.517230,-0.495095,-0.777653,-0.150675,0.738312,0.599430,0.949047,-0.047559,0.545586,-0.239167,0.793226,-0.389346,-0.912954,0.231290,-1.066623,-0.852431,-0.755898,-0.341013,-0.852930,-1.561617,-0.129007,-1.382272,-0.938000,-0.384648,-0.156650,0.547768,0.381039,0.383399,0.935609,0.184270,-0.781895,0.744183,0.736406,-0.548492,0.180733,0.019165,0.826765,0.717957,0.557777,0.731868,-0.479790,-0.576844,-0.933755,-0.584588,0.445260,0.363797,0.427645,0.093677,-0.304743,0.040795,-0.095984,0.605582,-0.124048,-0.968870,-0.256192,-0.044784,-0.623330,0.955706,0.571471,-0.718656,0.812016,-0.804040,0.343820,0.257007,0.660530,0.451574,-0.480070,-0.322334,-0.318157,-0.016124,-0.248791,0.205393,0.198025,0.585311,-0.107743,0.079778,0.873806,-0.611559,-0.322179,0.507560,0.875872,0.303445,0.280744,-0.565387,0.239580,0.645317,-0.700880,-0.907569,0.919630,0.439307
0.332108,-0.949017,-0.508063,-0.139061,0.092051,-0.935909,0.193420,-0.737226,0.309986,0.939386,0.805872,0.963336,0.117342,-0.941822,0.992959,-0.082380,-0.074782,-0.948940,0.810308,-0.277345,-0.541170,-0.009093,-0.623079,-0.467066,0.601061,0.258536,0.665122,0.142142,-0.623333,-0.305060,-0.346116,0.093930,-0.970048,0.819131,-0.204691,0.711038,0.186780,-0.407486,-0.186464,-0.468911,0.859207,0.013242,0.571536,0.325624,0.169509,0.310363,0.154709,0.292973,-0.278125,-0.585214,-0.161131,0.451686,-0.426359,0.131714,-0.234501,0.126237,-0.013130,0.241183,0.181780,-0.717712,-0.557044,-0.173773,-0.177329,-0.868330,-0.105863,-0.270035,0.435764,-0.098030,-1.055018,0.009831,-0.812433,-0.251154,-0.817607,-1.738828,-0.577971,-0.582901,-1.074341,-0.430625,-0.919925,0.230744,-0.580547,-0.991973,0.623067,0.382970,0.460581,-0.908075,0.662540,0.198837,0.177456,-0.401158,0.952217,-0.096554,0.026753,0.434141,-0.393021,0.391386,0.499625,0.263612,-0.584942,-1.094566,-0.037776,-1.944664,-1.147932,-0.896611,-0.814527,0.127050,-0.165062,-0.718904,0.441324,0.247857,0.737762,-0.582989,-0.466897,-0.402604,0.128828,-0.502240,0.482579,0.456799,0.285813,0.867571,-0.284059,0.451202,0.335774,0.731512,0.737762,0.292701,0.242874,-0.125606,0.238492,0.157286,-1.029387,-0.107486,-0.702150,-0.730333,-1.157018,-0.726001,-0.677691,-0.405912,0.125707,-0.345893,0.171539,-0.956649,-0.916486,0.451200,-0.601081,-0.803418,0.627315,0.826583,0.906189,1.186208,0.066932,1.452254,0.586175,1.144784,2.326746,0.704161,1.479215,1.201705,0.132524,-0.628629,-0.523504,-0.182948,-0.459154,-1.540443,-0.013515,-0.603371,0.740434,-0.636539,0.219384,-0.916723,0.041911,-0.280262,0.393821,0.438722,0.339889,-0.868624,0.100897,0.544794,1.769862,0.241606,0.512619,0.673877,0.950789,-0.202626,0.387992,1.513118,-0.283142,0.045973,-0.559518,-0.841657,-0.768301,-0.745807,-0.971040,-0.621628,-0.776914,-0.337120,-0.919212,0.767960,-0.794758,0.125744,-0.903946,0.172732,0.755411,0.632136,1.010588,-0.031763,-0.385515,0.198674,-0.733587,0.359377,0.643428,0.251819,-0.518096,-0.558661,-0.096188,0.173656,-0.278309,0.813018,-0.148852,0.054373,-1.364418,-0.753922,0.831476,-0.767566,0.493540,-0.979041,0.978185,0.022348,1.146673,-0.064638,-0.587903,1.159770,-0.047357,-0.137558,0.105122,1.419847,0.513787,-0.173345,-0.157846,0.137589,-0.511177,-0.399421,-0.670560,-0.215298,-0.562877,-0.423059,-0.312316,-1.624942,0.000731,-0.850487,0.232421,-0.667197,0.694957,0.584244,0.196957,0.047850,-0.494671,0.740373,-0.235520,0.617603,0.576892,1.613581,0.857537,0.200294,1.245076,0.145504,1.025745,-0.383334,0.189786,-0.250539,0.540781,-0.598496,-0.488609,-0.059483,-0.696991,-0.439524,-0.970096,0.325673,0.809167,0.821332,0.555887,0.841666,-0.965175,0.699645,-0.955017,1.356852,1.063626,-0.678771,-0.110154,-0.243863,-0.251846,-0.793843,-1.497660,-0.810932,-0.654255,-1.203631,-0.624569,-0.220352,-0.036996,-0.310731,0.248583,-0.789858,-0.889512,-0.973486,-0.453958,0.755219,0.749452,-0.926759,0.399081,-0.014522,0.275924,-0.430622,-0.048897,-0.389992,-1.924056,-3.397334,-2.380231,-2.895617,-1.970784,-3.126526,-3.066029,-3.195235,-1.972466,-1.337829,-0.583369,-0.977698,0.204049,1.084941,-1.040596,-0.872856,-0.974640,-1.497254,-0.308412,0.799409,0.436956,0.059173,-0.332615,-0.627304,-0.295337,-0.873486,-0.709120,-2.022701,-2.664078,-4.130661,-4.128475,-4.208788,-3.674630,-3.767449,-1.908585,-2.339260,-3.450780,-0.621545,-1.228616,-1.250682,-0.345918,0.241937,0.196503,0.201936,-1.473909,-0.384581,0.655459,0.992270,1.037930,0.551883,-0.732049,-0.592603,-0.769709,0.237925,0.580017,-2.750549,-3.390530,-2.538276,-2.200076,-1.196425,-0.008516,-0.532680,-0.802270,-1.314989,-0.444043,-1.226363,-0.772994,-0.754807,-0.169283,-0.966554,-1.378098,-1.330144,-1.781446,-0.090974,0.887033,-0.574463,0.892398,-0.521519,0.507534,0.619380,0.448370,1.034281,0.792122,-1.070844,-1.802132,-1.536723,-0.197967,-0.578637,0.333459,0.388151,0.450865,-0.698579,-0.472822,0.080230,-0.165089,-0.560940,-0.273622,-0.659364,-1.367594,-0.791464,-0.573853,-1.318959,-0.766933,-0.521080,-0.641899,0.330851,-0.340199,0.096955,-0.838027,0.704506,0.312393,0.444656,-0.021251,-0.064662,-0.458488,-0.203259,-0.179283,0.038082,0.329559,0.364720,0.751278,-1.085643,0.449159,-0.961797,-0.375163,-1.909414,-0.433488,0.238304,-1.235331,-1.526271,0.436028,1.036985,0.722484,0.360213,0.478830,-0.052197,0.402179,1.208872,1.111400,0.283802,0.343348,0.100630,0.394576,0.517342,-0.115562,0.619582,0.000607,0.678671,-0.093350,0.343324,0.456274,-0.102926,-0.334657,-0.187050,-0.438735,0.675308,0.113963,0.551640,1.252883,1.050351,0.487674,0.380535,0.663921,-0.103653,0.462991,-0.012976,0.544199,1.373908,1.213022,0.345669,1.042777,1.418906,-0.156520,0.840489,0.906590,1.141916,-0.162890,1.622238,0.096355,-0.117682,-0.071689,-1.325933,0.367059,-0.754156,0.503222,0.836969,0.990842,1.579736,0.192182,0.926961,0.266574,-0.083516,-0.864048,-0.001343,1.609164,1.349469,1.194321,1.616628,1.306723,0.906466,1.211826,0.504047,1.453145,0.459903,1.763720,0.148833,1.126990,0.904566,0.793814,-0.406469,0.147531,0.330194,1.002445,2.088543,1.573254,1.452925,0.376062,0.569018,-0.017693,-0.484463,-0.815002,1.059381,0.784560,1.091211,1.851240,0.813731,0.288082,0.236767,-0.195114,1.166776,1.345333,0.238463,0.551261,-0.049148,0.454828,-0.635661,-0.328625,0.571632,-0.251142,0.887416,0.998246,1.707300,1.285211,1.192210,0.994785,0.405371,0.836810,0.148395,-0.253449,0.417395,-0.363900,1.429642,0.505760,1.162185,0.549111,0.412354,1.120539,-0.599767,-0.244439,0.209222,-0.278722,-1.260214,-0.539208,-0.232507,0.520335,0.110412,0.961728,-0.166943,1.206469,1.069140,0.605738,0.767144,0.609844,-0.624591,0.242067,-0.258769,0.294638,0.590244,0.833691,1.240815,1.053536,0.777463,0.200207,0.267573,0.347153,-0.184129,-1.005696,-0.729349,0.035969,-0.720363,-0.866886,-1.056588,0.037585,0.368660,0.574610,1.871969,2.321423,1.242412,1.126446,-0.675550,-0.902965,0.449879,0.352165,-0.752447,0.543950,0.305250,-0.457777,0.593292,0.699135,1.248216,0.202778,0.043346,-1.004129,0.316452,-0.169683,-0.162951,-0.736865,-0.520657,-0.529536,-0.934963,0.645152,0.796114,0.905799,2.287178,1.335138,0.802506,0.549431,-0.271746,-0.203650,-0.063571,-0.451651,-0.172871,0.142357,0.599405,0.625024,0.534058,-1.192446,-0.515962,-1.550109,-0.103977,-0.491879,-1.229653,-1.316880,-2.285777,-1.092953,-1.375919,-0.173258,-0.458896,-0.207174,0.297469,1.234715,0.381143,0.081765,-0.646351,-0.513384,0.917583,-0.939102,0.985667,-0.860895,-0.953755,0.128936,0.803563,0.795638,-0.952447,-0.447035,-0.394847,-0.656480,-1.074501,-1.186135,-0.661668,-0.560031,-1.686044,-1.185620,-0.994938,-1.643889,-0.104749,0.253091,-0.130608,-0.142227,1.238141,0.246190,-0.436409,1.200343,-0.583515,0.305791,-0.064968,-0.342668,0.373806,-0.314947,-0.289906,0.414360,-0.097138,-0.056523,-0.802615,-1.637562,-1.919116,-0.822791,-1.658869,-1.352077,-0.093110,-0.991684,-1.210871,-0.365218,0.237834,-0.975288,-0.417912,-0.565732,-0.232703,-0.901347,0.051844,0.047948,0.801006,-0.869403,-0.977359,0.513248,0.217318,0.125700,-0.321885,0.377098,0.040097,-0.576265,-0.384687,-0.091223,0.555273,0.179818,-0.666169,0.217619,-0.733288,-0.397034,-0.717147,-0.191168,0.289692,-0.299726,-0.457739,0.799670,-0.057449,0.751062,-0.511622,0.685343,-0.429195,-0.508595,0.162055,0.874267,0.463710,0.788450,0.755049,-0.637252,0.751086,-0.625875,-0.810728,-0.689034,-0.872786,0.944233,0.216105,-0.753716,0.076451,-0.581551,-0.981722,0.241694,0.491336,-0.772575,-0.650109,-0.991710,-0.735895,-0.673956,0.118538,0.214934,0.947567,-0.002815,0.384317
0.996824,0.083643,-0.945693,-0.445448,0.213907,-0.184004,-0.172646,0.808939,-0.435970,-0.801187,0.699258,-0.417391,0.980861,-0.446881,-0.274568,-0.504341,-0.486130,0.036343,-0.612438,-0.468035,0.159699,0.700033,0.463165,0.495464,0.716371,0.837082,-0.396903,0.393903,-0.203005,-0.747575,-0.774172,-0.316033,0.406822,0.417617,0.001425,0.776917,0.325576,0.567705,-0.130686,-0.152546,0.754569,0.596461,-0.126778,0.670648,-0.679638,0.595962,-0.480125,-0.898076,-0.267773,-0.329950,-0.136136,0.311044,-0.670170,0.215503,0.864359,0.965339,0.046947,0.586724,-0.412966,-0.144484,-0.727669,0.792503,0.128315,-0.672543,0.802113,-0.638712,-0.169073,-0.391602,0.297172,-0.086290,0.372579,-0.442938,-0.084140,-0.140096,0.340311,0.321031,-0.912314,0.238526,0.773066,0.366045,0.285336,0.966760,0.630401,0.989037,0.121020,0.168529,0.925730,0.965921,-0.699151,-0.885046,0.115415,-0.563271,-0.249603,-1.150930,-0.112617,0.769317,-0.473873,-0.126019,-0.258711,0.402256,0.167646,1.046773,-0.112360,0.738578,-0.629626,-0.179310,-0.493498,-0.466797,-0.125989,-0.721088,-0.675833,-0.055006,0.536354,-0.219026,0.721173,-0.774104,0.331145,-0.281219,-0.005630,0.477936,-0.777431,0.615986,-0.203344,0.640899,0.397101,1.314069,0.440858,-0.006402,0.127033,-0.183094,-0.390270,-0.107539,-0.493805,-1.497592,-0.938905,-1.022096,-0.177916,-0.329269,0.590127,-0.602268,0.893874,-0.198805,-0.647072,-0.378739,0.212653,0.654687,1.245215,1.231351,1.570094,0.025405,0.665054,0.358178,1.153995,-0.381473,0.218916,0.436054,0.267793,-1.450673,-0.042493,-0.485252,-0.468986,-0.412777,-1.494265,-0.468899,0.387246,-0.871659,-0.918679,0.168936,-0.040259,-0.339763,0.810687,0.808857,1.067987,0.977405,2.024851,1.414756,1.071657,0.220050,1.351458,0.946002,1.362205,1.347744,0.282038,0.271208,1.661078,-0.936933,0.524377,-0.550272,-1.406241,-1.384349,-0.780816,-1.925502,-1.187525,-0.074736,0.492514,-0.858302,-0.159224,0.468678,-0.652179,0.581391,0.087230,1.375342,2.065487,0.949631,-1.366833,0.028781,-0.002177,0.313117,0.966123,-0.089529,-0.400721,1.510298,0.438712,0.818197,1.192548,-0.395541,0.213869,-0.188347,-0.668716,-1.481204,-1.111457,0.339005,-0.761303,0.438690,-0.067892,0.004026,-0.551104,-0.733301,0.599601,0.114226,-0.001173,0.064790,-0.564690,-0.240067,-0.527963,-1.538968,-0.407655,0.308564,0.414364,-0.895241,0.208597,0.215693,0.867723,0.487998,0.352909,0.489264,-0.444105,-1.717223,-0.754582,-0.197957,-0.122748,0.577910,0.402619,-0.707793,0.616812,0.919697,1.478664,-0.214597,-0.383982,-0.571581,-1.035528,-1.141435,-2.061075,-1.478378,-2.215814,-1.186922,-0.895066,0.851948,0.025196,0.506704,-0.671059,0.511028,1.304763,-0.649787,0.363376,-0.672020,0.041906,-0.232678,0.788622,0.713449,-0.713204,0.381977,0.480925,-0.255422,0.216801,0.001207,0.250302,-0.977861,-1.871067,-1.815719,-2.150903,-3.070839,-1.171452,-0.217009,1.015291,1.615236,1.392759,1.222726,0.569608,0.245314,0.750688,1.240277,-0.784594,-0.933547,-0.624044,-0.299880,0.313260,-0.597448,0.360082,-0.155273,0.157544,-0.804915,-0.276686,-0.860624,-1.712326,-1.152325,-2.642320,-2.053246,-2.889432,-0.212642,-0.939191,1.273258,1.447638,1.258034,0.988362,0.846510,1.446673,0.095452,0.444066,-1.486488,-1.913774,-0.026895,-0.299287,0.387478,0.656740,-0.687183,0.942706,0.141948,-0.483044,-0.537228,0.297978,-1.381188,-2.572972,-1.121117,-2.543854,-2.014179,-1.095161,-0.158494,-0.459176,0.047305,1.578614,2.104555,1.068743,1.282439,0.384448,-0.386217,-1.214513,-1.279328,-2.058632,-0.354637,-0.825459,-0.212595,-0.664255,0.827970,0.324682,-0.864672,-1.037586,0.264055,-0.931543,-0.176765,-0.569923,-1.637351,-0.873228,-1.345843,-1.712703,0.434705,1.510785,1.695901,-0.180236,0.814273,1.189550,-0.041796,-0.153768,-1.109596,-0.795113,-1.207926,-2.055895,-1.697375,0.129173,-0.121818,-0.224864,0.308027,0.035030,-0.713523,-0.548186,-0.084399,-0.741258,-1.044954,-1.578951,-1.791113,-1.325247,-0.406840,-1.039910,-0.751668,1.166891,0.791782,0.789450,-0.850625,0.200424,-0.651600,0.433706,-1.033613,-0.644288,-0.306734,-1.136341,0.017134,0.040058,0.584021,0.639767,-0.292558,-0.051964,-0.379441,0.471960,0.635484,0.741907,-1.248704,-0.685850,-0.206090,-0.971905,-0.848012,-0.708097,1.111620,0.914152,0.067840,0.147295,-0.338213,-0.392053,-0.224342,0.020344,0.302056,0.368438,0.525879,1.026957,-0.507052,-0.922135,-0.922950,0.936523,0.446716,0.114756,-0.163282,0.378740,0.176375,-0.101261,-0.151349,-0.356118,-0.447975,-1.636543,-1.633030,-1.263103,-1.060981,0.500604,-0.085278,-0.543030,-0.827545,-1.254294,-0.583737,1.300865,0.738141,2.363860,1.206117,1.263828,-0.623018,-0.857301,0.625345,0.370135,0.189470,-0.310837,0.681658,1.400274,1.835314,1.267297,-0.599819,-0.478720,-1.424824,-2.148237,-2.345038,-3.391651,-3.460188,-3.004777,-2.948308,-3.566129,-1.363480,-0.162519,1.152662,0.026112,1.365877,0.591575,0.701286,0.682377,0.624566,-0.291965,0.302863,0.342927,0.630455,-0.264997,-0.125351,0.304270,0.692598,2.165110,0.093174,-0.511319,0.281798,-0.189079,-2.310627,-3.967659,-2.763288,-4.495559,-2.423531,-3.063532,-0.488586,0.049174,0.900892,1.722591,0.440262,0.209125,0.693707,1.378326,0.692466,-0.031737,-0.968597,-0.425665,0.562905,-0.967205,-0.999685,0.910081,0.731078,1.102238,1.947281,0.695611,0.062302,-0.716466,-1.432068,-1.200662,-2.143664,-1.271932,-2.038563,-1.625616,-1.205567,0.786883,1.069809,0.159646,1.686042,0.172447,1.951442,-0.477733,-0.102847,0.142072,-1.052492,-0.385572,0.642545,-0.508126,0.477294,-0.341270,0.352506,1.312100,0.585038,-0.153701,-0.131631,-1.175128,-0.302283,-0.121196,-0.093305,-0.362847,-0.454233,-0.606708,-0.544665,0.272337,0.389247,1.094533,1.024689,0.936393,-0.039497,-0.287667,-0.391923,-0.264978,-0.451627,-0.788621,0.130200,0.569453,-0.967928,-0.700183,0.624607,0.019617,0.597212,-0.264157,-0.272801,-0.772663,-0.971153,0.062856,-0.387462,0.186940,-0.202438,-0.112632,0.384633,-0.714853,0.035753,1.005059,0.938145,-0.183426,-0.477113,-1.291480,-1.385874,-0.439507,-1.148965,-0.421278,0.189222,-0.903568,-0.797862,-0.421002,0.340935,0.399438,1.221869,0.232345,0.513194,-0.182207,0.076057,-0.369503,-0.723285,-0.968160,-0.326728,-0.115750,0.031291,-0.669753,0.132829,-0.071865,1.017108,-1.201362,0.277730,-1.276799,-0.834257,-0.021622,0.424729,0.926662,-0.389398,0.236048,-0.696240,-0.168064,-0.273664,0.229971,-0.166404,1.541900,0.689502,-0.069114,0.161530,-0.668000,-0.604068,-0.134603,1.299321,-0.119348,0.523374,-1.151661,0.690723,-0.355567,1.183892,-1.075494,0.155569,-1.073617,0.265819,-0.401925,0.310949,0.503222,0.777748,-0.128910,-0.909874,-0.869509,0.980151,0.825878,0.045401,0.384695,0.659880,0.900715,1.265987,-0.013455,1.133930,-0.125069,-0.111463,0.272882,-0.574155,0.435526,-1.371610,-1.057627,0.187936,-0.662086,0.577459,0.174561,-0.949350,-0.518782,0.331833,0.682485,0.552486,-0.901662,0.976397,-0.380931,0.955211,-0.982437,-0.180121,-0.666402,0.658359,0.655676,0.656906,0.789956,0.872610,0.174037,0.431646,-0.569815,-1.217068,-0.189475,-0.610540,-0.546865,-0.831624,-0.644739,-0.856838,-0.716191,0.426724,-0.950976,0.962540,0.460518,-0.983495,0.343214,-0.420507,-0.798261,-0.184519,0.247389,-0.028778,0.053532,0.541839,-0.068998,-0.594304,-0.186071,-1.122567,-1.125925,-0.646559,-1.050488,-0.549235,-0.118207,-0.064027,-0.126856,0.100091,0.298177,-0.650796,-0.530016,-0.750401,-0.661642,-0.798821,0.209945,0.666951,0.187805,-0.147439,0.325384,-0.588811,0.520960,-0.300139,-0.895982,-1.018901,0.615748,-0.325333,0.701537,-0.899473,-0.591077,-0.762929,0.579135,-0.949832,-0.312477,0.141927,0.104106,-0.413432,0.954641,-0.428822,0.548247,0.447779,-0.563045,0.604195,-0.737756,-0.361535
-0.756699,0.935334,-0.483395,-0.194824,0.885006,0.097855,0.247477,-0.052482,0.575517,0.583725,-0.977033,-0.549757,-0.398821,0.773435,-0.227308,0.592756,-0.782248,-0.313423,0.481968,0.089652,0.365931,0.302565,0.233339,0.316815,-0.590278,0.449070,0.414077,-0.770617,-0.340046,-0.841079,-0.062617,-0.806487,-0.873518,0.396174,-0.503261,0.756998,0.096705,0.757652,-0.552674,0.274828,-0.813147,0.767096,-0.213346,-0.060351,0.186438,0.133567,-0.699224,-0.351686,-0.639569,0.830695,0.583782,0.086036,0.310441,0.631546,0.675406,-0.696041,-0.835247,-0.602538,-0.878001,-0.473638,0.275413,0.901298,-0.439519,-0.628487,-0.767773,-0.614903,-1.332238,-0.377831,-0.383895,-1.590088,-0.511774,-0.175484,-1.291093,-1.337885,0.271557,-1.194792,0.653434,-0.724306,0.788794,-0.690800,-0.492013,-0.215495,0.208325,-0.586599,0.652850,-0.666221,-0.461613,-0.355832,-0.932961,-0.267435,0.155225,-0.097115,0.741836,-1.313577,0.047754,-0.290881,-0.824473,-2.433996,-2.092927,-1.049081,-1.988373,-0.963146,-0.621634,-0.319262,-1.305930,0.202595,0.862906,0.609613,0.698358,-0.067591,0.587758,0.584959,0.891169,0.529972,-0.931107,-0.108971,-0.222458,0.362524,-0.444478,0.846195,-0.396472,-0.059470,-1.701631,-1.833974,-2.222136,-1.409892,-1.145503,-1.139622,-0.493064,-1.414598,-0.254563,-0.200995,-1.051527,0.443591,-0.026233,0.953286,-0.195344,0.705521,-0.114031,-0.060025,0.642586,-0.550086,0.880929,-0.452093,0.203519,-0.528602,1.164902,-0.282077,-0.756098,-0.128700,-0.283852,-0.611571,-0.976529,-0.291527,0.058286,-0.300264,0.830760,-0.385357,-0.298029,0.575338,1.082113,1.149116,0.207850,0.660097,-0.522291,0.723937,-0.960281,-0.168352,0.438289,-0.424500,-0.468808,0.327418,-0.099706,0.740872,-0.696430,-0.556753,0.722212,-0.572349,0.312370,-1.500354,-0.235236,-1.508275,-1.795699,-1.193393,0.086139,-0.063420,0.235924,-0.477454,1.015922,0.998146,1.900795,0.912268,0.654223,0.409700,0.144531,0.892585,0.019306,0.909456,-0.934956,-0.711883,0.499882,0.620856,0.388646,-0.784979,0.119742,-0.003876,-0.880024,-0.449796,-2.040332,-1.513612,-3.253107,-2.003279,-2.511840,-1.416472,-1.098411,0.392488,0.502840,-0.750367,1.379835,0.298445,0.291283,-0.765605,0.266797,0.759939,0.411855,0.259050,0.820052,-0.520586,-0.407120,-0.109854,0.298015,0.668309,-0.759893,-0.751105,-0.709665,-0.891615,-1.817879,-1.135973,-2.497558,-2.143755,-2.325136,-0.431439,-0.324406,-0.060206,-0.665516,-0.209558,0.122216,-0.004265,-0.665234,0.369676,-0.687727,0.378496,0.648152,-0.393256,-0.573163,0.210331,-0.787803,-0.951619,0.023038,0.462625,-1.334256,0.013668,-1.184179,-1.083040,-0.914935,-0.998343,-1.914475,-1.602687,-0.312645,-0.862630,-0.197220,-0.379267,-0.381271,0.666361,-0.414677,-0.525532,-1.397304,0.457846,-0.169764,-0.719311,-0.563584,0.328161,0.316217,0.307350,-0.316769,0.519722,-0.867014,-1.188503,0.087584,0.633481,-0.270030,-0.917501,0.588675,-1.321127,-1.524390,-0.065312,-0.397128,-0.430793,0.509292,0.542066,-0.605190,-0.600758,-0.301584,-0.015387,-1.292832,-1.068250,-0.363399,-0.663004,0.417662,-0.117706,0.725209,-0.750431,-1.133965,0.664141,-0.381763,-0.195051,-0.452150,0.856959,-0.259969,0.254007,1.039588,-0.707959,-1.324167,0.364644,2.268317,0.425671,-0.835413,-1.018089,-0.367346,-0.880468,-0.366059,-0.992056,-0.170785,-0.327254,0.738629,-0.344648,0.181138,-0.147008,0.526962,0.854009,-0.882740,-0.414638,1.029751,1.712430,0.761317,1.745546,1.355941,1.146939,1.996883,0.796186,-0.026711,0.675460,1.196469,-0.457484,0.010171,-1.429574,-0.823829,0.258280,-0.055788,-0.372591,-0.018899,0.125926,0.243779,-0.076050,-0.194820,0.974096,0.229757,0.192937,0.401563,0.574947,0.885662,1.156972,1.698914,1.184039,1.120814,3.118921,1.461589,0.296643,-0.542621,0.890803,0.355684,0.991772,-0.158457,0.549160,0.192653,-0.124488,-0.801687,0.312827,-0.696258,0.847090,-0.487986,-0.169677,-0.091550,-0.555276,-0.424093,-1.055871,0.115319,1.750836,2.277819,0.730311,1.215614,0.982444,0.244962,2.147506,0.582726,-0.104341,-0.514942,0.342965,1.667945,0.239928,0.651573,0.830222,0.428796,0.708036,-0.129067,-0.717194,-0.762211,0.197341,0.430152,0.575267,-0.369878,0.668015,-0.148197,-0.900079,-0.035823,-0.162456,0.344549,0.067466,0.846706,0.823647,0.575757,0.636285,0.600601,1.198253,0.373342,1.876077,0.803320,0.870357,0.931590,0.026185,-0.405193,-0.119529,-0.056626,-0.205167,0.632158,-0.872611,-0.140028,0.481968,-0.171623,-0.236050,-0.326800,0.326687,0.226020,-0.612135,1.361791,1.738257,1.471423,-0.715513,0.135315,0.443596,0.695990,-0.583755,1.406191,1.655115,1.533192,0.356957,1.264760,0.903272,0.324929,0.174905,0.255692,-0.445800,-1.316972,-1.074135,0.669511,0.399756,0.823226,0.244447,0.425729,-0.855910,0.374424,-0.044092,0.785215,1.028641,1.199091,0.849374,-1.012501,-0.015966,-0.475721,1.975750,1.507184,1.711534,1.075429,0.352343,0.881705,-0.340756,0.603708,-0.874430,-1.443460,0.010988,-0.101912,0.605764,-0.595647,-0.983910,-0.876148,0.581753,-0.602339,0.369778,0.075123,-0.751891,-0.088215,-0.111116,0.668895,0.643799,0.165516,-0.152678,1.234811,1.339011,2.276642,0.606221,1.134048,-0.215869,-0.560096,0.355450,-0.161008,-1.426189,-1.090782,0.277599,-0.658664,0.005582,-0.903261,0.133987,-0.452700,0.666206,-0.634997,0.676332,-0.803913,0.048265,-0.957761,-0.534849,-1.474955,-1.626321,-1.887598,-1.082114,-1.894335,0.394950,-0.100901,0.247035,-0.641508,-0.624125,-1.137085,-1.063190,-1.889416,-0.337284,-0.610554,-0.292406,-0.778699,0.089886,-0.027208,0.254491,-0.243927,-0.542539,0.681961,-1.055863,0.141974,-0.356926,-1.408249,-1.938398,-1.661210,-3.099319,-3.132474,-2.227995,-1.802763,-1.807313,-1.540271,-1.000285,-1.687140,-0.317533,-0.698370,-1.082451,-0.706344,0.041518,-0.145369,-0.255285,-0.743812,-0.481055,0.309253,-0.776300,-0.519660,0.969700,0.663590,0.279012,-0.940454,-1.361226,-1.145484,-1.503843,-1.811670,-1.503576,-0.860557,-0.968732,-1.061229,-0.679988,-1.279473,-0.870942,-0.094960,-0.265275,-1.210099,-0.527039,-0.418502,-0.572305,-0.734205,-1.055804,0.525671,0.930901,0.106527,-0.067137,0.669973,-0.228159,-0.906707,0.795016,-0.519785,0.367248,-1.398519,-1.551133,-1.431608,-0.849549,-0.047265,-0.665330,-0.211974,-0.368725,0.998012,-0.436877,0.844613,0.429774,0.493054,1.105150,0.599213,0.003237,-0.614935,0.794551,0.658682,0.903457,-0.569632,-0.181323,-0.150794,0.594850,0.497220,0.937253,0.336826,-1.040372,-0.976728,0.409305,-0.245262,-0.348025,-0.067594,-0.945355,-0.003774,-1.832578,-0.770430,0.694090,1.036421,-0.063576,1.073807,1.281751,-0.108956,0.783076,0.207857,-0.240146,-0.301749,0.623457,0.405537,-0.717624,0.339672,0.257172,0.765757,-0.448853,-0.150225,0.590007,-0.982521,-1.068904,-0.370297,-0.487217,-1.059004,-0.211532,-1.246765,-0.692815,0.073657,-1.124436,-0.565068,0.104319,-0.746613,0.122075,-0.532346,-0.815698,0.356361,0.084423,-0.349825,0.788432,0.181180,-0.808695,0.221148,-0.193541,0.550290,0.985863,-0.684462,-0.917853,0.478064,-0.203835,-1.479706,-0.532385,-2.051146,-0.949809,-2.471882,-1.139470,-2.376465,-1.310112,-1.640045,-1.231687,-0.606330,-0.479002,0.124733,-0.605997,0.598366,-0.540865,-0.513854,-0.936396,0.023357,-0.611712,-0.219973,-0.656027,-0.117272,0.002683,0.853516,0.067214,0.126676,-0.796855,-0.046258,-0.049396,-0.828430,-0.163415,-0.320909,-1.022118,-1.524161,-0.644658,-0.678213,-1.907342,0.091844,-1.079242,-1.259817,-0.595998,-0.793437,-0.094436,-0.662140,0.423784,-0.243535,0.546055,-0.335581,-0.254129,0.470593,-0.999678,0.395187,-0.275799,-0.732464,-0.123185,-0.796547,0.853230,0.856101,-0.766802,0.236390,-0.190095,-1.086587,0.277957,0.674507,0.567537,0.508308,-0.212423,0.310232,-0.976405,-0.708045,-0.859385,-0.088108,-0.500798,-0.446392,-0.567208
-0.569311,-0.232929,0.207797,0.797067,-0.778988,0.917851,-0.804604,0.426363,0.740530,0.756734,0.305574,0.036199,0.759778,0.720853,-0.293645,-0.420385,0.987321,-0.355802,0.536060,-0.118465,0.089157,0.436403,0.244377,0.523143,-0.571554,0.707026,-0.606365,0.111661,0.033889,0.887939,-0.764901,-0.194080,0.049559,0.367313,0.757369,-0.563003,0.448098,0.080351,0.026074,-0.952029,-0.705429,-0.432655,-0.261431,0.747318,0.961833,-0.451378,-0.735237,0.479950,0.220113,-0.966645,0.231009,0.665152,0.766887,-0.964482,-0.324737,-0.647877,0.551115,0.672734,0.724349,-0.709865,0.244113,0.750713,0.821242,0.921802,0.482208,0.160466,0.505960,-0.285121,0.428196,-0.500306,-1.233367,0.084916,-0.821391,-0.276782,0.188148,-0.070823,-0.361292,0.658927,-0.074553,-0.819271,0.220716,-0.468068,0.933634,0.456768,-0.964866,-0.830792,-0.724126,0.973352,-0.834501,0.493443,0.984837,0.508475,-0.742799,-0.209969,0.507915,-0.514431,-0.151703,-0.562765,-0.909389,-0.290339,-0.900301,-1.732344,-1.422975,-1.426087,-0.241509,0.462155,-0.670539,-0.095326,-0.007220,0.169936,0.485468,-0.105028,0.802608,-0.805475,-0.434351,0.480081,0.626372,0.360645,-0.247174,-0.149441,-1.099823,-0.720681,-0.543970,-1.251448,-0.581455,-1.131070,-0.767943,-0.804367,0.714490,-0.569246,0.144350,-0.255144,-0.314857,-0.015945,0.905684,-0.469554,1.134960,0.312048,-0.148558,0.078198,0.113441,-0.072712,0.274093,0.949872,-0.977410,-0.991240,0.639294,0.443770,1.113621,-0.398553,-1.407635,-0.187530,-1.381274,-1.460695,-0.734451,-1.102710,0.261476,-0.471677,0.775480,0.512501,0.726807,0.567971,1.541810,0.184149,0.322614,0.804039,0.548730,0.167254,0.211869,0.609789,0.969360,0.481728,-0.650759,-0.056492,0.878866,0.724497,0.254821,0.697343,-0.001784,-0.747254,0.558448,0.499815,-0.217097,-1.361983,-1.090354,-1.302559,0.947574,0.785725,0.371918,0.208081,1.401484,1.057830,1.669416,0.308055,-0.448216,0.682774,0.612877,-0.210289,0.055208,0.365500,0.241513,-1.751941,-1.144537,0.408863,1.068843,0.285684,1.295287,0.593445,0.241587,-0.919221,0.022294,-1.730579,-0.018522,1.110331,0.298829,-0.359146,-0.079877,1.402867,0.969219,2.550358,2.334669,0.099867,-0.551887,-0.372303,-0.635234,0.004701,0.892413,0.166157,-0.004465,-1.032046,-1.110178,0.332125,1.553107,0.618152,0.756186,1.197587,-0.407220,-1.530616,-1.393304,-1.063759,-0.397764,-1.126136,0.267467,0.236093,0.944931,0.266222,0.338393,3.395936,3.753660,2.272069,0.631949,0.060063,0.956546,-0.306154,0.395380,-0.248083,-0.508726,-0.125422,-0.730322,-0.042844,0.446703,1.517241,1.562945,1.061367,0.851421,-0.207492,-0.620965,-0.928490,-2.276727,-0.774491,-1.112721,-1.216851,-0.668642,0.722732,0.934106,2.767701,5.600617,3.453023,0.054187,-0.652289,0.329345,0.494351,-0.464307,-0.027317,-0.563084,-0.155726,1.158726,1.206284,0.762622,0.455293,1.792705,2.373196,2.571475,2.315938,0.723321,-1.222235,-1.307316,-2.539295,-1.754350,-1.739012,-1.760230,-2.009683,-0.270034,1.446787,3.104325,1.320910,-0.428204,-0.875664,-0.765979,0.002101,0.823568,-0.101567,-0.651419,-0.497816,0.805497,1.101965,1.153508,0.486520,1.463289,1.043801,0.928710,1.156009,1.304354,-0.787836,-0.297902,-1.231440,-2.177220,-3.659127,-4.445513,-5.220166,-4.791551,-2.002658,-0.433521,1.109456,0.770796,-0.307380,-0.329833,-0.626006,-0.806959,-0.578466,-0.371285,0.411597,-0.101178,-0.025881,-0.216292,0.001342,0.561698,1.550172,1.644031,1.199425,-1.005205,-0.983282,-1.431549,-1.338881,-0.282779,-1.475735,-3.582421,-4.710190,-5.110442,-3.446294,-2.437061,0.305328,0.671695,0.798726,0.423941,0.460379,-0.210269,0.836863,0.867846,0.609359,-0.738476,-0.008954,0.930094,0.988401,1.397750,0.956026,1.372489,0.452910,0.209103,-1.318144,-1.086947,-0.960793,-0.600546,1.234510,0.024646,-1.028120,-3.625972,-2.845900,-1.079634,-0.796069,-0.866498,0.267265,0.486673,-0.226960,-0.334659,0.073993,-0.608276,-0.152951,0.118879,-0.656660,-0.458520,0.575900,1.926034,0.469921,0.408943,-0.503699,-0.971665,-0.398911,-0.990688,-1.018291,-0.450164,0.080469,-0.385771,-1.137419,-1.154258,-1.393038,-0.248376,0.046947,0.634679,-0.385780,-0.144381,0.238026,0.938589,0.533689,-0.763756,-0.343748,-1.751913,-0.793899,-0.743332,-0.271410,0.147594,0.714859,-0.210319,0.229293,-0.925741,-0.210991,-1.171628,0.058133,-0.306798,-0.212574,0.405848,-1.291175,-0.143533,-1.651256,-1.534345,-0.754279,-0.762923,0.082823,0.365048,0.577772,0.207644,-0.851613,0.510164,-0.287105,-2.075819,-2.675858,-0.996445,-1.406780,-0.063332,-0.256431,-0.635205,-0.283552,-1.116446,-1.317495,-0.967473,-0.297141,-0.218860,0.194003,-0.448332,-1.491447,-0.002530,-0.401321,0.659965,-0.348032,0.603020,0.002393,-0.290186,0.665504,0.599200,0.842839,0.489351,-1.234183,-0.004764,-1.211365,-1.557958,-2.083893,-1.420671,-1.313023,-1.743799,-1.612570,-1.148247,-0.073827,-0.145012,-0.250561,0.614283,0.491612,1.077209,0.009173,-0.065249,0.387026,-0.535032,-0.814012,-1.023219,0.743244,0.605193,-0.477065,0.014878,-0.389096,-0.329404,0.168013,1.392607,0.586359,-0.814143,-1.365842,-3.183896,-1.704633,-0.532325,-0.175251,0.302080,0.220480,0.474113,1.155363,0.011074,-0.682640,-0.599505,0.355490,0.785430,1.028204,0.472406,-0.245580,0.148227,0.423280,0.198742,0.832214,-0.940369,0.567594,-0.707304,0.091727,0.352817,1.171974,0.958103,0.392125,-0.736013,-0.059918,-0.382052,-0.041334,-0.176023,-0.867508,-0.966224,-0.811225,-0.038459,-0.248245,-0.592897,0.454813,1.397201,0.180525,1.075471,0.482967,-0.259534,-0.684960,0.865585,0.654680,0.484750,0.539195,-0.500323,-0.618438,0.308652,0.787088,0.841705,0.554997,0.209667,0.598519,0.848068,0.596870,-0.528030,-0.589531,-1.061666,0.777438,-0.036788,0.910375,0.095323,0.717914,2.155881,1.724991,0.162462,0.889336,-0.809345,0.572918,-0.767714,0.902390,0.801396,-0.371988,0.738725,-0.573343,0.163683,-0.198912,1.657038,0.050186,0.747426,0.029491,-0.830299,-0.781883,-0.565158,-0.101648,-0.741016,0.420443,0.168550,0.921950,0.635644,1.010734,1.656709,0.125437,-0.512594,-0.795773,0.134531,0.828319,0.570414,0.620968,0.154935,0.793445,-0.954670,0.245983,-0.346975,-0.921660,0.422028,0.081053,0.927548,0.303306,-0.128060,0.819900,-0.278743,-0.528838,0.241751,0.100494,-0.127176,0.548991,0.558745,0.057252,0.335744,0.602608,-0.381749,0.726956,0.336262,0.037091,0.941879,-0.290885,-0.825059,-0.512342,-0.426824,0.064796,-0.904953,0.369338,-0.263247,0.485688,0.047394,-0.190633,-0.070586,0.286011,-0.141104,0.061801,-0.615893,-0.734799,-0.244950,0.109479,1.185559,0.102766,0.859006,-0.477557,0.500383,0.116046,0.775454,-0.355868,-0.954679,-0.388878,-0.553964,0.255326,-0.653679,-0.641852,-0.789385,-0.187155,0.265260,0.376399,-0.590332,-0.757169,0.481607,-0.165826,-0.140808,0.427701,0.008966,-0.085569,-0.312007,0.359595,0.081887,0.467372,0.609685,0.583826,0.250036,-0.191036,-0.670614,-0.655570,-0.263323,-0.024021,0.463488,-0.667369,0.705378,-0.043645,0.462266,-0.738845,0.659683,-0.339347,0.456429,0.408908,-0.554841,0.886977,0.586051,-0.548624,-0.447698,0.047838,-0.115972,0.716260,-0.994029,-0.454382,0.956758,-0.125920,0.162848,-0.989688,0.095166,0.155536,-0.517892,-0.763967,-0.321867,0.360971,0.447594,0.569169,-0.504729,0.808865,-1.080872,-0.009543,-0.204216,0.612939,0.050909,-0.122667,0.232458,-0.282491,-0.625047,-0.734269,0.093801,-1.073377,0.350414,-0.958812,-0.485789,-0.962677,0.064665,-0.932924,0.209519,0.886784,0.775389,-0.866766,-0.145812,0.439948,0.744539,-0.297344,0.234361,-0.481090,-0.412743,-0.601214,0.836171,0.347370,0.383722,-0.597128,-0.583871,-0.228456,0.068984,0.503209,0.703411,0.694202,0.977922,-0.246621,-0.847315,0.856092,-0.370089,0.377707,0.092088,0.977971
-0.554794,0.546253,-0.989728,-0.199297,-0.119535,0.491313,0.187419,-0.574714,0.706407,-0.280680,0.705148,0.058966,-0.363732,0.871154,0.290536,-0.572734,-0.490238,-0.910714,-0.073471,-0.546834,0.638474,0.582513,-0.882468,-0.328973,-0.681776,-0.428446,-0.294103,0.887218,-0.306807,-0.785060,-0.751651,-0.275627,-0.622661,0.624036,0.167876,-0.311753,0.016635,0.899855,0.241360,0.263475,0.377403,0.021760,-0.196374,0.271060,-0.472253,-0.379561,-0.838314,0.309522,-0.165176,-0.551287,-0.652934,0.856548,0.356918,0.995379,0.432201,-0.391797,-0.042412,-0.337680,-0.106916,-0.905212,0.500186,0.659703,-0.801090,0.173128,0.928407,0.650996,-0.242281,0.554242,0.892074,0.226217,1.090483,-0.113055,0.522048,0.575232,0.811786,-0.550802,0.713973,-0.442630,0.481890,-0.125769,-0.006607,0.047860,-0.954913,0.711516,-0.562776,-0.594559,-0.932706,-0.915463,-0.876792,-0.322447,0.644055,0.716487,1.054791,0.149563,0.406544,0.595333,0.447850,0.003485,0.197928,1.081045,1.484953,0.200592,0.489716,0.904158,1.694821,1.661369,0.666620,0.767670,-0.582224,-0.859815,0.783896,0.909599,0.907764,-0.465793,0.314055,-0.125102,0.583647,0.812977,-0.173755,-0.254052,-0.548619,-0.059619,0.531358,-1.342302,-0.383917,0.129485,-0.125983,-0.160208,-0.391921,-0.192980,-0.048328,0.671340,0.955354,1.364323,0.919842,1.265191,0.288102,0.555461,0.054191,0.286431,0.460220,0.237467,0.814948,0.813778,0.346631,-0.060601,-0.525014,-0.316923,0.655140,-1.215270,-0.963760,-1.577001,-0.402119,-2.153985,-1.025588,-0.579584,-0.381478,0.291705,0.024839,1.214947,1.640878,1.569809,1.400310,1.275627,0.234367,-0.182567,0.227764,0.429733,-0.643345,-0.418175,0.105805,-0.659064,-0.781526,-0.202482,0.012958,0.529099,0.167950,-0.496660,0.200116,-0.029448,-1.098571,-0.592004,-1.456061,-1.744956,-1.434033,-0.511165,-0.385309,-0.866425,-1.093944,-1.632865,-0.615226,-1.061258,-0.791009,0.303704,0.838918,-0.833079,-0.104187,-0.222334,-0.615543,-0.013702,-0.140585,-0.659649,0.254752,-0.490814,0.141007,-1.353619,-0.698339,-1.114244,-1.256115,-1.110091,0.021884,-0.717549,-2.022692,-1.402068,-0.180423,-2.426099,-1.271468,-1.328229,-0.488182,-1.373555,-0.483123,-0.787993,0.186534,0.741260,0.193601,0.942261,0.119170,-0.584286,-0.426133,-0.756917,-0.109939,-0.453335,-0.267660,0.056567,-0.641104,-0.587256,-0.815672,-0.456263,-1.515442,-1.354266,-1.531505,-0.684374,-2.640659,-2.884183,-2.071853,-3.188915,-1.629810,-2.034363,-1.083346,-1.219505,0.419415,-0.550750,-0.943948,-0.129119,-0.169167,0.498186,-0.219015,0.507549,0.583666,0.006328,0.146470,-0.289663,-0.147429,0.193408,-1.083059,-0.205225,-0.790914,-1.359557,-1.722478,-2.111772,-2.493015,-2.507241,-2.063860,-1.298384,-1.043478,-1.664505,-1.498619,0.410596,0.622374,-0.679703,-0.608423,0.505113,0.950922,-0.056199,0.293124,-1.225687,-0.465611,0.570437,-0.314236,-0.204910,-0.151666,0.017982,0.186422,-0.862181,0.593912,-0.268487,-1.754401,-2.760213,-1.516504,-1.324637,-1.663307,-0.653348,-1.273463,0.077082,0.332220,0.425112,-0.323359,0.848346,-0.579722,-0.181735,-0.435123,-0.688756,-1.071081,0.035110,0.040181,-0.544859,0.348293,-0.335999,0.603943,-0.094969,0.085954,1.186508,-0.043192,-0.052998,-0.285913,-1.514056,-0.118696,-0.733149,-0.671635,-0.285498,-0.385526,0.593293,1.026654,0.493176,-0.489057,0.803292,-0.290977,0.198104,-0.422819,0.808282,0.607787,0.146909,-0.017330,0.763490,-0.711516,0.818877,-0.271821,0.912260,1.340286,0.142634,0.531839,-0.894706,-0.370936,-0.547139,-0.561599,-0.732742,0.404049,0.854393,1.238507,1.285013,0.481624,-0.303822,0.040301,0.264326,0.787018,-0.497437,-0.718481,0.356199,0.227998,0.279491,0.939815,-0.283191,-0.254689,1.063174,0.543429,1.288093,1.342626,-0.980326,-0.018496,-0.162533,0.280243,-0.206990,0.332840,-0.910676,0.796680,-0.309014,0.763907,1.869196,0.482287,-0.431482,-0.449406,0.601367,0.072225,0.509243,0.390425,-0.015836,-0.825831,-1.097191,0.960345,0.601980,0.824624,-0.195058,1.469359,0.962895,0.443579,-0.231487,-1.187586,-0.435993,-0.972904,-1.279965,-0.968040,0.561060,0.729982,0.032032,1.005078,0.714607,0.165307,-0.254052,0.645097,0.585297,0.669695,0.563521,0.618961,-0.521475,0.415377,-0.827491,0.596855,0.414470,0.577390,1.811263,0.430365,1.302327,0.310521,-0.412656,-0.095801,0.400642,0.020870,-0.137921,-0.405070,-0.055426,0.095131,0.205309,0.835830,0.369442,0.114109,0.962416,0.629179,-0.784476,0.465732,-0.493339,0.997153,-0.046890,-1.040671,-0.740031,-0.931820,-0.687785,-0.107982,0.797414,1.254938,0.012097,0.377092,-0.454475,0.385973,-0.217241,-0.025063,-1.098716,0.711913,0.524597,1.139833,0.436414,-0.221147,0.456387,-0.367069,-0.456011,0.460605,0.813547,-0.616041,-0.555784,-0.140576,0.389630,-0.998315,-1.073090,-0.158658,0.016119,0.578955,0.064115,0.940449,0.920157,0.757874,1.291348,-0.101192,-0.755956,-0.860779,-0.874426,1.451860,0.249783,-0.405860,0.016110,0.027030,-0.323090,0.505288,-0.184722,0.125546,-0.421560,-0.078896,-0.711082,-0.278788,-0.789880,-0.896507,-0.494633,-0.733914,0.233513,0.406543,1.418966,0.986870,1.384138,1.115161,0.564657,0.058567,0.493288,0.285841,0.588479,0.797878,0.930639,0.228254,-0.401901,0.615172,-0.875182,-0.447046,-0.226224,-0.829900,0.895963,0.113744,-0.770921,-0.010330,0.761828,-0.635148,-0.081030,-2.141604,-0.189121,1.510591,0.711434,1.602000,1.709308,2.501528,0.839606,0.150837,0.272448,0.293125,0.964906,0.043327,0.691308,-0.255988,-0.038272,-0.579491,-0.846483,-0.564705,0.172462,0.679979,0.542510,0.668574,-0.678313,-0.280416,0.177797,-1.131761,-0.262873,-0.927433,-1.039453,-0.040334,0.128169,1.430649,1.650864,1.121522,1.796737,2.332452,0.585268,0.006743,0.223801,0.505018,0.654372,-0.049613,-0.239286,-1.341792,0.155759,-1.388428,-1.181421,-0.424143,0.313328,0.267430,0.562943,0.452243,-1.057643,-0.078802,-0.999285,-1.659857,-1.175468,-0.700137,0.228128,-0.155999,0.809362,1.760414,1.447733,0.668939,2.362899,1.438140,2.003328,1.281285,0.276398,-0.381632,-0.531724,-0.040047,-1.264915,-0.829861,-0.896081,0.259876,0.936506,0.196639,0.550406,-0.948610,0.249048,0.205187,-0.462455,-1.721003,0.094311,-0.231002,0.009322,-0.338631,-0.716281,-0.232082,-0.219311,0.213567,0.920122,1.294132,0.227699,0.832923,-0.822710,0.182443,-0.495887,-1.133522,0.079465,-0.349232,-0.500967,0.348011,0.804169,0.032296,0.751322,-0.398248,-0.678592,-0.999658,-1.059842,0.418619,-0.787437,-1.325973,-1.192540,-1.631318,-1.631285,-0.995340,-0.664364,-0.981596,-1.020709,-1.219502,-1.262315,-0.257507,-1.091417,0.028148,-0.928286,0.320878,0.288654,-0.385851,-0.955836,-0.114154,0.566422,0.757214,-0.167884,-0.034005,0.746495,-0.052588,0.006562,0.742990,-0.437365,-0.830389,-0.392173,0.347886,-0.205148,0.112716,-0.492226,-0.027694,-0.325146,-0.129297,0.344043,-0.592115,-1.174276,0.780139,-0.202619,0.247860,0.183988,0.330522,0.037775,-0.681720,-0.090105,-0.909401,0.476990,-0.444495,0.525373,-0.026624,-0.679660,0.215361,-0.718115,-0.607798,0.508256,0.034204,0.148523,0.016759,-1.121773,-0.611914,-0.538662,-0.872227,0.862366,-0.131160,0.166078,0.826603,0.631533,-0.589578,-0.699642,0.228131,-0.954841,-0.541253,-0.988381,0.261434,0.537022,-0.379758,0.615847,-0.053326,0.129730,-0.445095,0.136825,-0.571676,0.243676,0.158597,-0.259194,0.269099,-0.403898,0.251118,0.041394,-0.447124,-0.415046,0.754559,-0.690282,0.853434,-0.893160,0.789981,-0.879354,0.200761,0.359172,0.881883,0.190825,-0.771532,0.302116,-0.343173,0.919278,-0.217900,-0.019646,-0.139786,0.092293,-0.518413,-0.956357,0.565482,0.578570,-0.624116,-0.902345,0.446523,0.575812,-0.405670,0.329569,-0.863589,0.093962,0.020027,0.408714,-1.001508,-0.656878,0.706903,-0.889065,0.813198,-0.863523
-0.326990,-0.007139,0.585421,0.899347,-0.347174,-0.790148,0.966626,-0.397455,0.154867,-0.361920,-0.200577,0.395651,0.493700,-0.893593,-0.830108,-0.392383,0.472842,0.616222,0.654841,0.306310,-0.092189,0.520196,-0.754916,0.220544,-0.853056,0.014546,-0.932663,-0.047257,-0.648869,0.036007,0.861001,0.148913,-0.650022,0.277648,0.661912,-0.767034,0.426087,0.092062,0.070407,0.029448,-0.407517,-0.971375,-0.183701,0.239528,-0.034493,0.865092,0.152880,-0.961946,0.773349,-0.353093,0.250181,0.282094,-0.904179,0.935831,-0.143164,-0.650444,0.469986,-0.563745,-0.495059,-0.666326,-0.829192,-0.391640,0.130846,-0.981989,0.121848,0.208256,-0.833211,0.245369,0.784248,-0.670257,-0.907860,0.834318,-0.781557,-0.296970,-0.048249,0.338349,0.471800,0.386663,-0.763127,-0.891044,0.101322,-0.877332,0.122121,-0.255608,-0.998084,-0.664890,0.194449,-0.270212,-0.924331,0.481210,0.009354,-0.093280,0.790537,-0.272944,0.525176,0.120032,0.206389,0.472010,-0.448260,0.647693,-0.593583,-0.449976,-0.698918,0.704990,-0.052455,-0.137594,0.433827,-0.748613,-0.115338,0.322239,0.458976,-0.128649,0.977637,0.742333,-0.055795,-0.970322,0.791713,-0.635991,-0.430795,-0.471457,0.239416,0.186985,-0.322611,-1.642568,0.079805,-1.325200,0.251132,-0.786470,-0.961993,-1.039450,0.054050,-0.649412,-1.082330,-0.772863,-1.053757,0.257055,0.010014,0.071954,0.601510,0.673014,-0.540958,-0.313400,0.285457,0.012693,-0.793871,0.370368,-0.797359,0.020440,-1.333576,0.599776,-0.516549,-0.051383,-0.441187,-1.144423,-1.713165,-2.399065,-1.162721,-2.476464,-1.797060,-1.822539,-0.302302,0.121404,0.220777,0.236812,-0.528447,0.710765,0.586302,0.268800,-0.663152,0.434065,0.171647,-0.234205,0.281253,-0.004295,-0.159108,0.156026,-0.165215,0.754422,0.070720,1.133293,-1.264394,0.268939,-0.320068,-0.397749,-0.039104,-0.180414,-0.771730,-0.960562,-1.002528,0.097446,-0.321886,-1.365064,-0.566089,-0.791561,-0.585315,-0.729392,0.049277,0.961238,-0.393932,-0.686330,0.718504,0.571426,0.280259,1.253292,1.305990,1.438206,0.444395,1.451078,0.845583,-0.830221,-0.407718,-0.014964,-0.625931,1.335230,0.407555,0.416674,-0.728992,-0.117887,-0.376301,0.469684,-0.318790,-0.442985,-0.487574,0.788070,0.971868,-0.772861,-0.048521,0.762856,0.082886,0.261516,0.145942,1.943430,0.016765,0.985071,0.432247,0.272169,1.052211,0.968767,0.068844,0.275720,-0.000893,1.017554,0.525290,0.328538,0.673128,-0.314888,0.750660,-1.106003,-1.203485,0.185273,0.199229,-0.514700,-0.524299,0.404173,0.097223,0.601678,1.178267,0.032402,1.070316,0.336228,1.036322,-0.310951,0.312312,1.360653,0.991396,0.437969,1.654483,0.981927,1.030535,0.378843,0.594052,-0.413987,-0.008703,0.769655,0.239229,-0.322531,-0.129163,0.797724,-0.732438,-0.808907,-0.708966,-0.693233,0.744895,1.433243,1.773455,1.391678,0.803839,-0.337011,0.774413,-0.065989,-0.394516,0.238491,0.183742,0.847250,0.944733,1.275673,2.423576,1.245487,1.226232,1.011419,0.444434,0.297591,-0.224466,-0.877238,-0.884131,-1.007631,-0.603559,-0.385497,-0.464673,-0.565063,0.506917,0.577504,0.594063,-0.051179,0.769318,0.083589,-0.000276,-1.158573,-0.579429,0.517473,0.852747,0.220171,1.123806,1.006048,2.458846,0.607165,0.972871,0.519475,1.778879,0.417407,0.796820,0.703918,-0.521224,-0.652613,-0.314999,-0.655220,0.833202,-0.871469,-0.196506,1.031899,0.522934,-0.263242,-0.211323,-0.175099,-0.138613,-0.586200,-0.369129,-1.067837,-1.159840,-0.941013,-1.991393,0.663911,1.453788,0.805907,0.302854,-0.592248,-0.483346,-0.132115,-0.771711,0.067764,-0.276338,0.131909,-0.358373,-0.560759,0.482066,0.427755,-0.357677,1.191258,1.002927,0.248176,0.108835,-1.227844,-1.613340,-0.540873,-0.767045,-2.205150,-1.992955,-3.045434,-2.277397,-1.560759,-0.086886,-0.945315,-1.938717,-0.060349,1.192318,0.113786,0.767521,0.572195,-0.106250,0.114531,-0.043896,0.254136,0.626986,-0.863728,-0.308197,0.927112,-0.246366,-0.767017,0.001811,-1.676287,-0.365863,-0.833094,-1.440376,-2.541450,-1.815241,-2.566578,-1.675505,-0.253729,0.812394,0.311258,1.191327,1.592939,0.437771,1.733553,0.958063,0.099912,-0.375358,-0.311282,-0.341159,0.390403,0.298150,-0.432929,-0.773793,0.729878,0.334821,-0.850959,0.060778,-0.520252,-0.587326,-1.823148,-0.789763,-1.257073,-2.362949,-1.184265,-1.453197,-0.051300,0.006900,0.176199,0.838244,2.045322,1.610190,0.454561,0.313674,-0.533414,-0.375057,0.162177,-0.400146,-0.135214,0.104381,-0.447335,0.216452,-0.016109,0.227384,-0.711589,-0.353453,-1.132299,-0.564931,-0.951946,-2.155857,-1.273558,-0.777635,-0.741111,-0.121403,0.377457,0.080638,0.756950,0.296990,0.939483,1.257288,-0.314580,-0.009118,0.178156,-0.234543,-0.573666,0.496663,0.275619,-0.530538,-0.076580,-0.978950,0.119797,-0.332795,-0.832202,-1.022994,-0.300716,-0.995786,-0.405043,-1.618287,-1.523306,-0.729862,-0.411924,0.009278,0.954060,-0.251942,-0.359270,1.077751,0.835582,-0.162887,0.048246,-0.116421,-1.389307,-0.427109,-0.262057,0.929313,0.136846,0.925317,0.632764,0.456649,0.567559,-1.340331,-0.377031,-0.797402,-1.292532,-1.651003,-0.980064,-1.998527,-1.030817,0.242185,0.983777,1.491232,-0.470733,-0.397024,-1.052461,-0.884086,-1.218683,-0.616214,-1.563111,-1.162504,-0.222858,0.348946,-1.010434,-0.880040,0.880859,0.231393,-0.563828,0.724286,0.338651,0.007096,-0.946807,-1.884136,-2.307934,-0.731857,-1.265906,0.337272,-0.600596,-0.041328,-0.123039,1.066264,0.176697,-0.440712,-0.265001,-1.544630,-1.301692,-1.446138,-0.670230,-0.549196,0.077456,0.089584,-1.094329,0.865123,0.815222,-0.335572,0.257910,-0.493679,0.423305,-0.179306,-0.568548,-1.828594,-2.293328,-0.997226,-0.976362,-0.585817,-0.378499,-0.541909,-0.189620,-0.139634,-0.256913,-1.513093,-1.790493,-0.281799,-2.286793,-1.820758,-0.984784,-0.450966,-0.154830,0.349903,0.748347,-0.627565,0.556718,0.580528,-0.351003,-0.501098,0.654029,0.649714,-0.774087,-0.244516,-0.502229,-0.679781,-1.158645,-0.801985,0.131010,-0.097728,-1.292873,-0.510847,-0.714064,-0.470041,-1.116032,-1.012444,-1.434420,-0.765673,-1.621400,0.039380,-0.959953,-0.985649,-0.180493,-0.117714,-0.951371,-0.168031,0.177950,-0.421872,-0.806438,0.327676,-1.096586,-1.080925,0.597275,-0.598060,-0.498119,-0.061389,-0.635403,-0.850105,-0.854907,-0.597224,-0.460385,-0.760092,-1.219770,-0.565168,-0.367011,-1.309706,-0.796457,-1.270362,0.453699,-0.657950,-0.879192,0.571249,-0.339026,-0.686049,0.951066,0.010568,0.398678,-0.601282,0.793586,-0.146408,0.538563,-0.663067,0.276343,-0.702493,-0.232440,-1.269172,-0.195700,-0.540406,0.966050,-0.881014,-0.631435,-1.094557,-1.488760,-0.858468,-0.708586,0.309762,-0.488671,-0.353294,0.510973,0.547201,0.595687,0.843596,0.128935,-0.097085,0.371598,1.047243,-0.024873,0.396490,0.439298,1.320002,0.684278,0.321480,-0.024109,0.624842,-0.172336,-0.214781,0.050556,1.254270,-0.372530,0.391355,-0.434458,-0.301535,-0.250583,0.128487,-0.807652,-0.736266,-0.492934,0.270754,0.576505,0.023738,0.131488,0.311221,-0.308408,-0.325994,1.223850,1.513263,1.183949,0.562547,0.691245,0.124270,1.097273,0.742961,0.677080,1.186268,0.187033,0.833185,-0.250087,1.091763,-0.732208,0.083519,0.115303,0.701083,0.378473,0.655960,-0.070253,-0.133037,-0.025451,0.859997,-0.358112,0.719392,-0.350468,0.433069,0.309177,-0.792501,0.518667,-0.346612,0.711740,-0.400140,-0.222225,-0.084437,0.567667,0.408736,0.761751,0.120580,1.299751,0.721292,-0.887383,0.913236,-0.180096,0.057076,-0.859746,0.524125,0.215167,-0.508988,-0.281720,-0.951234,0.012350,-0.092182,-0.910184,0.642306,-0.910627,0.339550,0.643945,0.818128,-0.919615,0.432516,-0.658133,-0.124559,-0.096439,0.371695,-0.331933,-0.684763,-0.305958,-0.072313,0.579742,0.492921,-0.086968,0.269210,0.380283,0.152588,0.326034,0.119259,-0.957403
0.078303,-0.345961,0.292665,0.094345,0.416880,-0.690084,-0.349392,-0.364668,-0.474707,-0.067022,0.289213,-0.019365,0.195613,0.401058,0.183379,0.861562,0.793538,0.080254,-0.358095,-0.843081,-0.507339,-0.018217,-0.228238,0.084625,0.026991,-0.275190,-0.567505,0.034002,0.807940,-0.168508,-0.972911,-0.904662,-0.458691,-0.486887,-0.676550,-0.788253,-0.661703,0.614152,-0.956869,0.663846,0.137228,0.466979,0.583957,-0.381733,-0.173479,-0.332136,0.161094,-0.430783,-0.666478,0.797599,0.798065,-0.220163,-0.136314,0.787030,0.463297,-0.593758,0.884072,-0.487032,0.682796,0.377125,-0.731447,0.017786,0.231758,0.423196,-0.742967,0.644956,0.403772,-0.700395,-0.323358,0.261167,-0.233453,-0.754494,-0.659506,-0.063561,0.225493,-0.992473,0.657350,0.652273,-0.666867,0.278171,0.296041,-0.270946,0.584660,-0.989325,0.857167,0.263451,0.309262,0.474107,-0.224980,0.299811,-0.459189,-0.909995,-0.085080,-0.939616,0.413403,0.067329,-1.158539,-0.287325,-0.688545,-1.459408,-1.828269,-1.473621,-1.340161,-1.485657,-0.919011,-0.434044,-0.550866,-0.563559,0.725771,-0.267669,-0.732585,-0.694941,0.402437,-0.626640,-0.224904,-0.100478,-0.634645,0.494484,-0.496141,-0.804458,-0.438765,0.317633,-0.833518,-1.567155,-0.719752,-0.215227,-1.741235,-1.515020,-1.376862,-2.224780,-1.999090,-2.028510,-1.298275,-1.242330,-1.149451,0.008990,-0.126555,0.371283,0.576197,0.446632,0.550653,-0.129534,0.037020,0.700941,0.864242,-0.191629,-1.376435,-0.160945,-1.006282,-0.754220,-0.497844,-1.463587,-0.492173,-0.220953,1.196752,1.287855,-0.485248,1.573113,-0.487240,-0.864869,-0.418520,-1.539925,-0.585884,-0.021097,-0.853282,0.826337,0.626754,0.203288,0.791981,-0.901544,-0.391595,-0.366495,-0.079104,-0.186513,-0.019013,-1.861994,-1.372218,-1.436461,0.222151,-0.131792,0.675007,0.790751,-0.503247,1.241183,0.076902,0.863067,-0.323562,-1.142713,0.181445,0.528036,0.059594,-0.220610,-1.426688,-0.763005,-0.521836,0.286698,0.097188,0.871694,0.239145,-1.007361,-1.226797,-0.942858,0.174200,0.058587,-0.626167,0.637924,0.669197,0.133906,0.729994,-0.101988,-1.598608,-1.278969,-0.329810,-1.790461,-0.083829,-0.837742,0.449227,0.238186,-0.302027,0.844515,0.881024,-0.205662,-0.400200,0.136415,0.713170,-0.162069,0.538165,-0.426071,0.430989,-1.392035,0.620100,-0.081108,0.664688,1.020347,0.757598,1.027260,0.020035,-0.512414,-0.107094,-0.383139,-0.315830,-0.894927,-0.283266,-0.864017,-0.124766,0.405987,0.869587,1.571156,0.732755,-1.117217,-0.132476,0.610631,0.578825,-0.011270,-0.924088,-0.102913,-0.404673,0.350155,0.766062,1.349766,1.554036,1.962977,0.386552,0.783182,0.166795,0.245886,-0.198847,-2.591355,-1.424641,-0.126286,-0.001342,0.667172,0.870374,1.619964,0.750747,0.573495,-0.058196,0.326444,-0.879426,-0.476557,-0.210653,0.146184,0.064231,0.088023,-0.237770,-0.811815,1.302825,0.844849,1.871972,1.074865,1.149057,0.101686,0.867046,-0.655752,-1.644864,-4.182453,-1.740589,-1.135524,-0.521643,0.955415,0.451148,0.706115,2.245011,2.427516,1.486053,0.442807,-0.753903,-0.620713,0.312813,0.138897,0.264196,-1.115362,0.032067,0.999046,0.705454,1.496528,0.905135,1.483052,1.374540,1.026535,1.445247,1.937199,-0.666987,-0.867797,-1.251362,-0.269694,-0.339737,1.366582,1.291455,0.100476,1.483257,1.387779,0.675403,1.299282,-0.361899,-0.395903,0.916631,-0.168801,0.096940,-0.020079,0.974327,-0.319510,-0.589771,0.957284,0.690692,0.704167,-0.205712,-0.495612,2.347422,1.692432,0.533655,-0.686967,-0.044341,0.206399,-0.182890,0.733200,1.414753,1.441041,1.481871,1.415536,1.118155,1.037605,0.166205,0.564015,-0.290608,-0.595126,0.311194,0.442955,-0.752340,-0.959351,-0.721831,-0.658587,-0.780515,-0.481898,-1.818445,0.941384,2.316505,0.767206,-0.972858,0.986983,0.475664,0.083429,-1.212371,0.201442,0.707345,0.118494,-0.998390,0.512322,0.354240,0.758711,0.970213,-0.227842,-0.458053,-0.931728,0.283904,-0.348814,0.632067,-0.971692,-2.016222,-2.673453,-2.584518,-2.384674,-1.243514,0.921853,1.718073,0.146377,0.571140,-0.360554,-1.123800,-1.448110,-1.481808,-0.542929,-1.208483,-1.479749,-1.275707,-1.725240,-0.962468,0.814332,-0.642148,0.598540,0.880020,0.758934,-0.457345,-0.828755,-0.676078,-1.818814,-2.648944,-3.544219,-2.389420,-0.980603,-0.794035,1.270725,1.434060,0.421687,-0.328549,-0.558378,-0.387774,-1.460246,-1.512108,-2.538151,-1.931562,-2.585625,-0.907957,-2.079202,-0.399554,-0.438567,0.462506,0.125387,-0.443379,0.728847,0.715065,0.417924,0.337107,-0.627714,-2.504238,-2.483176,-0.554119,0.088995,1.597757,1.159281,0.904858,-0.257724,0.083911,-0.084423,-1.016698,-1.543691,-2.323435,-2.442034,-2.826947,-2.362103,-1.164735,-1.036477,-1.252298,0.304989,-0.439294,-0.728731,-0.460769,-0.350775,0.677238,0.533415,-0.303176,-0.816933,-2.867654,-0.827144,1.769839,1.936005,1.232427,1.837228,1.780330,-0.531443,-0.136015,-0.213445,-0.944458,-0.929164,-1.187622,-2.656397,-1.177190,-2.124319,-0.830225,-1.198206,-1.408567,-1.024499,0.105941,0.732099,0.145477,0.251523,-0.400098,0.027118,-0.538787,-2.002507,-1.397575,-0.363313,1.582431,1.444432,1.533545,2.638382,2.601845,-0.181016,-2.812146,-0.844848,-2.018058,-1.503421,-1.177936,-1.116932,-1.567989,-1.804905,-1.406180,-1.481776,-0.544266,-0.470673,-0.850303,0.637457,0.181810,0.723392,0.887786,-0.853168,-0.356882,-1.602144,-1.336730,-0.365200,1.254125,2.732764,1.667748,1.396650,1.089109,-1.471158,-2.157718,-1.382848,-0.348331,-0.912127,-0.295281,-0.580811,-0.492658,-1.307632,-1.160685,-0.965358,-0.809138,-0.603922,0.469882,-0.333783,0.670220,0.847391,-0.276907,0.359038,-0.517859,-0.924341,-0.331174,0.977346,-0.224265,0.865047,-0.129391,-1.462987,-0.125736,-1.300287,-1.717324,-1.233310,-1.528318,-0.571630,-0.679935,-1.416552,-0.171690,-0.489009,-0.130102,0.296501,0.007538,0.024572,0.777744,-0.218533,0.139882,-0.075173,-0.720295,-0.655311,-0.324725,-1.694821,0.787683,-0.051459,0.536980,-0.081906,-0.753816,-0.291803,0.286306,0.006379,-0.470017,-1.189405,-1.467998,-0.985864,-0.329238,0.883866,-1.040244,0.793687,0.978997,0.694186,-0.519266,-0.156563,-0.848655,0.842004,0.649344,-0.729535,0.197533,-1.213959,-0.579049,-0.929296,0.770471,0.317737,0.531488,-0.061578,-0.216659,0.694726,1.070641,2.932685,1.322725,0.150623,-0.074529,0.996536,2.094481,-0.094874,0.566289,0.147629,-0.182412,-0.859258,0.087537,0.877157,-0.819212,-0.865067,-0.986994,-0.041641,-0.808915,-0.141344,0.196499,-0.671883,-0.164441,-1.897232,-1.340100,-0.625808,-0.426647,1.144659,0.868903,2.735708,3.212641,2.482098,1.473185,1.353653,2.894234,1.163268,-0.068981,-0.622759,0.181560,0.927625,0.897557,0.881218,0.057548,0.581197,0.528770,-0.731466,-0.243440,0.780302,-0.510839,-0.270745,-0.128469,-0.417791,-0.881799,-0.848823,0.270164,-0.020793,-0.543065,0.556057,1.227527,1.444854,2.334061,-0.007216,0.148301,1.082195,-0.115164,0.872718,0.495372,0.418019,-0.740680,-0.154599,-0.010836,-0.272136,-0.180251,0.524211,-0.360331,0.039802,-1.022867,-0.729328,-1.126893,-0.672346,-0.570465,-1.589411,-1.822383,-2.012612,-2.654829,-1.910596,-1.009955,0.391657,0.146929,-0.832590,0.071470,-0.552239,-0.567519,-0.882175,-0.784451,0.600729,0.898644,0.652029,-0.148497,0.645922,-0.094336,0.313927,0.230008,0.074416,-0.894182,0.448513,-1.035710,-0.804894,-0.457048,-0.949735,0.311633,-1.683761,0.025524,-0.987895,-1.417953,-1.293634,0.375742,-0.498154,-0.977221,0.796574,-0.597541,0.578567,0.942712,0.048281,0.725018,0.946504,-0.469126,-0.805972,0.575352,0.328443,-0.723789,0.255424,-0.141143,0.986488,0.754562,0.400308,-0.216722,-0.005901,-0.207428,-0.182519,0.597901,-0.708310,0.294758,0.688808,0.329191,0.687966,-0.917489,-0.407114,-0.308703,-0.216304,-0.178635,-0.711711,-0.330170,0.704900,0.201123,-0.804412
0.107251,-0.450546,-0.526434,-0.107166,-0.031223,0.868071,0.202504,-0.550312,0.803241,0.939305,-0.973969,-0.502106,-0.919305,0.593291,0.782855,-0.384751,0.945337,0.018734,-0.740035,-0.982444,0.420443,-0.558579,0.946999,-0.020841,0.838848,-0.364069,0.880302,-0.427041,-0.989600,-0.255724,0.316716,0.381226,-0.864118,-0.602196,-0.828442,0.193809,0.506158,0.698087,-0.280031,0.046005,-0.726204,-0.048406,-0.048980,-0.774627,-0.418200,0.877143,0.917333,0.440544,-0.390151,0.926462,-0.363830,0.327491,0.109671,-0.251114,0.248232,-0.895789,0.522325,-0.587004,0.087231,0.084433,0.861619,0.547126,-0.988702,-0.341696,-0.896515,-0.133935,-0.409606,-0.863984,0.908481,0.414625,-0.274663,-1.149840,0.459374,-1.048120,-0.880739,-0.496639,0.154967,-0.298123,0.415293,-0.295043,-0.046536,-0.115899,0.359692,0.919647,0.440402,-0.768755,-0.660511,-0.290964,-0.788088,0.141670,0.275047,0.070997,0.496104,0.309208,0.822730,-1.031461,0.656523,0.402145,0.342251,-0.415580,-1.023227,-1.114073,-0.673705,-0.103786,-1.043999,-0.690271,0.472876,-0.570969,0.728414,-0.199278,0.192590,0.209535,0.047147,0.143973,-0.170883,0.198610,-0.568988,-0.289016,-0.185521,0.675155,0.243246,-0.603918,0.474784,-0.884086,-0.523973,-1.188531,-1.476455,-1.369975,-2.792263,-2.060719,-1.807864,-0.905377,0.062689,-0.889553,-0.347798,0.549045,0.387990,-0.363414,-0.087204,0.329707,0.586644,-0.869782,0.564291,-0.464811,-0.713011,-0.461225,0.195713,-1.369086,0.113269,-1.147185,-1.933311,-0.610552,-0.827815,-0.142319,-0.745736,-0.825754,-2.015575,-3.249023,-1.874857,-2.104471,-1.757808,-2.180174,-0.780809,-1.474485,-0.593793,-0.369898,-0.895758,0.220227,0.481705,-0.489501,-0.376374,-0.744705,-1.096175,-1.273759,-1.467198,-1.862143,-0.757396,-0.951178,-1.075464,-0.011964,0.694877,1.408267,1.308699,2.406335,1.766254,0.056917,0.895192,-1.190908,-0.648388,-0.689598,-1.909669,-1.217350,-1.866281,-0.620497,0.233537,-0.167876,-0.811590,-0.109689,-0.020373,-0.191181,-0.116639,0.039481,-1.723761,-1.182484,-1.883210,-2.395500,-0.803427,-0.178170,1.356396,2.464689,2.552919,2.561489,3.335180,1.063861,0.761669,-0.021469,-0.806296,-1.753260,-1.692157,-1.555369,-0.236938,-1.261813,0.790768,-0.951907,0.690981,-0.643521,0.039005,-0.243897,-0.106351,-1.583297,-0.844784,-1.697279,-2.509858,-1.393551,-0.850206,-1.607833,-0.687102,1.007371,1.756414,2.538017,1.657850,0.181063,-0.181182,1.065985,-0.708877,0.351436,-0.971073,-1.074524,-1.221307,-0.095583,-0.550801,-0.445312,0.681577,0.517914,-0.597779,-0.469199,-0.557887,-0.615594,-1.070128,-0.829500,-0.859139,-1.426174,-0.856604,-0.022045,-0.949959,0.867207,0.986481,1.484342,0.300234,-0.659292,-0.475796,-0.912158,0.117273,-0.792118,0.167369,-1.382488,0.095893,0.574004,-0.296106,-0.992052,-0.295220,-0.966910,0.214359,-1.343340,-1.436854,0.130625,-0.476499,0.040716,1.016424,0.138974,-0.866113,0.256316,-0.750831,0.576821,-0.901856,-0.935680,-1.279946,-0.495151,-0.725142,-0.390349,0.167434,-0.870763,-0.243257,-0.985021,-0.194928,0.584912,0.661320,-0.203210,-0.311076,0.028732,-1.061364,-1.190848,-0.843780,0.553390,0.894252,0.361451,0.950072,0.658155,0.469368,-0.300966,0.349029,-0.785846,-1.270413,-0.436057,-0.346027,0.519933,0.487238,0.545512,1.064368,1.025620,0.733106,-0.135712,-0.597810,-0.786606,-0.550766,0.796517,-0.217292,-0.483234,-0.117142,0.022631,0.639048,1.910618,1.262938,0.584294,1.323608,1.719034,1.096149,0.938004,0.319287,-1.168995,0.451797,0.261059,0.919623,0.002394,0.645479,1.272333,2.365061,1.646036,0.718777,-0.093506,-1.043662,0.553440,0.356740,-0.675018,0.648576,0.758238,-0.517838,0.702732,1.670453,1.959770,1.895856,1.489106,0.699083,1.267390,0.995480,-0.300903,0.599882,0.556204,0.681041,1.106433,0.582294,-0.388802,1.848060,2.011746,1.098137,1.643926,0.609191,0.158917,0.158596,-0.547137,-0.896590,0.982843,0.801753,0.354691,0.645548,1.117889,0.463461,1.539482,0.560289,0.703754,0.800361,1.161463,0.772207,0.715247,0.094424,-0.280057,0.592355,0.664163,0.817337,1.052767,0.100887,0.785327,1.031917,-0.026791,0.014278,-1.579799,-0.172022,0.260712,0.759191,0.556219,0.679571,-0.277623,-0.964856,0.995134,1.367360,1.039850,-0.269309,-0.574086,0.206816,0.179990,0.306436,1.297631,1.189832,-0.031181,-1.236907,-0.042743,1.048290,-0.098223,-1.361574,0.247607,-1.081824,-0.880944,-0.921282,-0.520237,-0.406560,0.204602,-0.081404,-0.656270,0.801920,-0.605902,0.890775,-0.191244,-0.186851,-0.383120,-0.351944,-0.263964,0.332363,-0.042249,-0.113121,1.175865,-0.093963,-0.970948,-1.373507,-0.204281,0.293453,0.048971,-0.229412,-1.577728,-0.503552,-1.714076,-0.527308,-1.081244,-0.988386,-0.120087,0.010566,-0.873619,-0.432602,-0.390788,-0.694046,0.884958,0.812823,0.586794,0.311186,0.783384,-0.208093,0.896212,0.581276,0.900420,-0.713610,-0.448691,-1.549300,-0.537996,-0.136573,-0.110474,0.402370,-1.091608,-0.939161,-1.109509,-1.604078,-1.153899,-0.735300,0.295876,-0.656921,0.567003,0.893345,-0.139825,-0.608637,0.078752,-0.194265,-0.989472,-0.390648,-0.680727,0.391517,-0.180441,-0.414777,-0.126988,-0.205350,-0.185607,-0.810737,0.519633,-0.286984,0.449818,-0.587978,-1.084346,-1.385568,-1.693042,-0.427314,-0.211173,-0.991326,0.135311,0.954125,-0.499947,-0.399045,0.725432,0.657897,0.386817,-1.480817,-1.826483,-2.217846,-0.559520,-1.696063,-1.248354,-1.713286,-0.523073,-1.041812,-0.369797,-0.818760,-2.055915,-1.273370,-0.536568,-0.998798,-0.021247,-1.116419,-1.834763,-0.614440,-0.767686,-1.070619,0.868279,0.613508,-0.943806,-0.536462,-0.952008,0.639220,0.097880,-0.632454,-1.352145,-0.877589,-1.536663,-2.433019,-1.806314,-2.257361,-1.948361,-2.651699,-2.429387,-1.616030,-1.054082,-0.441043,-1.159521,-1.405035,-0.141455,-0.844617,-0.902305,-0.248896,-0.439198,-0.457175,0.343269,-0.124916,-0.586343,-0.084904,0.389572,-0.339264,-1.068057,-0.230379,-0.603593,-2.362317,-1.387294,-1.270767,-2.244609,-1.430844,-2.059817,-0.808283,-0.945078,-1.636817,-0.744464,-2.013774,-2.027522,-0.000461,-0.438346,0.205991,-0.362619,-0.630328,0.870742,-0.350194,-0.415685,-0.804200,-0.923434,-0.346995,0.066630,-0.346719,-0.167761,-0.551629,-0.687244,-1.262654,-1.850586,-1.121938,0.144322,-0.484244,-1.612395,-0.284935,-0.866413,-1.697136,-0.797104,-1.702561,-0.212560,-1.138852,-0.810918,1.127995,-0.025336,-0.518782,0.252455,-0.436090,0.583932,0.506534,-0.286050,-0.604577,-0.103816,0.062080,-0.901006,0.110897,-1.050522,-0.313570,-1.041847,-0.206279,-1.230953,-0.749631,-1.470783,-1.094808,-2.045955,-0.648869,-1.087947,-1.485570,-1.480308,0.874988,-0.637475,0.149328,1.250285,-0.434836,-0.568136,-0.593504,0.300716,0.996443,-0.032902,0.295690,0.879252,-0.239730,-1.001012,0.895411,-0.864270,0.284588,0.421770,-0.127526,-0.153615,0.292033,-0.554829,0.100810,-1.675881,-1.599971,-0.510537,0.443713,1.308145,1.060155,1.125720,2.269808,0.955407,1.418509,0.293366,0.695722,0.095456,0.998593,0.925702,-0.666734,-0.500546,-0.280086,0.899731,0.392561,1.096945,-0.226768,-0.653111,0.840212,0.377709,0.120042,0.371989,0.957198,0.249124,1.555843,0.218261,-0.015842,0.922353,1.815028,1.840203,0.951993,1.245976,0.860548,0.147333,-0.010034,-0.040344,-0.738541,-0.256515,0.607200,0.621631,0.654940,0.970932,-0.057850,-0.421842,0.025803,0.470496,-0.775072,-0.597311,-0.963827,0.245826,-0.072522,-0.587838,-0.113350,1.245495,-1.004530,-0.674924,0.424638,-0.660180,0.346307,0.046604,0.117727,0.703588,0.410580,0.272980,0.024713,-0.502877,0.731890,-0.998239,-0.473226,0.855300,-0.635060,0.309433,-0.688676,0.146959,-0.815397,-0.893703,-0.847259,-0.946651,-0.297440,-0.346271,-0.977463,-0.332381,0.129033,-0.531855,-1.142318,-0.325484,-0.506618,0.324659,-0.486881,0.968001,-0.119503,0.992303,-0.956269,-0.280399
