0.656302,0.153103,0.175240,-0.573811,0.008442,0.733962,-0.544218,-0.746334,0.709617,0.955066,0.001111,-0.873860,0.455796,0.797216,0.276408,0.429340,0.284303,0.417010,0.794381,-0.470248,-0.426938,-0.511737,0.432463,0.531048,0.360697,0.290176,-0.064227,0.987680,-0.277049,-0.901786,0.676707,0.123766,0.757555,-0.465324,0.040795,-0.565409,0.001059,0.196408,0.289137,0.059163,-0.588225,-0.112572,-0.399926,0.091496,-0.048517,-0.136491,0.976194,-0.350819,0.326139,-0.357800,-0.100116,-0.826837,0.856769,0.897415,0.080107,-0.047012,0.510650,-0.174737,0.843565,-0.383840,0.411528,-0.285228,0.244221,-0.942589,-0.796911,-0.899170,-0.876930,0.750437,-0.205651,0.761482,0.532428,0.137585,-0.223877,-0.468387,-0.056413,-0.981477,0.722085,0.443578,-0.539791,0.235610,-0.160795,-0.423081,-0.443139,-0.040492,-0.568210,-0.211679,-0.089061,-0.028514,-0.441820,0.860244,0.745725,0.377584,-0.148480,-0.468260,0.926953,0.174079,0.044333,-0.104104,0.160998,1.058126,-0.183483,-0.116725,0.861544,0.664143,0.084395,0.146042,0.313001,-0.754409,0.681651,0.790527,-0.768931,-0.300658,-0.280755,-0.278962,-0.851072,-0.705831,-0.646316,-0.444293,0.566632,0.217401,0.792536,0.696453,0.416260,0.115480,0.663541,0.748001,-0.120681,-0.079280,-0.127372,-0.914163,0.246826,-0.087037,0.803174,-0.695682,-0.774595,0.441377,0.553134,0.720824,0.090008,0.951482,-0.614684,-0.765650,0.975044,-0.166818,-0.240657,-0.531792,-0.369141,-0.336954,0.106978,0.706658,0.582144,-0.051523,0.055433,-0.762585,0.577970,-0.039010,-0.540655,0.446577,0.963276,0.091484,0.615012,0.315837,-0.381194,0.689583,0.706119,-0.527211,0.453019,-0.296855,-0.706067,-0.490062,-0.027997,0.576886,-0.129847,0.408103,-0.709091,-0.197648,0.563980,0.962103,-0.001298,0.234955,0.862730,0.356013,0.650132,0.455042,0.362312,0.083319,-0.161113,-0.718332,-0.674941,-0.303904,0.881688,-0.507146,0.382955,0.178362,0.578761,-0.367764,0.742382,-0.315504,-0.829069,0.249034,0.059504,-0.130230,-0.641709,1.084213,-0.218547,-0.209246,-0.256585,-0.292081,1.152878,0.086936,-0.741563,0.417955,0.854556,0.438551,-0.038658,0.853277,1.152119,0.634913,0.452104,-0.954944,-0.021199,-0.668983,0.107318,0.177210,-0.446892,-0.289404,-0.198214,-0.209851,-0.120084,-0.748655,0.753494,-0.795212,0.415491,1.021132,0.352381,0.540986,-0.259830,-0.492027,0.918297,-0.050000,0.052200,0.212822,0.965636,0.042315,-0.182276,0.759621,-0.239469,-0.684534,0.048501,0.889359,0.038723,0.190873,-0.607268,0.907282,-0.861706,-0.754556,-0.440760,0.502001,1.019663,0.418808,0.134769,1.063429,-0.291651,-0.101331,-0.498386,1.075701,0.610531,0.632284,-0.973099,-0.167084,0.948794,-0.558594,0.233093,0.666881,-0.427875,-0.899132,0.395494,-0.622452,-0.318752,-0.827800,0.938767,-0.240576,0.468810,0.948615,-0.950558,-0.004420,0.716938,0.034152,0.896234,0.732662,-0.189309,1.017177,-0.003530,-0.458527,1.078371,-0.273551,0.878501,0.079782,0.445938,0.995410,0.888587,0.260834,0.213801,-0.556457,-0.282667,-0.563913,0.344381,-0.502258,-0.768622,0.407749,0.944790,-0.073053,0.810914,0.074180,-0.494093,-0.310691,0.966136,0.082832,0.922095,-0.273823,-0.499550,0.190024,0.845647,-0.723610,0.604624,0.416899,-0.549733,0.314291,0.995865,0.107624,-0.292732,-0.115626,1.049965,0.651719,0.259898,0.716686,0.543889,0.613104,0.941721,0.757032,0.322083,0.513311,-0.344640,0.483805,-0.390573,0.955375,-0.564958,1.201839,0.181412,-0.379398,1.021090,-0.169674,-0.143269,0.874992,0.152578,-0.647454,0.145122,0.705602,-0.952935,-0.175607,-0.420226,-0.389257,1.005235,0.149978,-0.959052,0.337341,-0.084555,0.883831,0.846049,-0.780045,1.200775,0.002332,-0.609149,0.922465,0.137081,-0.052715,-0.495403,1.060199,-0.805416,0.191447,0.532116,-0.834234,-0.695940,1.145059,-0.468675,-0.845559,-0.243877,0.107519,-0.309333,0.770542,-0.256172,0.884148,-0.862985,0.833436,-0.762090,0.309249,-0.807565,-0.381028,-0.480173,0.223956,0.343950,0.446490,1.119549,1.238177,-0.227609,-0.306801,-0.312871,-0.544020,0.917024,0.937848,0.448484,0.901498,-0.674067,-0.712415,-0.097845,0.342657,-0.565670,0.352972,-0.949509,0.347520,0.049295,0.210183,-0.111317,0.792888,-0.143209,0.512944,-0.660795,-0.157557,-0.158159,0.607453,-0.608838,-0.314270,1.026807,0.863010,-0.663288,1.054281,0.928884,-0.201053,-0.023251,0.889589,0.773278,0.527951,1.114080,0.937263,0.332052,0.867861,0.259131,-0.448204,0.576126,0.816795,0.908225,0.518263,0.646460,-0.641611,0.229390,-0.517565,-0.023275,0.545884,0.195295,1.062105,0.273292,0.986161,-0.503875,0.118532,0.551133,-0.537158,-0.051875,0.626354,0.812506,0.340519,-0.773855,-0.543704,0.074920,0.918741,0.152137,0.833746,0.181859,-0.975712,0.851923,0.232391,-0.842677,-0.788131,0.797381,-0.360206,0.835082,0.503427,-0.078589,-0.242360,0.387870,-0.080900,-0.029490,-0.082361,-0.174789,0.985684,-0.154745,-0.503964,0.332941,0.993088,0.703811,-0.654467,-0.028540,-0.292801,-0.904254,0.288490,-0.006594,0.718693,0.272162,-0.994787,-0.121707,-0.785966,0.338109,0.232406,-0.597964,0.583758,0.234194,0.951932,-0.349685,0.561057,0.838522,0.298502,0.712164,-0.608828,1.055334,-0.775562,0.575348,-0.332188,-0.660299,0.563659,0.686884,-0.526042,0.854073,0.285987,0.325345,0.992887,-0.234192,-0.977404,-0.458384,-0.865474,-0.742699,-0.745183,0.282725,0.587340,0.111973,-0.047006,-0.034844,-0.465694,0.950080,0.673491,-0.675932,0.053744,-0.185844,0.864906,1.201623,-0.531809,-0.270033,0.144904,-0.086507,0.442210,-0.019209,0.802329,-0.322681,-0.140497,0.302255,-0.670816,0.421925,0.749414,1.011791,-0.155052,0.095984,0.155295,0.273241,0.087085,-0.183552,-0.288395,0.657113,-0.252958,-0.494200,0.104723,-0.044998,-0.448506,-0.348313,-0.318449,-0.896344,0.365284,-0.064051,0.366348,-0.034050,0.444968,-0.273328,-0.494346,-0.739926,0.774910,0.233643,0.398941,0.740700,0.594367,-0.434768,0.343269,1.121571,0.543774,0.850658,-0.552962,0.237610,0.517591,0.912419,-0.955449,1.066925,-0.800235,-0.071563,1.028111,0.407496,0.751228,0.062006,0.975575,0.387189,0.114219,-0.854942,-0.804705,0.647018,0.220547,-0.173193,-1.020319,-0.581370,0.742611,0.309789,0.263393,-0.144602,0.360186,-0.645517,-0.202386,-0.947005,0.140503,-0.698460,0.107005,0.550134,-0.069994,0.870574,-0.380345,0.060155,-0.157181,-0.445931,-0.466061,-0.956580,-0.733098,-0.932651,-0.696370,0.342693,-0.412609,-0.435889,-0.296296,-0.728252,-0.592235,0.668939,0.230255,0.619749,-0.309757,-0.582959,0.019496,0.556156,-0.295072,-0.525517,0.678293,0.026744,-0.769215,0.770109,-0.169652,0.697333,0.570521,0.347693,-0.620551,0.437992,0.905015,-0.989052,0.965048,-0.443877,0.410973,-0.072104,-0.191998,-0.590419,0.348618,0.227377,-0.974311,-0.408023,0.805594,0.605081,0.263470,-0.422290,-0.554084,-0.717744,0.551578,-0.265648,0.689589,-0.018007,0.519943,-0.087436,-0.746449,0.643670,-0.035677,-0.752235,-0.737822,-0.668346,0.840762,0.646592,0.584328,0.448784,0.542231,0.255132,0.138948,-0.661056,1.007231,0.855296,0.597493,-0.149658,-0.092995,0.964297,0.539876,0.321540,-0.448949,0.253929,-0.006862,-0.378050,0.235967,0.478242,-0.220793,0.160015,0.735728,-0.172248,-0.506546,0.709059,0.066949,0.699598,0.974953,-0.767382,-0.058967,0.078809,0.656667,-0.575840,-0.672978,-0.255434,0.657944,-0.735230,-0.219434,-0.564469,0.921320,-0.482000,0.284369,0.133812,0.456255,-0.615826,-0.189718,0.671216,-0.500740,0.713100,-0.646622,-0.125757,0.322401,-0.095169,0.238392,-0.087965,-0.353574,0.360098,0.847104,0.808194,0.732009,0.651884,-0.528922,0.811509,-0.591938,-0.327320,-0.860093,0.911200,-0.289169,0.991319,-0.280031,0.993699,-0.482300,0.606454,-0.229466,-0.488123,0.033480,0.640988,-0.326539,0.989797,-0.827553
-0.224343,0.950275,0.628117,-0.903021,0.300818,-0.605062,-0.331796,-0.470166,0.857738,0.664773,0.103167,0.565005,0.382095,-0.814050,0.829736,0.805571,0.652495,-0.102495,-0.439351,0.634145,0.018124,-0.873368,-0.493090,0.535708,0.301435,-0.169586,-0.503454,-0.891023,0.238907,-0.319343,0.721606,0.033584,0.286776,-0.248168,0.207425,0.068657,-0.136687,-0.443567,0.691487,0.414415,-1.126612,-0.060061,0.332908,0.185468,-0.950076,0.179383,0.359152,0.530921,0.173198,0.223852,0.445746,-0.963624,-0.909312,0.783186,0.018567,-0.117139,0.507706,-0.204106,-0.948016,0.332809,-0.845159,-0.610523,-0.063232,0.075823,-0.095314,-0.043897,-0.993795,0.124958,0.284843,-1.032402,0.415388,-0.043326,1.027016,-0.738127,-0.599969,-0.540448,-0.432281,0.176630,0.020226,-0.481732,0.423117,0.051968,-0.019418,-0.581819,0.880858,-0.059955,0.195663,0.944081,0.662662,-0.087881,-0.977978,-0.346986,-0.137994,0.273939,-0.783082,0.076633,0.010425,-0.055690,-0.071941,-0.350542,0.882157,0.434254,0.480718,-0.369778,-1.512881,-1.350899,-0.875928,-0.440078,0.137098,-0.026734,0.162001,0.546271,0.311901,-0.866209,0.242245,-0.922653,0.385356,-0.965081,-0.633015,-0.549032,0.445782,0.438745,-0.838166,-1.289406,1.034759,1.183480,-0.014857,1.519680,1.870403,0.999962,0.971390,-0.730783,0.469608,0.158144,-1.512020,-1.373066,-0.135176,-0.834778,0.443499,0.740208,-0.785508,0.766270,0.662336,-0.492465,0.225123,-0.930397,-0.229982,-0.456639,-0.450917,-0.495013,0.698558,0.269939,0.977371,0.680571,1.545547,0.763741,-0.268392,0.772171,0.277703,-0.625074,-1.433479,0.287764,0.403083,-0.229982,0.513433,-0.618008,0.027145,0.044296,0.871070,0.994230,0.188813,0.398183,-0.028897,0.400882,-0.252678,0.630239,-0.583611,0.049461,-0.543497,-1.087907,-0.346048,-0.728552,0.806754,0.902558,0.559725,0.699684,-0.174257,-0.401308,-1.253132,-0.704425,0.600435,0.493063,-0.809271,0.666537,0.284077,-0.530872,0.963694,0.942824,-0.016903,0.778602,0.150928,-0.717147,-0.395788,-0.596890,-0.296334,0.879497,-0.722015,-0.768004,-0.069027,-0.926625,0.209052,-0.650573,0.612676,0.892101,0.121835,-0.456155,0.789363,0.548662,0.062813,-0.043891,-1.474708,-0.853410,-0.278026,-0.569469,0.518416,-0.487081,0.294912,-0.687985,-0.378640,-1.010830,0.028511,0.145229,-1.137127,-1.037169,-1.227721,-2.020789,-1.761382,-0.887641,-0.233025,1.104809,0.728353,1.595268,0.680547,-0.435859,0.427804,-1.299907,0.163480,-0.071440,0.182295,-0.000785,0.010162,0.673207,0.032948,0.978485,-0.269324,0.030961,-0.842263,0.295104,-0.216504,-1.199612,-0.587930,-0.909999,-0.787949,-0.943233,-0.980214,-1.478132,-0.748080,1.510857,2.209174,2.388182,1.521767,1.047150,0.317524,-1.512973,0.151225,0.230922,-0.005256,0.403276,0.120191,-0.858782,0.986324,-0.875412,-0.943167,-0.788539,-1.090226,-1.693755,-2.144182,-0.459524,-1.755270,-0.370612,-1.025555,-0.004695,-0.904133,-0.955982,-1.870275,-0.877824,2.098110,2.475450,1.352783,1.383831,0.530509,-0.064523,-1.429929,-1.588769,0.071264,-0.248052,-0.286738,-0.228234,-0.327950,0.589329,-0.541818,0.608815,0.169611,-1.001462,-0.484053,-2.250688,-1.943105,0.204157,-0.558128,-0.836491,-1.285814,-1.621802,-3.352250,0.415957,1.605717,1.480329,0.778734,0.632824,0.129412,-1.045717,-0.203912,-1.779877,-0.849572,-0.092169,0.226794,0.159324,0.021623,-0.143336,-0.267265,0.166098,-0.142744,-1.778493,-1.590334,-0.713381,-1.069582,-0.739801,-1.064412,-0.551451,0.733200,-2.069935,-3.186066,-0.888771,-0.345800,0.222186,1.185368,0.383787,-0.823138,-0.897367,-0.663083,-0.926656,-0.411764,0.635357,0.397049,0.565139,0.419196,-0.382230,0.586846,0.306587,-0.437301,-0.374918,-0.976969,-0.953456,-0.513072,-1.319963,-0.485675,-0.155175,-0.639707,-1.939832,-0.830591,-0.759712,0.616379,0.744574,0.893015,-0.545563,-0.106518,-1.265177,0.965860,-0.478344,-0.522313,-0.031018,-0.232523,0.194768,0.482165,-0.002765,-0.051796,-0.905052,-0.321302,0.087372,0.491739,0.536241,0.778604,0.700377,-1.045407,0.709877,0.731307,-0.977717,-1.405014,-1.397070,1.036647,0.937434,1.172741,-0.278971,-0.888540,-1.261559,-0.360496,0.110898,-0.473075,0.024593,-0.078061,-0.064698,0.880868,0.064653,0.154920,-0.058585,0.829016,-0.759088,1.106070,1.322859,0.736747,1.176854,-1.136659,-0.352781,0.724740,-0.570852,-1.226208,-0.592824,1.228465,0.961718,-0.866473,-0.241109,-1.288540,-0.138560,0.362534,-0.496416,0.845722,-0.612545,0.328327,0.567715,-0.052373,0.906079,-0.430007,0.198273,-0.005030,0.933410,0.527129,0.677919,0.366131,0.489279,-0.592608,0.582132,-0.030180,-1.720299,-1.337224,0.191324,1.337410,0.691621,0.921095,-1.019671,0.536670,0.467606,-0.052771,0.808633,-0.814691,-0.820156,0.686325,-0.215311,0.634371,0.925388,-0.805043,-0.302678,0.724470,0.380059,-0.077101,0.747465,-0.532888,0.776693,0.461217,-0.320280,-0.066362,-0.710883,-0.010968,1.395195,0.735937,0.502704,-0.032500,-1.377009,-0.136749,-0.166590,0.382301,-0.877104,0.558541,-0.854004,-0.848427,0.611129,0.705746,0.421672,0.556539,0.404900,-0.473437,-0.649115,-0.260435,0.272832,-0.685503,-0.310746,-0.362605,0.016842,-0.953146,0.233508,1.227280,-0.353827,0.421078,-0.539074,0.458128,-0.262744,0.812335,-0.944338,-0.498800,0.347971,-0.219936,0.674741,-0.085553,0.717057,0.193075,-0.043696,-0.640647,0.360788,-0.705789,0.355555,0.360043,-0.421122,-0.097747,0.811178,-0.210480,0.019563,-0.892760,-0.675641,-0.326227,0.326249,0.066138,0.439075,0.866199,0.267364,-0.021074,0.182708,0.808542,0.068806,0.468619,0.644419,-0.233350,-0.123654,0.427370,-0.218411,0.624230,0.336420,1.297494,0.523071,1.024947,-0.702951,0.349525,0.911414,0.497883,-0.446731,-0.939622,-0.964088,-1.419999,-0.320335,0.171243,-0.411437,0.469959,-0.655741,-0.354840,0.715439,0.903788,1.004729,0.849816,0.151075,0.533701,-0.409370,0.068667,-0.815928,0.195731,-0.632258,-0.189105,1.544187,-0.224158,0.106568,-0.853441,-0.604486,0.294139,-0.234720,-1.008559,-0.984568,-0.546930,-0.608012,-0.141261,-0.138196,0.810758,-0.197880,1.025184,1.159456,-0.143292,-0.171874,-0.243061,-0.461002,0.754217,-0.718606,-0.292309,0.862695,-0.480815,0.270895,0.887380,-0.399510,0.946064,0.298753,0.380854,-0.500464,-1.220846,0.378356,-1.768095,0.118144,-0.256363,-1.072325,-0.471614,-0.979986,-0.074034,-0.369699,-0.694830,-0.624893,1.040335,0.269531,0.809349,-0.542312,0.845165,-0.284118,-0.257196,-0.534274,-0.866000,-0.372158,-0.417944,-0.596964,-0.404268,1.199585,0.900936,0.186430,-0.482049,0.020580,-1.321712,-1.012004,-0.397344,-0.533742,-0.300005,-0.373518,-0.232908,0.270488,-1.073254,0.041664,-0.128710,-0.543215,-0.411257,0.778242,0.948851,0.491621,0.711527,-0.784489,0.441519,0.608422,0.345263,0.879830,-0.865151,-0.140098,-1.344917,-1.278315,-1.456779,-1.423379,-1.466040,0.003849,-0.785776,0.192487,-0.192079,-1.389257,-0.205184,0.080758,0.019575,-0.235181,-0.485113,-0.614228,0.797968,-0.861519,0.442829,-0.156647,0.123373,-0.882402,-0.694079,-0.631136,0.078578,-0.044307,-0.619301,0.363444,0.312145,0.138816,0.333336,-1.212399,-0.301657,-0.063297,0.084467,0.535221,-0.174841,0.219433,-1.012272,-1.218592,-1.062869,-1.078320,0.423849,0.463498,0.315990,-0.683135,-0.148937,-0.567947,-0.138169,-0.170330,-0.535797,0.311625,0.239943,-0.051701,0.537715,0.765512,0.057771,-1.011199,-1.068232,-0.936528,-1.119920,-1.272061,0.496950,-0.808206,0.172730,0.792873,0.734610,0.179227,-0.023253,0.221955,0.646284,-0.993330,-0.906980,0.745942,0.989953,0.186507,0.834644,-0.262513,-0.891367,-0.258605,0.103558,0.993589,-0.690093,-0.332199,0.907900,-0.704029,-0.562183,0.179755,0.267907,0.514421,-0.607192,0.224619,0.794793,-0.445426,-0.703373,0.756876,-0.624695,-0.281309,0.645101,0.336123,0.813165,-0.220398,0.354013,-0.788496
0.413402,-0.245619,0.343048,-0.305452,-0.013630,0.203514,0.742691,0.299165,0.854353,0.287327,0.553970,-0.371660,0.045680,0.197653,-0.308831,-0.284917,-0.552294,0.658742,-0.325284,0.363494,0.742798,0.467346,-0.960195,-0.077340,-0.211937,-0.894629,-0.127383,-0.869785,0.716775,0.013404,-0.041576,-0.362977,0.523288,0.667581,-0.744718,-0.452544,0.469814,-0.694545,-0.700430,-0.605350,0.394897,-0.509504,0.061690,0.526166,0.995282,-0.001749,0.060912,0.981963,0.993543,0.621626,-0.213488,-0.432043,-0.059196,-0.044206,0.933412,-0.228303,-0.086042,0.021384,-0.156772,-0.150708,0.660886,0.330924,0.567144,0.150939,0.824821,0.942122,0.167063,0.626223,0.600524,-0.099449,-0.811521,1.119079,0.456593,-0.303611,0.269399,-0.117274,-0.191342,0.328996,0.686969,0.183457,0.453090,-0.173622,-0.551597,0.528863,-0.406140,-0.045769,0.552038,0.029236,-0.929507,0.969791,-0.039224,0.826033,-0.032900,1.423240,1.507658,0.161643,-0.245794,-0.912696,-0.820862,-1.175117,0.444169,-0.753056,-0.221014,0.533751,0.385322,1.137082,1.063435,0.137434,0.119595,1.064353,0.619043,-0.463904,-0.469621,0.730280,0.392968,0.521567,-0.974625,-0.015314,0.438505,0.593943,0.359572,1.117978,1.422300,0.263684,-0.314264,0.956025,-0.215038,-0.515741,-0.182667,0.776493,0.035761,0.849540,0.685549,1.579376,0.529622,0.052874,1.426948,0.323748,0.044113,0.406019,-0.748341,0.351144,0.421633,0.673452,0.185929,0.713619,0.297362,-0.434908,1.375735,1.324089,1.539018,-0.115875,-0.131333,0.315722,-0.298963,1.076634,0.477866,0.141152,0.267101,-1.137775,0.131068,-0.012635,-0.375332,0.746026,-0.089638,-0.147414,0.415415,0.410392,0.949486,0.548156,0.131420,-0.172744,-0.073504,-0.261552,0.111342,-0.974162,-0.381765,-1.155402,-0.318413,-0.726766,-1.318091,-2.062606,-0.872056,-0.247098,0.316927,-0.827020,-1.910750,-1.225903,-0.418248,-0.450052,-1.466621,-0.064591,-1.013791,-1.125216,0.211667,-0.867005,0.002311,0.890523,-0.702991,0.440974,-1.331848,-0.292412,-0.349029,-0.768786,0.599596,-0.287238,-0.216838,-0.399139,-2.146425,-0.592623,-1.204995,-2.730747,-0.198022,-0.435648,-1.454321,-1.187363,-0.840343,-0.234665,-1.441538,-0.989390,-0.188878,-0.691881,-0.425629,0.567454,-0.652577,0.250886,0.170385,-0.392442,-0.467053,0.181932,-1.564656,-0.289688,-1.124907,-0.866638,-1.968785,-0.820780,-2.118098,0.189323,-1.481030,-1.552528,-0.037254,-1.003452,-2.116950,-2.269409,0.164166,-1.551663,-2.842032,-1.490124,-1.820595,0.454419,0.449642,0.136055,-0.163140,-0.409417,-1.134110,-0.802596,-0.681534,-0.210802,-1.052743,-0.439250,-1.720158,-0.912646,-2.329219,-1.532692,-0.474977,-1.262569,-0.746738,-0.322405,0.296064,-0.119153,-1.594611,-0.360494,-0.882604,-2.000362,-1.546845,-2.338821,-2.215896,-1.377297,0.278083,0.098120,-0.287057,0.762638,-0.892061,0.187221,-1.514723,-0.849276,0.230090,0.651884,-0.582761,-0.464759,-0.700209,-0.669855,-0.038313,0.565621,-0.851530,-0.739873,-0.946634,-0.703810,-1.455617,-0.804460,-1.082184,-1.313863,-1.387654,-1.940187,-1.494103,-1.316436,0.513294,-1.001841,-0.659045,-0.034663,0.927185,0.532099,-0.158904,-0.088857,-1.082914,0.151025,-1.557974,-2.534217,-0.056195,-2.356622,-1.123545,-1.352607,-1.514075,-2.142098,-1.981689,-1.250649,-0.999635,0.412823,-1.353028,-0.297773,-0.065157,-1.458740,-1.672855,0.321654,-1.102029,-0.239068,0.914019,0.893300,-0.798507,-0.364592,-0.256645,-1.910871,-1.950405,-0.494539,0.178063,-1.148317,-0.360157,-0.064618,-1.427521,-2.644664,-1.113315,-1.343906,0.302633,-1.570925,-0.358741,-0.697921,-0.515429,-0.325202,-0.886809,-1.563335,0.099660,0.706488,-1.354790,0.540436,-0.474131,0.001367,-0.941126,-0.702316,-0.721706,-1.514614,-1.132388,-0.890283,-0.810823,0.079643,-0.958444,0.247928,0.179421,-0.633700,-1.245039,0.696816,0.483514,-0.353795,0.411136,-1.068713,-1.023571,0.487181,-0.872294,-0.622266,1.185860,0.408808,-0.989441,-0.057639,-0.319985,-0.128039,0.197806,-0.308724,-1.210174,-1.276323,-0.833728,0.747097,1.347674,1.201472,-0.707257,0.890410,0.624925,-0.813339,-1.031721,-0.207702,0.622435,-0.401282,-0.210132,-0.098359,-0.254687,-0.995822,0.124765,1.015703,0.706920,-0.214300,-0.691513,0.116812,0.417786,0.689981,-0.555944,-0.556031,-0.145906,0.371431,1.257677,0.207281,0.597098,1.258262,1.708072,1.724132,1.625210,0.245486,0.899783,-0.320902,1.470321,1.611674,0.323883,-1.215076,-1.219864,0.031507,0.066954,1.624545,1.071973,0.947840,0.542178,0.865812,0.155943,-0.579819,-0.044808,0.857441,-0.197645,-0.486530,0.239694,1.074048,1.016862,1.395662,0.656271,0.282117,2.065209,1.173126,0.837130,1.395342,1.994919,1.822933,0.545860,1.854184,1.225649,1.299632,1.022165,1.219461,0.862408,-0.215035,-0.688020,-0.726644,0.019847,-0.652215,0.244130,1.226420,0.769215,0.926888,1.148531,1.905860,0.683391,-0.255824,-0.467683,0.596235,0.835421,0.477639,1.312261,1.644118,1.962300,1.155099,1.087194,1.370158,1.855212,1.635144,1.377697,0.722312,1.826672,0.755725,1.031535,-0.611512,-0.622334,-0.503145,0.267792,-0.228659,1.315156,1.128950,0.901393,0.371893,1.313133,0.420267,1.486399,-0.752257,0.289075,1.016846,2.089337,0.238171,1.449824,1.829259,1.384803,1.552883,1.999745,1.358467,1.444672,1.396403,1.018214,0.229924,-0.376574,-0.317331,0.785127,-0.873087,0.713279,0.764716,0.806105,1.196927,0.252836,1.174202,-1.177713,0.329995,0.927210,0.406628,-0.025487,-0.787552,0.683074,0.938311,-1.237144,1.531997,1.452503,1.988121,1.672955,0.489065,0.640045,1.260526,1.595876,1.444477,0.537422,0.004613,0.292462,0.205306,0.190621,-0.671665,-0.181192,-0.607129,0.116176,0.690396,-0.058692,0.416691,-0.155174,0.102055,0.109636,-0.549582,-0.394847,0.836947,-1.058694,0.540540,0.700561,1.569686,-0.504364,-0.440789,0.637074,1.740458,0.937686,0.917058,-0.315983,0.156305,0.144095,0.337109,-0.995859,-0.296947,0.371224,0.679439,-0.964243,-0.477665,0.109121,-1.316782,-0.564703,0.233458,0.394091,0.877020,-0.854818,-1.205187,-1.736832,0.096744,-0.599735,0.372695,-0.272895,0.342578,0.839104,1.695626,0.976263,0.271297,-0.808809,-0.960999,-0.973459,-0.476243,-0.312832,0.797522,1.108524,0.728121,-1.250065,-0.420068,-0.234524,0.526850,-0.083355,-0.613211,0.545420,-1.488237,-1.819955,-0.809597,-0.800434,-1.738986,-0.501061,-0.564841,-0.785019,-1.142537,-0.277467,-0.828561,1.347960,0.468776,0.214779,0.867366,-0.164695,-0.847471,-0.855212,0.793684,1.077445,0.905558,0.268780,0.287379,-0.225763,-0.006211,-0.474658,0.015956,-1.292859,-1.539465,-1.484247,-1.292660,-2.147726,-1.979072,-1.563358,-1.482266,-1.780886,-0.813574,0.041739,-0.731119,-0.266696,0.533085,-0.357763,-0.144479,-0.611977,0.739642,-0.264414,-0.322350,-0.027384,-0.691089,0.248877,-0.887104,0.069228,-0.579621,-1.148344,-0.459668,-0.907866,-1.864698,-0.981606,-0.515849,-1.491602,-0.929413,-1.748538,-0.884039,-1.147930,-1.365879,-0.600453,-0.653423,-0.918321,0.561580,0.241134,-0.439451,0.203413,-0.322892,0.544903,0.012789,0.121569,0.166569,-0.479247,-0.342408,-1.062421,-1.693073,0.313050,-1.234888,-0.999970,-0.397071,-1.204748,-1.149707,-0.281893,-1.215768,-0.950930,-1.653639,-1.402127,0.052106,-0.399446,-0.898572,-0.382412,-0.637394,0.983953,0.672019,0.900751,0.479882,0.844212,-0.347019,-0.290050,-0.935563,0.263665,-0.052257,-0.461458,0.136692,-0.637185,-0.666352,0.416149,-0.274386,-0.130897,0.229389,-0.008372,-0.614846,-0.971596,-0.445217,-0.044568,-0.724326,-0.409874,-0.317123,-0.606788,-0.125064,-0.974729,-0.660109,-0.330823,0.885610,0.416842,0.128410,0.263614,0.387959,0.554218,-0.675260,-0.016185,0.467741,-0.593174,-0.969112,0.266275,0.148750,0.871150,0.949324,0.240651,0.339810,-0.722865,0.269204,-0.857452,-0.306385,0.567500,-0.638593,-0.803095,0.414479,-0.227281,0.882545
0.444709,-0.713176,-0.186656,0.985732,0.373850,0.779256,0.880720,-0.376468,0.766852,0.498011,-0.567905,0.037037,-0.663384,-0.204398,0.496112,0.029884,0.853142,-0.915922,0.377950,0.038778,-0.486110,-0.575368,-0.471975,0.168057,0.236065,-0.350994,-0.041378,-0.847594,-0.551194,-0.562912,-0.488704,0.625970,0.175766,-0.554209,-0.676313,-0.245277,-0.266639,0.773474,-0.477754,0.618785,-0.956180,-0.269087,-0.782252,-0.953545,-0.500288,-0.969114,-0.962542,-0.450108,0.137678,-0.508548,0.105536,-0.857600,0.952347,-0.717936,0.286907,0.701765,0.380243,-0.669312,-0.535560,-0.059312,0.919722,-0.657542,0.822925,-0.941019,0.302617,1.114527,1.082420,-0.693284,0.527356,0.482075,1.034919,0.499372,0.305194,-0.269040,-0.890191,-1.102962,-0.465272,-0.694862,0.641977,-0.020395,0.639078,-0.154605,-0.207783,0.783883,-0.197005,-0.543416,-0.212916,-0.145406,-0.197520,0.583225,0.482259,-0.807065,0.510198,-0.616786,-0.713232,0.641257,-0.410310,-0.485541,-0.627193,-0.742837,-1.046473,-2.237780,-2.533457,-1.330235,-0.976362,-0.859405,-0.069361,0.456971,-0.043882,-0.853904,0.336391,0.759181,-0.314215,0.266647,0.590807,0.533249,0.278668,0.918286,-0.330369,0.958596,1.479228,-0.140883,1.569908,0.609744,0.843529,-0.097635,-0.350372,-1.375051,-2.141964,-2.284249,-1.912890,-2.913240,-0.829735,-1.509641,0.155702,0.492430,-0.147170,0.365557,-0.885802,-0.057270,-0.547105,0.238560,-0.445513,-0.657187,0.277930,0.953793,1.460007,1.396352,-0.674908,0.342868,1.126451,-0.179557,0.357484,1.097401,0.097110,-0.297068,0.618318,-1.709806,-1.999997,-2.616620,-3.385671,-1.434987,-1.007646,-0.564251,-0.774518,0.168149,0.099680,0.122282,-0.125049,-0.385298,0.356113,0.389164,0.196451,0.402194,0.406337,0.650580,0.333386,0.971887,-0.330011,0.196497,-0.013447,0.372104,0.832622,0.427925,0.094070,-0.285600,-2.959169,-2.354693,-3.254547,-0.794314,-1.094919,0.397361,-0.452273,-0.388581,-0.361189,0.182752,-0.482210,0.697483,0.265136,-0.510203,0.843460,-0.279409,0.233905,0.035993,0.562574,-0.064458,-0.460046,0.391072,0.025305,-0.149457,0.225389,1.118435,1.079373,-0.787409,-3.036672,-3.829746,-2.370295,-2.229243,0.150868,-0.836106,-0.362144,-0.287145,-0.325990,-0.824114,-0.354443,-0.028674,-0.208080,0.097889,0.662687,0.902979,0.483606,0.652559,-0.262292,0.124290,0.727185,0.684136,1.610733,1.569687,1.416377,2.360722,1.622629,0.027646,-2.980170,-1.775181,-1.291791,-1.355472,-0.164295,-0.338906,-0.972497,0.251311,-0.550585,-1.046030,-0.276975,-0.142431,0.578667,0.010966,1.381706,-0.620607,0.239235,0.401514,-0.404927,-1.888146,0.576649,-0.452572,0.850989,1.909385,2.380415,4.105396,1.148515,-0.772060,-2.764061,-4.011254,-2.313506,-0.420460,-0.327768,-0.731055,-0.532984,0.200705,-0.432943,0.276941,-0.786807,-0.472890,0.397135,0.239521,0.322598,-1.024742,-0.419465,-0.473186,-0.873150,-1.254588,-1.247308,0.532035,1.153455,1.815469,1.368722,3.895179,1.272275,-1.524168,-2.052117,-3.564936,-1.550299,-0.735266,0.370450,-0.568630,-0.254858,-1.232350,-0.126014,-0.126735,0.187044,-0.870153,0.480711,0.673632,-0.273167,-0.245096,-1.479248,-1.993126,-1.501180,-0.328494,-0.686612,-0.567235,-0.041874,-0.279163,0.278538,1.879297,0.616614,-2.688861,-3.497749,-0.479578,-0.495065,0.559015,1.169515,0.180331,-0.793835,-0.906804,-0.596032,0.070644,-0.820402,-0.008799,-0.364120,-0.471755,0.120684,-1.029670,-0.713677,0.102401,-1.040330,-0.036603,0.158857,-0.461898,-0.827678,0.613600,-0.136779,1.753824,1.050215,-1.998758,-2.723967,0.131247,0.181066,-0.129976,1.074688,-0.345579,0.443957,-1.046725,-0.948615,-0.394358,0.747918,-0.465976,-0.877943,0.149010,-0.810479,-0.991672,0.047792,-0.480662,-0.925536,0.576050,0.876999,-0.572867,0.088552,-0.645281,-0.302423,0.919737,-0.296812,-0.366522,-0.128526,-0.120594,0.952854,-0.541056,0.992521,0.035058,0.444237,0.227176,0.564995,-0.317078,0.715779,-0.153656,-0.819814,0.420034,-0.098381,-0.445186,-0.045159,-1.210269,-0.830366,-1.135401,-1.493415,-1.291387,-0.508167,-0.070722,0.022127,0.091081,-0.486185,-0.868783,-0.465520,1.278350,-0.262231,0.033846,-0.268559,0.338075,0.269929,-0.351984,-0.180372,-0.963613,-0.899233,-0.218715,0.790854,-0.240282,-0.369418,0.833079,0.445218,-0.523325,-0.077685,-0.270467,-0.987053,-0.496471,-0.755196,0.921653,1.028684,-0.711970,-0.781638,-0.431813,-0.723953,-0.213953,0.410885,0.334707,-0.390174,0.207301,-0.179767,-0.080953,1.107450,0.021918,0.697963,0.854858,-0.178588,0.037664,-0.608526,0.845359,0.939959,0.430052,-0.422018,0.458973,-0.485030,0.147727,0.661261,0.871524,-0.078642,-0.053659,-0.784518,-0.464622,0.345063,0.619118,0.305583,0.673576,0.541379,0.263036,0.460262,-0.298928,0.250949,0.679449,-0.280915,0.254201,-0.656971,0.768127,-0.138370,-0.468763,1.542105,0.992451,-0.335324,-0.178407,0.691170,-1.124980,-0.857476,-0.274382,2.005614,0.958241,0.357854,-1.068758,-0.194192,-0.504968,1.161779,-0.159240,1.231301,-0.896848,1.048916,-0.265628,-0.501826,0.505052,-0.476875,-0.715685,0.145245,-0.090093,-0.197866,-0.166910,-1.171113,-1.612316,0.135736,0.345418,-0.710807,-1.122178,-1.651476,-0.556966,-0.089488,-0.462605,-1.201324,-0.701167,-1.268796,-0.524249,-0.304003,2.150064,1.410042,-0.030365,1.162850,-0.087467,-0.817613,0.444639,-0.286601,-0.568258,-0.015447,-1.013345,-0.188917,-0.055413,-1.323678,-1.614633,-2.285069,-0.505369,-1.561395,-1.142189,-0.896699,-0.129898,0.138535,-1.392187,0.641011,0.366317,0.503776,-0.473794,-0.990392,-0.112318,0.921346,-0.039263,-0.758902,-0.721463,-0.461993,0.393686,0.742529,0.947778,0.525162,-0.250619,-0.366960,-1.489967,-0.159469,0.915787,-0.331098,-1.328824,-0.429619,0.280845,0.369237,-0.551402,0.328848,-0.762216,0.572271,0.957564,0.469774,-0.710444,-0.533873,-1.781918,0.414297,0.150298,0.013005,0.867443,-0.612038,-0.262731,0.761239,-0.370710,-0.768224,0.290915,-0.427521,-0.472274,-0.612004,-0.956184,-0.000649,-0.195252,-0.076108,0.684074,1.047244,-1.117284,-0.704739,-1.229991,0.160861,-0.811666,-0.328118,-0.759218,-1.461617,-2.047220,-0.456036,-1.073805,-0.207058,-0.082491,-0.313100,-0.332390,0.165787,0.686633,-0.728157,0.927692,-0.056447,-1.105562,-1.792638,-1.007932,-0.712365,-0.401117,0.799583,-0.002656,-0.804730,-0.952695,-1.167989,-1.115334,-0.396842,-0.571749,0.503703,0.880501,-0.373486,-0.633235,0.212229,-0.098802,0.515759,0.482461,-0.393245,-0.388297,0.728142,-0.194748,0.322001,-0.582113,0.755435,0.633032,-0.160475,-1.205414,-1.175521,1.144468,0.618712,0.925211,0.076698,0.145160,-0.661346,0.666451,-1.231442,0.592549,-0.906292,-0.524326,0.166178,-1.294692,-1.039190,-0.102460,-0.515443,0.933360,0.112664,0.078534,-0.159127,-0.608263,0.978976,-0.441449,0.980377,-0.214225,-0.459811,0.296929,0.120869,0.534246,-1.435237,-0.775861,-0.782154,0.240993,-0.839678,-0.242713,-0.008168,0.008724,-0.271423,0.347218,-1.366231,-0.984899,-0.084175,0.037912,0.402741,-0.866892,-0.291971,-0.553736,-0.349805,-0.097664,0.313384,0.958764,1.044476,-0.516493,-0.512907,1.312847,0.566229,0.612807,-0.400010,-0.225621,-0.894420,-0.047324,0.319544,-0.547181,0.169007,-1.891686,-0.606577,-0.061119,-0.717521,-0.870820,-0.249254,-0.638281,-0.082831,-0.994041,-0.227654,-0.842345,-0.911747,0.911770,0.098811,0.247938,-0.975100,-0.248528,0.798856,-0.456667,-0.029503,-0.071479,-0.715123,-0.401712,0.115335,-1.072788,-0.241622,-0.408031,-0.781366,-1.381131,-1.190600,-0.825463,0.659274,0.472602,-0.022283,-0.150988,-0.495964,0.021806,0.509147,-0.635943,0.516416,0.085441,-0.600018,0.168385,-0.187005,0.047632,-0.864484,0.908297,0.458180,-0.018145,-0.848761,-0.620568,-1.001831,0.756739,0.072868,0.719306,-0.980192,-0.110504,0.047300,-0.289321,0.434020,0.178376,0.578977,0.254782,0.169974,0.061905,0.075280,0.920814
-0.510390,0.177380,0.318466,0.054709,0.937689,0.989981,0.687385,-0.312229,0.334409,0.097378,0.166496,-0.668064,0.357698,0.484146,-0.100822,0.233756,0.385211,0.160130,-0.959436,-0.486443,0.235350,-0.029294,0.577871,0.114910,-0.289589,0.767912,-0.981262,0.098635,-0.965127,-0.028358,-0.130593,0.138369,-0.398592,0.809813,-0.642182,-0.813407,0.865052,-0.474116,-0.623170,0.971746,0.036122,-0.210016,0.694038,-0.574965,0.524845,0.919690,-0.773161,0.222657,-0.491283,-0.841366,0.503967,0.128613,0.337506,0.408907,0.827801,0.587357,0.680790,0.252139,-0.251329,0.789159,0.028184,-0.936440,0.353223,-0.961893,-0.174328,-0.668185,0.612770,0.425512,1.128067,-0.526970,-0.388733,-0.577666,0.109206,0.138420,-0.323541,-0.199951,-0.961178,0.786625,-0.256226,-0.977977,-0.476696,0.151838,0.843943,-0.422860,-0.668528,0.911031,-0.479008,0.313858,0.708841,0.243767,0.088257,-0.818890,-0.109708,-0.153738,-0.000673,-0.585931,0.463725,0.077222,0.024900,1.333061,0.371977,0.481461,0.039864,0.227411,-0.051189,0.926863,0.756500,-0.422706,-0.624951,-0.014813,0.287738,0.180243,-0.654665,0.743447,-0.710121,0.392295,-0.601792,-0.913992,0.684177,-0.876012,-0.665502,-0.123924,-0.811796,-0.433283,0.934931,1.066495,2.670263,0.379642,1.043930,1.232338,0.847264,-0.577240,0.644154,-0.629916,0.351135,-0.695960,0.058025,0.062164,-0.088595,0.305896,-0.260617,0.983019,0.458622,0.086900,0.049738,-0.838479,0.949704,0.386609,-0.272115,0.019120,0.717423,0.710980,1.106245,1.798718,0.419685,0.633797,-0.920135,0.321016,-0.422423,-0.296369,0.167150,-0.724855,-0.215091,-0.799254,-0.082211,0.609956,-0.093275,-0.040813,0.479075,-0.129265,-0.614730,-0.911005,-0.458898,0.614454,-0.245728,0.349868,0.008961,0.770818,1.033309,-0.469738,-1.125667,-1.089146,-0.358602,-0.625693,-1.358894,0.919152,2.724107,1.651656,0.858983,0.551812,0.354028,0.583602,-0.571707,0.091271,-0.877997,-0.581332,-0.186072,0.981469,0.692466,-0.539637,0.038967,0.799082,1.686328,0.672633,0.231366,1.011520,-0.157976,-2.178932,-1.446098,-1.658339,-0.986968,-0.068021,1.633667,2.671782,2.803336,2.736773,1.626644,-0.070366,0.081651,0.638683,0.172207,-0.261042,-0.340864,0.905828,-0.855803,-0.248178,0.090869,0.000938,-0.003926,0.161269,0.607199,0.401243,-0.349671,0.183563,-0.373015,-0.708838,-1.821725,0.111550,-0.167369,0.916476,0.990854,1.407067,0.966294,1.135653,0.056524,1.104655,0.473847,-0.119726,0.891086,0.269187,0.352482,0.684852,0.553049,-0.033225,-0.201500,-1.007114,0.384822,0.710648,0.697662,0.236835,-0.071697,-1.736828,-1.213175,-1.226025,0.257479,-0.797152,-0.764088,1.205074,-0.340620,0.983140,-1.234290,0.847828,0.436253,1.062044,0.239688,0.505611,-0.225600,0.058733,-0.042005,0.432361,0.222821,0.250799,-0.511695,0.475175,0.158884,0.847632,-0.135570,-1.391559,-0.725202,-1.001708,-0.407546,-1.307092,0.005644,-0.570918,-0.716091,-0.983401,-0.080078,-0.678338,0.596791,0.490735,1.033938,1.453732,0.050286,-0.407073,0.196801,-0.988122,0.894306,-0.888117,-0.021534,-0.398168,-0.385511,-0.161525,-0.667311,0.062910,-1.985680,-1.076173,-1.013728,-0.181091,0.485594,1.938775,0.358580,-1.714994,-1.062614,-0.482048,-1.814228,-0.795760,-0.164506,1.031848,0.689519,0.007107,-0.974149,-1.164676,0.436954,0.169257,-0.997185,0.574922,-0.831632,-0.357795,0.659484,-0.319361,-0.139293,-0.889972,-0.260835,-1.346836,-0.561161,0.176317,0.084274,-0.022902,-0.446589,-1.755769,0.316957,-0.221582,-0.413485,-1.112006,0.717270,-0.051379,1.616253,0.632591,-0.905725,-0.273355,-1.028372,-1.203027,0.791289,0.774076,0.638391,0.898762,-0.135509,0.327777,-0.570002,0.645304,-1.013641,-1.214812,0.381632,-0.681939,-0.022585,0.295145,-0.353590,-0.882058,0.516981,1.533482,0.321234,-0.939861,0.225295,-0.173260,0.450102,0.644999,0.108671,-0.376479,-0.046263,-1.195183,-1.080352,0.269281,0.953997,0.886503,-0.336278,-0.392866,-0.420527,-0.296302,-0.449121,-0.889153,-0.794354,-0.900817,-0.206661,-0.471011,-0.092338,-0.028681,0.955206,0.040890,0.006667,1.214366,1.022152,1.222806,1.675624,1.833535,-0.146768,0.106117,-0.911264,-0.100605,-0.822189,-0.837860,-0.256675,-0.951467,0.827983,-0.477404,-0.892964,0.531611,-0.463518,1.610152,1.205366,0.040220,-0.081865,0.479761,0.229170,0.253192,0.311542,-0.664202,0.050671,0.612867,0.471819,0.556378,0.819544,-0.320791,-0.356771,0.380215,-0.743981,-0.590147,0.738343,-0.637608,-0.314703,0.541546,0.391835,-0.696608,0.294703,-0.105436,0.136287,-0.997371,0.781860,0.519240,-0.459004,-1.007021,-0.530292,-0.716452,-0.139292,0.288769,0.507875,0.691757,0.413702,0.419999,0.474557,-0.322125,-1.079641,0.010256,0.224448,0.281952,0.294723,-0.307535,0.312778,0.938389,-0.635646,-0.771615,-0.684350,-0.446719,-1.056065,0.375731,0.259209,0.906486,0.091533,-1.306144,-1.771566,-0.730660,0.553427,0.215455,1.658428,2.064187,-0.081578,0.571364,0.104121,0.265033,0.620192,-0.212456,-0.620880,-1.209141,-0.318888,-0.084753,0.070473,-0.812851,-0.292103,-0.516091,-0.809007,0.068045,0.592041,-0.567280,-0.146696,-0.664564,0.295282,-0.456729,-0.284012,0.066372,1.054386,1.355889,-0.084213,-0.002664,0.129374,0.830599,-0.587641,-0.372740,-0.534301,0.434147,0.089741,-0.012474,0.153959,0.148842,-0.481309,-0.627125,-0.345396,-0.994332,-0.323364,-0.459048,0.063271,0.245528,-0.847677,0.710689,1.046491,0.920142,1.955048,0.457780,1.835683,1.248547,-0.018132,-1.144321,0.396722,0.010990,-0.356276,0.159093,-1.216990,-0.408131,0.933757,-0.792421,-0.552549,0.127524,-0.519847,-0.090890,-0.967828,0.441082,0.185100,-0.449776,-0.235337,-0.130439,0.377909,1.364274,0.906887,1.796699,1.828237,2.787888,1.624569,0.541210,0.747132,0.429232,0.415111,0.122210,-0.003398,0.948406,-0.786584,0.730173,0.098858,0.343395,0.301878,-0.012005,0.856273,-0.290151,0.819860,-0.256216,0.429669,0.671574,-0.283342,1.299279,1.384989,1.575508,1.289878,1.988050,1.631109,0.806373,2.081833,1.523842,-0.344813,1.643010,0.941849,0.756032,0.899471,-0.018627,0.841515,0.021891,0.709654,0.976225,-0.268182,0.750831,-0.402299,-0.329336,-0.650238,0.077540,0.206103,0.725827,0.724009,0.646428,0.210584,1.415071,1.117576,2.170219,0.790310,-0.405668,-0.334946,1.349567,0.497064,0.707947,1.535913,0.882618,1.120382,0.257512,-0.505738,-0.318670,1.018420,0.143835,-0.966346,-0.470482,-0.583341,-0.106371,0.183557,-0.382343,0.968061,1.018433,0.099752,-0.306197,0.342000,0.652645,0.795201,0.680210,0.268595,-0.016750,-0.285332,0.412651,0.632301,0.373645,0.733555,1.042797,0.108676,0.029298,-0.160693,-0.644192,-0.575218,0.400394,0.324910,0.789421,0.751672,0.495970,0.606707,-0.294662,0.250444,-0.604543,-0.508523,0.913609,0.927706,0.299650,-0.403418,0.427147,-0.573270,-0.888855,-0.374582,1.326164,0.273823,-1.089104,1.034414,-0.149516,-0.786092,0.971931,0.486101,-0.649777,-0.499933,-0.100287,0.496324,0.011893,-0.598501,0.768462,-0.159022,0.248482,0.323762,-0.903710,-0.839816,-0.774173,0.652064,0.237924,0.788599,-0.541051,-0.521706,0.238763,-0.194768,-1.270619,-0.698514,-1.333765,-0.219263,0.710060,-0.474361,-0.571143,-0.436909,0.249353,-0.790921,-0.125777,-0.638703,0.552331,0.653976,-0.509191,0.894165,0.348457,0.213029,-0.128022,-0.293478,-0.854362,-0.361484,-0.528478,-0.268536,-0.308009,0.630520,-0.584336,-0.468194,-0.489524,-1.063088,-1.282022,0.045200,-0.466165,-0.991154,-0.500633,-0.698767,-0.529807,0.567836,-0.998114,0.424701,0.220921,0.590999,0.149509,-0.384674,0.951062,-0.783933,-0.961765,0.996180,-0.532303,-0.704023,-0.664665,0.208739,-0.140612,-0.738463,0.429712,-0.888259,-0.841875,0.087104,-0.243443,-0.732298,0.069286,-0.014220,0.203957,-0.091389,0.201230,0.900041,-0.459070,-0.809826,0.458545
0.889093,-0.109807,0.503318,0.567609,0.792114,-0.294532,0.109160,-0.315304,-0.651125,0.394827,-0.198092,-0.270883,-0.675536,-0.396421,-0.140777,0.173445,0.244572,0.144161,0.438744,-0.112665,0.458416,0.801546,-0.949807,-0.238450,-0.039077,0.694361,0.248739,-0.091033,-0.350803,0.650136,-0.021541,-0.594070,0.508349,-0.093401,-0.307923,0.918419,0.965143,0.665852,-0.772363,0.326500,-0.618518,1.006051,-0.635091,-0.878517,1.026233,0.630297,0.666527,-0.299267,0.529095,0.561430,0.221011,0.911186,-0.451665,-0.882757,-0.759915,-0.303504,0.539696,0.697954,0.102128,0.914673,-0.579464,0.977131,0.416841,0.122003,-0.680020,0.907808,0.084216,0.884003,0.070228,0.825426,1.477749,0.998898,-0.530534,-0.944507,0.384080,-0.821794,0.418351,-0.792197,0.440712,0.441584,-0.243000,-0.861268,0.727604,0.162956,0.014783,0.788029,-0.840234,-0.128175,-0.989775,0.744307,0.303323,1.054829,-0.245286,0.844280,1.227340,1.375867,0.635084,0.581020,1.383568,-0.408040,-0.074607,-0.527383,0.425105,0.385113,0.183156,-0.547405,0.034346,-0.765834,-0.275370,-0.651937,-0.984153,0.243905,-0.530215,0.149514,0.779956,0.256893,-0.723350,0.302931,-0.138506,0.213532,0.008776,-0.000732,1.475108,0.403661,-0.050407,0.191666,0.457216,-1.010368,-0.179142,-0.880029,-0.909150,0.028885,0.088422,0.001135,-0.642273,-1.112865,-1.019962,0.061944,-0.593813,0.928353,-0.605433,0.613206,-0.325295,0.954827,0.497456,-0.445296,1.001813,1.264356,0.210283,0.101650,0.383058,-1.384427,-1.615768,-0.780285,0.019314,-0.132165,-0.971599,0.295804,-0.253495,0.593917,-0.599436,-1.198970,-0.658647,-0.973092,-0.276970,0.335913,-0.583683,-0.317621,-0.648885,-0.804966,0.523951,0.561593,1.016173,0.207186,-0.656507,-0.418824,0.365286,-0.558588,-0.509155,-1.037742,-0.736042,-0.491089,0.500075,-1.204641,-0.634864,-2.334870,-1.551618,-0.139250,1.212291,0.168155,0.158259,-1.711837,0.038957,0.197643,0.497366,0.914663,-0.453194,-0.080287,-0.117473,0.433489,-0.020506,-0.896040,-1.484457,-1.673418,-1.160093,-0.889401,-1.806442,-1.092232,-0.931630,-1.016956,0.568264,0.051733,-2.093643,-1.320226,-1.410541,-0.653321,-0.857439,-0.040354,-0.978599,-1.740090,-0.044721,-0.989773,0.045553,0.772278,-0.823323,0.316194,-0.863218,0.206564,0.407512,-0.985916,-0.353055,0.120598,-0.248078,-2.301002,-1.129286,-1.941457,-1.027627,-1.231003,0.705222,-0.575054,-0.011054,0.109292,-1.287462,-1.661243,-0.900864,0.487355,-0.071135,-0.548629,-0.511694,-1.176518,-0.148973,-0.363191,-0.196521,0.331976,-0.362098,-0.800346,-1.022258,-0.122906,-0.784442,-1.278481,-1.455057,-1.069945,-1.099881,-0.697483,-0.797137,-0.568574,-0.225602,0.127319,0.739621,0.297095,-1.541726,-1.958062,-1.386737,-0.539638,-1.085369,-1.559593,0.090172,-0.838603,0.198067,-0.838501,0.577761,-0.854978,-0.774132,0.566205,-0.726427,0.735506,-0.880316,-1.564438,-1.449873,-0.456027,0.478205,0.320442,-1.004821,-1.287073,0.525158,0.628822,-0.990657,-0.404030,-1.332932,-1.710189,-0.838800,-1.392228,0.309261,-0.605404,0.048840,0.120048,0.258612,0.579105,-0.471053,-0.302417,-0.059033,0.324912,-0.974927,0.528077,-0.909375,-0.374331,-1.747635,-1.745170,0.168612,-0.605190,-1.480674,-1.358704,-0.455758,-0.649166,1.166885,-0.450155,-0.136609,-0.916871,-1.013598,0.915078,0.153185,0.422241,-0.719300,-0.087554,0.682578,-0.575090,0.658224,-0.455105,0.172037,-0.504304,-1.687919,-1.490246,-0.553687,-1.850013,-1.178066,-0.213420,-0.616531,-1.357103,-0.061633,-0.072057,-0.397150,-0.678266,0.724895,0.274255,0.399134,-0.693884,0.202583,-0.044790,1.296321,0.405320,-0.013608,-0.400577,0.164118,0.197504,0.782866,0.044787,0.391298,1.007758,-1.067470,-0.087968,0.321757,-0.980419,-0.499975,-1.298274,0.034148,0.180410,0.398872,0.713785,-0.595121,0.435322,-0.316778,-0.192595,0.182431,0.164853,-0.367568,-0.248963,0.707338,0.151774,1.380392,1.409983,-0.645667,-0.549394,-0.486301,0.073010,-0.443638,-0.675965,-0.292912,-0.585808,0.886765,1.504956,1.298916,-0.310287,0.472735,0.577186,0.222338,-0.807756,0.034119,-0.169650,0.045751,-0.922095,-0.643229,0.215736,0.590847,0.656291,1.263652,1.541677,1.438346,0.739226,-0.188938,0.441590,0.543759,-0.190131,-0.394439,0.166217,0.219974,-0.734989,0.833356,-0.513793,-0.106496,-0.349775,0.512076,-0.347773,-0.452910,0.606222,0.299374,0.618974,-0.909392,-0.320070,0.376798,0.617406,1.016684,0.251649,0.618508,-0.121235,1.153858,1.943937,0.139306,0.273474,0.856565,-0.029493,0.415291,0.634804,1.107225,-0.026559,0.931908,0.135491,-1.186760,-0.045766,0.141158,0.587521,-1.159594,0.383249,-0.735558,-0.399547,-0.090789,-0.529435,0.644512,0.346611,0.428808,0.272703,0.170751,0.801465,0.999294,1.505649,0.910109,0.324141,0.617050,-0.240113,0.902558,-0.436830,0.249591,1.801198,-0.090093,0.657382,0.307044,-0.577948,1.790943,0.763483,-0.011602,-0.023795,-1.075922,-0.261955,-0.830436,-0.822194,0.428813,0.784889,0.548487,0.895105,0.876049,0.567533,0.190671,0.868445,0.598293,-0.348579,0.131143,-0.349414,0.431329,0.294119,0.651635,0.748815,-0.228950,1.538472,0.715962,2.081733,0.400483,0.563805,1.406508,1.148838,0.201540,0.527053,0.712637,0.895115,1.471192,0.617459,-0.712472,0.951473,0.611411,0.451856,0.460287,0.101374,-0.252449,-0.943570,-0.749821,0.603823,0.645504,1.271741,0.826851,0.204907,1.397978,0.915049,0.405017,1.727746,1.223317,1.851667,2.591578,2.425897,1.123975,0.423054,0.689284,0.864353,2.349441,1.605283,1.305529,0.983648,1.574000,1.041815,1.147104,0.308572,0.384621,0.767991,0.703445,-0.300589,0.279557,1.338528,0.997986,1.653559,1.150929,0.376301,0.649033,1.643288,1.340743,2.986785,2.374513,1.412533,1.896796,-0.724007,0.745707,-0.475545,0.674383,1.136519,1.709469,-0.263540,-0.321599,-0.800566,-0.677429,-0.704963,0.369092,-0.256042,-0.589569,0.453588,-0.928632,1.189924,0.951620,1.218047,0.105649,-0.687689,-0.128923,1.001294,1.225806,0.650598,0.176721,0.447952,0.589185,0.259749,-0.779412,-0.484290,0.829056,0.032630,-0.738698,0.045517,-0.070260,-0.452012,-0.342064,-0.676387,-0.023791,-0.329919,0.684154,0.102885,0.275131,1.040465,-0.111313,0.605716,-0.547596,-1.348142,-1.820443,-1.024613,0.136518,-0.415825,-0.362523,-0.333503,-0.528958,0.136546,1.112867,-0.663530,-1.305889,-2.032335,-0.348475,-0.484131,-1.273876,-1.079194,-0.157637,-1.019288,0.132432,0.544834,0.069487,0.738814,0.585722,0.530543,0.116480,-0.874963,-0.972832,-1.622727,-1.213299,-2.300827,-1.267373,-1.256101,-1.288077,-0.580914,0.425994,0.503824,-1.418282,-1.501458,-2.472592,-1.024105,-0.333280,-1.145392,-0.952162,-1.302766,-1.142297,0.052165,-0.118631,0.585823,0.192547,-0.135725,-0.184431,0.162154,0.804377,-1.054859,-0.431253,-1.669545,-1.568032,-2.100681,-0.871518,-1.521664,-1.024938,-1.806381,-2.070198,-0.824895,-2.101186,-1.672869,-0.855802,-1.729771,-1.726144,-0.538717,0.567728,0.463771,-0.093692,-0.527360,-0.005588,0.432195,0.428033,0.943733,0.107244,-0.155163,-0.127084,0.562982,-0.244356,-0.851174,0.551963,-0.838044,-0.769866,-0.388239,-1.487442,-0.437319,-0.109880,-1.495298,-0.757653,0.413482,0.455591,0.183575,-0.188452,0.386969,-0.698236,0.203291,-0.153697,-0.458424,-0.944142,-0.760065,-0.248959,-0.185311,0.253954,-0.338416,-0.881464,0.177043,0.527148,0.134185,-0.537911,0.537585,0.158428,-0.981800,-0.193689,-0.278833,0.670685,-0.867020,0.326630,-0.770734,0.166590,0.109095,-0.096758,-0.953573,0.962503,-0.023932,0.529691,-0.822748,0.634012,0.213927,-0.434352,-0.446313,0.314492,0.632417,-0.727820,-0.960018,-0.438492,-0.515771,-0.789054,0.537945,0.559345,0.717448,-0.109898,0.897676,0.561580,-0.088860,0.251963,0.521756,0.763094,0.634441,-0.703229,-0.981057,0.552581,-0.661372,-0.403767,0.548356,0.389387,-0.997299
-0.489220,-0.228166,0.008518,0.828872,-0.178630,-0.030900,0.801765,-0.769863,-0.044348,0.682451,-0.293425,-0.793295,-0.945397,-0.941482,-0.680171,-0.818481,0.746850,0.463319,0.668752,-0.282851,0.596520,0.501935,0.419285,-0.397527,-0.156845,0.576817,0.810793,-0.859855,-0.244619,0.989132,-0.102418,0.682300,-0.894557,0.332974,-0.806644,0.828003,0.986227,0.491876,-0.712022,-0.611927,0.573517,0.463198,-0.379818,0.199919,0.027656,0.000039,0.807690,0.873402,-0.320365,0.894123,0.648781,0.647765,0.936363,0.805695,0.614802,-0.282630,0.283787,0.092792,-0.004594,-0.654764,0.737443,-0.556700,-0.037720,-0.382470,0.444204,-0.658924,0.460835,-0.203733,-0.777193,0.176673,-0.594002,-0.022944,-1.075792,0.469641,0.946691,0.546317,0.557322,0.961817,0.577946,-0.531174,-0.235955,-0.551684,0.937472,-0.252395,0.532610,-0.510327,-0.123741,-0.186565,-0.165739,-0.586120,0.209191,0.854279,-0.297971,-0.424266,-0.093512,-0.590904,0.394021,-0.826186,-1.699079,-1.631432,-1.655378,-0.752729,-0.347580,0.109853,-0.821973,-0.112789,0.735738,0.397406,-0.199296,0.676655,-0.950562,0.505070,0.995658,-0.035475,-0.181693,0.166453,0.512765,-0.740445,-0.512222,0.759952,0.642433,-0.983667,-0.661327,0.203746,0.063268,-1.048490,-1.399880,-1.729449,0.711732,0.474522,-0.697803,-0.578619,-0.090019,0.175637,-1.247492,-0.487533,0.528417,0.068221,0.464335,-0.812806,0.796355,0.929145,-0.640390,-0.394723,0.136858,0.148875,0.120277,0.149378,-0.916668,-1.236592,-0.092445,-0.264319,-0.980693,-0.604523,-1.876664,0.075326,0.468587,-0.919912,0.282473,-0.495776,0.618966,0.256619,-0.148654,1.302144,-0.894100,-0.121146,-0.280873,0.851947,-0.143313,0.543232,-0.835955,0.225507,-0.056126,-0.255966,0.595713,0.603692,0.116850,-0.286725,-1.155226,-1.708869,-2.195409,-0.788001,-0.255634,-0.042688,-0.868424,-0.116613,0.643265,-1.180955,-0.324179,0.179809,1.307906,-0.035271,0.999433,-0.528454,-0.104270,-0.632496,-0.979917,0.247450,-0.691125,-0.461367,0.107394,-0.470183,-0.876809,0.693097,0.433181,-0.948838,-0.126162,-1.224765,-1.968611,-2.068526,-0.969296,-0.986447,0.434508,-0.383406,-0.413861,-0.417917,0.335022,-0.650133,-0.248048,0.293962,-0.299421,-1.180905,1.000903,-0.833437,0.564902,-0.459866,0.001184,-0.666703,0.815692,0.698996,-0.553948,-0.251800,-1.108129,-0.727840,-0.345048,-1.972545,-1.416715,-1.676973,-0.073219,0.735023,0.012398,0.492127,-0.221097,0.281170,0.044490,-0.365250,-0.694574,-0.978969,-0.256565,-0.653177,0.513799,0.557468,0.536142,0.968713,0.836987,-0.348872,0.786767,0.424554,-0.685682,-0.703959,-0.376805,0.217852,-1.222838,-1.200199,-0.724236,-0.861303,-1.702940,0.662232,2.516754,1.876916,-0.072060,-0.405348,0.523437,1.474918,0.659468,0.065194,0.939297,0.530365,-0.802365,0.673632,0.768328,-0.643019,0.320697,0.447593,0.774816,0.117238,-0.013451,-0.750314,0.517542,-1.415132,0.003998,-0.934536,0.032715,-1.554166,-0.671820,0.956144,2.522733,0.982518,0.862226,0.362704,0.252746,0.321127,1.622487,0.701456,1.073456,1.967546,0.101745,0.005756,-0.474023,0.108923,0.964752,0.584102,0.635382,-0.613931,0.253351,-0.420163,-0.698806,0.112967,-0.498078,-0.544255,-0.237989,-1.191417,-0.071849,1.278874,0.533336,1.151094,1.612812,-0.454746,0.247481,-0.009355,0.803825,-0.138744,0.442164,1.304168,-0.575470,0.234456,-0.818536,-0.925489,0.622682,-0.826680,0.681856,-0.639699,-0.557589,0.816150,-0.190689,-0.227207,-1.011029,-0.987621,-1.209828,0.064504,1.208364,0.352331,-0.988253,-0.982354,-0.280283,-2.064717,-0.944516,0.053483,-0.297715,0.198815,-0.786501,0.656635,-0.094114,-0.359260,-0.614672,-0.312318,0.313399,-0.650806,-0.075309,-0.595305,-0.847887,-0.497627,0.960844,-0.631783,0.368351,-1.353582,-0.305055,0.156819,-0.034800,-0.717697,-0.306490,-0.236694,-1.503504,-1.006009,-1.309271,-1.072743,-1.227741,0.271651,0.192372,-0.620655,0.188700,-0.608751,0.739741,0.990268,0.728886,1.032885,0.722921,-0.474187,0.686852,-0.379361,0.045130,-0.592438,-0.398846,0.482851,-0.160495,0.031538,-0.806856,-0.343670,0.298229,-1.006868,-1.658829,-1.120057,-1.013192,-1.439819,0.604091,0.255636,-0.648950,0.687321,0.041455,0.908105,0.433854,0.085060,-0.851465,-0.322493,-0.205748,-0.469428,-1.100090,-0.431118,-0.466322,0.930710,0.550365,0.549119,-0.503544,-0.583191,-1.418616,0.255917,0.781937,-0.323977,-0.631715,-1.272179,-1.531213,-0.627303,-0.613934,0.487384,-0.108225,0.559985,-0.944082,-0.522263,0.255567,0.922434,0.864658,0.435720,-0.936938,0.714115,0.992025,-0.151494,-0.431436,-0.593759,-0.128575,-0.958353,-0.390511,-0.507244,-0.852210,0.622436,0.105171,-1.109476,-1.825356,-0.055724,-0.248814,-0.582105,0.156559,-1.047861,0.153281,0.166843,0.086367,0.120534,-0.795258,-0.665758,0.163425,0.167842,0.735150,-0.289478,0.501710,-0.127133,-0.078020,-0.765901,-0.271409,1.195354,0.061099,0.193257,-0.837701,0.200621,-0.659842,-0.608307,-0.324066,-0.709622,-0.310191,-1.280321,0.496859,0.462761,-0.005574,-0.522414,0.314417,0.610156,-0.809691,0.537266,0.475952,0.169715,-0.511306,-0.893697,0.840905,-1.041293,0.410067,0.973538,-0.422724,1.656560,-0.263209,-0.517313,-0.346130,-0.554424,-1.344868,-0.206155,-1.017504,-0.208688,-0.087582,0.026537,0.389840,-1.050008,0.899172,-0.412723,-0.747718,-0.731935,-0.291523,-0.162686,-0.640219,0.553031,-0.142793,-0.606003,-0.319195,0.568274,-0.445317,0.422049,1.507152,2.289718,1.431624,0.279827,-1.135298,-0.982184,-0.474674,-0.404467,0.625858,0.586212,-0.718654,0.432460,0.440769,0.261596,-0.242897,-0.913469,0.310509,-0.265763,-0.713592,-0.979488,-0.894287,-0.151251,-1.106139,-0.428357,0.109475,-1.325231,-0.682195,0.400077,-0.080461,0.864162,0.921196,0.661286,-0.637502,-2.374342,-1.097202,-0.237449,-1.137207,-0.255063,-1.212739,0.025795,-0.468531,0.774896,-0.110384,-0.686025,0.111977,-0.644250,0.858644,0.599018,-0.115797,0.137813,0.081767,0.074133,-0.090598,0.320354,-0.552643,0.731874,0.243906,-1.175113,0.125187,-1.046173,-0.426139,-1.388075,-0.943216,0.060487,-1.117783,-0.038345,-1.059092,-0.371881,0.284961,-1.011209,-0.939100,0.714749,-0.696909,-0.137800,0.880484,0.832926,-0.895540,-0.675031,0.264337,-0.244526,-0.268716,-0.982553,-1.417325,0.288493,-0.846719,-0.843847,-0.327298,0.722634,-0.923421,-0.132568,-0.024295,-1.157002,-1.278752,0.119271,0.286710,0.535601,0.478916,-0.077010,0.024887,-0.820205,0.138213,0.754118,-0.460723,-0.291688,0.647656,0.114943,0.963389,0.572828,0.621529,0.213436,0.254728,-0.343689,-0.412660,0.414558,0.444762,-0.246545,-1.518270,-1.060360,-1.008160,-0.924290,0.536930,-0.446919,-1.309776,0.119884,-0.030790,-0.827245,0.743232,0.214698,-0.069565,0.354238,-0.198512,0.513744,-0.231475,0.001079,0.084153,0.475031,-0.694494,-1.637122,-0.933252,-0.085629,-1.091254,0.282603,-0.971426,0.390643,-1.028836,0.311848,0.016837,0.660510,0.571526,0.407298,-0.253805,-0.207871,0.663493,-0.372719,0.649260,0.752701,-0.965166,-0.762396,0.525593,-0.344980,0.575439,-0.356027,-0.949312,-0.969856,0.213797,-0.409399,0.258315,1.238736,-0.721453,-0.903396,-1.201190,0.217541,-0.321874,-0.186851,0.458380,0.772634,-0.498684,-0.728153,0.546824,0.483332,-0.878355,-0.656033,0.299536,-0.164397,-0.026455,0.643493,-0.186563,0.027113,-0.094658,-0.904955,-0.494795,0.600016,0.676505,-0.007998,0.136620,0.028242,-0.008871,-0.283727,-0.374555,-0.935806,-0.208168,-0.816375,0.038307,-0.475624,0.346127,0.646212,-0.508701,0.394146,0.666727,-0.103366,0.460051,-0.762981,0.146355,-0.567127,0.068720,-0.696526,0.870680,0.737809,-0.230641,-0.853758,0.600111,0.396463,-0.757584,-0.158593,0.956432,-0.187042,0.936405,0.224224,0.360033,-0.328626,0.047574,-0.431573,0.236530,-0.209296,0.380452,0.444346,0.940839,0.529906,-0.632966,0.000423,-0.271657,-0.526628
-0.348081,-0.706476,-0.536041,0.802074,-0.476013,0.232171,0.562047,0.539458,-0.954137,-0.506444,0.515816,0.248100,0.465914,-0.478566,0.841205,-0.800770,0.611654,-0.594774,-0.868329,0.580911,0.116739,-0.428311,-0.992369,0.328887,-0.765836,-0.612622,0.472423,-0.724397,0.095713,0.342077,-0.850648,0.086648,0.311936,-0.392386,-0.972256,-0.324413,-0.167212,-0.088515,-0.447577,-0.059542,0.624792,0.487851,-0.329932,0.489135,-0.084126,-0.378059,-0.531202,-0.930783,-0.640652,-0.989323,0.276176,-0.578133,-0.007764,-0.431756,0.769261,-0.897506,-0.317156,0.036815,-0.148075,-0.557371,0.191211,-0.842980,0.739658,-0.453895,0.821729,-0.703882,-0.586326,-0.687683,0.224685,0.568675,-0.569110,0.105303,0.678738,0.321362,-0.512508,0.166830,-0.536761,-0.963434,0.825249,-0.288555,0.663656,0.951984,-0.101949,0.685347,0.513680,0.501608,0.180567,0.395183,0.937353,-0.095377,0.414657,-0.490120,-0.082424,0.273995,-0.642167,-0.795996,0.712504,-0.416931,0.013118,-0.842798,0.209708,-0.248208,-1.009015,-0.748214,0.504572,0.716306,-0.850976,0.265657,-1.023608,-0.439060,-0.490274,0.901363,-0.910566,-0.698971,-0.150742,0.905207,-0.567475,-0.144632,0.552147,0.022023,0.600598,-1.001927,-1.259049,-0.371109,-1.518892,-0.247160,-1.708434,-1.011589,-0.541654,0.248160,-0.575268,-0.682545,-0.609936,0.506534,0.051872,1.022114,0.497862,-0.244888,0.425113,-0.188997,0.938663,0.397365,0.972701,0.840651,-0.864486,-0.937110,-0.486302,0.909679,-0.167893,0.801754,-1.244560,-0.298868,-1.527221,-0.176209,-0.846649,-0.923683,-1.086104,-1.020225,-2.600961,-0.781943,-0.664136,0.454719,0.353798,-0.134783,-0.213580,-0.527174,-0.556995,-0.097964,0.333102,-0.505515,0.391878,0.022175,-0.188116,0.576770,0.282785,-0.735581,-0.389881,-0.782548,-0.407972,-0.214103,0.305418,-0.412021,0.718133,0.461058,0.672972,0.679637,-0.316711,-0.627651,-0.947426,0.166148,0.640029,-0.682813,-1.445675,0.006840,-0.097985,-0.317262,-0.581776,0.371273,0.461495,-0.791102,-0.955118,-0.414292,-1.051418,-0.796866,0.749759,0.730649,-0.872741,0.308802,0.339569,0.245161,-0.826757,-0.497840,-0.373516,-0.785829,-0.338411,-0.055114,-0.041130,-0.104259,0.888270,-0.985545,0.850991,-0.876553,-0.630659,0.676519,0.563287,0.440741,-0.911479,0.492197,-0.373125,0.226439,-0.194321,-0.776136,-0.357937,-0.346021,0.102157,0.478732,-1.344320,-0.742845,-0.650310,1.006850,-0.512394,1.174943,0.349823,0.153382,-0.778517,0.031339,0.307537,-0.811901,0.009177,-0.739126,-0.948400,-0.249855,0.447710,-0.094944,-0.160500,-0.605142,0.541405,-0.309775,-1.932753,-0.629755,0.391466,-0.479783,0.879351,0.061274,-0.073533,0.447988,-0.440449,0.222486,0.369530,-0.342882,-0.150603,-1.072760,-0.808118,-1.170835,-0.421434,-0.081771,-1.156967,0.618193,0.358399,-0.103178,0.955241,0.533933,-1.089315,-1.033116,0.319662,0.179271,-1.413668,-0.191823,0.667589,-1.238747,-0.377123,0.056476,1.485982,-0.381195,0.110104,1.532890,0.667185,0.240774,-0.632668,-0.195086,-1.244928,0.040309,-0.502410,0.312568,-0.678527,0.231271,-0.809546,-0.937494,-0.533157,-0.214490,0.340786,-0.431176,-1.327842,0.057661,-0.598920,-0.003653,0.455811,-0.261209,1.334752,0.750173,0.594588,-1.244725,-0.217115,2.190653,0.695582,1.313177,0.223483,-0.083102,0.133085,-0.559587,-0.371072,-0.978613,-0.384747,0.437605,-0.714869,-0.564524,-0.865428,-0.022948,0.784433,0.420279,-0.848616,-0.268854,-0.244036,1.068008,1.252285,0.361516,1.743043,0.154390,0.780855,0.156025,0.891054,1.241512,1.658139,2.091923,0.294455,1.071772,0.264843,0.131925,-0.476831,-0.964172,0.097247,-0.662089,-0.659784,-0.091977,-0.243992,-0.962063,0.174590,-0.838257,-1.368401,-0.952709,-1.310408,2.133564,0.701661,0.994464,0.893644,-0.704811,-1.275972,-0.343128,0.971576,2.176028,1.683559,2.452457,0.793971,0.634254,0.520659,0.497190,-0.812399,0.115735,-1.223090,-1.051294,-0.872171,0.402094,-0.736856,-0.904999,-0.499361,-0.677147,-1.041446,0.411929,-0.294588,0.825319,1.372088,1.207391,0.440021,-0.780629,0.978631,1.428858,1.328013,0.817033,1.371430,0.340406,1.279319,-0.023909,-0.364567,-0.975141,-0.071157,-1.550741,0.032448,0.117973,-0.877398,-0.912334,0.408716,0.375861,-0.888931,0.112203,0.651161,-0.591020,-1.183959,-0.918746,-1.266605,-0.828085,1.461363,-1.103137,0.920532,-0.003916,-0.201904,0.442422,1.171762,1.452139,0.841364,-0.677060,-1.425589,-0.686936,-1.868106,0.103091,-0.015301,-0.425390,0.237135,-0.366575,-0.129853,0.356544,0.546703,0.918102,-0.931108,-0.784127,-1.420007,-2.296848,-1.818039,-0.820619,-0.321600,1.042263,0.878975,-0.255643,0.382213,0.070644,1.366192,-0.047957,0.656988,-0.538470,-1.438676,-1.524477,-0.688828,-0.280670,0.454354,-1.058274,-0.929387,0.998491,0.251918,-0.162404,0.068750,-0.261836,-1.006918,-1.156857,-1.268779,-1.504714,-0.327399,-1.289918,-1.418785,-0.506467,-0.857114,-1.056007,-1.037487,-0.198409,0.515477,-0.916236,-1.676558,-1.470958,-1.692464,-2.058696,-1.373745,-1.216131,0.003492,-0.698932,-0.959156,-0.264458,-0.323735,-0.590797,0.415210,0.001488,-0.609192,0.050367,-1.424522,-2.110689,-0.809776,-1.845988,-1.676210,-0.493131,-0.719733,-0.247133,0.041116,-0.061455,-1.711150,-1.392180,-1.551724,-0.661429,-1.198815,-0.111944,-1.377424,0.141921,0.649147,-0.810503,0.668716,-0.822369,-0.357176,0.920469,0.307552,-0.045642,-0.386069,-0.872366,-0.797904,-0.308508,-1.397173,-2.457788,-1.913433,-1.051490,-1.275352,-0.545152,-0.884481,-0.967809,0.062453,-2.368138,-2.470447,-0.725224,-1.657008,-0.358547,-1.628632,-1.789505,0.378275,-0.278141,-0.837194,-0.132397,-0.362934,0.543236,-0.244271,-0.341016,-1.024908,-1.433911,-1.467092,-1.539262,-1.136952,-1.119846,-0.823588,-1.538364,-0.523074,-1.020211,-1.156999,-2.895954,-0.761867,-1.831938,-0.760862,-1.205266,-0.761486,0.536149,-0.317913,-0.909063,-0.438376,-0.325820,-0.399064,0.136256,-0.230267,-0.317923,0.558879,-0.276110,-0.223347,-0.561056,-0.367219,-0.674774,0.055362,0.135518,-0.181993,-0.449594,-1.666773,-1.107102,-1.215963,-0.643000,-1.088546,-1.917402,-1.209573,-0.404985,-1.492141,0.365722,-0.116269,-0.127606,0.279856,-0.056164,-0.315352,-0.844080,0.645376,0.941259,-0.609325,-0.971158,-1.061142,0.246967,0.648090,-0.525318,-0.227700,0.376544,0.061417,-0.581549,-0.300598,-0.335714,-0.859918,-1.006390,0.211014,-1.160810,-0.786243,0.328812,-1.061013,-0.498405,0.393220,-0.810249,0.116718,0.587365,-0.243107,-0.984621,0.775944,-0.211465,0.521894,0.733731,0.494267,0.243849,-0.677504,-0.406741,0.049742,-0.361965,1.132986,-0.718992,1.266934,-0.295796,-0.551325,0.087801,0.668048,-2.151772,0.116930,-0.184304,0.071316,0.726039,0.856676,-0.502488,0.772036,0.075308,-0.355572,0.780510,-0.241770,-0.331983,-0.242833,0.859243,0.050902,0.656218,-0.283934,0.087088,0.088386,0.491971,0.022508,-1.409593,-1.709353,-1.317159,-0.282132,-1.109558,-0.410101,-0.681196,-0.552373,-0.168593,0.778564,-0.102148,0.876628,-0.637605,0.419096,-0.397326,0.168813,0.110980,-0.327153,-0.796904,0.654284,0.604308,-0.567627,0.324122,-0.149215,0.430314,-0.165686,-0.721173,-0.043854,-0.442430,-0.820083,-0.385818,-0.387092,-1.860945,0.008189,-0.363316,1.018299,-0.469773,0.124803,-0.634682,0.284548,0.108717,0.930206,-0.673677,-0.332843,-0.346442,-0.157236,0.938281,-0.692251,-0.916698,-0.622147,0.879404,-0.584976,0.444006,-0.431338,-0.627390,-0.103241,-0.419198,0.480450,-0.181284,-0.495715,0.406636,-0.477491,0.266689,-0.242997,0.648437,0.809385,0.748685,0.557205,0.846948,0.416807,-0.329686,0.862919,0.414594,-0.309334,0.083014,0.454376,0.322072,-0.360670,0.549704,-0.251303,0.520826,-0.145664,-0.983740,0.395756,-0.044153,0.777787,0.020740,-0.302037,0.808187,-0.933763,-0.929322,-0.350282,-0.865873,-0.439017,0.611635,-0.141569,-0.424987,0.202700,-0.213167,-0.438879,-0.418270
0.114191,-0.944842,-0.186717,0.019450,-0.234919,0.488478,0.356045,0.721259,-0.555479,0.451452,-0.928845,0.508125,0.078567,-0.714256,0.490665,0.096500,-0.021624,0.416822,0.979545,0.344927,-0.709558,0.553455,-0.799734,-0.299066,0.622608,-0.177937,-0.456738,0.714502,0.622065,0.490291,-0.293430,-0.776777,0.736863,-0.629452,0.014306,-0.942638,0.914364,0.482108,-0.279532,0.334443,0.028912,-0.280534,0.558277,0.683821,-0.847608,-0.940055,-0.451582,0.014259,0.802575,-0.409180,0.818574,-0.702206,0.229819,0.290678,-0.324075,0.974856,-0.555095,-0.419045,-0.030866,-0.370991,-0.088054,0.958043,0.936388,-0.909492,0.032277,-1.096052,0.079522,-0.687408,0.314476,-0.055728,0.434025,0.464345,-0.135561,0.515493,0.969483,-0.019883,0.033070,0.000809,-0.332234,0.268014,-0.329174,0.940240,0.914601,-0.762088,-0.519810,0.281065,-0.540781,-0.440947,0.123501,0.920659,-0.909694,-0.424335,0.127860,-0.827362,-0.185380,-0.869149,-1.433277,-0.650765,-0.951390,-0.997120,-1.473610,-0.586131,0.109443,0.734743,1.438224,0.805378,0.947322,0.547257,0.313151,-0.086934,-0.832413,-0.333456,-0.598905,-0.546204,0.477632,0.093689,-0.415173,0.833661,-0.700385,-0.373601,-0.672764,-1.075057,-0.092881,-0.924422,-0.479775,-0.596673,-0.978754,-0.078802,-1.148788,-1.429003,0.271973,-0.419648,-0.479793,0.222367,0.975012,0.170729,-0.815957,0.690105,0.234177,-0.436557,0.971911,0.360721,-0.423838,-0.856661,-0.597071,1.361366,-0.351058,0.408940,-1.123587,-2.243818,-0.108551,-1.306141,0.441595,-0.989655,-0.369320,0.502343,-0.115707,-1.415669,1.111595,-1.108731,-0.119368,-1.166902,-0.109166,0.415253,-0.364811,0.794826,0.106283,-0.829789,-0.846241,0.395287,0.218463,-0.781268,-0.335276,0.783975,-0.426186,-0.661842,-1.220715,-0.556160,-1.077567,-0.043132,-1.349947,0.347303,-0.051775,-1.285401,-0.113222,-0.075006,0.228315,-0.449422,-0.695247,-0.805691,0.242900,0.028071,0.702864,1.143205,0.039849,1.041363,0.171164,-0.843515,-0.496711,0.126367,-0.186479,0.351500,-0.906196,-0.918389,-1.936462,-1.437380,-1.453716,-0.021716,0.001236,0.019540,0.126313,-0.296496,-0.137825,1.978815,1.193428,0.460540,0.049346,-0.238614,-0.409310,-0.064959,0.345759,-0.764929,0.002605,0.580228,-0.322669,-0.269145,-0.212669,-0.834035,0.514416,-0.498786,-0.828953,-1.081101,-0.718180,-0.611601,-0.953357,-0.508155,-0.582572,-1.651823,0.667829,1.444065,1.447492,0.099575,0.213494,-0.202733,0.616011,-0.623684,-0.882493,0.282256,-0.514468,0.538197,-0.249476,-0.149188,-0.421058,0.890449,-0.256239,0.342081,0.404562,-0.436291,-0.185303,-0.899196,0.609112,0.576026,-0.549781,-0.665923,-1.340620,0.519444,0.298576,0.387648,-0.182348,-1.005170,-1.181198,-0.344685,-0.972395,-0.929320,-0.953590,-0.293974,0.657930,0.802204,-0.429416,-0.774320,-0.614880,-0.249794,0.530966,-1.323454,-0.471614,-0.553568,-0.724881,-1.031657,0.763650,-1.108980,-2.657635,-2.149778,0.264778,-0.204143,1.894155,1.436353,-0.139706,-1.594520,-0.782082,-0.892219,-0.366593,0.165910,-1.189271,-1.031049,0.126789,-0.059927,-0.537708,-0.861679,0.527071,0.303097,0.515397,-1.374803,-1.126269,-2.030469,-1.144723,-0.739283,-0.402229,-2.293435,-1.433939,-0.096190,2.437175,3.306060,2.024834,2.026900,1.267085,0.372002,-0.674945,-0.460743,0.100735,-0.425587,-0.855979,-0.255870,0.305483,-0.824859,0.643879,0.314471,-0.807803,-0.370632,-0.085246,-1.037278,-0.789400,-0.274673,-0.511629,0.079739,0.347363,-0.500534,-0.696073,1.479521,2.982808,2.230370,0.907892,-0.083393,-0.050098,-0.424676,0.084427,-1.845374,-1.388189,-1.014472,-1.353156,-0.676701,-0.858702,-0.151926,0.633909,-0.074831,0.042559,0.576295,-0.673060,0.459181,-0.865579,-0.934515,-1.704391,-0.575400,-1.114446,-0.493104,1.309134,2.460920,1.825089,-0.695109,-0.246381,-0.227799,-0.133745,1.053379,0.490920,0.162916,-1.394069,-1.093186,-2.020355,-1.775272,0.067261,0.049574,-0.702725,-0.769020,0.674548,0.829331,0.628761,0.849376,-1.166073,-0.056203,-1.779013,-0.583535,-0.892007,0.009154,1.305764,1.504222,0.712117,-0.242632,-1.393981,-0.525917,-0.588056,-0.430259,-0.070939,-0.540937,0.546086,0.350486,-0.255372,-1.746968,-0.041309,0.504295,-0.948765,-0.405110,-0.151523,0.177058,-0.948612,-1.274414,0.140463,-0.960310,-2.016504,-2.623988,-1.678359,-1.075516,-1.006591,-0.202402,1.145579,-0.378611,-1.124614,-1.654571,0.377686,0.288713,-1.149209,0.123665,0.415462,0.595289,-0.578868,-1.225613,-1.191671,-0.358904,0.518870,0.635612,-0.670402,0.870947,0.760827,0.785070,-0.537445,-1.121727,-0.929565,-2.455449,-1.648135,-3.512105,-1.408879,-0.027324,-0.449736,-0.403207,-0.032712,-1.986218,-0.954931,0.835674,1.003047,0.644195,-0.123169,-0.377590,-0.000457,-0.743724,-1.198764,-1.060775,-0.173272,0.237368,-0.435566,0.883440,-0.598174,0.056999,-0.101798,-0.596489,-0.771224,-1.173921,-2.265639,-2.727927,-1.157940,-1.847503,-0.513115,0.397242,0.437753,-0.539672,-0.520469,-1.177428,0.107112,0.064701,-1.157370,-0.161489,-0.398864,-1.672161,-0.333216,-1.564967,0.784828,-0.214956,-0.439672,0.529591,0.700192,0.002562,1.240604,1.765205,1.688147,-0.559834,-1.166023,-1.871223,-0.327505,-1.431002,-1.900045,-0.001755,2.055251,0.786793,-0.142790,0.879984,1.703510,0.023652,-1.521259,-0.580637,-0.615013,-0.726898,-1.232903,-0.800990,-0.249341,0.969662,-0.532808,0.243291,-0.387601,0.531393,0.583796,1.244574,2.187831,-0.623734,1.141265,-0.678257,-0.741693,-0.349468,-0.807911,1.029347,1.589289,0.488175,0.512410,1.166842,-0.335457,-0.646954,-0.668312,-0.616841,-1.176187,-1.168405,-0.365246,0.203529,0.176292,0.644139,0.736154,-0.761781,0.333096,1.379103,0.792428,0.192245,2.136349,0.124477,1.590163,0.993114,-0.660183,-0.207734,0.161671,1.270233,1.075708,0.382552,1.651354,-0.039830,0.886678,0.696426,-0.754209,-0.201047,-1.043243,-0.757645,-0.142913,0.510332,0.445521,-0.687825,-0.388693,0.727320,-0.222033,1.020071,0.183290,-0.098885,0.404601,0.572447,0.653066,-0.328190,1.447629,-0.326704,1.050693,0.187866,0.182482,2.059467,0.570865,-0.348575,0.055684,-1.343799,0.199329,-1.277770,-1.575231,-1.327450,-1.327213,0.726839,0.204209,0.149009,-0.578202,0.196659,0.421149,-0.447774,-0.252443,-0.049694,0.496604,-0.154699,0.706272,1.021378,0.734646,-1.550985,-0.446171,-0.286524,-1.641305,0.602324,0.009959,-0.496616,-0.912055,0.409908,-1.107436,-0.245489,-0.791821,-0.251189,-0.377670,-0.150971,-0.577930,-0.899711,0.096196,0.367400,-0.195171,-0.378866,0.141916,0.662492,0.152047,0.313914,0.462202,0.589347,0.405069,-0.200626,0.068719,-0.064504,-2.258773,-0.957258,-2.315836,-0.630923,-1.268260,-2.109238,0.175425,-0.409972,-1.048192,0.680655,-0.845050,-0.254815,-0.153102,0.823458,0.751488,0.785895,-0.597864,-0.313595,0.492915,0.637416,-0.642153,-0.410135,-0.849576,-0.714910,-0.025037,-1.145409,-1.618842,-0.361310,-1.755350,-1.032376,0.351203,-0.664197,0.082579,0.035435,-1.046650,0.351289,0.279925,0.602352,-0.241768,0.315673,-0.394197,-0.964404,-0.523691,0.891818,0.660117,-0.774743,-0.199460,-0.678012,-0.831054,-0.147560,0.986746,0.105654,0.283424,-0.360511,-0.461852,-0.842397,-0.678246,-1.065608,0.065137,-0.086947,0.286857,-0.515409,0.026397,0.368821,0.266742,0.831641,0.535843,-0.722130,-0.765755,0.569043,0.187078,0.577425,0.455178,0.385559,-0.805262,-0.143446,-0.050061,-0.939125,0.148568,-0.293386,0.045105,-1.412434,-0.185904,-0.348677,-1.053590,-0.102812,0.096153,1.025925,0.272130,0.130429,0.710013,0.387682,-0.196555,0.651711,-0.776417,-0.655897,-0.040615,0.202957,0.541675,-0.546863,0.541806,-0.008625,-0.651751,-0.373515,0.958834,-0.209187,0.167392,0.037790,0.059365,-0.758328,-0.992500,0.685426,-0.879969,-0.746639,0.801730,0.185843,-0.594243,0.492749,0.473681,0.383477,0.438069,0.221042,0.978056,-0.825451,0.142965,-0.893906
-0.009825,-0.123638,-0.235755,0.663198,0.827795,0.366784,-0.898102,0.783502,-0.380592,0.136971,0.772750,-0.954887,-0.821011,0.769560,-0.019891,0.754039,0.939625,0.666613,0.370752,0.620968,-0.629809,-0.846398,-0.431195,-0.276811,0.060021,-0.273209,-0.943724,0.442468,0.325343,-0.409005,-0.917741,-0.860569,0.921880,0.488669,-0.515280,-0.202039,-0.135912,-0.757717,-0.580062,0.563396,0.879220,-0.977430,-0.545021,0.595316,-0.354145,-0.773948,-0.627846,-1.014443,-0.169721,-0.923235,-0.063601,-0.942881,0.525975,-0.125822,-0.962349,0.896694,-0.393155,0.729086,0.787663,0.717789,0.235181,-0.345658,-0.706218,-0.813241,-0.830604,0.882090,-0.324400,0.626526,-1.004134,-0.643455,0.513616,-0.159937,-0.205191,0.445317,0.633795,-0.342908,-1.010089,0.097293,-0.215907,-0.533282,-0.080884,-0.178456,0.921194,-0.584031,0.826412,0.284008,-0.813764,0.215014,0.722823,-0.239337,0.632667,0.379933,-0.629994,-0.205993,-0.697166,-0.573767,-0.695435,-0.707387,-0.019100,-0.040082,0.668760,0.241147,-0.742994,-0.223784,-0.932309,-0.394287,-0.522234,0.112274,-0.995051,0.470391,-0.958844,0.084149,0.163745,-0.259623,0.358004,-0.329359,-0.437739,0.227588,-1.214200,-1.161739,-0.695080,-0.917255,-0.324564,0.599844,0.837233,0.782048,0.118494,-0.471208,1.021624,-0.953711,0.042272,-0.806249,0.224475,-0.934114,0.515506,-1.086488,0.278552,0.263051,0.675993,-0.160260,-0.934960,-0.584902,-0.216787,1.002124,0.341415,-0.725289,-0.151869,-0.229842,-0.462100,0.266183,0.820510,-0.440894,0.178408,0.780563,1.595316,0.407964,0.406572,1.082498,0.058414,0.339745,0.781434,0.084155,-0.975388,-0.243772,-0.444531,-0.716176,-0.674554,0.039399,0.745039,0.880344,-0.380754,-0.926784,0.008364,0.649017,0.416882,-0.399286,0.093794,0.299348,-0.169349,-0.457346,0.598730,-0.402026,-0.770941,-0.370453,0.792855,-0.340621,0.006965,-1.165068,-0.082452,-0.027894,1.000735,1.536071,0.079027,-0.278639,0.576150,0.547317,0.914789,-0.935763,-0.900409,-0.897091,0.814170,-0.170395,-1.251564,0.424941,0.241728,0.037318,0.321382,-0.641931,-0.525891,0.763114,-0.397956,0.957319,0.544129,0.672604,0.405868,0.190393,-0.142367,0.043919,1.029355,-0.078654,0.155192,-0.003758,-0.471667,0.533377,-0.364966,0.516982,1.011327,0.308655,1.254252,-0.129200,-0.715676,0.941594,0.417274,0.581021,0.999133,-0.591206,0.601375,1.098108,-0.041464,1.936840,1.091033,1.947075,1.182731,-0.405958,-0.171261,0.612957,-0.010737,0.248636,0.704420,0.292326,0.855424,-0.177006,0.365942,-0.069697,-0.578125,0.289006,0.886687,-0.487165,0.908378,-0.910960,0.739922,0.158976,0.908307,0.503825,-0.425978,1.361499,1.142449,1.718853,0.367461,0.376560,1.278153,0.947414,0.559712,-0.604305,0.618094,0.720722,0.292555,1.123427,-0.593095,0.275551,-0.355536,0.258246,-0.802501,-0.786185,0.801502,0.608445,-0.268470,-0.481667,-0.475867,-0.162314,0.480801,1.264654,1.012327,0.303123,0.599669,-0.218264,-0.656594,-0.031946,-0.118500,0.472319,-0.875011,-0.502434,0.344209,0.920827,0.838950,0.131352,0.646556,-0.086546,-0.855301,0.744177,0.360439,0.596279,-1.196620,0.401486,-0.389435,-0.381882,0.993892,0.084636,0.493706,-0.206718,0.322077,0.317560,-1.169467,-0.884829,-1.799466,-2.544772,-0.670521,-0.887239,-0.239872,-0.292946,0.319990,-0.095304,0.244469,-0.090288,0.837228,-0.376485,0.567008,0.568356,0.030339,0.731719,0.615994,-0.677558,-0.408136,-1.356604,-1.149626,0.654255,-0.195235,-0.109731,0.898684,0.386799,-1.238319,-1.901902,-1.807568,-1.226717,-1.913429,-1.432446,-0.613213,-0.272508,-0.682065,0.626011,0.419978,0.824527,0.910160,-0.103703,-0.329974,0.432125,0.863384,1.017031,0.847827,0.675793,0.272672,-0.227144,-0.552725,-0.188652,0.593699,1.920198,1.159273,-0.161323,-0.941239,0.028063,-0.107674,-1.346289,-0.090445,-2.182840,-1.042978,-1.072294,-0.915464,0.490907,1.251400,0.356088,0.217854,0.414605,-0.686031,-0.596576,-0.423834,0.201875,-0.364272,0.224100,0.804689,-0.906190,-1.050978,1.014511,1.246932,0.539403,0.821367,0.556984,0.981975,2.085963,1.369308,0.511554,0.823053,0.619890,-1.743932,-0.394261,-1.467139,-0.671746,0.240959,-0.891848,0.324013,-0.745200,0.119672,0.606859,-0.462567,-0.580693,0.844969,1.668350,-0.718956,0.426800,-0.275716,1.301069,2.041426,1.289707,1.234608,0.329064,0.325166,0.843151,0.951408,-0.070475,0.256982,-1.171459,-0.167798,-0.193935,0.400711,-0.386199,0.511969,-0.117730,0.777137,-0.753904,0.457311,0.913531,-0.164153,1.175359,0.663354,0.076052,-0.443803,-0.793666,0.017986,0.006289,0.865601,1.848827,0.582589,0.733611,0.919577,1.577639,1.670152,1.501302,-0.135989,-0.318435,-1.776604,0.185170,0.780536,0.278815,-0.059121,0.090161,-0.650740,-0.137740,-0.190452,-0.549287,-0.833903,0.277197,0.383604,0.578779,0.341775,0.301541,-0.290062,-0.342971,0.201537,-0.313963,-0.267271,-0.450696,0.551982,0.945790,1.645841,1.131950,0.545199,-0.439829,0.023142,0.030443,-0.228399,-0.250211,0.682045,0.641340,0.712409,0.326339,0.276031,-0.961931,0.365248,-0.622176,1.057317,-0.885870,-0.866205,-1.450507,-1.436205,-1.206664,-1.618029,-2.245856,-1.326348,0.099896,1.008217,0.670669,-0.010881,0.921647,-1.444241,-0.593565,-0.316452,-0.402440,1.299230,1.379862,0.660888,0.568960,0.708771,0.452204,0.973013,0.652625,0.117645,-0.095785,0.620262,-0.106488,-0.251391,0.266183,0.585080,-0.187079,-1.299156,-1.259966,-1.305111,1.011701,0.522955,1.678485,0.828538,-0.161080,-0.615427,-1.123077,-0.230534,-0.804113,1.109527,1.266719,0.471319,0.295614,-0.849000,0.832100,0.154710,0.421678,0.704128,-0.807997,0.945499,-0.147265,-0.436245,-0.688754,-0.953729,-0.432293,0.019872,-1.253176,0.442536,0.526509,0.821387,1.697633,-1.244203,-0.855169,-0.151141,-0.719582,-0.034566,-0.445332,0.281677,-0.610686,0.261143,0.017762,-0.634129,0.073204,-0.830062,0.967716,0.745847,-0.057365,-1.004199,-0.942114,0.723707,0.615514,-1.247686,-0.410144,-0.837762,0.301250,0.420277,1.071936,0.966833,1.100351,0.129806,0.148958,0.066822,0.090501,0.230099,-1.367065,0.648561,-0.830696,0.982425,0.076844,0.387721,0.422839,-0.952673,-0.650039,0.206139,1.028923,0.191823,0.421705,1.600355,0.244122,0.303521,0.251171,0.009502,1.773767,1.034820,0.312456,0.742786,0.627167,1.339865,1.443948,-0.402395,-0.744650,0.650236,-1.211357,-0.014483,-0.681257,0.732946,0.386064,0.953023,0.529409,-0.050023,0.786270,-0.257467,-0.303696,0.175094,-0.899319,0.248890,-0.021090,-0.016135,-0.174576,-0.367352,1.516377,1.442947,1.355086,2.088865,0.872651,0.054012,-0.061129,-1.094929,-0.394727,-0.856355,0.105491,0.782280,-0.601535,0.209026,-0.071740,0.043071,-0.464948,-0.589926,-0.439992,-0.594286,0.798358,0.157814,-1.387930,-1.420105,-1.574984,0.400992,0.477842,0.595384,1.565472,2.065614,1.040819,1.189959,0.973609,-0.744832,0.033751,0.450999,1.036504,-0.374864,-0.258984,-0.119777,-1.196443,-0.335415,-0.940093,0.148742,0.682558,-0.580052,0.724633,-0.038275,0.992015,-0.875782,-1.111474,-1.129852,-0.057290,-0.634798,-0.513437,0.093762,0.353600,0.738786,0.866072,0.651279,-0.045631,-0.798560,-0.438637,0.444159,-0.373810,-0.114713,-0.106465,-0.561607,-0.445607,-0.802992,-0.443439,0.735813,-0.180325,0.455802,-0.466044,-0.513050,0.393154,-0.317740,0.278142,0.647831,0.576029,-0.254016,0.972673,0.769282,-0.788621,0.299292,0.664334,-0.197935,0.130050,-0.886765,-0.283959,0.423146,-0.373801,0.586914,-0.883716,0.067555,0.086031,-0.393447,-0.782256,-0.133743,-0.220259,0.423030,-0.069687,0.010014,-0.701761,-0.267297,0.519405,-0.326469,0.268978,-0.055076,0.843820,0.349504,-0.246584,0.009796,-0.826688,-0.600194,0.890967,-0.474533,-0.015584,-0.588302,0.659298,0.442095,-1.022194,-0.207273,0.109830,-0.272143,-0.604522,-0.185122,-0.481484
-0.843256,-0.600452,0.571637,-0.425658,0.288201,-0.725090,-0.323078,0.207364,0.789933,-0.908665,0.004413,-0.806960,0.143352,0.867883,-0.537421,0.607013,-0.675414,0.085824,0.943413,0.797877,-0.935456,-0.083225,-0.889340,-0.566909,0.289341,-0.407572,-0.847522,0.872297,0.665182,-0.110886,-0.130836,0.957923,-0.999436,-0.704153,0.411512,0.143000,-0.349157,0.750736,-0.015809,0.779153,-0.373143,0.032850,-0.010574,-0.007289,-0.116624,-0.236076,-0.937174,0.590754,0.516208,0.696591,-0.682414,-0.887677,0.094654,0.394721,0.152229,0.794098,0.677633,0.345613,-0.499117,-0.857162,-0.663712,0.051764,-0.051551,-0.507218,0.475035,0.832639,-0.343089,-0.637551,-0.545704,-0.145642,0.072087,-0.000089,1.078249,-0.175742,-0.875969,-0.280006,0.326355,0.492019,-0.865037,-0.267831,-0.927878,-0.382789,-0.759517,0.250660,-0.859023,0.640914,0.735262,-0.897646,-0.933203,0.542947,-0.323575,-0.422514,0.681263,-0.401438,-0.157102,-0.191956,1.107169,0.461570,0.338539,-0.246769,-0.222358,-0.310662,-0.810579,-0.666343,-0.034434,-0.462732,-0.458801,0.509771,-1.024280,-0.702687,-0.819760,-0.795682,0.239788,0.632486,-0.996731,0.839328,-0.745216,0.251816,-0.960542,0.319902,-0.202676,-0.870832,-0.369704,-0.220084,-1.294098,0.829889,-1.178483,-2.291723,-0.973257,-0.840909,0.098460,-1.184962,-0.645057,-0.075270,-1.254565,-0.684601,-0.030880,0.168523,0.802981,-0.509743,-0.315813,0.548971,-0.292640,0.317301,0.698242,-0.298699,0.509727,-1.417955,-0.063657,-0.528361,0.394199,-1.089032,-0.028887,-1.149467,-1.031657,-0.042939,-0.238313,-0.780991,-0.220720,0.008266,-0.929255,0.325115,-0.896282,-0.413918,-0.551601,-1.040729,0.822126,-0.167816,0.469184,0.412208,-0.274341,0.735627,0.206024,-1.287989,-0.115681,-1.340561,-0.917409,-0.456382,-1.179687,-0.599179,-1.190573,-0.053083,-0.328586,0.424886,0.438516,0.447674,1.164637,-0.584221,-0.158268,-0.440506,-0.362492,-0.403677,-0.624498,0.109709,-0.026293,-0.377721,-0.792114,-0.869888,0.599555,-0.584126,0.140367,-0.078019,-0.303190,0.149768,-1.011657,-1.382920,-1.045722,1.511187,0.002301,-0.536066,-0.004022,0.960698,-0.505112,-0.963669,-0.132186,-0.977959,-1.708786,0.195835,0.271848,-1.116201,-0.375091,-0.446208,0.241720,0.995398,-0.880993,0.086156,-0.105719,-0.572094,0.011528,-0.657918,0.266034,0.507111,-0.351130,-1.447682,-0.840578,0.318056,-0.207914,-1.975292,-0.394179,-0.266675,0.143700,0.078430,-0.010519,-0.030121,-0.794862,-0.220451,-0.296802,-1.087069,-0.757738,-0.712771,0.508836,0.266740,0.083137,0.214731,0.900994,0.564085,-0.986153,0.899562,0.095556,-0.838665,-0.389680,-0.250439,-0.438430,0.191156,0.023387,-0.346175,-0.600848,-0.075437,0.620367,0.084356,0.088442,-0.179643,0.176521,0.121011,-2.202953,-2.130317,0.584425,-0.640176,0.943665,-0.087453,0.657240,0.978926,-0.934842,-0.646782,-1.498276,-0.239708,1.293481,-0.922496,-1.093179,-0.180797,0.352100,-0.172581,-0.669275,-0.496481,-0.304946,-1.455018,-0.777487,-0.107606,0.393310,-0.530541,-0.891958,-0.041923,-1.050561,-0.862026,-1.466628,-0.444413,0.107695,0.741357,-0.243377,0.227307,-0.523832,-0.429499,0.372882,0.888150,0.553012,-0.570141,-0.319636,0.722493,0.500250,-0.244951,-1.006947,-1.680898,-2.844353,-2.585888,-0.199767,-1.489465,-0.182137,1.017893,-1.193745,0.158717,-0.242872,-1.020774,0.038965,-0.662612,0.514613,0.634140,0.744092,-0.713613,-0.145004,-0.218707,0.375074,0.232395,0.560122,0.628186,0.476734,0.251363,-1.420067,-1.263186,-1.643775,-1.652473,-2.279173,-2.150904,-0.707399,-0.632356,-1.479122,0.446879,-0.834534,1.342641,1.100932,-0.152052,0.159179,-0.293963,-0.108014,-0.751128,-0.171228,0.499860,-0.374049,-0.790087,-0.660056,1.000654,0.638004,0.384507,0.141951,0.086146,-0.104024,-0.972795,0.008096,0.161752,-1.520797,-2.087115,-1.736206,-0.709648,-1.297512,0.162634,0.012618,0.773596,1.325293,0.154787,0.039634,0.924246,-0.353410,-0.032174,-0.331568,-0.736906,-0.002538,0.347116,-0.521147,0.429740,1.735513,1.286204,1.761102,0.902737,1.320238,1.073242,-1.074719,-1.788504,-2.065112,-1.463378,0.102012,-1.016498,0.395766,-0.928446,0.649568,0.129900,1.289351,1.387669,0.491843,-0.628312,0.507228,0.465535,-0.124845,-0.254707,-0.408960,-0.349234,0.312037,0.836626,1.299132,2.664939,2.293541,2.766284,2.009577,2.262657,-0.268901,-1.779766,-1.247570,-1.396860,-0.546796,-0.265629,-0.057728,1.534554,0.737491,-0.913752,-0.904318,0.016936,0.988463,0.756671,0.555687,0.349861,0.050803,0.192646,0.376414,-0.610137,-0.024396,-0.142421,1.536105,1.754797,1.589249,0.466525,2.449750,1.457748,0.500605,-0.214763,-0.596807,0.660906,0.996157,0.808475,0.425932,-0.274628,-0.782647,1.034554,-0.835200,0.353133,0.707421,1.596759,-0.530508,0.663708,-0.220112,0.052114,-0.198973,0.129724,0.521063,0.888353,0.311045,1.107999,2.092552,1.435946,1.821777,2.135599,0.397140,-0.121295,1.112256,0.522210,-0.104480,0.601085,0.717985,0.863330,0.830195,0.197622,-1.310929,-0.134252,1.666030,0.479304,0.521257,-0.036521,0.654769,-0.865178,-0.657317,-0.226706,0.234761,0.347572,-0.665588,0.690012,1.356772,0.114491,1.549866,2.242787,0.641279,1.327492,-0.250052,1.004098,0.341616,-0.397976,1.142776,0.348946,0.704612,-0.179050,0.983167,0.217902,0.269812,0.254186,-0.610485,0.873230,0.036656,-0.708138,0.205184,-0.234639,0.783206,-0.213463,-0.429789,0.199783,0.590817,-0.574596,0.480489,1.697703,0.819197,0.660875,0.816992,0.554258,0.180232,0.783210,0.742824,-0.076401,1.394634,0.382029,0.690405,1.229058,0.726876,1.207577,-0.897803,0.632585,0.166237,0.319457,0.598743,-0.720049,-0.382058,-0.208100,-0.069239,0.372038,-0.361410,0.341932,1.589954,1.636797,0.155353,0.438326,0.372794,0.603738,0.791612,1.369735,0.361791,1.521668,-0.431614,0.094103,0.207901,0.858374,-0.212487,0.219498,0.380557,-0.116140,0.329974,0.805389,0.595495,1.060503,1.089641,0.442658,-1.049444,-0.833074,-0.183102,0.786235,0.566062,0.393298,-0.125601,-0.503767,-0.026387,0.585525,2.025672,-0.049488,0.312290,1.014104,0.354975,0.660382,0.792556,1.680546,0.618933,0.096335,-0.139288,-0.786312,-0.271990,0.091216,-0.268946,-0.645284,-0.438915,-0.373799,0.739176,0.873725,0.242623,1.342688,0.850469,1.756619,0.909344,1.060148,0.508811,0.125259,1.002077,-0.053555,-0.010711,0.954045,-0.016808,0.817596,1.211173,1.627734,1.209030,-0.554553,0.549755,0.393326,0.221770,-0.690808,-0.416975,0.835679,-0.745479,-0.595410,0.114612,0.306859,0.333162,0.876206,0.481719,-0.066194,0.619001,-0.784385,-0.619975,-0.354537,0.339659,-1.553997,-0.579594,0.710347,0.922509,0.930178,1.118875,0.707400,-0.601499,0.112322,0.813202,0.305640,0.715176,-0.834150,0.168794,-0.331430,-0.630968,-0.712279,-1.908840,-1.502811,0.351462,-0.767297,-2.243472,-0.134515,-0.705301,-0.666083,-0.332067,-1.584356,-1.543067,-2.224871,-0.334895,0.122711,-0.067847,-0.268227,-0.571599,1.159289,-0.229672,0.812623,-0.914607,0.862445,-0.093358,-0.852105,-0.541873,-0.356787,-0.923663,-0.877869,0.045056,-0.797455,-0.290969,-2.220799,-2.609763,-2.641781,-1.316373,-1.691396,-1.318885,-2.657435,-2.368301,-1.931014,-0.754310,-0.025822,-0.331329,-0.067502,0.720147,-0.566999,-0.273864,0.279554,0.784470,0.339665,0.328688,0.527937,-0.608231,-0.276143,-0.042987,-0.491046,0.583201,0.680852,0.266659,0.356534,-1.070949,-0.365196,0.450976,0.682030,-0.172654,-0.300950,-0.036869,0.045557,-0.429041,-1.160513,-0.656681,-0.188889,-1.216264,0.787469,-0.846849,0.633521,0.795630,0.098456,0.602495,0.476940,0.889938,0.471921,0.307255,0.214701,0.601383,0.350774,0.033198,-0.878790,-0.038084,-0.096728,-0.213157,0.737995,0.654447,-0.827459,-1.011315,-0.825048,0.621176,0.012978,0.545009,-0.247798,-0.710350,-0.351390,0.611519,0.262872,-0.803235,-0.369369
-0.749948,0.674530,-0.663909,0.290694,-0.738200,-0.901020,0.442550,0.499014,-0.766973,0.873196,-0.234741,-0.763003,-0.943662,1.003373,0.184787,0.619955,0.658844,0.651958,-0.936882,-0.897608,-0.798954,-0.849944,-0.968853,0.990539,-0.702498,-0.788023,-0.632735,0.331183,-0.301556,0.300605,-0.133847,-0.171996,-0.012672,-0.397117,0.903903,-0.365908,0.224278,-0.041592,1.000841,0.311689,-0.562285,0.612753,0.203163,1.368180,0.689238,-0.395849,-0.269773,0.817928,0.822106,0.416055,-0.779354,0.242935,0.067302,-0.820275,0.267858,-0.910541,0.619561,-0.926789,0.904573,0.968872,-0.110241,0.422975,0.674457,0.360334,-0.562540,-0.300284,1.184987,-0.005177,1.158099,0.540826,0.781348,0.917933,-0.449271,0.514535,0.601070,0.729550,0.645898,-0.490145,0.588018,0.120187,-0.456536,0.946817,0.841859,-0.269867,-0.744960,0.401247,0.870395,0.258228,-0.160404,-0.074451,0.718400,0.939980,-0.227700,0.836889,-0.878523,-0.218486,-1.085297,0.572196,0.330803,-0.176767,1.200447,0.262793,-0.057829,-0.237229,0.139401,-0.265845,0.501755,0.943129,-0.561858,-0.965281,-0.025450,0.974168,0.902854,-0.797448,-0.733748,0.663212,-0.180804,-0.517862,-0.576709,0.673828,0.784030,0.453112,0.757054,-0.195138,-0.924003,-0.527787,1.368140,1.386197,1.855870,1.393136,-0.994579,0.194244,-1.174792,-0.306254,1.148512,1.085716,-0.350341,0.406409,0.422371,0.784628,-0.777410,0.064120,0.325563,0.784783,-0.031976,-0.642796,0.758860,-0.164262,-0.169999,0.243767,-0.077019,-1.236378,-1.134978,-0.510499,1.193880,-0.303863,-0.696079,-0.142951,-1.751950,0.036684,0.200230,0.017514,-0.763424,1.045947,-0.569413,0.367981,-0.052767,0.424772,0.413968,0.054445,-0.440641,0.882240,0.210536,-0.475389,-0.593926,-0.352739,-0.192106,-0.088068,-0.368725,-1.422003,-0.738557,-0.199862,-0.291240,-0.100532,-0.353956,-2.222248,-1.731984,-1.841391,-0.998433,-0.386159,0.178320,-0.794419,-0.592339,0.313457,-0.221458,-0.972428,0.765642,0.250430,-0.948341,-0.728914,-0.320321,-0.193096,-1.321155,-0.780703,-0.273854,1.136231,1.372721,-0.492522,0.297417,-0.236824,-1.034670,-0.776476,-2.204265,-1.255771,-1.080164,-0.512304,-1.313393,-1.339728,0.049137,0.580450,-0.537057,-0.503353,-0.124009,0.145794,-0.999420,0.000230,-0.485279,0.904372,0.408915,0.496646,-0.178141,0.045157,-0.683048,0.199729,1.235928,0.219685,0.012787,0.253814,-2.080019,-0.789637,-2.000143,-1.460633,-1.026597,-1.242724,-0.515797,-1.494005,-0.225469,1.023657,-0.548312,0.431334,-0.971911,-0.877372,-0.357108,-0.803900,0.547859,0.867596,-0.320402,0.257760,-0.628405,1.448552,-0.909673,0.294557,0.524847,0.302153,1.106414,-0.034220,-0.177872,-1.127288,-1.301951,-1.995771,-1.792087,-1.189238,0.468798,0.422689,-0.000463,0.301692,-0.421737,-0.498283,-0.601293,0.395833,-0.749301,0.601715,0.483554,-0.029394,0.421191,0.206974,0.227991,-0.088298,0.693400,-0.187580,0.355054,1.682528,0.322595,0.410926,-0.656500,0.822496,-0.620562,0.232725,-0.149466,-0.337161,0.732572,0.864560,-0.868362,1.005976,-0.699838,-0.308146,0.032896,0.915932,-0.540287,0.599065,0.189643,1.223065,-0.629827,-0.577040,0.931483,-0.173174,1.183547,1.108803,0.971476,2.382134,-1.166811,-1.467630,0.224094,0.357976,1.225595,-0.613435,-0.145600,-0.370974,0.242407,-0.081069,-0.042058,0.278114,0.388247,-0.431961,-1.057052,-0.810418,0.485999,-0.547929,-0.814932,0.270409,-0.202109,-1.267649,0.964117,0.285036,-0.033059,2.401188,2.082785,0.681825,-1.774898,-1.164239,0.949279,0.179848,-0.417847,0.124703,0.861751,0.199333,-0.529381,-0.595525,1.379531,1.082206,-0.406421,0.910831,-0.888537,0.239169,-0.465510,0.987088,0.265162,0.916948,-0.555742,-0.126215,0.649461,1.152530,1.235788,2.241005,1.368078,-1.890936,-2.121953,-2.800871,0.635614,-1.132368,-1.205841,-1.779276,0.995790,0.599682,0.196249,0.179305,1.810899,1.462657,0.187316,-0.590253,0.603044,0.461916,0.224102,-0.628414,0.230337,0.837404,-0.212706,0.934602,0.637593,1.494630,1.471150,0.640342,0.068782,-2.522293,-3.340967,-1.644290,0.730253,-0.204089,-1.497667,-0.707330,-0.466512,0.371263,0.371168,0.199183,2.738125,3.106692,1.198126,0.685845,0.207919,0.005110,0.289562,-0.459847,0.075264,-0.070713,1.124325,0.570545,-0.228447,1.415903,0.473265,1.242746,-1.192141,-1.160186,-3.198254,-1.562206,1.440307,-0.222747,-1.156972,-1.397901,-0.422922,-0.900484,-0.405085,0.701365,0.624305,0.767300,-0.265441,0.143357,0.474205,0.233325,0.575110,0.045187,-0.047254,-0.721979,-0.466179,0.954046,0.973254,0.141769,0.346105,1.198509,-0.158237,-0.432478,-2.871811,-2.001467,1.267807,1.198369,-1.114540,-2.304494,-0.492637,-0.379090,0.196510,1.180947,1.167865,0.982344,0.205366,-0.611232,-0.911047,-1.049448,0.816020,0.113852,1.013725,0.232836,0.401637,1.640130,0.331617,0.386416,0.911520,0.185815,0.775838,-0.720122,-1.415737,-3.019327,0.757516,-0.519320,-0.439026,-1.827223,-2.111214,-0.901263,-0.273029,0.321251,1.167067,1.052010,-0.514086,-0.147350,-0.875373,-0.108478,0.014538,0.606673,0.309695,0.257030,-0.918784,-0.703679,-0.324938,-0.078840,0.468792,0.770810,-0.606522,-0.957515,-2.734106,-0.851606,0.940515,1.197688,0.968165,0.536289,0.323051,0.590150,1.029259,0.127223,0.439539,-0.273370,-0.480314,-0.543130,-0.789347,0.649056,0.035792,-0.759347,-0.690499,0.603852,0.078184,-0.040389,0.193021,-0.400209,0.755030,-0.174699,-0.286896,-0.588013,-1.687953,-0.022719,1.496553,-0.357566,-0.119346,-0.366511,0.039999,1.119630,1.063849,-0.475137,0.507318,0.083460,0.916029,0.417899,0.273028,-0.750358,-0.003838,0.961523,-0.818438,0.703506,-0.216097,-0.303306,-0.706906,-1.020695,-0.169106,-0.041867,0.586351,-0.710163,-0.478948,0.332781,-0.136723,0.931228,1.134055,1.121244,1.635379,1.553774,0.633474,-0.044588,-0.393894,-0.896768,0.741893,-0.921058,-0.410191,0.243542,-0.335626,0.598729,0.302743,-0.824046,-0.824096,-1.464878,-1.143211,-0.881446,0.290539,-0.189477,0.285573,-0.473154,-0.111204,1.008700,1.467027,0.879803,0.828118,0.765364,0.758231,0.159474,0.579337,-0.779548,-0.059895,-1.323172,-0.353875,0.870951,0.206482,-0.012536,0.359213,-0.974263,0.094777,0.894775,0.302654,0.038329,-1.668899,-1.439507,-1.095816,-0.847381,-0.394006,-0.333626,-0.466653,-0.331836,-0.345938,2.018991,0.160544,1.547877,0.470478,0.022731,-1.641602,-1.510148,-1.762770,-1.075666,0.400691,0.489443,0.449672,0.842578,0.597549,0.721869,0.871933,-0.152533,-0.677124,0.475077,0.719349,-0.027724,-0.242063,-0.410072,-0.058830,-0.309792,0.027316,0.999175,0.419265,-0.986929,-1.181269,0.050197,1.044201,-0.142138,0.546780,-0.173040,-1.004164,-0.772641,-0.835465,0.497752,-0.585248,0.760274,-0.140812,-0.884368,-0.569920,0.346273,-0.675001,0.085144,0.663283,-0.661786,0.219011,-0.690002,0.411944,-0.593050,0.058789,-0.553605,-1.145993,-1.177172,-1.024512,-1.029489,-1.032343,-0.423952,-0.589238,-0.869815,-0.786102,0.354556,0.388393,-0.791585,0.493049,0.313218,0.550967,0.852955,0.376654,0.592799,-0.354283,0.470193,0.602407,-0.076081,0.446716,-1.049799,-1.065045,0.468332,1.064503,1.073007,0.625594,-0.514264,-0.777211,-0.227498,0.603826,-0.505975,0.160398,-0.162162,-0.572287,0.639687,-0.466874,-0.899650,-0.381187,-0.978993,-0.490967,0.961369,-0.636387,-0.753217,0.212340,0.726406,0.257036,-0.989148,0.705796,-0.948439,0.874112,-0.681380,-0.533057,0.306001,0.448285,-0.088874,0.180445,0.528337,0.529389,-0.512857,1.025640,0.159557,0.157463,-0.096474,-0.075130,-0.590891,0.154265,-0.887605,0.407202,0.672965,-0.488948,-0.604911,0.013188,0.501669,0.266682,0.563837,-0.739835,0.162010,-0.850437,-0.782423,0.573081,0.572881,0.800689,0.407654,-0.768249,-0.991024,0.680058,-0.563213,-0.734965,-0.236141,0.710975,0.085792,0.346188,-0.521439,0.662422,0.730300
0.544817,-0.918682,0.761387,0.523666,0.816807,0.157121,-0.380423,0.001978,0.971746,-0.771011,-0.592035,0.529660,-0.810775,-0.383273,0.682893,-0.358722,0.111852,-0.667753,0.892623,-0.365284,0.345701,-0.956559,0.075968,-0.142533,-0.561553,0.391917,-0.062872,0.229099,-0.732805,0.073578,-0.779196,-0.929793,0.578467,0.784927,-0.313598,-0.032076,-0.068203,0.178436,0.198245,0.345124,-0.857093,0.412273,-0.568986,0.336342,-0.342256,0.203006,-0.663207,-0.341598,0.974362,0.106934,-0.453950,-0.676483,0.409038,-0.159966,-0.984541,0.868743,0.043428,-0.718961,0.854534,0.108552,0.430408,0.184632,-0.909911,-0.538545,-0.615769,0.940433,-0.120718,-0.371173,0.971578,0.728099,-0.796261,-0.097389,-0.569146,-0.161277,0.140923,0.219005,0.805551,-0.434032,-0.954921,0.537187,-0.813070,-0.135353,0.707843,0.890600,-0.244256,0.551164,-0.931041,-0.955222,0.134449,0.006389,-0.466041,-0.813252,0.749879,-0.594924,-0.661678,-0.755376,0.142793,0.261690,0.068668,0.907516,0.774365,-0.360585,-0.210612,0.251973,-0.518947,-0.264778,0.797037,-0.721385,0.139262,0.039756,-0.261231,-0.721209,-0.480457,0.649015,-0.394094,0.007879,-0.074427,0.057802,-0.329965,-0.088327,0.029241,0.720739,0.235576,-0.173458,0.174996,-0.036096,0.759926,-0.679594,0.033090,-0.037882,-0.040541,-0.356134,-0.325214,0.475570,-0.076183,0.781292,0.405374,0.959374,-0.941979,0.045628,-0.580101,-0.508793,-0.847382,-0.722492,-0.366826,-0.516320,1.081884,0.396965,-0.392046,-0.053761,-0.794553,-0.366321,-1.285471,-1.267266,0.761624,-0.157551,-0.620423,-0.973828,0.193591,-0.027456,1.009181,0.634432,0.893958,-0.121732,-0.486633,0.692012,-0.419972,-0.753169,-0.696595,0.186083,0.382862,-0.496265,0.598982,0.698113,-0.194394,-0.547246,0.129976,0.045360,-0.071379,-0.270165,0.181042,-0.904741,-0.186038,-0.074564,0.989867,0.425864,0.619018,0.140298,0.170168,-0.151557,0.011821,-0.225120,0.809307,0.780668,-0.321923,0.201690,-0.619321,-0.490756,-0.618406,0.147713,0.554370,0.328543,0.940170,0.750207,-0.513878,-0.267813,0.046596,-0.097857,0.210053,0.222685,0.238978,-0.120822,0.462519,0.986170,0.896324,0.494034,-0.457594,0.839447,0.316705,-0.131671,0.078412,0.207649,-0.266323,0.162230,-0.241716,0.346325,0.618241,0.991278,-0.519899,-0.663924,0.786433,0.202165,-0.965062,0.809050,-0.632517,0.339008,1.250729,-0.178055,0.849704,1.495526,0.183704,0.539306,0.922618,0.727945,0.509984,-0.079404,0.469254,-0.509020,0.784468,0.539215,-0.359055,0.823800,0.000445,-0.036162,-0.824440,-0.873853,-0.524587,-1.140999,0.256834,0.070797,0.068191,0.202670,-0.414895,0.606425,1.431651,0.513782,0.243182,-0.857878,0.739612,0.616267,-0.442906,1.351203,-0.040355,-0.407687,-0.428712,0.130271,-0.467514,0.557091,-0.554440,0.414250,0.326987,0.511234,-0.379169,0.536045,0.598983,0.218048,0.226327,-0.734764,0.643617,1.401150,0.097080,0.530959,1.086107,1.082347,-0.582007,-1.040100,-0.901234,0.391652,0.014114,-0.308566,0.667663,1.140052,1.163955,0.026130,0.712574,0.949314,-0.886406,-0.798571,-0.650357,0.180796,0.605523,-0.591829,0.139640,-0.334760,0.138359,-0.291422,-0.973385,0.613490,-0.429347,0.050564,1.238198,0.957658,0.331282,-0.363489,-0.426722,-0.685610,0.688100,0.733075,0.296238,0.167379,0.459457,1.224830,-0.334472,-0.009744,0.534738,0.263597,0.494511,0.076320,0.660948,-0.521431,-0.349381,-0.279597,-0.289005,-0.255203,-0.924804,-0.817317,-0.804323,-0.853407,1.013158,1.062465,0.635507,0.319778,-0.560324,0.605918,0.444506,-0.475214,-0.691726,-0.465498,0.422919,0.600140,0.410497,-0.445969,0.381758,0.779961,-0.629188,0.932452,0.705619,-0.472462,-0.649550,0.243335,0.484017,0.838161,0.271920,0.037007,0.215378,0.465787,0.240339,0.806697,0.908768,0.555390,-0.082119,-0.462438,0.135120,0.314045,0.493933,0.035569,-0.569379,-0.250759,0.873348,-0.418182,0.209100,0.329547,-0.190886,-0.187105,0.234264,-0.491771,0.241463,0.130385,0.682190,0.559843,-0.638784,0.073742,-0.176368,0.333946,-0.873290,-0.159926,-0.060710,-0.148567,0.812094,-0.815460,-0.005451,0.461947,-0.566233,0.346756,0.494298,-0.251224,-0.668853,-0.686900,0.126590,-0.143535,0.731092,-0.192984,-0.729946,-0.071915,-0.071506,0.466646,-0.499040,0.756964,0.910408,-0.610643,0.135157,0.993603,0.323697,-0.973740,1.041651,0.962688,0.503385,-0.274123,-0.501588,0.092656,1.381586,-0.831163,0.373276,0.442165,-0.199909,0.801643,-0.254768,0.073522,0.536120,0.518125,0.935826,-0.880902,0.244063,0.517712,-0.727971,-0.519671,0.759567,1.125565,0.671749,-0.656615,0.381271,0.137613,0.883478,1.471744,0.513090,-0.607698,0.587160,0.517047,0.708594,-0.176352,-0.241668,0.438379,0.523070,0.119416,-0.958385,0.683052,-0.888773,0.880475,0.929110,0.291309,-0.697653,0.322398,-0.431020,0.186907,0.516470,-0.483784,-0.636156,0.653926,-0.675724,0.048965,0.544279,-0.205134,0.775114,1.233127,0.401307,0.266068,0.971021,0.777358,0.296269,0.554980,-0.923068,-0.832927,0.726567,0.513076,0.293135,-0.947229,-0.630932,-0.328074,0.369105,0.531996,-0.791980,0.448819,1.004405,0.974957,0.398496,0.531696,0.201088,0.388871,-0.179512,0.359653,0.597872,0.123353,-0.294392,0.638795,1.129751,-0.612368,1.162068,0.318214,0.795529,0.317778,-0.399047,0.639577,0.588250,-0.372358,0.620702,-0.648379,0.375911,0.702523,-0.836981,0.502499,0.633190,-0.725715,0.598326,0.094969,0.253813,-0.106440,0.324527,1.597844,1.235228,0.001736,-0.011421,0.961164,1.043660,-0.176792,0.849081,0.809119,0.474885,0.594460,-0.569443,-0.292214,0.717003,0.620689,0.351590,-0.349644,0.667573,-0.266895,-0.516097,0.523929,-0.388975,-0.094876,0.819287,0.124586,0.481880,1.361311,1.270142,-0.396122,0.652121,0.684578,-0.306395,-0.232505,0.828671,0.931026,-0.433054,0.937244,0.677492,0.101319,0.115797,0.415566,0.229881,-0.785638,-0.881031,0.649358,-0.277076,-0.530561,0.211720,0.018971,-0.211171,0.577681,0.077054,0.817256,0.202323,-0.240249,-0.225229,-0.034140,0.403779,-1.307453,0.703679,0.007923,0.600266,0.025336,-0.748177,0.614347,0.600947,0.835496,0.775848,-0.949099,-0.681753,-0.535318,0.590257,-0.924583,-0.750104,-0.667973,-0.946552,0.778890,0.645667,0.652656,0.553634,0.012456,-0.466601,-1.009377,-1.149115,-0.740117,-1.365913,0.096498,-1.052313,-0.828859,0.097743,-1.002024,-0.045318,0.802435,-0.820566,-0.133779,0.641237,0.825227,0.341395,0.001700,0.125247,0.385656,-0.040813,0.604142,0.145087,0.605981,0.371190,0.842130,0.674312,-0.301108,-0.384405,-0.089390,0.054778,-1.246742,0.323734,-0.498487,0.015238,0.592684,-0.868738,0.725414,-0.280455,-0.078952,0.581582,-0.328800,-0.687197,0.771259,0.747549,0.827848,-0.826960,-0.686794,0.195648,-0.787246,-0.469760,0.390850,0.431584,-0.681294,0.069676,-0.376241,-0.581052,0.441026,-0.774138,-0.005240,0.550466,-0.446817,-0.004798,-0.062002,0.101217,-0.974183,0.980443,0.228093,0.329650,0.747476,-0.849249,0.833412,-0.034809,-0.917561,0.254749,0.453088,0.098590,0.217264,0.301081,0.741038,0.002403,-0.737852,0.038712,1.044352,0.513141,-0.061903,-0.759249,0.663584,-0.354387,-0.387862,0.178097,-0.345362,0.267174,0.374937,-0.336386,0.405942,-0.832386,0.813493,-0.683502,0.079543,0.065561,0.860271,0.538381,0.944221,0.964710,0.428527,-0.138341,-0.803596,-0.505305,0.354219,0.185010,-0.036843,-0.765768,-0.186678,0.131339,0.821206,-0.699565,0.250114,0.365591,0.750671,0.753793,0.076805,0.412936,0.462490,0.663431,0.658674,0.806456,-0.128245,-0.249145,-0.134800,-0.024752,-0.996763,0.468822,-0.689219,0.571117,-0.106329,-0.390947,-0.499914,0.796562,0.930238,-0.029641,0.865237,0.724162,0.496534,-0.771647,0.200739,0.615496,-0.173928,-0.542014,0.490483,0.850204,-0.617694,0.334337,0.549565,0.619659,0.713447
