0.656302,0.153103,0.175240,-0.573811,0.008442,0.733962,-0.544218,-0.746334,0.709617,0.955066,0.001111,-0.873860,0.455796,0.797216,0.276408,0.429340,0.284303,0.417010,0.794381,-0.470248,-0.426938,-0.511737,0.432463,0.531048,0.360697,0.290176,-0.064227,0.987680,-0.277049,-0.901786,0.676707,0.123766,0.757555,-0.465324,0.040795,-0.565409,0.001059,0.196408,0.289137,0.059163,-0.588225,-0.112572,-0.399927,0.091495,-0.048520,-0.136491,0.976194,-0.350819,0.326139,-0.357800,-0.100116,-0.826837,0.856769,0.897415,0.080107,-0.047012,0.510650,-0.174737,0.843565,-0.383840,0.411528,-0.285228,0.244221,-0.942568,-0.796843,-0.899104,-0.876914,0.750430,-0.205650,0.761482,0.532432,0.137584,-0.223898,-0.468404,-0.056405,-0.981477,0.722085,0.443581,-0.539788,0.235610,-0.160795,-0.423081,-0.443139,-0.040492,-0.568210,-0.211679,-0.089061,-0.028514,-0.441820,0.860244,0.745740,0.377645,-0.148451,-0.468257,0.926961,0.174058,0.044306,-0.104336,0.160779,1.058006,-0.183703,-0.117400,0.861042,0.663958,0.084374,0.146100,0.313006,-0.754405,0.681651,0.790527,-0.768931,-0.300658,-0.280755,-0.278962,-0.851072,-0.705831,-0.646316,-0.444293,0.566663,0.217453,0.792470,0.696110,0.415809,0.115177,0.662486,0.760152,-0.090626,-0.064113,-0.130692,-0.890061,0.253057,-0.087597,0.802767,-0.695885,-0.774607,0.441389,0.553137,0.720824,0.090008,0.951482,-0.614684,-0.765650,0.975044,-0.166818,-0.240657,-0.531803,-0.369230,-0.337115,0.106455,0.705801,0.581292,-0.056473,0.043873,-0.749340,0.575297,-0.058347,-0.547295,0.478500,0.970641,0.090867,0.614776,0.315962,-0.381088,0.689617,0.706114,-0.527210,0.453019,-0.296855,-0.706067,-0.490062,-0.027997,0.576886,-0.129851,0.408058,-0.709163,-0.197823,0.563028,0.961466,-0.008508,0.223383,0.872932,0.362193,0.630680,0.436199,0.352845,0.122099,-0.152233,-0.718731,-0.674716,-0.304075,0.881552,-0.507022,0.382923,0.178370,0.578763,-0.367764,0.742382,-0.315504,-0.829068,0.249035,0.059508,-0.130293,-0.641408,1.085236,-0.218205,-0.209636,-0.265616,-0.306489,1.180760,0.110265,-0.721024,0.420735,0.869834,0.483089,-0.036437,0.852878,1.151960,0.634838,0.451946,-0.955164,-0.021028,-0.669049,0.107313,0.177209,-0.446892,-0.289404,-0.198207,-0.209961,-0.120403,-0.749008,0.753082,-0.794671,0.414381,1.019572,0.338838,0.546930,-0.205701,-0.474416,0.921989,-0.062468,0.091930,0.243180,0.964782,0.042363,-0.182189,0.759612,-0.238393,-0.682618,0.048629,0.889174,0.038717,0.190872,-0.607268,0.907282,-0.861724,-0.754685,-0.441232,0.501599,1.019042,0.418854,0.133544,1.061051,-0.310992,-0.094096,-0.448294,1.086004,0.608905,0.633401,-0.920488,-0.155962,0.951323,-0.558409,0.233731,0.668308,-0.424530,-0.896096,0.395074,-0.622693,-0.318752,-0.827799,0.938767,-0.240576,0.468802,0.948584,-0.950603,-0.004377,0.717099,0.035446,0.896366,0.730520,-0.205519,1.012373,0.034906,-0.435012,1.076567,-0.246941,0.922427,0.084966,0.449056,0.997899,0.888633,0.262535,0.217681,-0.552690,-0.282726,-0.563922,0.344369,-0.502258,-0.768622,0.407749,0.944790,-0.073051,0.810910,0.074091,-0.493889,-0.309720,0.966159,0.082969,0.913792,-0.284150,-0.479751,0.237417,0.844935,-0.677112,0.625998,0.417750,-0.549506,0.313437,0.995407,0.109835,-0.288349,-0.112612,1.050795,0.651690,0.259889,0.716687,0.543889,0.613104,0.941721,0.757032,0.322010,0.513074,-0.344763,0.483666,-0.389219,0.957991,-0.565997,1.188163,0.179461,-0.335360,1.062482,-0.124271,-0.134162,0.875284,0.153297,-0.646948,0.146088,0.709834,-0.947054,-0.173494,-0.421054,-0.389358,1.005244,0.149980,-0.959052,0.337341,-0.084555,0.883831,0.845947,-0.780401,1.199753,0.003532,-0.605310,0.925596,0.139288,-0.060771,-0.522005,1.076411,-0.751928,0.215245,0.530803,-0.837766,-0.695669,1.144437,-0.469598,-0.842465,-0.241551,0.106512,-0.309769,0.770566,-0.256150,0.884148,-0.862985,0.833436,-0.762090,0.309249,-0.807768,-0.382136,-0.478460,0.230422,0.349820,0.450930,1.125101,1.242732,-0.239974,-0.317791,-0.275786,-0.526851,0.914592,0.939546,0.449532,0.900714,-0.671783,-0.708553,-0.097600,0.341422,-0.565713,0.352966,-0.949508,0.347520,0.049295,0.210183,-0.111317,0.792833,-0.143400,0.515436,-0.655600,-0.151304,-0.153289,0.611400,-0.604875,-0.312857,1.020322,0.869630,-0.633423,1.093677,0.922804,-0.203938,-0.022348,0.892598,0.777445,0.531022,1.114505,0.936463,0.331279,0.867857,0.259131,-0.448204,0.576126,0.816795,0.908225,0.518118,0.648708,-0.638307,0.232653,-0.513210,-0.019849,0.546844,0.195728,1.061847,0.265985,1.019191,-0.491173,0.161367,0.560803,-0.545488,-0.049072,0.629638,0.816346,0.341737,-0.773794,-0.544345,0.073914,0.918736,0.152126,0.833746,0.181859,-0.975712,0.851923,0.232190,-0.840299,-0.786096,0.800631,-0.358663,0.834974,0.502650,-0.079552,-0.243133,0.382675,-0.037323,-0.036409,-0.056479,-0.136060,0.975523,-0.149672,-0.500684,0.333513,0.992931,0.703453,-0.655019,-0.029551,-0.292791,-0.904260,0.288490,-0.006594,0.718693,0.272162,-0.994890,-0.117993,-0.784980,0.337906,0.230390,-0.599645,0.582385,0.233006,0.950465,-0.346525,0.605075,0.834909,0.293001,0.762408,-0.612676,1.058932,-0.774923,0.574803,-0.332499,-0.660705,0.562656,0.686574,-0.526036,0.854073,0.285987,0.325345,0.992887,-0.234192,-0.977403,-0.457343,-0.865654,-0.743860,-0.747666,0.280634,0.585519,0.109858,-0.048474,-0.028651,-0.427855,0.957008,0.670610,-0.632806,0.067512,-0.186331,0.863165,1.201323,-0.532030,-0.271244,0.144596,-0.086449,0.442245,-0.019209,0.802329,-0.322681,-0.140497,0.302255,-0.670813,0.422467,0.749883,1.011486,-0.156102,0.094490,0.153180,0.270718,0.085694,-0.184115,-0.257511,0.667735,-0.250205,-0.455111,0.132062,-0.052159,-0.450343,-0.348944,-0.319273,-0.896587,0.365377,-0.064034,0.366342,-0.034050,0.444968,-0.273328,-0.494346,-0.739926,0.774913,0.234041,0.399608,0.740952,0.594175,-0.435471,0.342971,1.120819,0.543052,0.852249,-0.518248,0.263862,0.527477,0.956008,-0.939097,1.060260,-0.802182,-0.071256,1.028091,0.407506,0.751224,0.061997,0.975571,0.387189,0.114219,-0.854942,-0.804705,0.647018,0.220550,-0.172960,-1.019738,-0.580992,0.742438,0.309313,0.262879,-0.145038,0.359233,-0.643006,-0.176547,-0.900829,0.169387,-0.656431,0.113236,0.542322,-0.072768,0.870863,-0.380324,0.060160,-0.157177,-0.445929,-0.466061,-0.956580,-0.733098,-0.932651,-0.696370,0.342693,-0.412609,-0.435929,-0.296160,-0.728280,-0.592545,0.669379,0.230215,0.619127,-0.310982,-0.585059,0.023207,0.579988,-0.253578,-0.498463,0.673992,0.018489,-0.775347,0.769568,-0.169651,0.697340,0.570526,0.347696,-0.620551,0.437992,0.905015,-0.989052,0.965048,-0.443877,0.410973,-0.072319,-0.192579,-0.590676,0.348962,0.227759,-0.974086,-0.408406,0.804845,0.602006,0.262220,-0.424292,-0.562972,-0.723997,0.546724,-0.274250,0.682607,-0.018759,0.519945,-0.087429,-0.746445,0.643673,-0.035677,-0.752235,-0.737822,-0.668346,0.840762,0.646592,0.584328,0.448289,0.542106,0.255188,0.139111,-0.660990,1.007189,0.854859,0.596174,-0.151023,-0.092513,0.965095,0.539970,0.320819,-0.449291,0.254149,-0.005511,-0.377478,0.235970,0.478249,-0.220790,0.160017,0.735728,-0.172248,-0.506546,0.709059,0.066949,0.699598,0.974953,-0.767382,-0.058967,0.078811,0.656670,-0.575840,-0.672964,-0.255429,0.657912,-0.735303,-0.219234,-0.564325,0.921315,-0.482684,0.283827,0.134098,0.457248,-0.614928,-0.189717,0.671217,-0.500740,0.713100,-0.646622,-0.125757,0.322401,-0.095169,0.238392,-0.087965,-0.353574,0.360098,0.847104,0.808194,0.732008,0.651883,-0.528922,0.811510,-0.591938,-0.327321,-0.860096,0.911199,-0.289176,0.991316,-0.280031,0.993699,-0.482300,0.606454,-0.229466,-0.488123,0.033480,0.640988,-0.326539,0.989797,-0.827553
-0.224343,0.950275,0.628117,-0.903021,0.300818,-0.605062,-0.331796,-0.470166,0.857738,0.664773,0.103167,0.565005,0.382091,-0.814059,0.829736,0.805571,0.652495,-0.102495,-0.439351,0.634145,0.018124,-0.873368,-0.493090,0.535708,0.301435,-0.169586,-0.503454,-0.891023,0.238907,-0.319343,0.721606,0.033584,0.286776,-0.248168,0.207425,0.068656,-0.136688,-0.443567,0.691487,0.414416,-1.126618,-0.060088,0.334214,0.186453,-0.951554,0.178258,0.354068,0.523600,0.171689,0.223728,0.445712,-0.963627,-0.909312,0.783186,0.018567,-0.117139,0.507706,-0.204106,-0.948016,0.332809,-0.845159,-0.610523,-0.063233,0.075576,-0.096126,-0.046850,-1.002038,0.132478,0.290525,-1.024993,0.423204,-0.041419,1.022740,-0.809370,-0.645282,-0.542927,-0.432839,0.175544,0.019835,-0.481756,0.423110,0.051968,-0.019418,-0.581819,0.880858,-0.059955,0.195663,0.944081,0.661903,-0.088913,-0.978592,-0.350143,-0.141821,0.283628,-0.765254,0.090892,0.030162,-0.022682,-0.066764,-0.405424,0.863257,0.424994,0.517402,-0.386958,-1.541425,-1.319388,-0.891114,-0.489968,0.069141,-0.026884,0.161727,0.546271,0.311901,-0.866209,0.242245,-0.922651,0.383226,-0.972412,-0.634870,-0.548002,0.469562,0.488979,-0.799178,-1.263352,1.068966,1.226998,0.016729,1.469301,1.767227,1.038362,1.071569,-0.619903,0.555063,0.200649,-1.593042,-1.480202,-0.176723,-0.853500,0.443160,0.739957,-0.785508,0.766270,0.662329,-0.492339,0.221491,-0.933786,-0.227265,-0.416841,-0.400728,-0.470582,0.689188,0.263576,0.958814,0.649911,1.506400,0.677732,-0.227984,0.876584,0.533650,-0.512842,-1.410957,0.287201,0.406092,-0.308487,0.482977,-0.638244,0.026287,0.043925,0.871070,0.994230,0.188813,0.398723,-0.029000,0.406988,-0.221192,0.684809,-0.520125,0.084580,-0.567706,-1.097904,-0.350681,-0.799136,0.742495,0.888499,0.543912,0.801532,0.036678,-0.328013,-1.284510,-0.687407,0.699373,0.556210,-0.831036,0.630431,0.283871,-0.530873,0.963694,0.945332,-0.016914,0.779195,0.149820,-0.710871,-0.336166,-0.541405,-0.248113,0.909699,-0.740154,-0.780004,-0.120714,-1.030213,0.160648,-0.697113,0.597972,0.958556,0.242026,-0.436785,0.735885,0.572522,0.192076,-0.004378,-1.517827,-0.862030,-0.279964,-0.569470,0.518416,-0.484413,0.294643,-0.688789,-0.382985,-1.008305,0.070401,0.170115,-1.154023,-1.014268,-1.173631,-2.020337,-1.848459,-1.028417,-0.372173,1.207037,0.781424,1.626086,0.693306,-0.478930,0.431582,-1.244106,0.236220,-0.069104,0.148122,-0.009623,0.005817,0.673151,0.032948,0.978482,-0.270734,0.040201,-0.844108,0.314347,-0.194595,-1.237346,-0.660459,-0.892501,-0.643955,-0.938254,-1.085948,-1.639614,-0.753921,1.651352,2.297874,2.402466,1.549671,1.201657,0.442662,-1.431003,0.164768,0.207090,-0.060888,0.374672,0.119313,-0.858784,0.986324,-0.875412,-0.949015,-0.786949,-1.096544,-1.686651,-2.129087,-0.452099,-1.759945,-0.285795,-0.918518,-0.045676,-1.047520,-1.117259,-1.790272,-0.762291,2.226582,2.476735,1.310547,1.497854,0.568062,-0.110756,-1.462538,-1.590987,0.042853,-0.258332,-0.286739,-0.228234,-0.327950,0.589330,-0.545473,0.605813,0.155059,-0.992827,-0.449487,-2.210503,-1.871598,0.279463,-0.571400,-0.987316,-1.545987,-1.692365,-3.240822,0.478992,1.720760,1.494669,0.846726,0.686574,0.078887,-1.134652,-0.225849,-1.759890,-0.854607,-0.099918,0.226796,0.159324,0.021623,-0.143335,-0.268542,0.160793,-0.157388,-1.763293,-1.563326,-0.644594,-1.036801,-0.763678,-1.249292,-0.762979,0.603584,-2.041968,-3.131959,-0.840639,-0.346723,0.223472,1.253551,0.326625,-0.885424,-0.916778,-0.637261,-0.902530,-0.398141,0.632273,0.396908,0.565139,0.419196,-0.382230,0.586857,0.306218,-0.419373,-0.363741,-0.962993,-0.956200,-0.567795,-1.432676,-0.660614,-0.341426,-0.661015,-1.951104,-0.821065,-0.685026,0.636025,0.643221,0.806404,-0.653587,-0.142637,-1.331398,0.984070,-0.411774,-0.491513,-0.025217,-0.232796,0.194768,0.482165,-0.006010,-0.054065,-0.903851,-0.318215,0.119339,0.530886,0.563727,0.659677,0.538005,-1.244598,0.764804,0.831073,-0.900072,-1.367583,-1.330413,1.088163,0.836680,1.097282,-0.360728,-0.949986,-1.318128,-0.365915,0.166007,-0.428198,0.033584,-0.077962,-0.064700,0.880868,0.057246,0.151467,-0.057100,0.851765,-0.707810,1.127419,1.372508,0.680856,1.038562,-1.274436,-0.238558,0.810339,-0.526323,-1.132233,-0.522750,1.261470,0.855303,-0.944381,-0.274445,-1.259988,-0.186156,0.339132,-0.494220,0.855368,-0.608720,0.328342,0.567708,-0.052373,0.902572,-0.441915,0.188289,0.007928,0.966925,0.498804,0.640735,0.244662,0.426985,-0.593257,0.594590,0.063900,-1.772807,-1.161737,0.329747,1.388530,0.656961,0.816080,-1.015094,0.654516,0.513030,-0.057041,0.797258,-0.810469,-0.821261,0.686394,-0.215310,0.634371,0.924171,-0.816848,-0.314488,0.717754,0.376052,-0.090855,0.687246,-0.610898,0.769813,0.588244,-0.185558,0.133589,-0.511904,0.148489,1.441340,0.788976,0.552541,-0.135886,-1.315113,-0.013047,-0.142410,0.370145,-0.893304,0.567014,-0.854250,-0.848409,0.611122,0.705746,0.421671,0.554895,0.394405,-0.503691,-0.685120,-0.266990,0.242879,-0.559055,-0.149552,-0.084636,0.380345,-0.704438,0.392831,1.277934,-0.485267,0.431061,-0.486044,0.482391,-0.208739,0.886256,-0.936975,-0.493797,0.362162,-0.212629,0.677693,-0.085091,0.717058,0.193075,-0.043696,-0.641443,0.341094,-0.736763,0.308235,0.286734,-0.401020,0.090445,0.995012,-0.018369,0.202889,-0.711719,-0.643656,-0.424893,0.198262,0.107068,0.485215,0.831309,0.233707,-0.020866,0.183839,0.829244,0.111746,0.491523,0.644589,-0.233070,-0.123653,0.427370,-0.218411,0.624083,0.324242,1.322327,0.512416,0.920533,-0.711632,0.413655,0.881459,0.547419,-0.366225,-0.827758,-1.014580,-1.567605,-0.444328,0.217317,-0.329244,0.471324,-0.637554,-0.320598,0.748987,0.949665,1.049751,0.862521,0.151972,0.533817,-0.409368,0.068667,-0.815928,0.195700,-0.640884,-0.149814,1.572447,-0.233291,0.052607,-0.925487,-0.714751,0.198154,-0.136912,-0.946458,-0.899606,-0.525286,-0.631486,-0.102453,-0.048201,0.863614,-0.133962,1.078506,1.233538,-0.078989,-0.134818,-0.229430,-0.454509,0.754250,-0.718606,-0.292309,0.862695,-0.480773,0.282241,0.915199,-0.398788,1.008872,0.325791,0.353581,-0.665689,-1.263634,0.554185,-1.594323,0.253454,-0.257184,-1.174303,-0.458801,-0.903297,-0.107658,-0.374499,-0.667279,-0.587641,1.058623,0.275401,0.810195,-0.542611,0.845058,-0.284118,-0.257196,-0.534274,-0.865999,-0.354569,-0.376610,-0.589878,-0.387683,1.230022,0.930043,0.140513,-0.490199,0.009343,-1.360397,-0.988573,-0.400400,-0.601599,-0.200597,-0.345584,-0.329026,0.198474,-1.094614,0.034986,-0.127795,-0.541298,-0.410580,0.777962,0.948786,0.491621,0.711527,-0.784489,0.443548,0.611099,0.347790,0.857772,-0.888838,-0.178322,-1.391706,-1.279762,-1.487012,-1.432738,-1.505344,-0.029054,-0.839613,0.146761,-0.150050,-1.426757,-0.271695,0.002578,0.005772,-0.236728,-0.487171,-0.614215,0.797995,-0.861450,0.442861,-0.156647,0.123373,-0.882402,-0.694079,-0.631136,0.082430,-0.058466,-0.640361,0.345229,0.320981,0.118414,0.313868,-1.249684,-0.369120,-0.141827,0.010567,0.458749,-0.164952,0.222513,-1.059331,-1.280521,-1.071981,-1.078812,0.420576,0.463301,0.315997,-0.683107,-0.148903,-0.567947,-0.138169,-0.170330,-0.535797,0.311625,0.239461,-0.065087,0.522482,0.749716,0.049866,-1.018497,-1.072611,-0.945665,-1.153172,-1.305856,0.446269,-0.836917,0.153819,0.780671,0.736468,0.181192,-0.020387,0.221795,0.646116,-0.993366,-0.906980,0.745942,0.989953,0.186507,0.834644,-0.262513,-0.891367,-0.258605,0.103558,0.993589,-0.690155,-0.332550,0.907580,-0.704082,-0.563590,0.177596,0.253583,0.511472,-0.613466,0.223816,0.795028,-0.442147,-0.693694,0.756834,-0.624710,-0.281309,0.645099,0.336123,0.813165,-0.220398,0.354013,-0.788496
0.413402,-0.245619,0.343048,-0.305452,-0.013630,0.203514,0.742691,0.299165,0.854353,0.287327,0.553970,-0.371660,0.045680,0.197653,-0.308831,-0.284917,-0.552294,0.658742,-0.325284,0.363494,0.742798,0.467346,-0.960195,-0.077340,-0.211937,-0.894629,-0.127383,-0.869785,0.716775,0.013404,-0.041576,-0.362977,0.523288,0.667581,-0.744718,-0.452544,0.469814,-0.694545,-0.700430,-0.605618,0.394367,-0.509722,0.061686,0.526134,0.995327,-0.000861,0.061145,0.981963,0.993543,0.621626,-0.213488,-0.432044,-0.059196,-0.044206,0.933412,-0.228303,-0.086042,0.021384,-0.156772,-0.151428,0.660638,0.330924,0.567144,0.151035,0.825150,0.953881,0.170795,0.627749,0.599336,-0.165470,-0.849716,1.113346,0.451451,-0.305649,0.245981,-0.118422,-0.192239,0.326521,0.686745,0.183457,0.453090,-0.173622,-0.551597,0.528863,-0.406140,-0.045769,0.552036,0.027210,-0.930198,0.958617,-0.044932,0.817901,-0.055588,1.414543,1.500993,0.160032,-0.196788,-0.894194,-0.904625,-1.244921,0.386351,-0.778069,-0.221695,0.578118,0.406040,1.144059,1.049414,0.145537,0.132425,1.064446,0.621236,-0.463904,-0.469621,0.730280,0.392963,0.521562,-0.974634,-0.014421,0.444707,0.586888,0.367759,1.146426,1.468678,0.275145,-0.348489,0.894862,-0.300164,-0.570996,-0.108529,0.913230,0.116753,0.975726,0.760389,1.628198,0.601607,0.138057,1.490451,0.336234,0.044420,0.406019,-0.748341,0.351144,0.421632,0.673062,0.186157,0.721911,0.323203,-0.390056,1.418064,1.314002,1.527341,-0.211663,-0.261191,0.277797,-0.242096,1.235371,0.556150,0.227246,0.351745,-1.088203,0.209864,-0.022708,-0.335186,0.818080,-0.034527,-0.159948,0.408527,0.410392,0.949486,0.548156,0.131419,-0.172958,-0.072002,-0.258499,0.138537,-0.919528,-0.356483,-1.181447,-0.348906,-0.834075,-1.449974,-2.082465,-0.688628,-0.088354,0.222611,-0.962065,-2.012877,-1.437050,-0.424644,-0.401336,-1.368262,-0.060040,-1.031642,-1.156289,0.202247,-0.867005,0.002311,0.890523,-0.702997,0.440939,-1.333653,-0.314615,-0.382805,-0.748323,0.591305,-0.342778,-0.233494,-0.446490,-2.191015,-0.362398,-0.891247,-2.594779,-0.116068,-0.494531,-1.657757,-1.467603,-0.826948,-0.067821,-1.422784,-1.039743,-0.228838,-0.729558,-0.427130,0.567454,-0.652579,0.250886,0.170289,-0.393901,-0.468730,0.128665,-1.649310,-0.323906,-1.203324,-0.915799,-1.928407,-0.727540,-1.847760,0.632332,-1.312344,-1.442207,0.068726,-1.148736,-2.334515,-2.464416,0.151230,-1.442425,-2.859264,-1.521981,-1.828901,0.445923,0.427393,0.136055,-0.163140,-0.409417,-1.134544,-0.805754,-0.706805,-0.230877,-1.068078,-0.435089,-1.748493,-0.882356,-2.196042,-1.437279,-0.274682,-1.068149,-0.633059,-0.222207,0.414390,-0.215416,-1.829776,-0.490939,-0.862440,-1.930902,-1.622032,-2.380190,-2.237871,-1.407867,0.258595,0.098120,-0.287057,0.762638,-0.892095,0.188159,-1.576556,-0.854809,0.295597,0.743362,-0.440511,-0.206523,-0.569594,-0.597076,-0.041678,0.653676,-0.864745,-0.666556,-0.823749,-0.603077,-1.524427,-0.857857,-1.064780,-1.293898,-1.447987,-1.992629,-1.558675,-1.337907,0.505047,-1.002608,-0.659045,-0.034539,0.926852,0.537617,-0.227117,-0.095173,-1.046788,0.246332,-1.377202,-2.271725,0.058353,-2.316496,-0.914354,-1.299373,-1.469137,-2.160925,-1.886113,-1.190555,-1.019952,0.436134,-1.316121,-0.264609,-0.024423,-1.454121,-1.694212,0.319718,-1.111613,-0.239657,0.914019,0.893248,-0.798672,-0.364958,-0.324406,-1.847104,-1.915696,-0.354431,0.433792,-0.937687,-0.221936,0.088368,-1.408495,-2.705215,-1.224331,-1.433629,0.420228,-1.575898,-0.368216,-0.575743,-0.384831,-0.248835,-0.809203,-1.488363,0.165484,0.707162,-1.369680,0.540434,-0.474131,0.001264,-0.941228,-0.702684,-0.767800,-1.482601,-1.045998,-0.730966,-0.524152,0.279648,-0.804814,0.347246,0.229682,-0.573197,-1.349967,0.636506,0.471326,-0.373843,0.554111,-0.953043,-0.867413,0.626546,-0.720259,-0.492509,1.303337,0.418379,-1.001341,-0.057639,-0.319985,-0.128170,0.197646,-0.308990,-1.223736,-1.239880,-0.733522,0.912599,1.541578,1.304180,-0.678140,0.904425,0.791260,-0.670738,-0.833706,-0.142752,0.639298,-0.376096,-0.094161,-0.056722,-0.117998,-0.804816,0.399897,1.243626,0.842771,-0.184296,-0.682845,0.116812,0.417786,0.689793,-0.556115,-0.548596,-0.155196,0.378413,1.260664,0.251414,0.641582,1.319291,1.696847,1.810877,1.770216,0.394692,1.069802,-0.206417,1.616878,1.925496,0.593881,-1.116729,-1.146916,0.292404,0.416054,1.828951,1.177267,0.973656,0.555162,0.865812,0.155943,-0.579907,-0.071171,0.832888,-0.260350,-0.470695,0.321224,1.179173,1.155628,1.593683,0.885924,0.481320,2.120777,1.040200,0.679553,1.339996,2.110060,2.148768,0.895996,2.045225,1.316723,1.501554,1.257504,1.371037,0.983653,-0.194845,-0.686818,-0.727070,0.019847,-0.652245,0.234582,1.189834,0.700863,0.860561,1.201068,2.027913,0.647740,-0.096225,-0.367690,0.476143,0.695286,0.376922,1.202128,1.553304,2.046687,1.343548,1.243811,1.433317,1.947916,1.707403,1.472590,0.801893,1.943117,0.796313,1.035242,-0.615250,-0.622334,-0.503145,0.278586,-0.249901,1.217954,1.004465,0.923230,0.479756,1.409952,0.637144,1.568738,-0.756609,0.406435,1.126594,2.118556,0.247780,1.614769,1.919977,1.421440,1.627993,2.106971,1.318867,1.401153,1.471030,1.137193,0.268320,-0.359082,-0.317298,0.785127,-0.873087,0.712840,0.743897,0.721390,1.080957,0.184210,1.179037,-1.074803,0.548446,0.956850,0.357106,0.133997,-0.667225,0.910991,1.122378,-1.176592,1.572262,1.394601,1.999106,1.660231,0.397361,0.538766,1.267199,1.593606,1.450314,0.538567,0.004613,0.292462,0.205306,0.188811,-0.671706,-0.190707,-0.642768,0.098583,0.686056,0.028437,0.574463,-0.100023,0.112620,0.077929,-0.610996,-0.408064,0.844964,-1.072658,0.664377,0.783994,1.579673,-0.541868,-0.468082,0.600497,1.716484,0.965803,0.916421,-0.315976,0.156305,0.144095,0.337112,-1.005817,-0.294583,0.362360,0.739231,-0.868235,-0.438647,0.172469,-1.209971,-0.389959,0.354368,0.358964,0.828064,-0.877196,-1.314393,-1.595878,0.292005,-0.556153,0.307448,-0.373866,0.350891,0.847428,1.672042,0.983576,0.271186,-0.808760,-0.960999,-0.973459,-0.476243,-0.310978,0.824114,1.112371,0.752890,-1.208331,-0.316374,-0.230741,0.630076,0.089873,-0.473807,0.601053,-1.450323,-1.742184,-0.817104,-0.676541,-1.629438,-0.551020,-0.702841,-0.870124,-1.197641,-0.375427,-0.883246,1.362983,0.478262,0.214783,0.867366,-0.164695,-0.847471,-0.854262,0.806236,1.105519,0.920017,0.254060,0.239157,-0.348301,-0.067056,-0.519724,0.052353,-1.273661,-1.538436,-1.520386,-1.347138,-2.013895,-1.929990,-1.637396,-1.577755,-1.851745,-0.848603,-0.005587,-0.740657,-0.254194,0.534799,-0.357763,-0.144479,-0.611977,0.739642,-0.264414,-0.322368,-0.027103,-0.689450,0.231586,-0.927756,0.076174,-0.615004,-1.249081,-0.587454,-1.008786,-1.897027,-0.976485,-0.475939,-1.414096,-0.917717,-1.753475,-0.933251,-1.165629,-1.390699,-0.605893,-0.653167,-0.921569,0.562291,0.241463,-0.439451,0.203413,-0.322892,0.544903,0.012789,0.121569,0.166555,-0.482654,-0.364980,-1.082032,-1.741129,0.213282,-1.326808,-1.023236,-0.417372,-1.191331,-1.136387,-0.236433,-1.184451,-0.953074,-1.658304,-1.402692,0.051526,-0.400008,-0.898931,-0.382401,-0.637102,0.984302,0.672019,0.900751,0.479882,0.844212,-0.347019,-0.290050,-0.935563,0.263665,-0.052660,-0.463302,0.134337,-0.651551,-0.672123,0.414891,-0.300406,-0.158621,0.240395,-0.008207,-0.613671,-0.970701,-0.445223,-0.044638,-0.724328,-0.409874,-0.317123,-0.606788,-0.125064,-0.974729,-0.660109,-0.330823,0.885610,0.416842,0.128410,0.263614,0.387959,0.553901,-0.677059,-0.017822,0.467432,-0.594237,-0.969921,0.266270,0.148749,0.871150,0.949324,0.240651,0.339810,-0.722862,0.269206,-0.857452,-0.306385,0.567500,-0.638593,-0.803095,0.414479,-0.227281,0.882545
0.444709,-0.713176,-0.186656,0.985732,0.373850,0.779256,0.880720,-0.376468,0.766852,0.498011,-0.567905,0.037037,-0.663384,-0.204398,0.496112,0.029884,0.853142,-0.915922,0.377950,0.038778,-0.486110,-0.575368,-0.471975,0.168057,0.236065,-0.350994,-0.041378,-0.847594,-0.551194,-0.562912,-0.488704,0.625970,0.175766,-0.554209,-0.676313,-0.245286,-0.266672,0.773460,-0.477756,0.618782,-0.956187,-0.269106,-0.781255,-0.952329,-0.500105,-0.969114,-0.962542,-0.450110,0.137677,-0.508548,0.105536,-0.857600,0.952347,-0.717936,0.286907,0.701765,0.380243,-0.669312,-0.535560,-0.059313,0.919722,-0.657542,0.822924,-0.941028,0.302422,1.115152,1.084436,-0.717054,0.458732,0.460336,1.028132,0.450733,0.240773,-0.317375,-0.901771,-1.102997,-0.465286,-0.694866,0.641976,-0.020313,0.639857,-0.154101,-0.207783,0.783883,-0.197005,-0.543416,-0.212912,-0.145414,-0.197528,0.581698,0.482301,-0.802237,0.523755,-0.593129,-0.676956,0.635422,-0.449448,-0.590404,-0.830361,-0.889615,-1.052835,-2.286729,-2.565943,-1.312478,-0.970304,-0.859453,-0.069362,0.457053,-0.043106,-0.853403,0.336391,0.759181,-0.314215,0.266647,0.590822,0.533215,0.278681,0.905778,-0.324209,0.959832,1.529146,-0.135591,1.650682,0.689401,0.851853,-0.094892,-0.332109,-1.347173,-2.057977,-2.247972,-1.907067,-2.940889,-0.876341,-1.512301,0.152731,0.491724,-0.147351,0.365637,-0.885802,-0.057270,-0.547105,0.238560,-0.445511,-0.657343,0.278749,0.940053,1.454424,1.352979,-0.782779,0.216663,1.054815,-0.258020,0.306694,1.128014,0.087133,-0.308382,0.614222,-1.785664,-2.019954,-2.637548,-3.456569,-1.451321,-1.015438,-0.567050,-0.774959,0.167827,0.099680,0.122282,-0.125049,-0.385298,0.340476,0.353521,0.184383,0.395555,0.402778,0.663743,0.292218,1.069681,-0.331502,0.226439,0.058757,0.319613,0.821920,0.542956,0.279710,-0.343684,-2.995111,-2.314009,-3.257468,-0.817336,-1.102096,0.399646,-0.444981,-0.388537,-0.361080,0.182752,-0.482210,0.697483,0.238360,-0.545080,0.805316,-0.343166,0.197213,0.101273,0.727793,0.073118,-0.350169,0.488017,0.051203,-0.233882,0.238303,1.180843,1.226670,-0.775193,-3.135280,-3.936800,-2.379017,-2.230223,0.185422,-0.790189,-0.341971,-0.293137,-0.332569,-0.824114,-0.354443,-0.028674,-0.225561,0.067213,0.642633,0.851705,0.303099,0.576774,-0.263854,0.173423,0.875937,0.625105,1.519513,1.474711,1.381140,2.545617,1.779599,-0.021583,-3.032916,-1.806420,-1.273609,-1.289065,-0.117482,-0.307127,-0.953619,0.218860,-0.590859,-1.046733,-0.276975,-0.142431,0.595243,0.015439,1.412270,-0.646637,0.133351,0.339483,-0.454835,-1.878958,0.745526,-0.508066,0.696145,1.829390,2.352008,4.281116,1.252547,-0.807469,-2.813489,-4.184757,-2.317118,-0.354999,-0.279641,-0.692571,-0.531840,0.182783,-0.441620,0.276945,-0.786807,-0.472890,0.447748,0.273656,0.347769,-1.007045,-0.404638,-0.410592,-0.831478,-1.115862,-1.114220,0.497210,1.182467,1.830979,1.365704,3.822359,1.163465,-1.586116,-2.144922,-3.725958,-1.551384,-0.668470,0.426184,-0.515440,-0.267635,-1.242271,-0.128278,-0.126727,0.187044,-0.870152,0.477350,0.684056,-0.319052,-0.270345,-1.451736,-1.953264,-1.369551,-0.264540,-0.681224,-0.533352,-0.034018,-0.440233,0.299124,1.886237,0.521801,-2.823902,-3.592226,-0.513621,-0.386236,0.593343,1.169123,0.187111,-0.814382,-0.921136,-0.604414,0.070645,-0.820402,-0.008799,-0.366485,-0.471728,0.064382,-1.037542,-0.707319,0.187944,-0.910352,-0.047007,0.157079,-0.531768,-0.825754,0.401707,-0.199665,1.690825,0.826103,-2.275320,-2.802533,0.079460,0.211340,-0.128956,1.113901,-0.349049,0.427782,-1.053933,-0.955226,-0.394353,0.747918,-0.465976,-0.877947,0.149274,-0.855952,-1.007755,0.080651,-0.512960,-1.016484,0.561065,0.902562,-0.743997,0.052330,-0.734548,-0.307191,0.934311,-0.649559,-0.677723,-0.159404,-0.113087,0.908559,-0.616560,1.075351,0.086818,0.439100,0.223898,0.561979,-0.317067,0.715779,-0.153656,-0.819815,0.421606,-0.138541,-0.474912,-0.026089,-1.223103,-0.886558,-1.108311,-1.376252,-1.397817,-0.531289,0.068888,0.109843,0.179669,-0.603344,-0.978921,-0.501217,1.339149,-0.421670,-0.087525,-0.239689,0.413944,0.305443,-0.338803,-0.175778,-0.963612,-0.899233,-0.218715,0.790854,-0.238158,-0.398472,0.767343,0.519375,-0.354765,-0.055663,-0.238192,-0.812580,-0.546843,-0.817643,1.023649,1.142838,-0.660571,-0.751969,-0.370489,-0.634726,-0.184920,0.239738,0.220376,-0.421285,0.273717,-0.115569,-0.050744,1.125286,0.023279,0.697963,0.854858,-0.178588,0.038229,-0.619820,0.787984,1.028706,0.602801,-0.340374,0.616926,-0.181123,0.089117,0.607092,0.828479,-0.008671,-0.102937,-0.896570,-0.454942,0.393187,0.711221,0.092409,0.455772,0.460781,0.317019,0.534130,-0.252608,0.282968,0.683092,-0.280915,0.254201,-0.656971,0.768183,-0.136627,-0.501097,1.586709,0.899813,-0.455244,-0.190697,0.754905,-1.104301,-0.736248,-0.384962,2.090354,0.928006,0.404699,-1.172284,-0.169363,-0.451485,0.984864,-0.423574,1.126339,-0.882443,1.078517,-0.241671,-0.468615,0.505265,-0.476875,-0.715685,0.145245,-0.072721,-0.201136,-0.173743,-1.142810,-1.736144,0.039935,0.245691,-0.757987,-1.174813,-1.702908,-0.727860,-0.043455,-0.361335,-1.190691,-0.736572,-1.304256,-0.572979,-0.395797,2.090140,1.390164,0.016154,1.222090,-0.086391,-0.813850,0.444641,-0.286601,-0.568258,-0.016967,-1.001925,-0.200210,-0.050802,-1.289756,-1.594711,-2.329727,-0.514437,-1.400821,-1.127385,-1.039479,-0.214563,0.061115,-1.348822,0.548020,0.297914,0.513937,-0.616995,-1.024835,-0.105107,0.843564,-0.008337,-0.705717,-0.719709,-0.461938,0.393686,0.742529,0.947778,0.523844,-0.252299,-0.390920,-1.532687,-0.153633,0.986535,-0.276530,-1.224612,-0.217062,0.397161,0.404109,-0.603573,0.308179,-0.862209,0.430276,0.785047,0.394896,-0.747036,-0.468508,-1.773549,0.299806,0.178965,0.070091,0.872400,-0.612035,-0.262731,0.761239,-0.370710,-0.768263,0.290792,-0.458831,-0.577243,-0.685169,-1.011378,0.078767,-0.105750,0.102885,0.883059,1.067206,-1.235644,-0.728650,-1.212869,0.201803,-0.915201,-0.366305,-0.628425,-1.349706,-2.019256,-0.505855,-1.072317,-0.149204,-0.062507,-0.313118,-0.332390,0.165787,0.686633,-0.728157,0.927699,-0.057162,-1.186385,-1.885472,-1.195105,-0.805215,-0.409219,0.871745,0.249197,-0.568775,-0.886877,-1.112237,-1.149961,-0.313783,-0.628430,0.466641,0.929901,-0.299571,-0.584481,0.163762,-0.073948,0.568443,0.483708,-0.391968,-0.388297,0.728142,-0.194748,0.322001,-0.582109,0.755458,0.622147,-0.218583,-1.375233,-1.325368,1.079100,0.573581,0.998997,0.101334,0.240087,-0.628130,0.642487,-1.347748,0.566429,-0.931562,-0.500717,0.178399,-1.274428,-1.081628,-0.118834,-0.462740,0.932886,0.120236,0.078534,-0.159127,-0.608263,0.978976,-0.441449,0.980380,-0.214833,-0.475303,0.206735,0.099706,0.540979,-1.372388,-0.769597,-0.916703,0.186341,-0.899864,-0.423156,-0.187810,-0.002969,-0.214678,0.358757,-1.359078,-0.962017,-0.095223,0.012573,0.405337,-0.866879,-0.291967,-0.553736,-0.349805,-0.097664,0.313384,0.958764,1.044481,-0.516522,-0.509731,1.326632,0.578976,0.668253,-0.399122,-0.244794,-0.941040,0.054911,0.495712,-0.441795,0.124431,-1.979347,-0.668872,-0.107072,-0.718456,-0.864923,-0.248166,-0.650507,-0.080057,-0.994037,-0.227650,-0.842345,-0.911747,0.911770,0.098811,0.247938,-0.975100,-0.248573,0.798817,-0.456598,-0.029533,-0.072682,-0.720723,-0.420415,-0.017529,-1.095915,-0.228610,-0.412493,-0.801437,-1.453392,-1.229876,-0.851050,0.669541,0.473926,-0.021672,-0.150987,-0.495964,0.021806,0.509147,-0.635943,0.516416,0.085441,-0.600018,0.168385,-0.187005,0.047632,-0.864504,0.908186,0.458094,-0.018156,-0.848785,-0.622452,-1.038379,0.735880,0.072708,0.716672,-0.984376,-0.111483,0.047194,-0.289183,0.435241,0.179286,0.579086,0.254782,0.169974,0.061905,0.075280,0.920814
-0.510390,0.177380,0.318466,0.054709,0.937689,0.989981,0.687385,-0.312229,0.334409,0.097378,0.166496,-0.668064,0.360752,0.490834,-0.100822,0.233756,0.385211,0.160130,-0.959436,-0.486443,0.235350,-0.029294,0.577871,0.114910,-0.289589,0.767912,-0.981262,0.098635,-0.965127,-0.028358,-0.130593,0.138369,-0.398592,0.809813,-0.642182,-0.813407,0.865051,-0.474117,-0.623170,0.971746,0.040493,-0.205590,0.699534,-0.574965,0.524845,0.919690,-0.773161,0.222657,-0.491283,-0.841366,0.503884,0.128497,0.337506,0.408907,0.827801,0.587357,0.680790,0.252139,-0.251329,0.789159,0.028184,-0.936440,0.353223,-0.961870,-0.174324,-0.668194,0.612786,0.428544,1.134612,-0.523745,-0.354326,-0.572535,0.109399,0.138422,-0.323545,-0.199962,-0.961178,0.786631,-0.256298,-0.978241,-0.478343,0.150772,0.843943,-0.422860,-0.668528,0.911031,-0.479008,0.313858,0.708841,0.243767,0.088251,-0.820374,-0.113640,-0.158978,-0.005009,-0.585214,0.480919,0.111798,0.054726,1.346645,0.372325,0.479969,0.039144,0.227289,-0.051220,0.926965,0.756637,-0.422880,-0.626592,-0.015872,0.287738,0.180243,-0.654665,0.743447,-0.710121,0.392295,-0.601785,-0.913912,0.679463,-0.882621,-0.671366,-0.129707,-0.815583,-0.426672,0.970362,1.110577,2.662091,0.327096,1.004614,1.244569,0.853748,-0.573262,0.642755,-0.632392,0.346925,-0.698429,0.056386,0.061105,-0.088595,0.305896,-0.260617,0.983019,0.458622,0.086900,0.046695,-0.847733,0.949760,0.392376,-0.267471,0.012002,0.718334,0.803770,1.197693,1.786963,0.345604,0.537065,-1.018881,0.299697,-0.425452,-0.304164,0.158188,-0.728070,-0.216815,-0.799335,-0.083203,0.609382,-0.093279,-0.040813,0.479075,-0.129265,-0.614916,-0.911233,-0.477988,0.596559,-0.193751,0.428906,0.022381,0.762390,1.140847,-0.369556,-1.109883,-1.248594,-0.403287,-0.653718,-1.374522,0.946325,2.774640,1.674339,0.869184,0.551065,0.350787,0.587310,-0.567929,0.093349,-0.876238,-0.581336,-0.186072,0.981469,0.695150,-0.528406,0.016549,0.782989,1.757621,0.805510,0.265963,1.052513,0.010532,-1.958434,-1.369533,-1.680010,-0.943404,-0.045212,1.738108,2.746022,2.905240,2.873512,1.694751,-0.041844,0.083326,0.598645,0.127221,-0.275534,-0.338316,0.905821,-0.855803,-0.248178,0.099280,0.032363,-0.004034,0.196571,0.750447,0.602760,-0.199647,0.284235,-0.178836,-0.536523,-1.872938,0.100758,-0.227990,0.861032,1.031526,1.592670,1.096613,1.331383,0.121973,1.102300,0.412648,-0.193090,0.809619,0.273124,0.356644,0.684852,0.553049,-0.033225,-0.185992,-1.004978,0.386670,0.731899,0.792464,0.428256,0.142138,-1.592633,-1.113330,-1.154936,0.185283,-0.794811,-0.785509,1.083338,-0.347862,1.053509,-1.222314,0.939014,0.466136,0.987388,0.139928,0.427206,-0.265037,0.061030,-0.040998,0.432349,0.222821,0.250754,-0.504599,0.499163,0.155466,0.795195,-0.078345,-1.171477,-0.463577,-0.806983,-0.443611,-1.503097,-0.229301,-0.609136,-0.843056,-1.145273,-0.167214,-0.542256,0.563719,0.502536,0.962068,1.364537,0.026094,-0.361603,0.245829,-0.962269,0.911441,-0.882543,-0.021534,-0.400099,-0.389317,-0.161857,-0.755133,-0.027383,-1.936627,-0.963016,-0.822644,-0.067900,0.448931,1.822795,0.204668,-1.783122,-1.076905,-0.575753,-1.904730,-0.692543,-0.189078,1.059932,0.625005,-0.071031,-0.941297,-1.124667,0.468783,0.200205,-0.963939,0.581747,-0.831632,-0.361114,0.655672,-0.309272,-0.225834,-0.913893,-0.205169,-1.227829,-0.397925,0.203090,0.119372,-0.073861,-0.554542,-1.747836,0.376714,-0.248101,-0.419018,-1.087216,0.606163,-0.036864,1.659001,0.593447,-0.923742,-0.278284,-1.035174,-1.210879,0.778299,0.774062,0.638391,0.898384,-0.136225,0.356615,-0.629201,0.662031,-0.958760,-1.174092,0.424705,-0.565603,-0.056290,0.185083,-0.489568,-0.943913,0.591775,1.604170,0.379377,-0.915938,0.121404,-0.181705,0.514325,0.674192,0.112581,-0.354103,-0.029879,-1.203607,-1.087078,0.269281,0.953997,0.886503,-0.336275,-0.381682,-0.450365,-0.321018,-0.453750,-0.937792,-0.761018,-0.693255,-0.162319,-0.501774,-0.300569,-0.099741,0.961110,0.001802,-0.078978,1.258122,0.982739,1.186371,1.825069,1.946865,-0.023074,0.200773,-0.796100,-0.062625,-0.829100,-0.837860,-0.256674,-0.951467,0.827983,-0.474691,-0.931714,0.476646,-0.492940,1.564968,1.196887,0.216859,-0.005892,0.400819,0.077204,0.206256,0.256959,-0.711750,0.061980,0.686982,0.446542,0.488542,0.776941,-0.340878,-0.326275,0.457876,-0.664280,-0.548827,0.728708,-0.637760,-0.314699,0.541546,0.391835,-0.693780,0.259927,-0.197790,0.088024,-1.008702,0.868062,0.589510,-0.395501,-1.070169,-0.521279,-0.667153,-0.186945,0.261535,0.537929,0.693746,0.346094,0.354393,0.382395,-0.466444,-1.182368,-0.014334,0.243912,0.306633,0.289226,-0.308012,0.312778,0.938389,-0.635646,-0.760563,-0.678933,-0.569923,-1.159866,0.384085,0.327635,0.915063,0.102744,-1.342785,-1.864912,-0.793621,0.537065,0.299131,1.707789,2.078172,-0.025053,0.555203,0.035133,0.198188,0.635058,-0.259472,-0.666708,-1.194301,-0.317818,-0.084839,0.070473,-0.812851,-0.292103,-0.505272,-0.799624,0.048129,0.476685,-0.562131,-0.142858,-0.783553,0.145835,-0.567043,-0.378887,-0.028673,1.005241,1.465940,-0.036583,0.062371,0.269891,0.952118,-0.536012,-0.395779,-0.582948,0.324797,0.051124,-0.013158,0.157059,0.148815,-0.481309,-0.627135,-0.345396,-0.986830,-0.314808,-0.452476,0.170742,0.391002,-0.765357,0.681989,1.021213,0.911039,1.960353,0.356586,1.726544,1.166708,-0.193210,-1.113733,0.636597,0.150493,-0.283485,0.181427,-1.323847,-0.481770,0.955957,-0.793188,-0.552561,0.127524,-0.519847,-0.090890,-0.967828,0.441128,0.190150,-0.442702,-0.179626,-0.031042,0.454776,1.414710,0.906862,1.836528,1.877599,2.745843,1.601038,0.427927,0.552805,0.468306,0.633870,0.268146,0.070968,1.041731,-0.827047,0.740211,0.131767,0.349572,0.301877,-0.012005,0.856273,-0.290151,0.819860,-0.256179,0.430020,0.672488,-0.268673,1.369963,1.447374,1.598837,1.316465,2.042170,1.621558,0.625455,2.035847,1.363686,-0.591486,1.735692,1.186054,0.900866,1.003011,0.060975,0.851206,0.016398,0.732189,0.986521,-0.268196,0.750831,-0.402299,-0.329336,-0.650238,0.077578,0.206178,0.728181,0.731430,0.681532,0.259856,1.408757,1.108715,2.155220,0.674443,-0.604838,-0.372442,1.221092,0.439455,0.884078,1.789903,1.071123,1.203285,0.293474,-0.515157,-0.366949,1.010657,0.142857,-0.966421,-0.470482,-0.583341,-0.106371,0.183557,-0.382343,0.969071,1.023974,0.116707,-0.299220,0.332949,0.658829,0.795155,0.683801,0.189101,-0.094513,-0.243032,0.377504,0.751250,0.547595,0.940843,1.216968,0.223566,0.078316,-0.149644,-0.686980,-0.575931,0.400718,0.324840,0.789421,0.751672,0.495970,0.606707,-0.294662,0.253492,-0.600460,-0.509129,0.910118,0.921184,0.302118,-0.382718,0.500278,-0.454606,-0.801739,-0.203839,1.444113,0.354532,-0.964384,1.226612,0.034487,-0.647838,1.032349,0.500739,-0.670264,-0.499970,-0.100134,0.496392,0.011893,-0.598501,0.768462,-0.159022,0.248482,0.323841,-0.903733,-0.839929,-0.776129,0.646542,0.229963,0.807414,-0.488378,-0.440583,0.381607,-0.094579,-1.274303,-0.753886,-1.295849,-0.159897,0.802849,-0.376205,-0.548685,-0.439742,0.244266,-0.791537,-0.125718,-0.638633,0.552331,0.653976,-0.509191,0.894165,0.348457,0.213029,-0.128024,-0.293479,-0.854363,-0.362847,-0.529697,-0.253432,-0.281549,0.658680,-0.520871,-0.447671,-0.441827,-1.037223,-1.287781,0.079264,-0.433085,-0.966270,-0.505505,-0.698560,-0.529600,0.567836,-0.998114,0.424701,0.220921,0.590999,0.149509,-0.384674,0.951062,-0.783933,-0.961765,0.996179,-0.532308,-0.704028,-0.658810,0.228955,-0.120975,-0.737170,0.424009,-0.888708,-0.824222,0.104468,-0.239416,-0.730502,0.077849,-0.009950,0.204550,-0.090307,0.201513,0.900041,-0.459070,-0.809826,0.458545
0.889093,-0.109807,0.503318,0.567609,0.792114,-0.294532,0.109160,-0.315304,-0.651125,0.394827,-0.198092,-0.270883,-0.675536,-0.396421,-0.140777,0.173445,0.244572,0.144161,0.438744,-0.112665,0.458416,0.801546,-0.949807,-0.238450,-0.039077,0.694361,0.248739,-0.091033,-0.350803,0.650136,-0.021541,-0.594070,0.508349,-0.093401,-0.307923,0.918419,0.965143,0.665852,-0.772362,0.326501,-0.618513,1.006052,-0.635091,-0.878517,1.026233,0.630297,0.666527,-0.299261,0.529099,0.561430,0.221044,0.911232,-0.451665,-0.882757,-0.759915,-0.303504,0.539696,0.697954,0.102128,0.914674,-0.579464,0.977131,0.416841,0.122002,-0.680020,0.907819,0.084227,0.886324,0.075489,0.828312,1.478395,1.003405,-0.528283,-0.951252,0.389401,-0.821415,0.418351,-0.792198,0.440742,0.441619,-0.243000,-0.861268,0.727604,0.162956,0.014783,0.788029,-0.840234,-0.128174,-0.989774,0.744369,0.304409,1.072296,-0.226262,0.846450,1.214949,1.374381,0.662708,0.614737,1.357344,-0.439628,-0.121662,-0.613122,0.400308,0.341082,0.109934,-0.581498,0.030678,-0.767020,-0.275404,-0.651961,-0.984154,0.243905,-0.530215,0.149514,0.779956,0.256873,-0.723350,0.301851,-0.129648,0.274297,0.065495,0.035185,1.528009,0.463929,-0.000563,0.170276,0.350260,-1.083051,-0.145665,-0.827689,-0.839136,0.122019,0.156067,0.069298,-0.567213,-1.149760,-1.075291,0.060093,-0.593836,0.928355,-0.605433,0.613206,-0.325230,0.954831,0.497412,-0.445839,1.020749,1.328744,0.245330,0.135257,0.414159,-1.341696,-1.702217,-0.932932,-0.141689,-0.157113,-0.860631,0.497948,-0.032956,0.751551,-0.509320,-1.173835,-0.596706,-1.020370,-0.304946,0.316019,-0.583698,-0.317621,-0.648885,-0.804966,0.523978,0.561669,1.015263,0.206213,-0.626945,-0.348111,0.358435,-0.560314,-0.448879,-0.992248,-0.870569,-0.657007,0.412812,-1.167458,-0.742041,-2.353005,-1.457217,-0.079683,1.254164,0.180404,0.237214,-1.733483,0.040358,0.195424,0.497416,0.914658,-0.453194,-0.080279,-0.117421,0.433421,-0.028688,-0.898717,-1.501294,-1.659054,-1.107444,-0.737246,-1.739987,-1.189120,-0.993923,-0.998296,0.696062,-0.113833,-2.297032,-1.412096,-1.370321,-0.535614,-0.939029,-0.048423,-0.940123,-1.760918,-0.066817,-0.994230,0.044707,0.770642,-0.823322,0.316194,-0.863267,0.206247,0.397917,-1.021561,-0.421650,0.001145,-0.291535,-2.275628,-1.163393,-2.165727,-1.196768,-1.095087,0.701221,-0.791729,-0.226541,0.047511,-1.259136,-1.645554,-0.969170,0.465154,-0.049212,-0.598323,-0.531864,-1.202546,-0.157866,-0.366109,-0.196521,0.331975,-0.362187,-0.792087,-1.017825,-0.104246,-0.821455,-1.347103,-1.531109,-1.141034,-1.167486,-0.787690,-0.691659,-0.543870,-0.355299,0.039949,0.552051,0.090383,-1.688783,-2.076000,-1.386300,-0.493184,-1.061636,-1.627002,0.102529,-0.871044,0.194012,-0.835943,0.577761,-0.854978,-0.768757,0.569803,-0.704103,0.813015,-0.879631,-1.621622,-1.500335,-0.463601,0.515810,0.478948,-0.650173,-1.038684,0.626752,0.742753,-1.131356,-0.650785,-1.572333,-1.906389,-0.930095,-1.411178,0.260806,-0.636024,0.035143,0.094600,0.261410,0.580127,-0.471053,-0.302419,-0.057452,0.326463,-0.942865,0.565356,-0.890437,-0.390921,-1.811611,-1.658725,0.270258,-0.236426,-1.081349,-1.074843,-0.316980,-0.572275,1.020540,-0.609868,-0.269304,-1.037432,-1.033422,0.902266,0.163426,0.420977,-0.710380,-0.089838,0.684605,-0.575021,0.658224,-0.455168,0.172316,-0.503604,-1.681349,-1.456457,-0.569265,-1.900555,-1.115468,-0.102668,-0.550398,-1.104412,0.137769,0.082582,-0.297700,-0.682876,0.566288,0.198957,0.272348,-0.852215,0.209208,-0.025183,1.326535,0.424923,0.027645,-0.389941,0.162345,0.197463,0.782866,0.044662,0.391172,1.008828,-1.070968,-0.066683,0.300809,-0.988325,-0.535343,-1.232907,0.058396,0.173472,0.508190,0.671885,-0.651882,0.308667,-0.498703,-0.353252,0.044306,0.163424,-0.315769,-0.281684,0.735824,0.167914,1.458931,1.453147,-0.645702,-0.549397,-0.486301,0.072953,-0.443788,-0.673566,-0.276397,-0.616846,0.781028,1.529731,1.261088,-0.213830,0.451000,0.511498,0.297272,-0.709315,0.134329,-0.255259,-0.091469,-1.080185,-0.755140,0.263255,0.659706,0.667314,1.330658,1.568741,1.541175,0.787954,-0.184568,0.441590,0.543759,-0.190129,-0.391045,0.176155,0.236157,-0.770654,0.689637,-0.531297,-0.191522,-0.396366,0.447869,-0.389919,-0.396534,0.715187,0.180717,0.581403,-0.877638,-0.293273,0.341395,0.631431,1.076580,0.277920,0.708138,-0.055699,1.270024,1.996443,0.144264,0.273474,0.856565,-0.029491,0.424100,0.655898,1.112328,-0.046136,0.913290,0.141920,-1.287103,-0.078489,0.149237,0.683687,-1.292528,0.234388,-0.860665,-0.398586,0.009158,-0.379406,0.732168,0.349699,0.401560,0.263570,0.107545,0.832549,1.071352,1.542051,0.915140,0.324141,0.617050,-0.240112,0.912019,-0.417109,0.255972,1.854945,0.072235,0.772299,0.237947,-0.633014,1.869037,0.744250,-0.155047,-0.154167,-1.133378,-0.246452,-0.749380,-0.597943,0.588765,0.796481,0.541048,0.854044,0.792967,0.486664,0.151099,0.867262,0.599290,-0.348578,0.131143,-0.349413,0.431744,0.324247,0.697910,0.839374,-0.089505,1.595666,0.666787,2.145061,0.445834,0.569543,1.285165,1.027092,0.225652,0.599280,0.785599,1.028627,1.591504,0.608268,-0.718749,0.966428,0.641974,0.412176,0.487085,0.146209,-0.253130,-0.943567,-0.749821,0.603824,0.643694,1.285435,0.868794,0.274585,1.419224,0.909588,0.462634,1.770333,1.119366,1.705550,2.417672,2.316663,1.057011,0.440772,0.777977,1.025430,2.513088,1.690392,1.355153,1.001144,1.578770,1.074089,1.174905,0.314767,0.384644,0.767992,0.703445,-0.300589,0.278522,1.363598,1.065794,1.652551,1.059519,0.365776,0.676099,1.660037,1.320018,2.933923,2.369948,1.427383,1.809164,-0.781505,0.947680,-0.249862,0.932511,1.286344,1.777309,-0.248380,-0.318517,-0.820798,-0.690286,-0.696646,0.369093,-0.256042,-0.589569,0.453588,-0.928872,1.257054,0.918321,1.178661,0.027712,-0.739358,-0.105410,1.003316,1.289264,0.571256,0.183304,0.449371,0.533488,0.152117,-0.717953,-0.318309,0.956141,0.095626,-0.763681,0.031044,-0.080865,-0.478915,-0.353692,-0.658774,-0.023766,-0.329919,0.684154,0.102885,0.274174,1.126528,-0.110566,0.593644,-0.519913,-1.361642,-1.872846,-0.957857,0.232752,-0.411728,-0.364768,-0.423831,-0.608340,0.037428,1.132861,-0.557833,-1.302785,-2.091454,-0.393839,-0.507933,-1.277166,-1.087923,-0.164803,-1.018003,0.132702,0.544834,0.069487,0.738814,0.585298,0.556272,0.136640,-0.910501,-1.029953,-1.650768,-1.217192,-2.283196,-1.120804,-1.054673,-1.295659,-0.659078,0.427488,0.519408,-1.442643,-1.592248,-2.549042,-1.077377,-0.375358,-1.165983,-0.947433,-1.296095,-1.137424,0.052619,-0.117270,0.585823,0.192547,-0.135725,-0.184431,0.162124,0.804238,-1.076044,-0.480096,-1.723491,-1.590553,-2.115170,-0.837365,-1.637907,-1.175976,-1.916361,-2.151993,-0.944280,-2.244482,-1.764755,-0.927307,-1.744774,-1.732461,-0.529254,0.562074,0.462630,-0.082218,-0.516780,-0.000697,0.432195,0.428033,0.943733,0.107244,-0.155163,-0.127084,0.562977,-0.244359,-0.853251,0.549517,-0.836437,-0.771153,-0.461040,-1.610469,-0.487275,-0.113778,-1.555007,-0.836065,0.385495,0.425687,0.174488,-0.199420,0.381904,-0.698760,0.202602,-0.152752,-0.454082,-0.938951,-0.760065,-0.248959,-0.185311,0.253954,-0.338416,-0.881464,0.177043,0.527148,0.134184,-0.539308,0.536624,0.158386,-0.981846,-0.193850,-0.278763,0.670714,-0.866572,0.326514,-0.770725,0.166709,0.109149,-0.103832,-0.958305,0.962503,-0.023932,0.529691,-0.822748,0.634012,0.213927,-0.434352,-0.446313,0.314492,0.632417,-0.727820,-0.960018,-0.438492,-0.515771,-0.789054,0.537945,0.559345,0.717448,-0.109898,0.897669,0.561458,-0.088860,0.251963,0.521786,0.763191,0.634442,-0.703229,-0.981057,0.552581,-0.661372,-0.403767,0.548356,0.389387,-0.997299
-0.489220,-0.228166,0.008518,0.828872,-0.178630,-0.030900,0.801765,-0.769863,-0.044348,0.682451,-0.293425,-0.793295,-0.945397,-0.941482,-0.680171,-0.818481,0.746850,0.463319,0.668752,-0.282851,0.596520,0.501935,0.419285,-0.397527,-0.156845,0.576817,0.810793,-0.859855,-0.244619,0.989132,-0.102418,0.682300,-0.894557,0.332974,-0.806644,0.828003,0.986227,0.491876,-0.712022,-0.611927,0.573517,0.463198,-0.379817,0.199874,0.027410,0.000003,0.807690,0.873402,-0.320365,0.894123,0.648781,0.647765,0.936363,0.805695,0.614802,-0.282630,0.283787,0.092792,-0.004594,-0.654764,0.737443,-0.556700,-0.037719,-0.382195,0.445903,-0.656861,0.461013,-0.204348,-0.777145,0.177054,-0.594228,-0.028455,-1.089168,0.461581,0.946338,0.546287,0.566219,0.986466,0.580441,-0.531091,-0.235955,-0.551684,0.937472,-0.252395,0.532610,-0.510327,-0.123741,-0.186565,-0.165505,-0.585898,0.209422,0.855628,-0.298161,-0.430151,-0.092929,-0.599563,0.384422,-0.839603,-1.715937,-1.640949,-1.680424,-0.819959,-0.443922,0.111769,-0.809306,-0.110768,0.731902,0.374701,-0.222094,0.678970,-0.946298,0.505070,0.995658,-0.035475,-0.181693,0.166453,0.513156,-0.739872,-0.511021,0.763329,0.637897,-0.985787,-0.657647,0.195909,0.050737,-1.065458,-1.419560,-1.773640,0.687868,0.404463,-0.824363,-0.565130,-0.014967,0.209692,-1.224622,-0.484737,0.535285,0.062783,0.458839,-0.812809,0.796355,0.929145,-0.640390,-0.394722,0.137494,0.149830,0.122045,0.149840,-0.923708,-1.238381,-0.081993,-0.256927,-0.999949,-0.624499,-1.910544,0.076188,0.491583,-0.862384,0.333441,-0.409284,0.732848,0.364143,-0.046437,1.301868,-0.924413,-0.141029,-0.280959,0.851947,-0.143313,0.543232,-0.835955,0.225487,-0.055478,-0.255485,0.596690,0.599612,0.111551,-0.285298,-1.150721,-1.711153,-2.204646,-0.847007,-0.368283,-0.039286,-0.848305,-0.124373,0.633568,-1.128216,-0.177790,0.342603,1.398868,-0.075512,0.937089,-0.593381,-0.104372,-0.632505,-0.979917,0.231883,-0.691125,-0.461398,0.108044,-0.468543,-0.872349,0.697121,0.436221,-0.944052,-0.148902,-1.278458,-2.010836,-2.140348,-1.020006,-0.975282,0.454689,-0.404207,-0.563309,-0.437815,0.435351,-0.626778,-0.231361,0.257813,-0.415086,-1.280917,1.012537,-0.833645,0.564902,-0.472615,0.001184,-0.666703,0.816343,0.702897,-0.545950,-0.249907,-1.102657,-0.723484,-0.356313,-2.018703,-1.505408,-1.765962,-0.132775,0.740921,0.020909,0.355936,-0.398354,0.277052,0.129828,-0.319611,-0.713443,-1.032728,-0.374027,-0.757740,0.514202,0.557185,0.536142,0.968678,0.836982,-0.348878,0.787812,0.430772,-0.679798,-0.703095,-0.372333,0.219352,-1.248134,-1.310423,-0.831745,-0.945247,-1.793698,0.664841,2.506392,1.779123,-0.130452,-0.441424,0.468648,1.461057,0.619968,0.004952,0.871719,0.431810,-0.834747,0.648993,0.768328,-0.643023,0.320669,0.447565,0.776818,0.121936,-0.008125,-0.754264,0.488288,-1.459723,-0.058526,-0.996234,0.084838,-1.653253,-0.804946,0.831269,2.463466,0.885697,0.831193,0.383446,0.256766,0.283086,1.590942,0.702768,1.114927,1.972823,0.056022,-0.020267,-0.474023,0.108923,0.964733,0.584841,0.637454,-0.624190,0.238410,-0.432792,-0.729632,0.069217,-0.536875,-0.555079,-0.248519,-1.300580,-0.180512,1.197666,0.569139,1.039453,1.653834,-0.544814,0.181387,-0.048012,0.781115,-0.121273,0.473416,1.333517,-0.571401,0.234749,-0.818536,-0.925489,0.622682,-0.826690,0.673606,-0.650448,-0.557757,0.833617,-0.190658,-0.201482,-0.991930,-1.035255,-1.376418,-0.001557,1.212101,0.285041,-0.986674,-1.040156,-0.245570,-2.120719,-0.933943,0.069351,-0.318053,0.169632,-0.811089,0.658194,-0.093885,-0.359260,-0.614672,-0.312318,0.313399,-0.650718,-0.090778,-0.592606,-0.836141,-0.500005,0.962551,-0.632222,0.322503,-1.520130,-0.486481,0.132611,0.012089,-0.832206,-0.330814,-0.202627,-1.511842,-1.030488,-1.326750,-1.085050,-1.239914,0.255533,0.168079,-0.619815,0.188623,-0.608751,0.739741,0.990268,0.728896,1.033043,0.712837,-0.481249,0.685291,-0.384188,0.026436,-0.545960,-0.464757,0.369053,-0.221151,0.088885,-0.812349,-0.311010,0.325554,-1.039941,-1.653402,-1.105230,-1.024839,-1.447898,0.596425,0.244805,-0.658195,0.690112,0.041163,0.908105,0.433854,0.085060,-0.851406,-0.336294,-0.219472,-0.490897,-1.102370,-0.423207,-0.475560,0.830337,0.343546,0.352605,-0.608061,-0.792258,-1.445069,0.376699,0.648445,-0.428265,-0.647010,-1.288212,-1.571962,-0.646905,-0.637247,0.468830,-0.111257,0.562586,-0.944271,-0.522263,0.255567,0.922434,0.864695,0.417048,-0.968295,0.692172,1.003248,-0.167562,-0.439136,-0.705734,-0.291725,-1.052082,-0.462849,-0.685617,-0.866679,0.682775,0.050039,-1.174062,-1.848843,-0.052336,-0.273069,-0.615292,0.141777,-1.045975,0.156352,0.169904,0.086355,0.120534,-0.795258,-0.665758,0.163425,0.156876,0.705013,-0.302923,0.492748,-0.217576,-0.051509,-0.791309,-0.276755,1.145137,-0.018247,0.213528,-0.726595,0.229054,-0.706718,-0.666122,-0.378281,-0.754954,-0.343733,-1.287657,0.506925,0.464081,-0.001435,-0.517875,0.314678,0.610156,-0.809692,0.537266,0.475944,0.169400,-0.524025,-0.912361,0.750656,-1.100543,0.433307,0.989225,-0.484113,1.626360,-0.295218,-0.387946,-0.297799,-0.612116,-1.510907,-0.280907,-1.053884,-0.220257,-0.089097,0.036889,0.396008,-1.051094,0.903911,-0.408533,-0.747592,-0.731935,-0.291523,-0.162686,-0.640222,0.553040,-0.144002,-0.613031,-0.437269,0.488819,-0.486254,0.434649,1.513462,2.335743,1.420465,0.324300,-1.137538,-1.154212,-0.537935,-0.382554,0.662341,0.620582,-0.717446,0.426433,0.432473,0.264339,-0.239309,-0.911627,0.310560,-0.265763,-0.713592,-0.979488,-0.894284,-0.151242,-1.089854,-0.387213,0.147914,-1.395424,-0.762025,0.375253,0.038876,0.891697,0.829747,0.726410,-0.488813,-2.417802,-1.061339,-0.203757,-1.106487,-0.235983,-1.209138,0.021746,-0.475213,0.765910,-0.114788,-0.689509,0.112023,-0.644250,0.858644,0.599018,-0.115802,0.137979,0.129510,0.147552,-0.045410,0.384745,-0.570019,0.660090,0.197809,-1.183322,0.184512,-0.940596,-0.396446,-1.325139,-0.906644,0.058102,-1.124356,-0.044800,-1.063380,-0.374838,0.281859,-1.016619,-0.943728,0.717991,-0.696894,-0.137800,0.880484,0.832926,-0.895540,-0.674830,0.289108,-0.172202,-0.211616,-0.921488,-1.532172,0.152929,-0.941189,-0.819431,-0.324198,0.610595,-0.873306,-0.068426,0.027493,-1.149101,-1.282721,0.112595,0.279674,0.528680,0.472534,-0.079345,0.024964,-0.813767,0.136954,0.754118,-0.460723,-0.291688,0.647656,0.115115,0.953006,0.597830,0.619647,0.262748,0.179555,-0.532849,-0.375180,0.532584,0.525726,-0.204610,-1.486769,-1.045178,-1.001254,-0.929979,0.531341,-0.452458,-1.315422,0.114907,-0.033499,-0.827264,0.743203,0.214698,-0.076559,0.354238,-0.198512,0.513744,-0.231475,0.000868,0.074333,0.419594,-0.747504,-1.709279,-1.040406,-0.166304,-1.028840,0.456275,-0.862321,0.408891,-1.077389,0.318965,0.016607,0.656615,0.566863,0.403519,-0.258874,-0.212742,0.660306,-0.372719,0.649260,0.752701,-0.965166,-0.762396,0.525593,-0.344980,0.575439,-0.356367,-0.952950,-0.972030,0.201333,-0.430123,0.229989,1.181506,-0.739388,-0.932424,-1.270531,0.160477,-0.384531,-0.185539,0.457991,0.772357,-0.498560,-0.727840,0.546830,0.483329,-0.878358,-0.656030,0.299537,-0.164397,-0.026455,0.643493,-0.186563,0.027113,-0.094658,-0.904955,-0.494796,0.599811,0.676362,-0.008196,0.136498,0.029525,-0.010382,-0.285629,-0.381637,-0.946394,-0.215803,-0.819556,0.037946,-0.475926,0.346720,0.646516,-0.508700,0.394143,0.666721,-0.103366,0.460051,-0.762981,0.146355,-0.567127,0.068720,-0.696526,0.870680,0.737809,-0.230641,-0.853758,0.600111,0.396463,-0.757584,-0.158593,0.956138,-0.187076,0.936405,0.224223,0.360030,-0.328626,0.047574,-0.431401,0.237089,-0.209290,0.380452,0.444344,0.940832,0.529904,-0.632966,0.000423,-0.271657,-0.526628
-0.348081,-0.706476,-0.536041,0.802074,-0.476013,0.232171,0.562047,0.539458,-0.954137,-0.506444,0.515816,0.248100,0.465914,-0.478566,0.841205,-0.800770,0.611654,-0.594774,-0.868329,0.580911,0.116739,-0.428311,-0.992369,0.328887,-0.765836,-0.612622,0.472423,-0.724397,0.095713,0.342077,-0.850648,0.086648,0.311936,-0.392386,-0.972256,-0.324413,-0.167212,-0.088515,-0.447577,-0.059542,0.624792,0.487851,-0.329932,0.481742,-0.104334,-0.387670,-0.531202,-0.930783,-0.640652,-0.989325,0.276174,-0.578133,-0.007764,-0.431756,0.769261,-0.897506,-0.317156,0.036815,-0.148075,-0.557371,0.191211,-0.842980,0.739658,-0.453895,0.821729,-0.703882,-0.586312,-0.687659,0.224723,0.568668,-0.569147,0.105320,0.675079,0.321227,-0.512508,0.166829,-0.536760,-0.963434,0.825246,-0.288556,0.663656,0.951984,-0.101949,0.685347,0.513680,0.501608,0.180567,0.395183,0.937353,-0.095377,0.414657,-0.490118,-0.082419,0.273990,-0.642171,-0.796058,0.708741,-0.420832,0.007203,-0.898024,0.162817,-0.269705,-1.023326,-0.756547,0.499722,0.714251,-0.850927,0.265692,-1.023610,-0.439060,-0.490274,0.901363,-0.910566,-0.698971,-0.150742,0.905207,-0.567473,-0.144615,0.552172,0.022759,0.602197,-1.002877,-1.268039,-0.388424,-1.581034,-0.357894,-1.820954,-1.134570,-0.670111,0.178515,-0.638621,-0.667207,-0.560786,0.464122,0.036565,1.027489,0.501946,-0.244852,0.424684,-0.189112,0.938663,0.397365,0.972701,0.840651,-0.864470,-0.937421,-0.492063,0.896747,-0.190644,0.761411,-1.285617,-0.286026,-1.571766,-0.170615,-0.787709,-0.764979,-1.082030,-1.155455,-2.722734,-0.802394,-0.729398,0.300495,0.296706,-0.147511,-0.199334,-0.541402,-0.569468,-0.097964,0.333102,-0.505515,0.391861,0.021529,-0.193654,0.577800,0.290523,-0.717246,-0.348162,-0.680909,-0.393990,-0.156544,0.238780,-0.411837,0.829129,0.587523,0.788610,0.727521,-0.291364,-0.616482,-1.119190,0.078179,0.627208,-0.734570,-1.506570,-0.015807,-0.092526,-0.317220,-0.581776,0.370570,0.461531,-0.791394,-0.965679,-0.420076,-1.003618,-0.735217,0.856433,0.810293,-0.828880,0.340850,0.269723,0.244233,-0.948031,-0.658373,-0.370997,-0.608656,-0.297331,-0.018322,-0.050570,-0.137854,0.841338,-0.973153,0.805602,-0.891701,-0.626463,0.676531,0.563287,0.440741,-0.910738,0.493060,-0.368069,0.231772,-0.181728,-0.738674,-0.285662,-0.298047,0.181062,0.535343,-1.379255,-0.850110,-0.695009,0.957212,-0.636882,1.281042,0.498980,0.222176,-0.764396,0.106024,0.348749,-0.790548,-0.051465,-0.749447,-0.946541,-0.249995,0.447710,-0.094944,-0.167963,-0.622124,0.548101,-0.300262,-1.948874,-0.732552,0.266557,-0.538881,0.882404,0.030018,0.017370,0.503498,-0.280469,0.319332,0.302847,-0.269746,-0.005164,-0.962849,-0.714450,-0.989536,-0.324445,-0.136018,-1.174455,0.606919,0.349687,-0.101699,0.955241,0.533932,-1.111637,-1.051496,0.362183,0.259432,-1.433063,-0.359617,0.491914,-1.262234,-0.368158,0.076506,1.655352,-0.165423,0.469678,1.614249,0.620215,0.174359,-0.539252,-0.168519,-1.147137,0.146849,-0.476199,0.286082,-0.697980,0.197406,-0.834217,-0.954764,-0.533157,-0.214517,0.333286,-0.449440,-1.292502,0.146995,-0.583057,-0.050461,0.444688,-0.156977,1.421797,0.807053,0.731002,-1.164194,-0.099900,2.136672,0.670444,1.363998,0.311113,0.048198,0.228253,-0.608179,-0.414858,-1.021601,-0.420992,0.391332,-0.745772,-0.578239,-0.865428,-0.022992,0.784665,0.423670,-0.807512,-0.276808,-0.258791,1.063727,1.338122,0.442219,1.765386,0.162085,0.874062,0.141495,0.854637,1.167293,1.752400,2.052150,0.448875,1.218678,0.264437,0.101658,-0.515645,-1.004860,0.051666,-0.683967,-0.672899,-0.091968,-0.243992,-0.962068,0.174569,-0.838068,-1.352558,-0.961483,-1.321856,2.203562,0.954699,1.041691,0.897047,-0.756718,-1.201208,-0.302605,0.961928,2.141271,1.642659,2.399941,0.867770,0.745025,0.609897,0.487505,-0.846439,0.077578,-1.245661,-1.072929,-0.885050,0.402099,-0.736856,-0.904999,-0.499519,-0.678538,-1.027389,0.423700,-0.280896,0.910258,1.578337,1.192662,0.389773,-0.727718,1.054609,1.506165,1.208865,0.816161,1.329747,0.328740,1.307907,-0.014835,-0.289366,-1.009883,-0.129053,-1.619844,-0.025368,0.095503,-0.886623,-0.912334,0.408716,0.375861,-0.888892,0.110583,0.658394,-0.585457,-1.202008,-0.805630,-0.993727,-0.765266,1.428105,-1.035677,0.886273,0.050721,-0.155409,0.539173,1.307613,1.531167,0.797440,-0.769850,-1.534348,-0.769396,-1.918788,0.049442,-0.069435,-0.430999,0.236031,-0.366575,-0.129853,0.356544,0.546719,0.917142,-0.933454,-0.781509,-1.402612,-2.191672,-1.775849,-0.879655,-0.387477,1.135681,1.027611,-0.137733,0.592692,0.338743,1.479282,-0.038321,0.618166,-0.635698,-1.464099,-1.598247,-0.738891,-0.326082,0.413491,-1.060289,-0.932003,0.998490,0.251918,-0.162404,0.068750,-0.258064,-1.001732,-1.156170,-1.253489,-1.393156,-0.310557,-1.439316,-1.411654,-0.402558,-0.777657,-0.974521,-1.081225,-0.015377,0.664495,-1.025742,-1.794980,-1.595437,-1.679015,-2.110385,-1.405907,-1.248480,-0.033270,-0.700118,-0.961059,-0.264465,-0.323735,-0.590797,0.415207,0.009983,-0.599283,0.055758,-1.404773,-2.039097,-0.830253,-1.907388,-1.712134,-0.456634,-0.703956,-0.253083,-0.069556,-0.090279,-1.578097,-1.507713,-1.687949,-0.731100,-1.145928,-0.140614,-1.422191,0.102063,0.618377,-0.809821,0.668791,-0.822369,-0.357176,0.920469,0.307547,-0.043546,-0.396133,-0.882092,-0.774258,-0.230610,-1.375191,-2.481796,-1.944009,-0.938240,-1.224295,-0.489893,-1.062698,-1.047301,0.030830,-2.549176,-2.462089,-0.706636,-1.595833,-0.370020,-1.681899,-1.840397,0.366989,-0.278110,-0.837195,-0.132397,-0.362934,0.543236,-0.244296,-0.342182,-1.052829,-1.489348,-1.461607,-1.440005,-1.123825,-1.168254,-0.792330,-1.423135,-0.556469,-1.095804,-1.169731,-3.166727,-0.860122,-1.910839,-0.717097,-1.194893,-0.716198,0.492604,-0.379911,-0.953078,-0.446318,-0.325826,-0.399064,0.136256,-0.230267,-0.317923,0.558853,-0.277409,-0.266123,-0.594373,-0.379543,-0.617048,-0.006759,0.119060,-0.002550,-0.393390,-1.780228,-1.073220,-1.211419,-0.819020,-1.134418,-1.952600,-1.306688,-0.402567,-1.441301,0.325360,-0.165444,-0.135467,0.280528,-0.056077,-0.315349,-0.844080,0.645376,0.941259,-0.614715,-0.981568,-1.098441,0.224620,0.621658,-0.560797,-0.329210,0.351765,0.254015,-0.513069,-0.276652,-0.220706,-0.817888,-0.955264,0.176431,-1.323813,-0.970112,0.306161,-1.053404,-0.510058,0.398902,-0.796173,0.118518,0.588939,-0.243093,-0.984621,0.775944,-0.211465,0.504406,0.709834,0.512763,0.242095,-0.779368,-0.448390,-0.071960,-0.474776,1.172214,-0.672024,1.418262,-0.232976,-0.538440,0.215570,0.673842,-2.329488,-0.004054,-0.202079,0.074902,0.809413,0.902029,-0.496159,0.772622,0.075721,-0.355558,0.780510,-0.241770,-0.331983,-0.249342,0.840928,0.085364,0.683325,-0.322485,0.018969,0.006539,0.383038,0.016919,-1.385316,-1.682917,-1.300185,-0.280710,-1.100636,-0.360979,-0.697060,-0.567768,-0.129457,0.839850,0.009525,0.907651,-0.637595,0.419044,-0.397296,0.168787,0.110980,-0.327153,-0.796904,0.654284,0.604256,-0.530790,0.369084,-0.174118,0.377770,-0.223621,-0.856519,-0.112287,-0.526376,-1.007601,-0.567183,-0.498726,-1.903175,0.045481,-0.240850,1.094208,-0.486408,0.142474,-0.605078,0.311706,0.120800,0.928950,-0.673654,-0.332871,-0.346442,-0.157236,0.938281,-0.692251,-0.916698,-0.622142,0.879610,-0.581310,0.442042,-0.435422,-0.644026,-0.128676,-0.398043,0.507780,-0.186824,-0.476133,0.438364,-0.444236,0.282952,-0.272661,0.630994,0.818465,0.776804,0.581817,0.859755,0.416807,-0.329686,0.862919,0.414594,-0.309334,0.083014,0.454376,0.322072,-0.360670,0.549704,-0.246842,0.546180,-0.122595,-0.980153,0.389579,-0.046352,0.770217,0.019573,-0.302190,0.807212,-0.934862,-0.929709,-0.346785,-0.854098,-0.434827,0.611540,-0.141580,-0.424987,0.202700,-0.213167,-0.438879,-0.418270
0.114191,-0.944842,-0.186717,0.019450,-0.234919,0.488478,0.356045,0.721259,-0.555479,0.451452,-0.928845,0.508125,0.078567,-0.714256,0.490665,0.096500,-0.021624,0.416822,0.979545,0.344927,-0.709558,0.553455,-0.799734,-0.299066,0.622608,-0.177937,-0.456738,0.714502,0.622065,0.490291,-0.293430,-0.776777,0.736863,-0.629452,0.014306,-0.942638,0.914364,0.482108,-0.279532,0.334443,0.028967,-0.279559,0.558423,0.683826,-0.847603,-0.939983,-0.449171,0.018354,0.803357,-0.409180,0.818574,-0.702206,0.229819,0.290678,-0.324075,0.974856,-0.555095,-0.419045,-0.030866,-0.370814,-0.088054,0.958043,0.936388,-0.909492,0.034360,-1.091291,0.081367,-0.687752,0.316849,-0.047298,0.436223,0.464348,-0.134826,0.527962,0.978973,-0.017328,0.054228,0.063954,-0.335074,0.263391,-0.360353,0.920064,0.914601,-0.762088,-0.519810,0.281065,-0.540781,-0.439572,0.124699,0.920633,-0.909317,-0.422699,0.133646,-0.838920,-0.195635,-0.868064,-1.441991,-0.661468,-0.993026,-1.006536,-1.490741,-0.606329,0.086392,0.671766,1.457407,0.844458,0.940270,0.544593,0.282783,-0.105988,-0.830520,-0.333456,-0.598905,-0.546204,0.477632,0.093689,-0.415161,0.833663,-0.700262,-0.368838,-0.689324,-1.144402,-0.108356,-0.857462,-0.327110,-0.376826,-0.941307,-0.097341,-1.163515,-1.367230,0.309580,-0.453817,-0.412134,0.212761,0.974120,0.184194,-0.826535,0.660002,0.224684,-0.438728,0.971911,0.360721,-0.423830,-0.856652,-0.597012,1.360969,-0.361171,0.375464,-1.154317,-2.294502,-0.122464,-1.263462,0.523464,-0.994695,-0.492509,0.489273,0.029436,-1.378914,1.176016,-1.069102,-0.146062,-1.220170,-0.033398,0.478106,-0.374589,0.753605,0.098932,-0.833104,-0.846241,0.395287,0.218464,-0.781241,-0.335607,0.782107,-0.448833,-0.715470,-1.278924,-0.671338,-1.199451,-0.148858,-1.524293,0.197216,-0.113835,-1.378948,-0.167802,-0.165451,0.201159,-0.408667,-0.606157,-0.802592,0.323409,0.057120,0.720976,1.118078,0.040780,1.042539,0.171164,-0.845162,-0.496712,0.126422,-0.186906,0.340569,-0.985119,-0.962757,-1.984672,-1.543462,-1.550384,-0.088428,-0.049567,0.033131,0.168081,-0.351054,-0.254850,1.865666,1.116542,0.403948,0.032050,-0.325077,-0.393679,-0.066373,0.305220,-0.774731,0.004295,0.580929,-0.322669,-0.270492,-0.212670,-0.834011,0.513579,-0.504470,-0.900010,-1.123401,-0.727453,-0.652595,-1.056750,-0.629841,-0.623225,-1.723251,0.700245,1.378071,1.397068,0.091743,0.172851,-0.243350,0.556970,-0.724925,-0.821861,0.255681,-0.580953,0.521228,-0.249354,-0.149188,-0.421058,0.890449,-0.256579,0.341705,0.408814,-0.426274,-0.211963,-0.941325,0.593491,0.533553,-0.561873,-0.700608,-1.392138,0.397339,0.189240,0.190548,-0.261831,-0.946927,-1.150182,-0.304869,-1.152443,-0.994608,-0.976849,-0.339468,0.640675,0.755142,-0.460134,-0.781324,-0.614880,-0.249794,0.531580,-1.324584,-0.462511,-0.550773,-0.729994,-1.051153,0.767329,-1.088367,-2.644469,-2.209497,0.341657,-0.207784,1.924048,1.440016,-0.164896,-1.528590,-0.744234,-1.062112,-0.537568,0.062658,-1.268691,-1.074884,0.124706,-0.113809,-0.557384,-0.869423,0.527071,0.303258,0.521877,-1.382233,-1.137537,-2.047451,-1.186255,-0.673960,-0.310309,-2.277424,-1.345765,-0.007061,2.599040,3.359913,2.124742,1.923255,1.172811,0.348523,-0.673648,-0.603743,-0.008711,-0.494236,-0.936875,-0.292700,0.260767,-0.838776,0.644324,0.314472,-0.807803,-0.370598,-0.085162,-1.051898,-0.819666,-0.303461,-0.526888,0.188907,0.468952,-0.476844,-0.594551,1.586004,3.038448,2.184164,0.871593,-0.233598,-0.212309,-0.552805,0.096280,-1.893801,-1.470228,-1.044858,-1.412520,-0.709226,-0.906698,-0.172206,0.633909,-0.074831,0.042559,0.576299,-0.673052,0.446473,-0.897336,-0.962993,-1.722401,-0.498286,-0.956875,-0.439764,1.444527,2.517362,1.885882,-0.770001,-0.265286,-0.416573,-0.279560,1.106057,0.604398,0.205580,-1.481494,-1.163232,-2.033799,-1.796625,0.019969,0.029349,-0.702762,-0.769020,0.674548,0.829331,0.628792,0.838557,-1.199014,-0.135653,-1.847096,-0.621937,-0.924400,0.030782,1.316083,1.394311,0.568498,-0.267679,-1.351792,-0.338590,-0.506807,-0.357421,0.143410,-0.425401,0.458242,0.269049,-0.284708,-1.773323,-0.094297,0.487545,-0.949262,-0.405110,-0.151523,0.177058,-0.948152,-1.278694,0.103386,-1.051731,-2.108125,-2.693638,-1.670390,-1.203453,-1.078794,-0.207938,0.969264,-0.442807,-0.911543,-1.256330,0.641368,0.350743,-1.003756,0.226531,0.317888,0.500034,-0.627665,-1.240641,-1.216328,-0.359688,0.518611,0.635609,-0.670402,0.870947,0.761452,0.794936,-0.577660,-1.185413,-0.988383,-2.459962,-1.610619,-3.630183,-1.513875,-0.104079,-0.610982,-0.409068,0.107753,-1.751267,-0.698399,0.990033,1.098332,0.637325,-0.234244,-0.480322,-0.087170,-0.775131,-1.202520,-1.068529,-0.182102,0.237272,-0.435566,0.883440,-0.597249,0.070963,-0.120747,-0.631609,-0.789544,-1.189124,-2.306979,-2.803668,-1.270369,-1.952718,-0.476795,0.506537,0.550986,-0.407017,-0.355625,-1.075857,0.169776,-0.033892,-1.318493,-0.296010,-0.491954,-1.699932,-0.367286,-1.594097,0.775935,-0.215723,-0.439672,0.529591,0.700746,0.034009,1.240268,1.779750,1.656465,-0.610782,-1.215218,-1.910824,-0.410772,-1.369212,-1.775713,0.147288,2.116010,0.889619,-0.103767,0.848536,1.571230,-0.109365,-1.638495,-0.645132,-0.662238,-0.774050,-1.274736,-0.809770,-0.252884,0.969663,-0.532808,0.243291,-0.386870,0.597239,0.616765,1.286387,2.198640,-0.623549,1.136115,-0.792676,-0.761308,-0.340027,-0.863653,0.985941,1.609439,0.573158,0.531022,1.086093,-0.424246,-0.761036,-0.736767,-0.621582,-1.208146,-1.182884,-0.366024,0.203419,0.176241,0.644139,0.736154,-0.761781,0.333374,1.424580,0.839161,0.208219,2.115808,0.134724,1.502030,0.887968,-0.665052,-0.253641,0.044809,1.149382,1.204723,0.439240,1.545001,-0.079495,0.871217,0.663354,-0.707335,-0.198956,-1.070379,-0.779134,-0.156381,0.511747,0.445514,-0.687825,-0.388693,0.727320,-0.222244,1.071270,0.237928,-0.083536,0.376275,0.511086,0.549746,-0.280333,1.607080,-0.324713,0.934798,0.158657,0.162595,2.016327,0.592688,-0.297303,0.039302,-1.338551,0.277328,-1.244060,-1.600190,-1.337876,-1.348874,0.738614,0.204214,0.149009,-0.578202,0.196659,0.420937,-0.399036,-0.219876,0.006187,0.535276,-0.215832,0.626388,1.047327,0.797298,-1.626321,-0.619397,-0.495810,-1.730001,0.659717,0.125266,-0.484306,-0.912457,0.410314,-1.073262,-0.223248,-0.795422,-0.253418,-0.379316,-0.137158,-0.577930,-0.899711,0.096196,0.367400,-0.195163,-0.377013,0.148295,0.711938,0.164626,0.293775,0.472776,0.619266,0.518653,-0.158254,-0.094597,-0.230552,-2.291542,-0.975872,-2.300820,-0.630120,-1.282230,-2.169396,0.188815,-0.402922,-1.044128,0.680478,-0.845082,-0.254815,-0.153102,0.823458,0.751488,0.785895,-0.597869,-0.313461,0.500626,0.629767,-0.662801,-0.417373,-0.870224,-0.740026,-0.086640,-1.228008,-1.771004,-0.530135,-1.754634,-0.966829,0.391477,-0.664830,0.064599,0.065327,-1.010719,0.362167,0.279531,0.602122,-0.241770,0.315673,-0.394197,-0.964404,-0.523691,0.891818,0.660117,-0.774743,-0.190973,-0.673908,-0.859582,-0.200975,0.943606,0.087502,0.194984,-0.447360,-0.536063,-0.857232,-0.624472,-0.983471,0.161674,-0.021792,0.311366,-0.477058,0.048137,0.367383,0.265460,0.831207,0.535843,-0.722130,-0.765755,0.569043,0.187078,0.577425,0.455178,0.385559,-0.805235,-0.143326,-0.049818,-0.984684,0.079280,-0.347651,-0.011339,-1.474580,-0.207788,-0.350985,-1.036248,-0.021493,0.159156,1.051916,0.287856,0.130513,0.709963,0.387566,-0.196556,0.651711,-0.776417,-0.655897,-0.040615,0.202957,0.541675,-0.546863,0.541806,-0.008625,-0.651751,-0.373522,0.958826,-0.209370,0.166299,0.024573,0.016644,-0.801275,-1.017234,0.685458,-0.879766,-0.740898,0.803347,0.185805,-0.594309,0.492748,0.473679,0.383476,0.438069,0.221042,0.978056,-0.825451,0.142965,-0.893906
-0.009825,-0.123638,-0.235755,0.663198,0.827795,0.366784,-0.898102,0.783502,-0.380592,0.136971,0.772750,-0.954887,-0.821011,0.769560,-0.019891,0.754039,0.939625,0.666613,0.370752,0.620968,-0.629809,-0.846398,-0.431195,-0.276811,0.060021,-0.273209,-0.943724,0.442468,0.325343,-0.409005,-0.917741,-0.860569,0.921880,0.488669,-0.515248,-0.201945,-0.135811,-0.757703,-0.580060,0.563357,0.878886,-0.978173,-0.544960,0.591641,-0.353439,-0.773982,-0.627861,-1.014449,-0.169804,-0.924366,-0.062512,-0.939494,0.525975,-0.125822,-0.962349,0.896694,-0.393155,0.729086,0.787663,0.719632,0.235816,-0.345658,-0.706206,-0.812715,-0.827739,0.885836,-0.323314,0.622372,-1.010905,-0.651545,0.500456,-0.166568,-0.183851,0.456510,0.633644,-0.344221,-1.012126,0.089093,-0.214262,-0.530659,-0.080804,-0.178454,0.921194,-0.584031,0.826412,0.284008,-0.813764,0.220321,0.724600,-0.245583,0.626151,0.378600,-0.611335,-0.211282,-0.736942,-0.636423,-0.757294,-0.737862,-0.021234,-0.061279,0.687948,0.282337,-0.673130,-0.191418,-0.942358,-0.401482,-0.522466,0.112086,-0.995652,0.470342,-0.958844,0.084149,0.163745,-0.259623,0.358004,-0.329392,-0.448820,0.198152,-1.247061,-1.229392,-0.760952,-1.063278,-0.517081,0.438636,0.629209,0.654631,0.029161,-0.578752,0.954148,-0.876435,0.259399,-0.588091,0.310597,-0.921897,0.486592,-1.094923,0.276852,0.262744,0.676097,-0.160161,-0.934960,-0.584902,-0.216641,1.002157,0.308653,-0.798248,-0.258917,-0.385052,-0.649048,0.012780,0.625590,-0.632324,-0.094118,0.597929,1.583181,0.423423,0.442555,1.168527,0.140935,0.470581,0.894189,0.160802,-0.963470,-0.237551,-0.442458,-0.717316,-0.674240,0.039545,0.745039,0.880344,-0.380866,-0.926961,-0.032595,0.582620,0.267419,-0.587291,-0.093540,0.188715,-0.213419,-0.495115,0.545116,-0.367015,-0.692558,-0.279206,0.853758,-0.381697,-0.096171,-1.204516,-0.022344,0.081087,1.052603,1.543700,0.081689,-0.280443,0.575861,0.547317,0.914789,-0.937608,-0.900617,-0.895491,0.759917,-0.206652,-1.363541,0.310938,0.207426,0.123700,0.389708,-0.633803,-0.453138,0.988918,-0.174930,1.037252,0.499226,0.549655,0.181530,0.077944,-0.068827,0.097810,1.073761,-0.089856,0.149815,0.003047,-0.471795,0.533378,-0.364966,0.516981,1.016070,0.317232,1.218722,-0.160334,-0.755724,0.958977,0.382892,0.590410,1.048008,-0.464553,0.794004,1.324456,0.040043,1.875957,0.880109,1.737596,0.893614,-0.527353,-0.132598,0.620106,0.053802,0.277205,0.726472,0.316985,0.882798,-0.177005,0.365942,-0.069701,-0.573465,0.296352,0.873909,-0.538263,0.943158,-0.880065,0.694361,0.158256,1.079003,0.714539,-0.334407,1.394202,1.098615,1.611536,0.232071,0.197232,1.202161,0.857282,0.559537,-0.620801,0.627874,0.777593,0.373294,1.168161,-0.575891,0.275551,-0.355536,0.258244,-0.797695,-0.777865,0.803811,0.593790,-0.201442,-0.442425,-0.458864,-0.114414,0.725090,1.515645,1.062736,0.223646,0.538380,-0.255601,-0.736698,0.052505,0.058100,0.476897,-0.912334,-0.531278,0.353898,1.056575,0.956733,0.138451,0.646720,-0.086546,-0.855301,0.744323,0.367283,0.612418,-1.203725,0.399053,-0.308064,-0.309245,1.115614,0.221444,0.632145,-0.098771,0.291221,0.220827,-1.260650,-0.944911,-1.837286,-2.515914,-0.532610,-0.883677,-0.293187,-0.355845,0.329627,0.028307,0.408476,-0.067412,0.837211,-0.376490,0.567008,0.568349,0.036125,0.748743,0.605266,-0.681964,-0.303947,-1.237401,-0.980356,0.790948,-0.067135,-0.004658,0.924455,0.424851,-1.140358,-1.862061,-1.828143,-1.249024,-1.779456,-1.384463,-0.526049,-0.224906,-0.645257,0.739767,0.587800,0.845235,0.909995,-0.103709,-0.329974,0.432116,0.865141,1.040038,0.845407,0.676873,0.386396,-0.051685,-0.434020,-0.018700,0.804707,2.017601,1.217944,-0.014853,-0.862225,0.135143,-0.080542,-1.275932,0.065158,-2.146204,-0.969752,-0.986237,-0.867513,0.552620,1.313637,0.331682,0.217426,0.414603,-0.686031,-0.596582,-0.423917,0.213539,-0.383498,0.281632,0.992286,-0.628735,-0.804574,1.238410,1.357116,0.616692,0.894214,0.642154,1.140195,2.245573,1.503814,0.485396,0.851698,0.613952,-1.705559,-0.308865,-1.385675,-0.589211,0.270191,-0.901354,0.332834,-0.745200,0.119672,0.606859,-0.463082,-0.578485,0.821396,1.738005,-0.650535,0.632575,-0.091400,1.383369,2.095386,1.367931,1.329881,0.540300,0.543382,1.000632,1.033931,-0.073677,0.197737,-1.257298,-0.200225,-0.136920,0.443996,-0.341625,0.550143,-0.093201,0.785762,-0.752025,0.457311,0.913531,-0.166476,1.175469,0.677833,0.124909,-0.333323,-0.612127,0.140137,-0.017230,0.845563,1.912187,0.716177,0.811090,0.978191,1.583943,1.723951,1.564349,-0.339195,-0.570509,-1.855527,0.221827,0.803758,0.293173,-0.025319,0.122402,-0.639193,-0.132707,-0.190452,-0.549285,-0.836512,0.279480,0.363863,0.582085,0.392610,0.463320,-0.250385,-0.479554,0.134663,-0.282904,-0.281422,-0.469917,0.574376,0.931098,1.653364,1.135380,0.334482,-0.632580,0.008858,-0.062850,-0.305131,-0.254103,0.733305,0.663448,0.713034,0.326413,0.276031,-0.961928,0.364684,-0.596722,1.026852,-0.942940,-0.820704,-1.311545,-1.412606,-1.301711,-1.649683,-2.267301,-1.348484,0.160344,1.023002,0.574161,-0.078996,0.942296,-1.615768,-0.732809,-0.384591,-0.573410,1.198194,1.383960,0.732137,0.605397,0.709013,0.452367,0.973013,0.652627,0.117498,-0.059388,0.617448,-0.168406,-0.336284,0.362917,0.664369,-0.152652,-1.263698,-1.262826,-1.255773,1.117359,0.455760,1.598949,0.774986,-0.181195,-0.723498,-1.259597,-0.394239,-0.961590,1.097480,1.379771,0.552926,0.303557,-0.848985,0.832100,0.154710,0.421679,0.703134,-0.789065,1.001652,-0.085869,-0.496378,-0.647473,-0.904018,-0.395061,0.018644,-1.263941,0.515353,0.549174,0.755623,1.595757,-1.299802,-0.802828,-0.096159,-0.797260,-0.182859,-0.498457,0.240944,-0.550538,0.342813,0.039870,-0.634128,0.073204,-0.830062,0.967721,0.748504,-0.044390,-0.960083,-0.873733,0.749306,0.664938,-1.249603,-0.370659,-0.729806,0.313320,0.433963,1.017806,0.888187,1.079786,0.176352,0.157591,0.044549,-0.008004,0.121903,-1.456160,0.582146,-0.808240,1.031603,0.108129,0.387727,0.422839,-0.952673,-0.650039,0.218190,1.054712,0.177131,0.449764,1.619109,0.232928,0.244563,0.189776,0.063694,1.860795,1.012953,0.228307,0.623500,0.490843,1.285813,1.378646,-0.458967,-0.882460,0.504505,-1.311460,-0.083904,-0.721455,0.741969,0.387176,0.953023,0.529409,-0.050023,0.786270,-0.252052,-0.294846,0.150469,-0.933774,0.221770,-0.045060,-0.000769,-0.148562,-0.404086,1.435549,1.362507,1.260628,1.988453,0.820808,0.021348,-0.126281,-1.184177,-0.440094,-0.913175,0.075607,0.770816,-0.616128,0.212611,-0.071672,0.043071,-0.464948,-0.589926,-0.439992,-0.594186,0.798298,0.140070,-1.410989,-1.447730,-1.612471,0.370315,0.471552,0.614901,1.611366,2.156750,1.088214,1.221773,0.943452,-0.811577,-0.044588,0.453812,1.077494,-0.350929,-0.284455,-0.144078,-1.232897,-0.336466,-0.940093,0.148742,0.682558,-0.580052,0.724633,-0.038266,0.991986,-0.877267,-1.108267,-1.129784,-0.069608,-0.636200,-0.499670,0.101001,0.345572,0.732641,0.861180,0.643979,-0.048528,-0.799595,-0.413614,0.494207,-0.321923,-0.090534,-0.126998,-0.576746,-0.462819,-0.803003,-0.443439,0.735813,-0.180325,0.455802,-0.466044,-0.513050,0.393154,-0.317401,0.278378,0.646282,0.572655,-0.256710,0.972288,0.768317,-0.789199,0.299423,0.655243,-0.214272,0.135360,-0.863967,-0.262221,0.461346,-0.337636,0.615914,-0.883144,0.067424,0.085850,-0.393447,-0.782256,-0.133743,-0.220259,0.423030,-0.069687,0.010014,-0.701761,-0.267297,0.519405,-0.326469,0.268974,-0.055099,0.843702,0.348768,-0.246643,0.009796,-0.826693,-0.600214,0.893310,-0.473472,-0.016501,-0.590865,0.658586,0.441479,-1.022579,-0.207268,0.109830,-0.272143,-0.604522,-0.185122,-0.481484
-0.843256,-0.600452,0.571637,-0.425658,0.288201,-0.725090,-0.323078,0.207364,0.789933,-0.908665,0.004413,-0.806960,0.143352,0.867883,-0.537421,0.607013,-0.675414,0.085824,0.943413,0.797877,-0.935456,-0.083225,-0.889340,-0.566909,0.289341,-0.407572,-0.847522,0.872297,0.665182,-0.110886,-0.130836,0.957923,-0.999436,-0.704153,0.411512,0.143000,-0.349157,0.750736,-0.015805,0.779160,-0.373143,0.032850,-0.010578,-0.007318,-0.116674,-0.236088,-0.937177,0.590754,0.516208,0.696591,-0.682414,-0.887677,0.094654,0.394721,0.152229,0.794098,0.677633,0.345613,-0.499117,-0.857162,-0.663712,0.051764,-0.051551,-0.507218,0.475041,0.837306,-0.341292,-0.637753,-0.546180,-0.191844,0.061367,0.003431,1.094343,-0.159957,-0.877033,-0.281092,0.325302,0.489493,-0.865221,-0.267826,-0.927879,-0.382790,-0.759517,0.250660,-0.859023,0.640914,0.735262,-0.897646,-0.933203,0.542978,-0.323578,-0.422517,0.679952,-0.420499,-0.213376,-0.274602,1.013102,0.319209,0.216832,-0.268733,-0.174633,-0.251914,-0.813957,-0.672876,-0.081418,-0.479090,-0.433288,0.552201,-0.992610,-0.693179,-0.816094,-0.795682,0.239788,0.632486,-0.996731,0.839304,-0.745108,0.251740,-0.970360,0.315314,-0.189890,-0.878062,-0.480021,-0.490521,-1.603177,0.653905,-1.262718,-2.360289,-1.161448,-0.945647,0.066694,-1.089160,-0.578670,-0.004684,-1.177013,-0.629335,0.011512,0.194532,0.803341,-0.509777,-0.315813,0.548971,-0.292640,0.317149,0.691298,-0.342003,0.448249,-1.425788,-0.117437,-0.627882,0.198764,-1.376458,-0.321438,-1.390590,-1.201121,-0.213415,-0.676534,-0.919961,-0.196202,0.057045,-0.777802,0.430380,-0.875939,-0.412707,-0.529224,-1.038144,0.818399,-0.167811,0.469184,0.412208,-0.274340,0.735490,0.189406,-1.353477,-0.197966,-1.403168,-1.018061,-0.508584,-1.321788,-0.755186,-1.369405,-0.222024,-0.352464,0.296855,0.234183,0.271526,1.162848,-0.646209,-0.145356,-0.415590,-0.329021,-0.437545,-0.601591,0.120157,-0.026953,-0.374414,-0.792114,-0.869888,0.599559,-0.584280,0.113434,-0.128755,-0.325364,0.197746,-0.973937,-1.362792,-0.971002,1.576440,0.058873,-0.627909,-0.078739,0.695874,-0.641484,-0.958583,-0.045493,-1.025123,-1.856536,0.219894,0.271427,-1.156422,-0.396351,-0.443654,0.245699,0.997529,-0.880993,0.086156,-0.105735,-0.570987,-0.021194,-0.710366,0.253122,0.584822,-0.300686,-1.456576,-0.855912,0.278694,-0.156463,-2.038121,-0.501704,-0.488269,0.142758,0.181240,0.040272,-0.217482,-0.981055,-0.191937,-0.292958,-1.135787,-0.820706,-0.743010,0.497027,0.266714,0.083137,0.214731,0.900870,0.564017,-1.014859,0.868972,0.114239,-0.744719,-0.351093,-0.297256,-0.464808,0.207978,-0.048537,-0.483645,-0.755020,-0.211875,0.684039,0.183368,0.023314,-0.382452,0.033175,0.224472,-2.165092,-2.122215,0.568139,-0.684625,0.933787,-0.087474,0.657240,0.978926,-0.937340,-0.649548,-1.534743,-0.276138,1.363653,-0.895706,-1.200614,-0.380130,0.214982,-0.187501,-0.944510,-0.815020,-0.463682,-1.398100,-0.669272,-0.065225,0.407827,-0.662628,-0.892765,0.104514,-1.017164,-0.860903,-1.469513,-0.493026,0.090072,0.730248,-0.243377,0.227307,-0.523847,-0.435767,0.332882,0.905425,0.601388,-0.558051,-0.443398,0.600855,0.361307,-0.429605,-1.246291,-1.919419,-2.840092,-2.492067,-0.294709,-1.582908,-0.089891,1.031852,-1.239044,0.228042,-0.219484,-1.070214,-0.025856,-0.702632,0.485132,0.625612,0.744092,-0.713615,-0.145006,-0.235769,0.361073,0.255959,0.629525,0.629617,0.340329,0.201843,-1.577342,-1.430612,-1.795465,-1.719423,-2.229693,-2.129915,-0.840396,-0.643172,-1.489225,0.365643,-0.823977,1.379399,1.168073,-0.186642,0.148502,-0.303500,-0.110212,-0.751129,-0.171228,0.499856,-0.374053,-0.787197,-0.648758,1.034502,0.703321,0.335784,0.128845,0.198196,-0.047354,-1.010261,0.004376,0.196291,-1.525075,-2.124410,-1.731268,-0.725998,-1.289385,0.092579,0.032821,0.940570,1.474366,0.239248,0.097769,0.939605,-0.350847,-0.032174,-0.331570,-0.737139,-0.002703,0.360448,-0.511871,0.498762,1.797648,1.288490,1.839709,0.982214,1.231978,0.905495,-1.197607,-1.886348,-2.069629,-1.492460,0.071984,-1.153825,0.333620,-1.073198,0.708211,0.310784,1.428315,1.508403,0.530057,-0.599222,0.507247,0.465534,-0.124846,-0.255235,-0.409265,-0.331440,0.337783,0.926879,1.399479,2.645713,2.260868,2.645600,1.908648,2.156269,-0.332489,-1.778775,-1.281543,-1.442833,-0.521686,-0.414267,-0.202822,1.367926,0.660954,-0.944633,-0.944483,0.003679,1.008041,0.769925,0.556060,0.349859,0.050803,0.192396,0.375691,-0.589836,-0.028163,-0.083614,1.536569,1.582792,1.463211,0.287152,2.401536,1.546084,0.617391,-0.191164,-0.635984,0.572431,0.970154,0.774243,0.379184,-0.349794,-0.841710,0.925484,-0.933438,0.278568,0.695332,1.600721,-0.529690,0.663708,-0.220112,0.052027,-0.199297,0.143524,0.492629,0.884139,0.193033,0.911977,1.894965,1.344007,1.836419,2.404950,0.590338,-0.012825,1.183008,0.510928,-0.173780,0.643220,0.749769,0.891991,0.772030,0.112937,-1.406031,-0.274298,1.622671,0.473924,0.521433,-0.036521,0.654769,-0.865178,-0.656777,-0.247994,0.141009,0.210870,-0.872346,0.481602,1.163060,0.060346,1.682357,2.454955,0.789541,1.326328,-0.237843,1.011834,0.352417,-0.373548,1.097714,0.125953,0.490565,-0.410310,0.874231,0.100860,0.252143,0.258219,-0.610646,0.873230,0.036656,-0.708138,0.205762,-0.274051,0.669097,-0.363206,-0.542543,0.105689,0.561911,-0.504295,0.619952,1.874821,0.731802,0.494929,0.635692,0.391568,0.171355,0.655093,0.331329,-0.382298,1.251737,0.297843,0.665920,1.163323,0.691525,1.204560,-0.897822,0.632585,0.166237,0.319457,0.597931,-0.746874,-0.410304,-0.293240,-0.152513,0.333834,-0.312109,0.415039,1.788729,1.775636,0.151143,0.406510,0.163800,0.510942,0.920189,1.285428,-0.045497,1.295741,-0.498434,0.053437,0.170266,0.830627,-0.252665,0.219003,0.380584,-0.116141,0.329974,0.805389,0.593264,1.068681,1.082904,0.362222,-1.219687,-0.962886,-0.248177,0.825403,0.637762,0.457323,-0.176136,-0.617899,-0.231907,0.438468,2.039120,-0.068295,0.164728,0.921221,0.313672,0.602178,0.779823,1.698033,0.613406,0.099954,-0.139271,-0.786312,-0.271990,0.091216,-0.267278,-0.602805,-0.457387,-0.360245,0.703129,0.805230,0.176602,1.298495,0.744890,1.639624,0.839272,0.923963,0.370229,-0.007714,1.067799,-0.052019,-0.080445,0.888380,-0.008264,0.818513,1.215917,1.644767,1.214036,-0.553453,0.549756,0.393326,0.221770,-0.690808,-0.416074,0.859107,-0.723488,-0.571670,0.152968,0.293923,0.352954,0.861484,0.390951,-0.195610,0.604800,-0.889103,-0.793135,-0.437376,0.466756,-1.565137,-0.604446,0.681728,0.934081,0.945608,1.118046,0.715097,-0.599515,0.112703,0.813201,0.305640,0.715176,-0.834150,0.167590,-0.333262,-0.658012,-0.728154,-1.894413,-1.492530,0.437273,-0.714303,-2.317757,-0.202213,-0.697878,-0.739644,-0.415977,-1.557119,-1.433452,-2.207147,-0.341807,0.097694,-0.092674,-0.294109,-0.578331,1.159162,-0.229368,0.812625,-0.914607,0.862445,-0.093358,-0.852105,-0.541873,-0.356789,-0.931302,-0.890568,0.031701,-0.843100,-0.344467,-2.275646,-2.678375,-2.703818,-1.388608,-1.752275,-1.395094,-2.660865,-2.348528,-1.909893,-0.769895,-0.061784,-0.336030,-0.067924,0.725741,-0.565865,-0.274392,0.279554,0.784470,0.339665,0.328688,0.527937,-0.608231,-0.276143,-0.042987,-0.498666,0.574885,0.668238,0.258523,0.352319,-1.084288,-0.391963,0.428504,0.611791,-0.220470,-0.296233,-0.001116,0.072861,-0.441624,-1.182384,-0.666113,-0.191887,-1.216913,0.787176,-0.846849,0.633521,0.795630,0.098456,0.602495,0.476940,0.889938,0.471921,0.307255,0.214701,0.601572,0.351849,0.034176,-0.878843,-0.038355,-0.096324,-0.215748,0.737716,0.654275,-0.828391,-1.013088,-0.825845,0.620771,0.012946,0.544948,-0.249920,-0.711787,-0.351398,0.611519,0.262872,-0.803235,-0.369369
-0.749948,0.674530,-0.663909,0.290694,-0.738200,-0.901020,0.442550,0.499014,-0.766973,0.873196,-0.234741,-0.763003,-0.943261,1.004251,0.184787,0.619955,0.658844,0.651958,-0.936882,-0.897608,-0.798954,-0.849944,-0.968853,0.990539,-0.702498,-0.788023,-0.632735,0.331183,-0.301556,0.300605,-0.133847,-0.171996,-0.012672,-0.397117,0.903903,-0.365908,0.224271,-0.041593,1.000884,0.311857,-0.561245,0.613469,0.227342,1.376356,0.690439,-0.395743,-0.269668,0.822236,0.826916,0.417062,-0.779413,0.242853,0.067302,-0.820275,0.267858,-0.910541,0.619561,-0.926789,0.904573,0.970294,-0.109861,0.422975,0.674457,0.360373,-0.559350,-0.287732,1.213384,0.003344,1.175546,0.562569,0.894564,0.904824,-0.498141,0.481697,0.602083,0.734298,0.651095,-0.485334,0.590173,0.120125,-0.456536,0.946817,0.841859,-0.269867,-0.744960,0.401247,0.870395,0.263909,-0.157172,-0.075593,0.715408,0.929969,-0.242292,0.788005,-0.937087,-0.314700,-1.120451,0.624310,0.387680,-0.162835,1.287888,0.349700,-0.076266,-0.221094,0.153810,-0.237170,0.513221,0.944875,-0.561848,-0.965281,-0.025450,0.974168,0.902854,-0.797448,-0.733748,0.663212,-0.180796,-0.522716,-0.591302,0.665834,0.774203,0.396063,0.734234,-0.262014,-0.825977,-0.404447,1.419997,1.631601,2.210777,1.690998,-0.951206,0.190961,-1.168662,-0.264315,1.174883,1.097310,-0.342907,0.406283,0.422314,0.784628,-0.777410,0.064120,0.325564,0.784782,-0.032057,-0.641729,0.753146,-0.217628,-0.276839,0.167160,-0.082984,-1.142314,-1.024066,-0.479710,1.267739,-0.120679,-0.373521,0.169900,-1.668127,0.040148,0.213867,0.048401,-0.745633,1.058999,-0.558293,0.366457,-0.052774,0.424772,0.413968,0.054445,-0.440593,0.882387,0.211296,-0.495992,-0.634110,-0.490786,-0.346564,-0.194328,-0.287688,-1.285378,-0.738984,-0.161882,-0.098057,0.072999,-0.160988,-2.102121,-1.725629,-1.875243,-1.042877,-0.353899,0.185402,-0.786598,-0.577871,0.315267,-0.221411,-0.972399,0.765642,0.250430,-0.948309,-0.728559,-0.350826,-0.274220,-1.445031,-0.891496,-0.357189,1.182166,1.631728,-0.361709,0.323390,-0.117084,-0.912225,-0.722934,-2.230691,-1.331778,-1.132966,-0.480945,-1.373442,-1.447302,0.044548,0.641810,-0.505790,-0.497406,-0.123571,0.145846,-0.999420,0.000230,-0.485238,0.920595,0.375262,0.421579,-0.341036,-0.038199,-0.678443,0.318382,1.383324,0.168737,-0.059346,0.111603,-2.230181,-0.759799,-2.044626,-1.712720,-1.149895,-1.296474,-0.520355,-1.640151,-0.237948,1.087595,-0.517726,0.430456,-0.972133,-0.877338,-0.357107,-0.803899,0.550238,0.897393,-0.357905,0.145409,-0.683492,1.487271,-0.955929,0.400885,0.561022,0.189359,0.997905,-0.184833,-0.264447,-1.052844,-1.178641,-2.237527,-2.016472,-1.311778,0.423517,0.332998,-0.006169,0.344429,-0.405316,-0.501634,-0.602599,0.395834,-0.749300,0.601715,0.483285,-0.012214,0.440174,0.172011,0.225835,-0.012465,0.652639,-0.067783,0.415637,1.710782,0.306622,0.242085,-0.695921,1.037814,-0.410435,0.142847,-0.405153,-0.449578,0.651642,0.819883,-0.869868,1.002223,-0.684311,-0.304541,0.030835,0.914030,-0.540287,0.599066,0.190135,1.231707,-0.601602,-0.572286,0.933051,-0.142584,1.108883,1.133784,1.124655,2.402219,-1.225466,-1.683820,0.212702,0.487453,1.381275,-0.606354,-0.280915,-0.476049,0.074931,-0.152305,-0.069887,0.242217,0.372575,-0.432802,-1.060493,-0.811847,0.485999,-0.547927,-0.814680,0.269565,-0.186726,-1.292429,0.988275,0.432334,0.005520,2.475619,2.073034,0.747939,-1.755230,-1.181165,0.959036,0.152025,-0.482145,0.027018,0.753411,0.045613,-0.659522,-0.680652,1.377155,1.029751,-0.406390,0.914076,-0.889967,0.239169,-0.465509,0.987088,0.265528,0.918006,-0.567074,-0.133163,0.707394,1.197752,1.225287,2.257453,1.248043,-2.028656,-2.148906,-2.678622,0.828934,-1.020558,-1.286838,-1.879026,0.781200,0.402406,0.084089,0.154478,1.837704,1.495401,0.175873,-0.587885,0.599368,0.461916,0.224102,-0.628417,0.230394,0.841476,-0.216156,0.891768,0.705689,1.478693,1.427823,0.591106,-0.026683,-2.621726,-3.371214,-1.597871,0.924247,-0.150800,-1.583843,-0.680131,-0.648777,0.228978,0.266049,0.179668,2.818360,3.194197,1.253415,0.687101,0.206527,0.005110,0.289562,-0.459855,0.075723,-0.060481,1.128634,0.489639,-0.271752,1.429284,0.333713,1.131683,-1.272458,-1.258719,-3.356094,-1.551495,1.474775,-0.206186,-1.171200,-1.235640,-0.406404,-0.944143,-0.488097,0.643041,0.705615,0.887242,-0.182568,0.180350,0.441126,0.233220,0.575110,0.045183,-0.047224,-0.720402,-0.492704,0.911956,0.900848,0.131781,0.363669,1.189630,-0.140971,-0.432932,-2.889184,-1.882332,1.249924,1.201829,-0.964739,-2.243988,-0.518805,-0.372638,0.120509,1.030144,1.178549,1.083766,0.288295,-0.579013,-0.958827,-1.049744,0.816020,0.113851,1.013698,0.216608,0.368965,1.607106,0.262643,0.331957,1.035528,0.352357,0.876614,-0.585199,-1.300516,-2.891134,0.697446,-0.492636,-0.351584,-1.801908,-2.119794,-0.896543,-0.367519,0.163409,1.195989,1.175176,-0.458949,-0.161501,-0.896476,-0.108603,0.014538,0.606673,0.309792,0.204474,-0.976563,-0.758459,-0.391968,-0.084485,0.513281,0.873607,-0.493835,-0.901895,-2.583498,-0.741147,0.957388,1.202772,1.091414,0.557768,0.337790,0.656230,1.110261,0.180494,0.489182,-0.250495,-0.487579,-0.544541,-0.789371,0.649056,0.035792,-0.767852,-0.689312,0.549078,0.034567,-0.077783,0.211689,-0.431028,0.639750,-0.275289,-0.217380,-0.522484,-1.591469,0.051631,1.394637,-0.465382,-0.032469,-0.465076,-0.068272,1.123811,1.128609,-0.455601,0.483747,0.069652,0.910999,0.415692,0.273014,-0.750358,-0.003838,0.961523,-0.817565,0.681758,-0.234471,-0.311436,-0.648121,-1.039583,-0.293710,-0.177047,0.552717,-0.668169,-0.479784,0.240625,-0.332328,0.902408,1.154025,1.008036,1.477489,1.623285,0.774797,0.052416,-0.404776,-0.910650,0.740924,-0.924111,-0.410194,0.243542,-0.335626,0.598729,0.302770,-0.826303,-0.830054,-1.442618,-1.073556,-0.781368,0.420446,-0.023205,0.329571,-0.443783,-0.156964,0.964535,1.527969,1.105895,0.982375,0.927119,0.718420,0.239357,0.762010,-0.700604,-0.049130,-1.326215,-0.356165,0.866903,0.207326,-0.012536,0.359213,-0.974263,0.094777,0.894696,0.304250,0.059318,-1.621359,-1.195350,-0.811272,-0.627115,-0.291651,-0.304699,-0.427415,-0.388746,-0.192348,2.331118,0.372416,1.594174,0.341630,0.021680,-1.665650,-1.534806,-1.786146,-1.133034,0.394419,0.483156,0.448779,0.842578,0.597549,0.721869,0.871933,-0.152535,-0.676491,0.478362,0.735534,0.008458,-0.191470,-0.334970,0.038581,-0.327006,-0.030380,1.031442,0.672247,-0.805619,-1.139881,-0.004769,0.949049,-0.250843,0.465496,-0.224432,-1.084589,-0.814415,-0.841811,0.491444,-0.585801,0.760274,-0.140812,-0.884368,-0.569920,0.346273,-0.674999,0.085273,0.664163,-0.646648,0.246859,-0.675102,0.390256,-0.618996,-0.028969,-0.566410,-1.081470,-1.212347,-1.100126,-1.081959,-1.128330,-0.483583,-0.669499,-0.933886,-0.858036,0.334933,0.385758,-0.793208,0.493049,0.313218,0.550967,0.852955,0.376654,0.592799,-0.354280,0.470195,0.601704,-0.071634,0.452402,-1.044012,-1.060197,0.433356,1.015607,0.995473,0.673500,-0.542299,-0.800402,-0.227604,0.599960,-0.473473,0.176916,-0.128196,-0.550179,0.638710,-0.466874,-0.899650,-0.381187,-0.978993,-0.490967,0.961369,-0.636387,-0.753217,0.212340,0.726407,0.255480,-0.986094,0.710177,-0.943885,0.888804,-0.679852,-0.559173,0.297009,0.440016,-0.114248,0.131506,0.491807,0.510950,-0.466789,1.078450,0.193487,0.174740,-0.096524,-0.075131,-0.590891,0.154265,-0.887605,0.407202,0.672965,-0.488948,-0.604911,0.013188,0.501680,0.266693,0.563832,-0.739841,0.165955,-0.837012,-0.769817,0.576333,0.572798,0.799408,0.379007,-0.762668,-0.986956,0.679494,-0.554412,-0.698089,-0.210529,0.714160,0.085792,0.346188,-0.521439,0.662422,0.730300
0.544817,-0.918682,0.761387,0.523666,0.816807,0.157121,-0.380423,0.001978,0.971746,-0.771011,-0.592035,0.529660,-0.810775,-0.383273,0.682893,-0.358722,0.111852,-0.667753,0.892623,-0.365284,0.345701,-0.956559,0.075968,-0.142533,-0.561553,0.391917,-0.062872,0.229099,-0.732805,0.073578,-0.779196,-0.929793,0.578467,0.784927,-0.313598,-0.032076,-0.068203,0.178436,0.198245,0.345124,-0.857093,0.412273,-0.568984,0.336343,-0.342256,0.203006,-0.663207,-0.341598,0.974362,0.106934,-0.453950,-0.676483,0.409038,-0.159966,-0.984541,0.868743,0.043428,-0.718961,0.854534,0.108552,0.430408,0.184632,-0.909911,-0.538545,-0.615769,0.940433,-0.120717,-0.371170,0.971582,0.728112,-0.796233,-0.097379,-0.569146,-0.161277,0.140923,0.219005,0.805551,-0.434032,-0.954921,0.537187,-0.813070,-0.135353,0.707843,0.890600,-0.244256,0.551164,-0.931041,-0.955222,0.134449,0.006389,-0.466041,-0.813205,0.750092,-0.594834,-0.661604,-0.755040,0.143940,0.263256,0.072224,0.911760,0.779137,-0.356554,-0.210482,0.249463,-0.521851,-0.268395,0.796535,-0.721595,0.139176,0.039756,-0.261231,-0.721209,-0.480457,0.649015,-0.394094,0.007879,-0.074427,0.057802,-0.324132,-0.090353,0.035640,0.655665,0.157966,-0.227053,0.118697,-0.051350,0.774719,-0.615437,0.100879,0.014944,-0.000756,-0.316338,-0.295665,0.489367,-0.065463,0.792203,0.413447,0.960386,-0.941979,0.045628,-0.580101,-0.508793,-0.847382,-0.722489,-0.366800,-0.496240,1.093141,0.371908,-0.466744,-0.155117,-0.839277,-0.362506,-1.312864,-1.288672,0.816270,-0.106964,-0.667271,-0.972983,0.189518,0.001990,1.032838,0.633576,0.895466,-0.121479,-0.486247,0.692024,-0.419972,-0.753169,-0.696595,0.186083,0.382862,-0.496182,0.598956,0.716596,-0.255271,-0.641810,0.035430,0.002627,-0.046548,-0.235836,0.160133,-0.916393,-0.138981,0.059636,1.077563,0.456252,0.622692,0.150986,0.199406,-0.153022,0.005920,-0.229534,0.808977,0.780672,-0.321923,0.201690,-0.619321,-0.490756,-0.618406,0.147830,0.547125,0.295411,0.889960,0.674393,-0.595110,-0.261840,0.080494,-0.163803,0.124641,0.176116,0.340645,0.019591,0.596181,1.087358,0.921692,0.526304,-0.425958,0.833463,0.298940,-0.137937,0.078023,0.207683,-0.266323,0.162230,-0.241716,0.346325,0.618216,0.990987,-0.528384,-0.722057,0.681522,0.161877,-1.091666,0.782166,-0.575178,0.354154,1.321986,-0.157889,0.829483,1.569501,0.285200,0.550015,0.929357,0.750599,0.522774,-0.102730,0.460691,-0.512830,0.784522,0.539293,-0.358996,0.823800,0.000445,-0.036162,-0.824228,-0.869084,-0.534596,-1.204232,0.137225,-0.023390,-0.020985,0.234257,-0.268244,0.589669,1.433409,0.491101,0.183763,-0.756857,0.832872,0.641585,-0.412633,1.351217,-0.055594,-0.416717,-0.414663,0.127778,-0.467467,0.557451,-0.554232,0.414250,0.326987,0.511234,-0.378771,0.542244,0.593877,0.154305,0.085496,-0.800998,0.631429,1.475897,0.239764,0.611459,1.186067,1.133239,-0.563688,-0.943715,-0.746350,0.438387,0.001546,-0.334565,0.661936,1.140076,1.178085,0.030666,0.712758,0.949336,-0.886412,-0.798571,-0.650357,0.180815,0.606972,-0.582210,0.141989,-0.396736,-0.048688,-0.390882,-0.944829,0.588770,-0.324580,0.155729,1.341853,1.075060,0.403015,-0.288339,-0.259362,-0.569252,0.682947,0.658273,0.283186,0.159199,0.461646,1.239572,-0.318837,-0.009169,0.534714,0.263597,0.494511,0.076353,0.660947,-0.514850,-0.341278,-0.296010,-0.408313,-0.312776,-0.929313,-0.867697,-0.734417,-0.697558,1.122348,1.118991,0.673376,0.373065,-0.316965,0.789754,0.455593,-0.573717,-0.729591,-0.468124,0.438437,0.619695,0.416980,-0.444916,0.381752,0.779961,-0.629188,0.932456,0.705623,-0.466675,-0.642490,0.261602,0.420961,0.766925,0.264665,-0.146815,0.193097,0.481144,0.245970,0.770483,0.893392,0.658375,0.125229,-0.336196,0.087699,0.167791,0.379818,-0.017182,-0.603923,-0.263582,0.872959,-0.416928,0.209105,0.329547,-0.190886,-0.187105,0.234266,-0.489199,0.245882,0.148163,0.724063,0.565695,-0.628281,-0.029093,-0.199923,0.232207,-0.940084,-0.115888,0.042647,0.005825,0.982759,-0.653434,0.013761,0.469308,-0.678225,0.223496,0.431747,-0.266604,-0.677862,-0.693275,0.126595,-0.143535,0.731092,-0.192984,-0.729946,-0.071516,-0.072149,0.514423,-0.427576,0.825586,0.998372,-0.568838,0.194877,1.074914,0.439720,-0.872478,1.051724,0.949590,0.555044,-0.171217,-0.445261,0.135911,1.350488,-0.907880,0.262851,0.416985,-0.214450,0.787490,-0.254768,0.073522,0.536120,0.518125,0.935826,-0.880907,0.244697,0.555522,-0.721567,-0.538201,0.799644,1.258131,0.801843,-0.490044,0.532785,0.160694,0.853204,1.445497,0.544343,-0.456103,0.639568,0.466605,0.683068,-0.208814,-0.330806,0.384546,0.511547,0.107080,-0.958385,0.683052,-0.888773,0.880475,0.929124,0.291302,-0.691900,0.332460,-0.438670,0.167896,0.525780,-0.378337,-0.476614,0.764237,-0.615885,0.067325,0.555921,-0.167606,0.853568,1.432216,0.511782,0.223083,0.910435,0.743688,0.224422,0.531386,-0.952760,-0.837360,0.726569,0.513076,0.293135,-0.947229,-0.630893,-0.328056,0.379406,0.526660,-0.814742,0.439685,0.992253,0.992408,0.475704,0.556225,0.208528,0.381551,-0.200729,0.361019,0.656215,0.318476,-0.138961,0.603874,1.038958,-0.711950,1.100107,0.315453,0.773593,0.317993,-0.399047,0.639577,0.588250,-0.372358,0.620508,-0.647546,0.388258,0.702223,-0.871037,0.486374,0.614605,-0.718776,0.653204,0.128739,0.221053,-0.158108,0.320786,1.607811,1.322046,0.221012,0.172836,0.931819,0.917780,-0.276328,0.815707,0.818420,0.469490,0.594886,-0.569447,-0.292214,0.717003,0.620689,0.351401,-0.348909,0.678924,-0.257488,-0.552329,0.484712,-0.421121,-0.024779,0.902489,0.144327,0.426481,1.294528,1.245542,-0.375834,0.803316,0.862920,-0.172387,-0.308437,0.710261,0.910468,-0.435129,0.941000,0.679510,0.101582,0.115786,0.415566,0.229881,-0.785638,-0.881037,0.651646,-0.266615,-0.517798,0.152835,-0.050859,-0.301844,0.590141,0.268019,0.949888,0.188684,-0.304334,-0.277195,0.028927,0.528739,-1.248134,0.705208,0.009813,0.563320,0.010639,-0.767009,0.602028,0.605330,0.835472,0.775844,-0.949099,-0.681753,-0.535318,0.590257,-0.924135,-0.746665,-0.658946,-0.977512,0.694797,0.528033,0.533859,0.605565,0.171536,-0.333432,-0.967472,-1.127740,-0.718119,-1.392236,0.007490,-1.029443,-0.757390,0.058587,-1.042672,-0.087424,0.798582,-0.818295,-0.133766,0.641237,0.825227,0.341395,0.001700,0.125247,0.385645,-0.041020,0.603889,0.149856,0.600629,0.335778,0.759483,0.601580,-0.286759,-0.287881,0.046616,0.097943,-1.248074,0.306604,-0.479101,0.057356,0.608810,-0.908925,0.654581,-0.304305,-0.077986,0.581562,-0.328775,-0.687197,0.771259,0.747549,0.827848,-0.826960,-0.686794,0.195654,-0.787221,-0.469787,0.387429,0.426877,-0.662370,0.016138,-0.420545,-0.580487,0.484982,-0.730597,-0.026926,0.561870,-0.475412,-0.093548,-0.077297,0.075832,-1.007249,0.974958,0.228571,0.329620,0.747462,-0.849249,0.833412,-0.034809,-0.917561,0.254749,0.453088,0.098575,0.217261,0.301081,0.741041,0.002566,-0.735537,-0.003036,0.985196,0.476427,-0.070952,-0.728457,0.704998,-0.323661,-0.382097,0.167035,-0.264317,0.305821,0.375671,-0.335380,0.405943,-0.832386,0.813493,-0.683502,0.079543,0.065561,0.860271,0.538381,0.944221,0.964710,0.428527,-0.138341,-0.803598,-0.505314,0.354214,0.184992,-0.036851,-0.765890,-0.186762,0.131061,0.821103,-0.693132,0.259253,0.393376,0.813350,0.807954,0.077527,0.413296,0.462490,0.663431,0.658674,0.806456,-0.128245,-0.249145,-0.134800,-0.024752,-0.996763,0.468822,-0.689219,0.571116,-0.106337,-0.390955,-0.499915,0.796562,0.930215,-0.029786,0.865231,0.724180,0.496538,-0.771145,0.201265,0.615534,-0.173934,-0.542014,0.490485,0.850204,-0.617694,0.334337,0.549565,0.619659,0.713447
